svm_type c_svc
kernel_type rbf
gamma 3.05176e-05
nr_class 2
total_sv 1287
rho 0.347466
label 0 1
probA -2.04785
probB 0.119755
nr_sv 712 575
SV
0.7863300436460878 1:0 2:0 3:0 4:0 5:0 6:0 7:0 8:-100 9:0 10:0 11:100 12:0 13:0 14:0 15:0 16:0 17:0 18:0 19:0 20:0 21:20 22:0 23:20 24:0 25:20 26:0 27:20 28:40 29:0 30:0 31:0 32:20 33:0 34:0 35:40 36:80 37:20 38:40 39:0 40:40 41:50 42:51 
0.09536051988541129 1:0 2:-100 3:0 4:0 5:0 6:0 7:0 8:100 9:0 10:0 11:0 12:0 13:0 14:0 15:0 16:0 17:0 18:0 19:0 20:0 21:0 22:20 23:40 24:0 25:0 26:20 27:60 28:0 29:0 30:0 31:40 32:40 33:0 34:20 35:20 36:20 37:20 38:0 39:0 40:60 41:45 42:25 
2 1:-100 2:0 3:0 4:0 5:0 6:0 7:0 8:0 9:100 10:0 11:0 12:0 13:0 14:0 15:0 16:0 17:0 18:0 19:0 20:0 21:0 22:40 23:0 24:0 25:0 26:40 27:0 28:20 29:20 30:20 31:0 32:20 33:20 34:20 35:40 36:40 37:0 38:20 39:20 40:40 41:32 42:64 
2 1:-100 2:100 3:0 4:0 5:0 6:0 7:0 8:0 9:0 10:0 11:0 12:0 13:0 14:0 15:0 16:0 17:0 18:0 19:0 20:0 21:0 22:40 23:0 24:0 25:0 26:40 27:0 28:20 29:20 30:20 31:0 32:20 33:20 34:20 35:40 36:40 37:0 38:20 39:20 40:40 41:32 42:64 
2 1:-100 2:0 3:0 4:100 5:0 6:0 7:0 8:0 9:0 10:0 11:0 12:0 13:0 14:0 15:0 16:0 17:0 18:0 19:0 20:0 21:0 22:40 23:0 24:0 25:0 26:40 27:0 28:20 29:20 30:20 31:0 32:20 33:20 34:20 35:40 36:40 37:0 38:20 39:20 40:40 41:32 42:64 
0.07857767756605581 1:0 2:0 3:0 4:0 5:0 6:0 7:0 8:0 9:0 10:0 11:0 12:0 13:0 14:0 15:0 16:0 17:0 18:-100 19:100 20:0 21:60 22:40 23:20 24:0 25:0 26:20 27:0 28:20 29:20 30:20 31:20 32:0 33:0 34:0 35:0 36:60 37:20 38:40 39:0 40:20 41:45 42:46 
1.935641236771937 1:0 2:0 3:0 4:0 5:0 6:0 7:0 8:0 9:100 10:0 11:0 12:0 13:0 14:0 15:0 16:0 17:0 18:0 19:-100 20:0 21:0 22:20 23:60 24:0 25:20 26:0 27:20 28:60 29:40 30:0 31:0 32:20 33:0 34:0 35:0 36:0 37:40 38:20 39:0 40:60 41:50 42:44 
1.188844292393166 1:0 2:0 3:0 4:0 5:0 6:0 7:0 8:0 9:100 10:0 11:0 12:0 13:0 14:0 15:0 16:0 17:0 18:0 19:-100 20:0 21:0 22:20 23:60 24:0 25:20 26:0 27:20 28:60 29:40 30:0 31:0 32:20 33:0 34:0 35:0 36:0 37:40 38:20 39:0 40:60 41:50 42:44 
0.4684295004527054 1:0 2:0 3:0 4:0 5:0 6:0 7:0 8:0 9:0 10:0 11:0 12:0 13:0 14:0 15:0 16:0 17:0 18:-100 19:0 20:100 21:60 22:40 23:20 24:0 25:0 26:20 27:0 28:20 29:20 30:20 31:20 32:0 33:0 34:0 35:0 36:60 37:20 38:40 39:0 40:20 41:44 42:25 
0.02708907657201734 1:0 2:0 3:0 4:0 5:0 6:0 7:0 8:0 9:0 10:0 11:0 12:0 13:0 14:0 15:0 16:0 17:100 18:-100 19:0 20:0 21:60 22:40 23:20 24:0 25:0 26:20 27:0 28:20 29:20 30:20 31:20 32:0 33:0 34:0 35:0 36:60 37:20 38:40 39:0 40:20 41:44 42:25 
0.1270977755919946 1:0 2:0 3:0 4:0 5:0 6:0 7:-100 8:0 9:0 10:0 11:0 12:0 13:0 14:0 15:100 16:0 17:0 18:0 19:0 20:0 21:40 22:40 23:0 24:0 25:0 26:0 27:20 28:40 29:0 30:20 31:60 32:0 33:20 34:0 35:20 36:20 37:40 38:20 39:20 40:0 41:50 42:25 
1.991147509493912 1:0 2:0 3:0 4:0 5:0 6:0 7:0 8:0 9:0 10:0 11:0 12:0 13:0 14:-100 15:0 16:0 17:100 18:0 19:0 20:0 21:0 22:60 23:40 24:0 25:40 26:0 27:0 28:0 29:0 30:20 31:20 32:20 33:0 34:0 35:40 36:40 37:0 38:40 39:0 40:40 41:55 42:4 
0.1274173753311011 1:0 2:0 3:0 4:0 5:0 6:0 7:0 8:0 9:0 10:0 11:0 12:0 13:0 14:-100 15:0 16:0 17:100 18:0 19:0 20:0 21:0 22:60 23:40 24:0 25:40 26:0 27:0 28:0 29:0 30:20 31:20 32:20 33:0 34:0 35:40 36:40 37:0 38:40 39:0 40:40 41:55 42:4 
0.02486053177154152 1:0 2:0 3:0 4:0 5:0 6:0 7:-100 8:0 9:0 10:0 11:100 12:0 13:0 14:0 15:0 16:0 17:0 18:0 19:0 20:0 21:20 22:40 23:20 24:0 25:0 26:0 27:40 28:20 29:20 30:20 31:0 32:40 33:0 34:20 35:0 36:20 37:20 38:0 39:20 40:60 41:45 42:25 
1.894098150052766 1:0 2:0 3:0 4:0 5:0 6:0 7:0 8:0 9:0 10:0 11:0 12:0 13:0 14:0 15:0 16:-100 17:0 18:100 19:0 20:0 21:20 22:20 23:0 24:20 25:20 26:20 27:0 28:40 29:0 30:0 31:20 32:0 33:0 34:0 35:0 36:40 37:0 38:40 39:20 40:0 41:53 42:55 
1.259289299301988 1:0 2:0 3:0 4:0 5:0 6:0 7:-100 8:0 9:0 10:0 11:0 12:0 13:0 14:0 15:0 16:0 17:0 18:0 19:0 20:100 21:0 22:100 23:0 24:0 25:20 26:0 27:0 28:20 29:40 30:0 31:0 32:20 33:0 34:0 35:0 36:20 37:0 38:100 39:20 40:20 41:54 42:25 
1.998152111583877 1:0 2:0 3:0 4:0 5:0 6:0 7:0 8:0 9:0 10:0 11:0 12:0 13:0 14:0 15:0 16:-100 17:100 18:0 19:0 20:0 21:20 22:20 23:0 24:20 25:20 26:20 27:0 28:40 29:0 30:0 31:20 32:0 33:0 34:0 35:0 36:40 37:0 38:40 39:20 40:0 41:53 42:55 
0.879146845778876 1:0 2:0 3:0 4:0 5:0 6:0 7:0 8:0 9:0 10:0 11:0 12:0 13:0 14:0 15:0 16:-100 17:100 18:0 19:0 20:0 21:20 22:20 23:0 24:20 25:20 26:20 27:0 28:40 29:0 30:0 31:20 32:0 33:0 34:0 35:0 36:40 37:0 38:40 39:20 40:0 41:53 42:55 
2 1:0 2:0 3:0 4:0 5:0 6:0 7:0 8:0 9:-100 10:100 11:0 12:0 13:0 14:0 15:0 16:0 17:0 18:0 19:0 20:0 21:20 22:20 23:20 24:0 25:0 26:20 27:20 28:40 29:40 30:0 31:40 32:20 33:0 34:0 35:0 36:40 37:20 38:20 39:40 40:0 41:45 42:25 
1.990231777177132 1:0 2:0 3:0 4:0 5:0 6:0 7:0 8:0 9:0 10:0 11:0 12:-100 13:0 14:0 15:0 16:0 17:0 18:100 19:0 20:0 21:20 22:40 23:0 24:40 25:20 26:0 27:0 28:60 29:20 30:0 31:20 32:20 33:0 34:0 35:20 36:20 37:40 38:20 39:20 40:0 41:14 42:40 
1.319358234121836 1:0 2:0 3:0 4:0 5:0 6:0 7:0 8:0 9:0 10:0 11:0 12:-100 13:0 14:0 15:0 16:0 17:0 18:100 19:0 20:0 21:20 22:40 23:0 24:40 25:20 26:0 27:0 28:60 29:20 30:0 31:20 32:20 33:0 34:0 35:20 36:20 37:40 38:20 39:20 40:0 41:14 42:40 
2 1:0 2:0 3:0 4:0 5:0 6:0 7:0 8:0 9:0 10:0 11:0 12:-100 13:0 14:0 15:0 16:0 17:0 18:100 19:0 20:0 21:20 22:40 23:0 24:40 25:20 26:0 27:0 28:60 29:20 30:0 31:20 32:20 33:0 34:0 35:20 36:20 37:40 38:20 39:20 40:0 41:28 42:63 
2 1:0 2:0 3:0 4:0 5:0 6:0 7:0 8:0 9:0 10:0 11:0 12:-100 13:0 14:0 15:0 16:0 17:0 18:100 19:0 20:0 21:20 22:40 23:0 24:40 25:20 26:0 27:0 28:60 29:20 30:0 31:20 32:20 33:0 34:0 35:20 36:20 37:40 38:20 39:20 40:0 41:21 42:52 
0.2636751682207397 1:0 2:0 3:0 4:0 5:0 6:0 7:0 8:0 9:0 10:0 11:0 12:0 13:0 14:0 15:0 16:0 17:0 18:0 19:100 20:-100 21:60 22:0 23:0 24:0 25:20 26:0 27:20 28:20 29:20 30:40 31:20 32:0 33:0 34:20 35:0 36:0 37:0 38:0 39:20 40:0 41:42 42:25 
1.557004051751009 1:0 2:0 3:0 4:100 5:0 6:0 7:0 8:0 9:0 10:0 11:0 12:0 13:0 14:0 15:-100 16:0 17:0 18:0 19:0 20:0 21:0 22:20 23:20 24:0 25:0 26:20 27:20 28:60 29:20 30:20 31:20 32:20 33:0 34:0 35:20 36:40 37:0 38:40 39:20 40:20 41:31 42:25 
2 1:0 2:0 3:0 4:0 5:0 6:0 7:0 8:0 9:100 10:0 11:0 12:0 13:0 14:0 15:0 16:0 17:0 18:0 19:0 20:-100 21:60 22:0 23:0 24:0 25:20 26:0 27:20 28:20 29:20 30:40 31:20 32:0 33:0 34:20 35:0 36:0 37:0 38:0 39:20 40:0 41:42 42:25 
2 1:0 2:0 3:0 4:0 5:0 6:0 7:0 8:0 9:100 10:0 11:0 12:0 13:0 14:0 15:0 16:0 17:0 18:0 19:0 20:-100 21:60 22:0 23:0 24:0 25:20 26:0 27:20 28:20 29:20 30:40 31:20 32:0 33:0 34:20 35:0 36:0 37:0 38:0 39:20 40:0 41:8 42:25 
1.956991889309097 1:100 2:0 3:0 4:0 5:0 6:0 7:0 8:0 9:0 10:0 11:0 12:-100 13:0 14:0 15:0 16:0 17:0 18:0 19:0 20:0 21:20 22:20 23:20 24:0 25:20 26:20 27:20 28:20 29:20 30:0 31:0 32:60 33:0 34:0 35:40 36:20 37:0 38:0 39:20 40:20 41:21 42:53 
2 1:0 2:0 3:0 4:0 5:0 6:0 7:0 8:0 9:0 10:0 11:0 12:-100 13:0 14:0 15:100 16:0 17:0 18:0 19:0 20:0 21:20 22:20 23:20 24:0 25:20 26:20 27:20 28:20 29:20 30:0 31:0 32:60 33:0 34:0 35:40 36:20 37:0 38:0 39:20 40:20 41:17 42:46 
1.39124782200823 1:0 2:0 3:0 4:0 5:0 6:0 7:0 8:0 9:0 10:0 11:0 12:-100 13:0 14:0 15:100 16:0 17:0 18:0 19:0 20:0 21:20 22:20 23:20 24:0 25:20 26:20 27:20 28:20 29:20 30:0 31:0 32:60 33:0 34:0 35:40 36:20 37:0 38:0 39:20 40:20 41:14 42:42 
1.874636287149857 1:0 2:0 3:100 4:0 5:0 6:0 7:0 8:0 9:0 10:0 11:0 12:-100 13:0 14:0 15:0 16:0 17:0 18:0 19:0 20:0 21:20 22:20 23:20 24:0 25:20 26:20 27:20 28:20 29:20 30:0 31:0 32:60 33:0 34:0 35:40 36:20 37:0 38:0 39:20 40:20 41:21 42:53 
2 1:0 2:0 3:100 4:0 5:0 6:0 7:0 8:0 9:0 10:0 11:0 12:-100 13:0 14:0 15:0 16:0 17:0 18:0 19:0 20:0 21:20 22:20 23:20 24:0 25:20 26:20 27:20 28:20 29:20 30:0 31:0 32:60 33:0 34:0 35:40 36:20 37:0 38:0 39:20 40:20 41:42 42:64 
2 1:0 2:0 3:100 4:0 5:0 6:0 7:0 8:0 9:0 10:0 11:0 12:-100 13:0 14:0 15:0 16:0 17:0 18:0 19:0 20:0 21:20 22:20 23:20 24:0 25:20 26:20 27:20 28:20 29:20 30:0 31:0 32:60 33:0 34:0 35:40 36:20 37:0 38:0 39:20 40:20 41:28 42:62 
1.067152775226821 1:0 2:0 3:0 4:0 5:0 6:0 7:0 8:0 9:0 10:0 11:0 12:-100 13:0 14:0 15:0 16:0 17:0 18:0 19:0 20:100 21:20 22:20 23:20 24:0 25:20 26:20 27:20 28:20 29:20 30:0 31:0 32:60 33:0 34:0 35:40 36:20 37:0 38:0 39:20 40:20 41:14 42:42 
0.5582028818891314 1:0 2:0 3:0 4:0 5:0 6:0 7:0 8:0 9:0 10:0 11:0 12:-100 13:0 14:0 15:0 16:0 17:0 18:100 19:0 20:0 21:20 22:20 23:20 24:0 25:20 26:20 27:20 28:20 29:20 30:0 31:0 32:60 33:0 34:0 35:40 36:20 37:0 38:0 39:20 40:20 41:21 42:53 
1.56346924817389 1:0 2:0 3:0 4:0 5:100 6:0 7:0 8:0 9:0 10:0 11:0 12:-100 13:0 14:0 15:0 16:0 17:0 18:0 19:0 20:0 21:20 22:20 23:20 24:0 25:20 26:20 27:20 28:20 29:20 30:0 31:0 32:60 33:0 34:0 35:40 36:20 37:0 38:0 39:20 40:20 41:14 42:42 
1.105292036931625 1:-100 2:0 3:0 4:100 5:0 6:0 7:0 8:0 9:0 10:0 11:0 12:0 13:0 14:0 15:0 16:0 17:0 18:0 19:0 20:0 21:20 22:60 23:20 24:0 25:0 26:0 27:20 28:0 29:40 30:20 31:20 32:0 33:0 34:0 35:60 36:40 37:0 38:0 39:20 40:40 41:38 42:65 
0.907210825183935 1:0 2:0 3:0 4:0 5:0 6:0 7:0 8:0 9:0 10:0 11:0 12:0 13:0 14:0 15:0 16:0 17:0 18:0 19:100 20:-100 21:20 22:20 23:40 24:0 25:20 26:0 27:0 28:80 29:20 30:20 31:40 32:0 33:0 34:0 35:20 36:40 37:0 38:20 39:20 40:0 41:63 42:25 
0.7514962819937021 1:0 2:0 3:0 4:0 5:0 6:0 7:0 8:0 9:0 10:0 11:0 12:0 13:0 14:100 15:0 16:0 17:0 18:0 19:0 20:-100 21:40 22:40 23:20 24:0 25:0 26:0 27:40 28:40 29:40 30:60 31:0 32:20 33:0 34:0 35:0 36:20 37:20 38:20 39:0 40:0 41:50 42:25 
0.9474475247575478 1:0 2:0 3:0 4:0 5:0 6:0 7:0 8:0 9:0 10:0 11:0 12:-100 13:0 14:0 15:0 16:0 17:0 18:0 19:0 20:100 21:20 22:20 23:40 24:0 25:20 26:0 27:0 28:40 29:20 30:0 31:0 32:0 33:20 34:0 35:20 36:40 37:0 38:40 39:60 40:20 41:46 42:63 
0.3329621726103127 1:0 2:0 3:0 4:0 5:0 6:0 7:0 8:-100 9:0 10:0 11:100 12:0 13:0 14:0 15:0 16:0 17:0 18:0 19:0 20:0 21:60 22:20 23:20 24:0 25:0 26:0 27:20 28:60 29:20 30:20 31:0 32:40 33:0 34:0 35:20 36:40 37:0 38:20 39:20 40:0 41:53 42:30 
0.0359118735847593 1:0 2:0 3:0 4:0 5:0 6:0 7:0 8:0 9:100 10:0 11:0 12:0 13:0 14:0 15:0 16:0 17:0 18:-100 19:0 20:0 21:20 22:40 23:20 24:40 25:0 26:0 27:20 28:0 29:60 30:0 31:0 32:60 33:0 34:0 35:40 36:0 37:0 38:20 39:40 40:0 41:64 42:47 
2 1:0 2:0 3:0 4:0 5:0 6:0 7:0 8:0 9:100 10:0 11:0 12:0 13:0 14:0 15:0 16:0 17:0 18:-100 19:0 20:0 21:20 22:40 23:20 24:40 25:0 26:0 27:20 28:0 29:60 30:0 31:0 32:60 33:0 34:0 35:40 36:0 37:0 38:20 39:40 40:0 41:21 42:50 
1.283795165708903 1:0 2:0 3:0 4:0 5:0 6:0 7:0 8:0 9:0 10:0 11:100 12:-100 13:0 14:0 15:0 16:0 17:0 18:0 19:0 20:0 21:20 22:20 23:40 24:0 25:20 26:0 27:0 28:40 29:20 30:0 31:0 32:0 33:20 34:0 35:20 36:40 37:0 38:40 39:60 40:20 41:46 42:63 
0.4312409955057055 1:0 2:0 3:0 4:0 5:0 6:0 7:0 8:0 9:100 10:-100 11:0 12:0 13:0 14:0 15:0 16:0 17:0 18:0 19:0 20:0 21:0 22:40 23:20 24:0 25:20 26:20 27:40 28:40 29:60 30:20 31:0 32:20 33:0 34:0 35:0 36:0 37:20 38:20 39:20 40:20 41:52 42:63 
2 1:0 2:0 3:0 4:0 5:0 6:0 7:0 8:0 9:0 10:0 11:0 12:0 13:0 14:0 15:0 16:0 17:100 18:-100 19:0 20:0 21:20 22:40 23:20 24:40 25:0 26:0 27:20 28:0 29:60 30:0 31:0 32:60 33:0 34:0 35:40 36:0 37:0 38:20 39:40 40:0 41:21 42:50 
0.6042497700540972 1:0 2:0 3:0 4:0 5:0 6:0 7:0 8:0 9:100 10:0 11:0 12:0 13:0 14:0 15:0 16:0 17:0 18:0 19:-100 20:0 21:0 22:20 23:40 24:0 25:40 26:0 27:40 28:20 29:60 30:0 31:0 32:20 33:20 34:0 35:40 36:40 37:20 38:0 39:0 40:0 41:50 42:39 
2 1:0 2:0 3:0 4:0 5:0 6:0 7:0 8:0 9:0 10:0 11:0 12:100 13:0 14:-100 15:0 16:0 17:0 18:0 19:0 20:0 21:0 22:40 23:40 24:0 25:40 26:0 27:0 28:20 29:20 30:0 31:20 32:40 33:40 34:20 35:0 36:0 37:20 38:60 39:0 40:0 41:60 42:37 
2 1:0 2:0 3:0 4:0 5:0 6:0 7:0 8:0 9:0 10:0 11:0 12:100 13:0 14:0 15:0 16:0 17:0 18:0 19:0 20:-100 21:0 22:80 23:20 24:0 25:0 26:0 27:0 28:0 29:40 30:0 31:0 32:20 33:20 34:0 35:0 36:20 37:20 38:80 39:20 40:40 41:50 42:69 
2 1:0 2:0 3:0 4:0 5:0 6:0 7:0 8:0 9:0 10:0 11:0 12:0 13:0 14:-100 15:0 16:0 17:100 18:0 19:0 20:0 21:0 22:40 23:40 24:0 25:40 26:0 27:0 28:20 29:20 30:0 31:20 32:40 33:40 34:20 35:0 36:0 37:20 38:60 39:0 40:0 41:60 42:37 
0.3345665681942818 1:0 2:0 3:0 4:0 5:0 6:0 7:0 8:0 9:-100 10:0 11:100 12:0 13:0 14:0 15:0 16:0 17:0 18:0 19:0 20:0 21:20 22:20 23:20 24:20 25:0 26:0 27:60 28:60 29:20 30:0 31:0 32:20 33:0 34:0 35:40 36:40 37:0 38:0 39:0 40:40 41:50 42:51 
2 1:0 2:0 3:0 4:0 5:0 6:0 7:0 8:0 9:100 10:0 11:0 12:0 13:0 14:0 15:0 16:0 17:0 18:-100 19:0 20:0 21:0 22:20 23:20 24:20 25:0 26:20 27:20 28:20 29:40 30:0 31:20 32:20 33:0 34:0 35:0 36:80 37:0 38:20 39:20 40:40 41:37 42:5 
0.5899422316985553 1:0 2:-100 3:0 4:0 5:0 6:0 7:0 8:0 9:100 10:0 11:0 12:0 13:0 14:0 15:0 16:0 17:0 18:0 19:0 20:0 21:80 22:40 23:0 24:0 25:0 26:40 27:0 28:20 29:20 30:0 31:20 32:0 33:0 34:20 35:0 36:20 37:20 38:60 39:0 40:0 41:68 42:82 
1.181366942201174 1:0 2:0 3:0 4:0 5:0 6:0 7:0 8:0 9:0 10:0 11:0 12:0 13:0 14:0 15:0 16:-100 17:0 18:100 19:0 20:0 21:20 22:20 23:0 24:0 25:0 26:40 27:20 28:0 29:60 30:20 31:20 32:20 33:0 34:0 35:20 36:0 37:20 38:20 39:60 40:20 41:20 42:50 
2 1:0 2:0 3:0 4:0 5:0 6:0 7:0 8:0 9:0 10:0 11:-100 12:100 13:0 14:0 15:0 16:0 17:0 18:0 19:0 20:0 21:40 22:40 23:20 24:0 25:0 26:0 27:20 28:20 29:0 30:0 31:20 32:20 33:20 34:20 35:20 36:20 37:40 38:40 39:0 40:20 41:21 42:49 
2 1:0 2:0 3:0 4:0 5:0 6:0 7:0 8:0 9:100 10:0 11:0 12:0 13:0 14:0 15:0 16:0 17:0 18:-100 19:0 20:0 21:0 22:0 23:0 24:20 25:20 26:0 27:0 28:40 29:60 30:0 31:20 32:20 33:40 34:0 35:40 36:40 37:0 38:0 39:40 40:20 41:50 42:39 
2 1:0 2:100 3:0 4:0 5:0 6:0 7:0 8:0 9:0 10:0 11:-100 12:0 13:0 14:0 15:0 16:0 17:0 18:0 19:0 20:0 21:40 22:40 23:20 24:0 25:0 26:0 27:20 28:20 29:0 30:0 31:20 32:20 33:20 34:20 35:20 36:20 37:40 38:40 39:0 40:20 41:21 42:49 
0.6427064245606733 1:100 2:0 3:-100 4:0 5:0 6:0 7:0 8:0 9:0 10:0 11:0 12:0 13:0 14:0 15:0 16:0 17:0 18:0 19:0 20:0 21:40 22:0 23:0 24:0 25:20 26:0 27:20 28:20 29:20 30:0 31:0 32:20 33:0 34:0 35:0 36:0 37:0 38:0 39:20 40:40 41:45 42:25 
0.4475109845398115 1:0 2:-100 3:0 4:0 5:0 6:0 7:0 8:0 9:100 10:0 11:0 12:0 13:0 14:0 15:0 16:0 17:0 18:0 19:0 20:0 21:0 22:0 23:0 24:0 25:20 26:0 27:20 28:20 29:0 30:80 31:0 32:20 33:40 34:0 35:20 36:20 37:0 38:20 39:0 40:20 41:50 42:39 
0.2942251986254952 1:0 2:0 3:-100 4:0 5:0 6:0 7:0 8:0 9:0 10:0 11:0 12:0 13:0 14:0 15:0 16:0 17:0 18:0 19:0 20:100 21:0 22:20 23:20 24:40 25:20 26:0 27:0 28:20 29:0 30:0 31:0 32:0 33:0 34:0 35:20 36:0 37:0 38:40 39:20 40:20 41:46 42:64 
0.07946590443642269 1:0 2:0 3:-100 4:0 5:0 6:0 7:0 8:100 9:0 10:0 11:0 12:0 13:0 14:0 15:0 16:0 17:0 18:0 19:0 20:0 21:0 22:20 23:20 24:40 25:20 26:0 27:0 28:20 29:0 30:0 31:0 32:0 33:0 34:0 35:20 36:0 37:0 38:40 39:20 40:20 41:46 42:64 
0.7266949699902117 1:0 2:0 3:-100 4:0 5:100 6:0 7:0 8:0 9:0 10:0 11:0 12:0 13:0 14:0 15:0 16:0 17:0 18:0 19:0 20:0 21:0 22:20 23:20 24:40 25:20 26:0 27:0 28:20 29:0 30:0 31:0 32:0 33:0 34:0 35:20 36:0 37:0 38:40 39:20 40:20 41:46 42:64 
0.153121881390066 1:0 2:0 3:-100 4:100 5:0 6:0 7:0 8:0 9:0 10:0 11:0 12:0 13:0 14:0 15:0 16:0 17:0 18:0 19:0 20:0 21:0 22:20 23:20 24:40 25:20 26:0 27:0 28:20 29:0 30:0 31:0 32:0 33:0 34:0 35:20 36:0 37:0 38:40 39:20 40:20 41:46 42:64 
1.685335045823398 1:0 2:0 3:-100 4:0 5:0 6:0 7:0 8:0 9:0 10:100 11:0 12:0 13:0 14:0 15:0 16:0 17:0 18:0 19:0 20:0 21:0 22:20 23:20 24:40 25:20 26:0 27:0 28:20 29:0 30:0 31:0 32:0 33:0 34:0 35:20 36:0 37:0 38:40 39:20 40:20 41:21 42:53 
0.608692722302396 1:0 2:0 3:-100 4:0 5:0 6:0 7:0 8:0 9:0 10:0 11:100 12:0 13:0 14:0 15:0 16:0 17:0 18:0 19:0 20:0 21:0 22:20 23:20 24:40 25:20 26:0 27:0 28:20 29:0 30:0 31:0 32:0 33:0 34:0 35:20 36:0 37:0 38:40 39:20 40:20 41:46 42:64 
2 1:0 2:0 3:0 4:0 5:0 6:0 7:0 8:0 9:100 10:0 11:0 12:0 13:0 14:0 15:0 16:0 17:0 18:-100 19:0 20:0 21:60 22:40 23:60 24:0 25:0 26:0 27:0 28:20 29:20 30:40 31:0 32:0 33:0 34:0 35:0 36:60 37:40 38:0 39:0 40:20 41:44 42:25 
0.9543175252127231 1:0 2:0 3:-100 4:0 5:0 6:0 7:0 8:0 9:0 10:0 11:0 12:100 13:0 14:0 15:0 16:0 17:0 18:0 19:0 20:0 21:0 22:20 23:20 24:40 25:20 26:0 27:0 28:20 29:0 30:0 31:0 32:0 33:0 34:0 35:20 36:0 37:0 38:40 39:20 40:20 41:21 42:53 
1.458499313100241 1:0 2:0 3:-100 4:0 5:0 6:100 7:0 8:0 9:0 10:0 11:0 12:0 13:0 14:0 15:0 16:0 17:0 18:0 19:0 20:0 21:0 22:20 23:20 24:40 25:20 26:0 27:0 28:20 29:0 30:0 31:0 32:0 33:0 34:0 35:20 36:0 37:0 38:40 39:20 40:20 41:46 42:64 
1.905223152540233 1:100 2:0 3:-100 4:0 5:0 6:0 7:0 8:0 9:0 10:0 11:0 12:0 13:0 14:0 15:0 16:0 17:0 18:0 19:0 20:0 21:0 22:20 23:20 24:40 25:20 26:0 27:0 28:20 29:0 30:0 31:0 32:0 33:0 34:0 35:20 36:0 37:0 38:40 39:20 40:20 41:14 42:41 
1.163456915589469 1:100 2:0 3:-100 4:0 5:0 6:0 7:0 8:0 9:0 10:0 11:0 12:0 13:0 14:0 15:0 16:0 17:0 18:0 19:0 20:0 21:0 22:20 23:20 24:40 25:20 26:0 27:0 28:20 29:0 30:0 31:0 32:0 33:0 34:0 35:20 36:0 37:0 38:40 39:20 40:20 41:46 42:64 
1.646126499997787 1:0 2:0 3:-100 4:0 5:0 6:0 7:100 8:0 9:0 10:0 11:0 12:0 13:0 14:0 15:0 16:0 17:0 18:0 19:0 20:0 21:0 22:20 23:20 24:40 25:20 26:0 27:0 28:20 29:0 30:0 31:0 32:0 33:0 34:0 35:20 36:0 37:0 38:40 39:20 40:20 41:46 42:64 
2 1:0 2:0 3:0 4:-100 5:0 6:0 7:0 8:0 9:100 10:0 11:0 12:0 13:0 14:0 15:0 16:0 17:0 18:0 19:0 20:0 21:40 22:20 23:20 24:20 25:40 26:0 27:0 28:60 29:60 30:0 31:0 32:40 33:0 34:0 35:0 36:0 37:20 38:20 39:20 40:0 41:38 42:65 
0.6773592080326768 1:100 2:0 3:-100 4:0 5:0 6:0 7:0 8:0 9:0 10:0 11:0 12:0 13:0 14:0 15:0 16:0 17:0 18:0 19:0 20:0 21:40 22:40 23:0 24:0 25:0 26:0 27:40 28:40 29:20 30:40 31:0 32:20 33:0 34:0 35:0 36:20 37:20 38:40 39:20 40:20 41:50 42:25 
2 1:0 2:0 3:0 4:-100 5:0 6:0 7:0 8:0 9:0 10:0 11:0 12:0 13:0 14:0 15:0 16:100 17:0 18:0 19:0 20:0 21:40 22:20 23:20 24:20 25:40 26:0 27:0 28:60 29:40 30:0 31:0 32:40 33:20 34:0 35:0 36:0 37:20 38:20 39:20 40:0 41:21 42:47 
2 1:0 2:0 3:0 4:0 5:100 6:0 7:-100 8:0 9:0 10:0 11:0 12:0 13:0 14:0 15:0 16:0 17:0 18:0 19:0 20:0 21:0 22:40 23:20 24:0 25:20 26:20 27:0 28:60 29:60 30:20 31:40 32:20 33:0 34:0 35:20 36:0 37:20 38:0 39:20 40:0 41:48 42:54 
2 1:0 2:0 3:0 4:0 5:0 6:0 7:0 8:100 9:0 10:0 11:0 12:0 13:0 14:0 15:0 16:0 17:0 18:0 19:0 20:-100 21:20 22:0 23:20 24:0 25:20 26:0 27:20 28:40 29:20 30:0 31:0 32:20 33:0 34:0 35:20 36:80 37:20 38:40 39:20 40:20 41:50 42:20 
0.4760778695649602 1:0 2:0 3:0 4:0 5:0 6:0 7:0 8:0 9:0 10:0 11:0 12:0 13:0 14:0 15:0 16:0 17:0 18:0 19:100 20:-100 21:40 22:60 23:20 24:0 25:0 26:0 27:20 28:0 29:40 30:20 31:20 32:0 33:20 34:0 35:40 36:40 37:0 38:0 39:20 40:20 41:47 42:62 
0.591928335744234 1:-100 2:0 3:0 4:0 5:0 6:0 7:0 8:0 9:100 10:0 11:0 12:0 13:0 14:0 15:0 16:0 17:0 18:0 19:0 20:0 21:20 22:20 23:20 24:0 25:0 26:0 27:0 28:20 29:40 30:20 31:20 32:0 33:0 34:0 35:0 36:80 37:40 38:60 39:0 40:20 41:45 42:46 
0.00135750685922097 1:0 2:0 3:0 4:0 5:-100 6:0 7:0 8:0 9:0 10:0 11:0 12:100 13:0 14:0 15:0 16:0 17:0 18:0 19:0 20:0 21:40 22:0 23:20 24:0 25:0 26:0 27:0 28:20 29:20 30:20 31:60 32:40 33:0 34:0 35:40 36:20 37:60 38:20 39:0 40:0 41:50 42:25 
2 1:-100 2:0 3:0 4:0 5:0 6:0 7:0 8:0 9:100 10:0 11:0 12:0 13:0 14:0 15:0 16:0 17:0 18:0 19:0 20:0 21:40 22:0 23:20 24:0 25:0 26:20 27:0 28:20 29:80 30:20 31:0 32:0 33:20 34:0 35:60 36:20 37:20 38:0 39:0 40:40 41:19 42:49 
2 1:-100 2:0 3:0 4:0 5:0 6:0 7:0 8:0 9:100 10:0 11:0 12:0 13:0 14:0 15:0 16:0 17:0 18:0 19:0 20:0 21:40 22:0 23:20 24:0 25:0 26:20 27:0 28:20 29:80 30:20 31:0 32:0 33:20 34:0 35:60 36:20 37:20 38:0 39:0 40:40 41:19 42:64 
2 1:0 2:0 3:0 4:0 5:0 6:100 7:0 8:0 9:0 10:0 11:0 12:0 13:0 14:0 15:0 16:-100 17:0 18:0 19:0 20:0 21:0 22:20 23:20 24:40 25:20 26:0 27:40 28:20 29:20 30:40 31:20 32:40 33:0 34:0 35:0 36:40 37:0 38:20 39:20 40:0 41:32 42:25 
1.301067831595149 1:0 2:0 3:0 4:0 5:0 6:0 7:0 8:0 9:0 10:0 11:0 12:0 13:0 14:0 15:-100 16:0 17:100 18:0 19:0 20:0 21:0 22:40 23:60 24:40 25:0 26:0 27:0 28:40 29:0 30:20 31:40 32:40 33:20 34:0 35:20 36:0 37:0 38:0 39:40 40:0 41:51 42:10 
1.840345303339313 1:-100 2:0 3:0 4:0 5:0 6:0 7:0 8:0 9:0 10:0 11:0 12:0 13:0 14:0 15:0 16:100 17:0 18:0 19:0 20:0 21:0 22:20 23:0 24:0 25:20 26:0 27:0 28:40 29:40 30:0 31:20 32:40 33:0 34:20 35:20 36:0 37:0 38:60 39:20 40:60 41:50 42:67 
0.6419087661258442 1:-100 2:0 3:0 4:0 5:0 6:0 7:0 8:0 9:0 10:0 11:0 12:0 13:0 14:0 15:0 16:0 17:0 18:100 19:0 20:0 21:0 22:20 23:0 24:0 25:20 26:0 27:0 28:40 29:40 30:0 31:20 32:40 33:0 34:20 35:20 36:0 37:0 38:60 39:20 40:60 41:50 42:67 
0.1771430159003859 1:-100 2:0 3:0 4:0 5:0 6:0 7:0 8:0 9:0 10:0 11:0 12:0 13:0 14:0 15:0 16:100 17:0 18:0 19:0 20:0 21:20 22:0 23:0 24:20 25:0 26:40 27:0 28:40 29:40 30:20 31:20 32:0 33:20 34:20 35:0 36:80 37:0 38:0 39:20 40:20 41:32 42:66 
2 1:0 2:0 3:0 4:0 5:0 6:0 7:0 8:0 9:100 10:0 11:-100 12:0 13:0 14:0 15:0 16:0 17:0 18:0 19:0 20:0 21:20 22:60 23:0 24:0 25:20 26:20 27:20 28:40 29:0 30:0 31:20 32:0 33:0 34:0 35:0 36:0 37:20 38:40 39:20 40:80 41:50 42:44 
2 1:0 2:0 3:0 4:0 5:0 6:0 7:0 8:0 9:0 10:0 11:0 12:0 13:0 14:0 15:0 16:-100 17:0 18:100 19:0 20:0 21:20 22:20 23:20 24:0 25:40 26:0 27:0 28:60 29:40 30:0 31:40 32:20 33:0 34:0 35:0 36:0 37:40 38:60 39:0 40:0 41:53 42:55 
1.046983905382494 1:0 2:0 3:0 4:0 5:0 6:0 7:0 8:0 9:0 10:0 11:0 12:0 13:0 14:0 15:0 16:-100 17:0 18:100 19:0 20:0 21:20 22:20 23:20 24:0 25:40 26:0 27:0 28:60 29:40 30:0 31:40 32:20 33:0 34:0 35:0 36:0 37:40 38:60 39:0 40:0 41:53 42:55 
1.998012983710945 1:0 2:0 3:0 4:0 5:0 6:0 7:0 8:0 9:0 10:0 11:0 12:0 13:0 14:0 15:100 16:-100 17:0 18:0 19:0 20:0 21:0 22:20 23:20 24:0 25:20 26:20 27:0 28:80 29:0 30:20 31:40 32:20 33:0 34:0 35:40 36:20 37:0 38:20 39:20 40:20 41:45 42:25 
1.564370487288794 1:0 2:0 3:0 4:0 5:0 6:0 7:0 8:0 9:0 10:0 11:0 12:0 13:0 14:0 15:100 16:-100 17:0 18:0 19:0 20:0 21:0 22:20 23:20 24:0 25:20 26:20 27:0 28:80 29:0 30:20 31:40 32:20 33:0 34:0 35:40 36:20 37:0 38:20 39:20 40:20 41:45 42:25 
2 1:100 2:0 3:0 4:0 5:0 6:0 7:0 8:0 9:0 10:0 11:0 12:-100 13:0 14:0 15:0 16:0 17:0 18:0 19:0 20:0 21:20 22:0 23:20 24:0 25:0 26:0 27:60 28:60 29:20 30:20 31:0 32:60 33:0 34:20 35:60 36:0 37:0 38:20 39:0 40:0 41:50 42:48 
2 1:0 2:0 3:0 4:0 5:0 6:0 7:0 8:0 9:0 10:0 11:0 12:0 13:0 14:0 15:0 16:100 17:0 18:-100 19:0 20:0 21:40 22:0 23:0 24:40 25:20 26:0 27:0 28:20 29:0 30:0 31:0 32:100 33:0 34:0 35:20 36:40 37:0 38:40 39:20 40:20 41:50 42:25 
2 1:0 2:0 3:0 4:0 5:100 6:0 7:-100 8:0 9:0 10:0 11:0 12:0 13:0 14:0 15:0 16:0 17:0 18:0 19:0 20:0 21:60 22:80 23:20 24:0 25:0 26:0 27:20 28:20 29:0 30:20 31:0 32:20 33:20 34:0 35:0 36:20 37:0 38:20 39:20 40:40 41:50 42:25 
1.260584008169336 1:-100 2:0 3:0 4:0 5:0 6:0 7:0 8:0 9:0 10:0 11:0 12:0 13:0 14:0 15:0 16:0 17:0 18:0 19:0 20:100 21:0 22:20 23:0 24:0 25:20 26:0 27:0 28:0 29:20 30:0 31:0 32:20 33:20 34:0 35:40 36:20 37:0 38:40 39:0 40:0 41:19 42:64 
2 1:-100 2:100 3:0 4:0 5:0 6:0 7:0 8:0 9:0 10:0 11:0 12:0 13:0 14:0 15:0 16:0 17:0 18:0 19:0 20:0 21:0 22:20 23:0 24:0 25:20 26:0 27:0 28:0 29:20 30:0 31:0 32:20 33:20 34:0 35:40 36:20 37:0 38:40 39:0 40:0 41:19 42:64 
0.584291023295444 1:-100 2:0 3:0 4:100 5:0 6:0 7:0 8:0 9:0 10:0 11:0 12:0 13:0 14:0 15:0 16:0 17:0 18:0 19:0 20:0 21:0 22:20 23:0 24:0 25:20 26:0 27:0 28:0 29:20 30:0 31:0 32:20 33:20 34:0 35:40 36:20 37:0 38:40 39:0 40:0 41:19 42:64 
1.558929674063435 1:0 2:0 3:0 4:0 5:0 6:0 7:0 8:0 9:100 10:0 11:0 12:0 13:0 14:0 15:-100 16:0 17:0 18:0 19:0 20:0 21:0 22:0 23:40 24:0 25:20 26:0 27:60 28:20 29:40 30:60 31:0 32:20 33:20 34:0 35:20 36:40 37:0 38:0 39:20 40:0 41:50 42:39 
2 1:0 2:100 3:0 4:0 5:0 6:0 7:0 8:0 9:0 10:0 11:0 12:0 13:0 14:0 15:-100 16:0 17:0 18:0 19:0 20:0 21:20 22:0 23:0 24:20 25:20 26:20 27:0 28:20 29:0 30:0 31:0 32:0 33:0 34:0 35:0 36:40 37:20 38:20 39:40 40:0 41:50 42:70 
2 1:0 2:100 3:0 4:0 5:0 6:0 7:0 8:0 9:0 10:0 11:0 12:0 13:0 14:0 15:-100 16:0 17:0 18:0 19:0 20:0 21:20 22:0 23:0 24:20 25:20 26:20 27:0 28:20 29:0 30:0 31:0 32:0 33:0 34:0 35:0 36:40 37:20 38:20 39:40 40:0 41:50 42:70 
0.8494645961095679 1:0 2:0 3:0 4:0 5:0 6:0 7:100 8:0 9:0 10:-100 11:0 12:0 13:0 14:0 15:0 16:0 17:0 18:0 19:0 20:0 21:0 22:40 23:20 24:20 25:20 26:0 27:40 28:60 29:20 30:20 31:0 32:40 33:0 34:0 35:0 36:60 37:0 38:0 39:20 40:0 41:32 42:25 
0.9386157520694162 1:100 2:0 3:0 4:0 5:0 6:0 7:0 8:0 9:0 10:-100 11:0 12:0 13:0 14:0 15:0 16:0 17:0 18:0 19:0 20:0 21:0 22:40 23:20 24:20 25:20 26:0 27:40 28:60 29:20 30:20 31:0 32:40 33:0 34:0 35:0 36:60 37:0 38:0 39:20 40:0 41:32 42:25 
2 1:0 2:100 3:0 4:0 5:0 6:0 7:0 8:0 9:0 10:-100 11:0 12:0 13:0 14:0 15:0 16:0 17:0 18:0 19:0 20:0 21:0 22:40 23:20 24:20 25:20 26:0 27:40 28:60 29:20 30:20 31:0 32:40 33:0 34:0 35:0 36:60 37:0 38:0 39:20 40:0 41:32 42:25 
0.9064230734028009 1:0 2:0 3:0 4:0 5:0 6:0 7:0 8:0 9:100 10:0 11:0 12:-100 13:0 14:0 15:0 16:0 17:0 18:0 19:0 20:0 21:20 22:0 23:20 24:0 25:20 26:0 27:20 28:20 29:40 30:0 31:40 32:40 33:0 34:20 35:0 36:0 37:40 38:0 39:40 40:40 41:50 42:58 
2 1:0 2:0 3:0 4:0 5:0 6:0 7:0 8:0 9:0 10:0 11:0 12:0 13:0 14:0 15:0 16:100 17:0 18:0 19:0 20:-100 21:60 22:0 23:40 24:0 25:60 26:0 27:0 28:40 29:20 30:0 31:20 32:0 33:0 34:20 35:0 36:0 37:40 38:40 39:0 40:20 41:53 42:55 
0.282790260461629 1:0 2:0 3:0 4:0 5:0 6:0 7:0 8:0 9:0 10:0 11:0 12:0 13:0 14:0 15:0 16:100 17:0 18:0 19:0 20:-100 21:60 22:0 23:40 24:0 25:60 26:0 27:0 28:40 29:20 30:0 31:20 32:0 33:0 34:20 35:0 36:0 37:40 38:40 39:0 40:20 41:53 42:55 
0.3992892509678291 1:0 2:0 3:0 4:0 5:0 6:0 7:0 8:0 9:0 10:0 11:0 12:0 13:0 14:0 15:0 16:0 17:100 18:0 19:0 20:-100 21:60 22:0 23:40 24:0 25:60 26:0 27:0 28:40 29:20 30:0 31:20 32:0 33:0 34:20 35:0 36:0 37:40 38:40 39:0 40:20 41:53 42:55 
2 1:0 2:0 3:0 4:0 5:0 6:0 7:0 8:-100 9:100 10:0 11:0 12:0 13:0 14:0 15:0 16:0 17:0 18:0 19:0 20:0 21:20 22:40 23:20 24:0 25:0 26:20 27:0 28:20 29:80 30:0 31:40 32:20 33:0 34:0 35:0 36:40 37:20 38:20 39:20 40:0 41:45 42:25 
1.815176443572294 1:0 2:0 3:0 4:0 5:0 6:0 7:0 8:0 9:0 10:0 11:0 12:100 13:0 14:-100 15:0 16:0 17:0 18:0 19:0 20:0 21:20 22:0 23:0 24:0 25:20 26:0 27:60 28:40 29:0 30:20 31:40 32:20 33:0 34:0 35:0 36:20 37:0 38:40 39:60 40:20 41:42 42:25 
2 1:0 2:0 3:0 4:0 5:-100 6:0 7:100 8:0 9:0 10:0 11:0 12:0 13:0 14:0 15:0 16:0 17:0 18:0 19:0 20:0 21:0 22:20 23:20 24:20 25:0 26:0 27:20 28:60 29:20 30:20 31:0 32:20 33:0 34:0 35:20 36:100 37:0 38:20 39:0 40:20 41:42 42:25 
0.1994516113145356 1:0 2:0 3:-100 4:100 5:0 6:0 7:0 8:0 9:0 10:0 11:0 12:0 13:0 14:0 15:0 16:0 17:0 18:0 19:0 20:0 21:20 22:40 23:20 24:0 25:20 26:0 27:0 28:40 29:40 30:20 31:20 32:0 33:0 34:40 35:20 36:20 37:20 38:0 39:0 40:40 41:78 42:76 
0.2847992560671732 1:-100 2:0 3:100 4:0 5:0 6:0 7:0 8:0 9:0 10:0 11:0 12:0 13:0 14:0 15:0 16:0 17:0 18:0 19:0 20:0 21:20 22:20 23:0 24:60 25:40 26:0 27:0 28:60 29:20 30:0 31:20 32:40 33:0 34:0 35:20 36:0 37:20 38:20 39:20 40:0 41:21 42:51 
1.824538912192179 1:-100 2:0 3:100 4:0 5:0 6:0 7:0 8:0 9:0 10:0 11:0 12:0 13:0 14:0 15:0 16:0 17:0 18:0 19:0 20:0 21:20 22:20 23:0 24:60 25:40 26:0 27:0 28:60 29:20 30:0 31:20 32:40 33:0 34:0 35:20 36:0 37:20 38:20 39:20 40:0 41:40 42:64 
0.6246824166259567 1:-100 2:0 3:0 4:100 5:0 6:0 7:0 8:0 9:0 10:0 11:0 12:0 13:0 14:0 15:0 16:0 17:0 18:0 19:0 20:0 21:20 22:20 23:0 24:60 25:40 26:0 27:0 28:60 29:20 30:0 31:20 32:40 33:0 34:0 35:20 36:0 37:20 38:20 39:20 40:0 41:38 42:65 
0.1729448247801178 1:0 2:0 3:0 4:0 5:0 6:0 7:0 8:0 9:0 10:0 11:0 12:0 13:0 14:0 15:100 16:-100 17:0 18:0 19:0 20:0 21:20 22:20 23:40 24:20 25:20 26:0 27:40 28:20 29:20 30:0 31:20 32:40 33:0 34:20 35:0 36:0 37:20 38:20 39:20 40:20 41:37 42:5 
1.941576483254617 1:0 2:0 3:0 4:0 5:0 6:0 7:0 8:0 9:0 10:0 11:0 12:0 13:0 14:0 15:0 16:-100 17:0 18:100 19:0 20:0 21:20 22:20 23:40 24:20 25:20 26:0 27:40 28:20 29:20 30:0 31:20 32:40 33:0 34:20 35:0 36:0 37:20 38:20 39:20 40:20 41:37 42:5 
0.9480802729892698 1:0 2:0 3:0 4:0 5:0 6:0 7:0 8:0 9:0 10:0 11:100 12:0 13:0 14:0 15:-100 16:0 17:0 18:0 19:0 20:0 21:0 22:40 23:60 24:40 25:0 26:0 27:0 28:40 29:0 30:20 31:40 32:40 33:20 34:0 35:20 36:0 37:0 38:20 39:20 40:0 41:51 42:10 
2 1:100 2:0 3:0 4:0 5:0 6:0 7:0 8:0 9:-100 10:0 11:0 12:0 13:0 14:0 15:0 16:0 17:0 18:0 19:0 20:0 21:40 22:40 23:20 24:40 25:20 26:0 27:0 28:20 29:20 30:0 31:20 32:0 33:20 34:0 35:40 36:0 37:20 38:0 39:20 40:40 41:21 42:40 
2 1:0 2:0 3:0 4:0 5:0 6:0 7:0 8:0 9:0 10:0 11:0 12:0 13:0 14:100 15:0 16:0 17:0 18:0 19:-100 20:0 21:20 22:0 23:20 24:0 25:20 26:20 27:20 28:0 29:20 30:20 31:20 32:60 33:0 34:0 35:60 36:40 37:20 38:0 39:20 40:0 41:14 42:39 
2 1:0 2:0 3:0 4:0 5:0 6:0 7:0 8:0 9:0 10:0 11:0 12:0 13:0 14:0 15:0 16:0 17:0 18:0 19:-100 20:100 21:20 22:0 23:20 24:0 25:20 26:20 27:20 28:0 29:20 30:20 31:20 32:60 33:0 34:0 35:60 36:40 37:20 38:0 39:20 40:0 41:14 42:40 
0.302771207053013 1:0 2:0 3:0 4:0 5:0 6:0 7:-100 8:0 9:100 10:0 11:0 12:0 13:0 14:0 15:0 16:0 17:0 18:0 19:0 20:0 21:20 22:20 23:20 24:20 25:0 26:0 27:0 28:0 29:40 30:0 31:20 32:20 33:0 34:0 35:0 36:100 37:0 38:60 39:0 40:40 41:37 42:5 
0.4550476022675641 1:0 2:0 3:0 4:0 5:0 6:0 7:0 8:0 9:100 10:0 11:0 12:-100 13:0 14:0 15:0 16:0 17:0 18:0 19:0 20:0 21:40 22:80 23:20 24:0 25:0 26:0 27:0 28:40 29:40 30:0 31:20 32:20 33:0 34:20 35:0 36:40 37:0 38:20 39:0 40:20 41:68 42:82 
0.5554968364210785 1:0 2:0 3:0 4:0 5:0 6:0 7:0 8:0 9:0 10:0 11:0 12:0 13:0 14:100 15:0 16:-100 17:0 18:0 19:0 20:0 21:40 22:60 23:20 24:20 25:40 26:0 27:20 28:40 29:0 30:0 31:60 32:20 33:0 34:20 35:0 36:0 37:20 38:0 39:0 40:0 41:50 42:25 
1.941877456075429 1:0 2:0 3:0 4:0 5:0 6:0 7:0 8:0 9:0 10:0 11:0 12:0 13:0 14:0 15:0 16:0 17:0 18:0 19:100 20:-100 21:0 22:60 23:20 24:20 25:0 26:0 27:20 28:60 29:40 30:0 31:20 32:20 33:0 34:0 35:60 36:20 37:0 38:0 39:20 40:0 41:28 42:65 
1.653356708213682 1:100 2:0 3:0 4:0 5:0 6:0 7:0 8:0 9:0 10:0 11:0 12:-100 13:0 14:0 15:0 16:0 17:0 18:0 19:0 20:0 21:0 22:0 23:40 24:0 25:0 26:0 27:40 28:40 29:20 30:0 31:0 32:60 33:0 34:0 35:80 36:0 37:20 38:40 39:0 40:20 41:50 42:48 
1.083631166129321 1:0 2:0 3:0 4:0 5:0 6:0 7:0 8:0 9:0 10:0 11:0 12:0 13:0 14:100 15:0 16:0 17:0 18:0 19:0 20:-100 21:20 22:40 23:20 24:20 25:20 26:0 27:20 28:0 29:20 30:20 31:20 32:20 33:0 34:40 35:0 36:60 37:0 38:40 39:0 40:0 41:37 42:5 
1.342415842546318 1:0 2:0 3:-100 4:0 5:100 6:0 7:0 8:0 9:0 10:0 11:0 12:0 13:0 14:0 15:0 16:0 17:0 18:0 19:0 20:0 21:40 22:40 23:0 24:0 25:0 26:0 27:40 28:40 29:20 30:40 31:0 32:20 33:0 34:0 35:0 36:20 37:20 38:40 39:20 40:20 41:50 42:25 
2 1:0 2:100 3:0 4:0 5:0 6:0 7:0 8:0 9:-100 10:0 11:0 12:0 13:0 14:0 15:0 16:0 17:0 18:0 19:0 20:0 21:0 22:40 23:0 24:20 25:40 26:0 27:0 28:60 29:60 30:0 31:0 32:0 33:0 34:0 35:20 36:20 37:20 38:20 39:20 40:40 41:55 42:4 
0.02842806578976649 1:0 2:100 3:0 4:0 5:0 6:0 7:0 8:0 9:-100 10:0 11:0 12:0 13:0 14:0 15:0 16:0 17:0 18:0 19:0 20:0 21:0 22:40 23:0 24:20 25:40 26:0 27:0 28:60 29:60 30:0 31:0 32:0 33:0 34:0 35:20 36:20 37:20 38:20 39:20 40:40 41:55 42:4 
2 1:0 2:-100 3:0 4:100 5:0 6:0 7:0 8:0 9:0 10:0 11:0 12:0 13:0 14:0 15:0 16:0 17:0 18:0 19:0 20:0 21:0 22:20 23:20 24:20 25:20 26:0 27:0 28:20 29:100 30:0 31:0 32:0 33:0 34:0 35:20 36:40 37:20 38:20 39:20 40:40 41:78 42:76 
0.3507674774093062 1:0 2:-100 3:100 4:0 5:0 6:0 7:0 8:0 9:0 10:0 11:0 12:0 13:0 14:0 15:0 16:0 17:0 18:0 19:0 20:0 21:0 22:20 23:20 24:20 25:20 26:0 27:0 28:20 29:100 30:0 31:0 32:0 33:0 34:0 35:20 36:40 37:20 38:20 39:20 40:40 41:78 42:76 
2 1:-100 2:0 3:0 4:0 5:0 6:0 7:100 8:0 9:0 10:0 11:0 12:0 13:0 14:0 15:0 16:0 17:0 18:0 19:0 20:0 21:0 22:0 23:20 24:0 25:0 26:40 27:0 28:20 29:40 30:20 31:0 32:0 33:20 34:0 35:100 36:0 37:40 38:0 39:40 40:20 41:19 42:64 
2 1:-100 2:0 3:0 4:0 5:100 6:0 7:0 8:0 9:0 10:0 11:0 12:0 13:0 14:0 15:0 16:0 17:0 18:0 19:0 20:0 21:0 22:0 23:20 24:0 25:0 26:40 27:0 28:20 29:40 30:20 31:0 32:0 33:20 34:0 35:100 36:0 37:40 38:0 39:40 40:20 41:19 42:64 
2 1:0 2:0 3:0 4:0 5:0 6:0 7:0 8:0 9:0 10:0 11:0 12:0 13:0 14:-100 15:0 16:0 17:0 18:0 19:100 20:0 21:0 22:60 23:40 24:0 25:0 26:0 27:40 28:60 29:0 30:20 31:40 32:40 33:0 34:0 35:0 36:20 37:0 38:20 39:20 40:0 41:39 42:66 
2 1:0 2:0 3:0 4:0 5:0 6:0 7:0 8:0 9:0 10:0 11:0 12:0 13:0 14:0 15:0 16:0 17:0 18:0 19:100 20:-100 21:60 22:0 23:40 24:0 25:80 26:0 27:0 28:40 29:20 30:0 31:20 32:0 33:0 34:20 35:0 36:0 37:20 38:40 39:0 40:20 41:53 42:55 
0.6911964622529428 1:0 2:0 3:0 4:0 5:0 6:0 7:0 8:0 9:0 10:0 11:0 12:0 13:0 14:0 15:0 16:0 17:0 18:0 19:100 20:-100 21:60 22:0 23:40 24:0 25:80 26:0 27:0 28:40 29:20 30:0 31:20 32:0 33:0 34:20 35:0 36:0 37:20 38:40 39:0 40:20 41:53 42:55 
0.8675649943557113 1:0 2:0 3:0 4:0 5:0 6:0 7:0 8:0 9:0 10:0 11:0 12:0 13:100 14:0 15:0 16:0 17:0 18:0 19:0 20:-100 21:60 22:80 23:0 24:0 25:0 26:0 27:40 28:20 29:0 30:20 31:20 32:0 33:20 34:0 35:0 36:0 37:20 38:40 39:40 40:0 41:50 42:25 
2 1:0 2:0 3:0 4:0 5:0 6:0 7:0 8:-100 9:100 10:0 11:0 12:0 13:0 14:0 15:0 16:0 17:0 18:0 19:0 20:0 21:40 22:40 23:40 24:0 25:0 26:20 27:0 28:20 29:60 30:0 31:0 32:0 33:0 34:20 35:20 36:20 37:20 38:20 39:0 40:40 41:68 42:82 
2 1:0 2:0 3:0 4:0 5:0 6:0 7:0 8:0 9:0 10:0 11:0 12:0 13:0 14:0 15:0 16:100 17:0 18:-100 19:0 20:0 21:60 22:40 23:0 24:0 25:0 26:0 27:40 28:0 29:20 30:0 31:20 32:40 33:0 34:20 35:0 36:0 37:40 38:0 39:20 40:60 41:50 42:44 
0.8803455060424632 1:0 2:0 3:0 4:0 5:0 6:0 7:0 8:0 9:0 10:0 11:0 12:0 13:0 14:0 15:0 16:100 17:0 18:-100 19:0 20:0 21:60 22:40 23:0 24:0 25:0 26:0 27:40 28:0 29:20 30:0 31:20 32:40 33:0 34:20 35:0 36:0 37:40 38:0 39:20 40:60 41:50 42:44 
0.9127953923880432 1:0 2:-100 3:0 4:0 5:0 6:0 7:0 8:0 9:0 10:0 11:0 12:0 13:0 14:0 15:0 16:0 17:0 18:100 19:0 20:0 21:40 22:0 23:0 24:0 25:0 26:0 27:0 28:20 29:40 30:20 31:0 32:0 33:0 34:0 35:0 36:20 37:20 38:0 39:20 40:0 41:50 42:70 
1.066548282207976 1:0 2:0 3:0 4:0 5:0 6:0 7:0 8:-100 9:100 10:0 11:0 12:0 13:0 14:0 15:0 16:0 17:0 18:0 19:0 20:0 21:20 22:0 23:40 24:0 25:0 26:40 27:20 28:0 29:0 30:0 31:40 32:40 33:0 34:20 35:20 36:20 37:60 38:0 39:20 40:20 41:21 42:49 
2 1:0 2:0 3:0 4:0 5:0 6:0 7:0 8:0 9:0 10:0 11:0 12:0 13:0 14:0 15:0 16:100 17:0 18:-100 19:0 20:0 21:40 22:0 23:20 24:0 25:20 26:0 27:0 28:60 29:60 30:20 31:20 32:0 33:0 34:0 35:20 36:0 37:40 38:20 39:40 40:0 41:53 42:55 
2 1:0 2:0 3:0 4:0 5:0 6:0 7:0 8:0 9:0 10:0 11:0 12:0 13:0 14:0 15:0 16:100 17:0 18:-100 19:0 20:0 21:40 22:0 23:20 24:0 25:20 26:0 27:0 28:60 29:60 30:20 31:20 32:0 33:0 34:0 35:20 36:0 37:40 38:20 39:40 40:0 41:53 42:55 
1.850433953122941 1:0 2:0 3:0 4:0 5:0 6:0 7:0 8:0 9:0 10:0 11:0 12:0 13:0 14:0 15:0 16:100 17:0 18:-100 19:0 20:0 21:40 22:0 23:20 24:0 25:20 26:0 27:0 28:60 29:60 30:20 31:20 32:0 33:0 34:0 35:20 36:0 37:40 38:20 39:40 40:0 41:53 42:55 
2 1:0 2:0 3:0 4:0 5:100 6:0 7:-100 8:0 9:0 10:0 11:0 12:0 13:0 14:0 15:0 16:0 17:0 18:0 19:0 20:0 21:60 22:0 23:0 24:0 25:0 26:0 27:0 28:40 29:0 30:0 31:0 32:0 33:40 34:0 35:60 36:0 37:60 38:0 39:20 40:20 41:19 42:64 
1.323514203358366 1:-100 2:0 3:0 4:0 5:0 6:0 7:0 8:0 9:100 10:0 11:0 12:0 13:0 14:0 15:0 16:0 17:0 18:0 19:0 20:0 21:60 22:40 23:0 24:0 25:0 26:40 27:0 28:20 29:60 30:0 31:0 32:0 33:0 34:20 35:0 36:20 37:20 38:60 39:0 40:20 41:68 42:82 
2 1:0 2:0 3:0 4:0 5:100 6:0 7:-100 8:0 9:0 10:0 11:0 12:0 13:0 14:0 15:0 16:0 17:0 18:0 19:0 20:0 21:0 22:0 23:20 24:0 25:0 26:0 27:20 28:20 29:40 30:20 31:40 32:40 33:20 34:20 35:0 36:60 37:20 38:0 39:40 40:0 41:35 42:63 
1.646852232275822 1:0 2:0 3:0 4:0 5:0 6:0 7:0 8:0 9:0 10:0 11:0 12:0 13:0 14:0 15:0 16:0 17:0 18:0 19:100 20:-100 21:20 22:0 23:20 24:0 25:0 26:20 27:20 28:40 29:40 30:20 31:20 32:20 33:20 34:0 35:20 36:20 37:20 38:0 39:60 40:0 41:15 42:65 
2 1:0 2:0 3:0 4:0 5:0 6:0 7:0 8:0 9:0 10:0 11:0 12:0 13:0 14:0 15:0 16:0 17:0 18:0 19:100 20:-100 21:20 22:0 23:20 24:0 25:0 26:20 27:20 28:40 29:40 30:20 31:20 32:20 33:20 34:0 35:20 36:20 37:20 38:0 39:60 40:0 41:16 42:65 
2 1:0 2:0 3:0 4:0 5:0 6:0 7:0 8:0 9:0 10:0 11:0 12:0 13:0 14:0 15:0 16:0 17:0 18:0 19:100 20:-100 21:20 22:0 23:20 24:0 25:0 26:20 27:20 28:40 29:40 30:20 31:20 32:20 33:20 34:0 35:20 36:20 37:20 38:0 39:60 40:0 41:32 42:65 
2 1:0 2:0 3:0 4:0 5:0 6:0 7:0 8:0 9:0 10:0 11:0 12:0 13:0 14:0 15:0 16:0 17:0 18:0 19:100 20:-100 21:20 22:0 23:20 24:0 25:0 26:20 27:20 28:40 29:40 30:20 31:20 32:20 33:20 34:0 35:20 36:20 37:20 38:0 39:60 40:0 41:28 42:65 
2 1:0 2:0 3:0 4:0 5:0 6:0 7:100 8:0 9:0 10:0 11:-100 12:0 13:0 14:0 15:0 16:0 17:0 18:0 19:0 20:0 21:40 22:40 23:40 24:0 25:0 26:0 27:0 28:0 29:60 30:0 31:60 32:20 33:20 34:0 35:0 36:40 37:0 38:0 39:20 40:20 41:45 42:74 
2 1:0 2:0 3:0 4:0 5:0 6:0 7:0 8:0 9:0 10:0 11:-100 12:0 13:0 14:0 15:0 16:0 17:0 18:0 19:0 20:100 21:40 22:40 23:40 24:0 25:0 26:0 27:0 28:0 29:60 30:0 31:60 32:20 33:20 34:0 35:0 36:40 37:0 38:0 39:20 40:20 41:45 42:74 
2 1:0 2:0 3:0 4:0 5:0 6:0 7:0 8:0 9:100 10:0 11:-100 12:0 13:0 14:0 15:0 16:0 17:0 18:0 19:0 20:0 21:40 22:40 23:40 24:0 25:0 26:0 27:0 28:0 29:60 30:0 31:60 32:20 33:20 34:0 35:0 36:40 37:0 38:0 39:20 40:20 41:45 42:74 
0.4594560833306341 1:0 2:0 3:0 4:0 5:0 6:-100 7:100 8:0 9:0 10:0 11:0 12:0 13:0 14:0 15:0 16:0 17:0 18:0 19:0 20:0 21:0 22:40 23:40 24:0 25:0 26:0 27:60 28:0 29:0 30:0 31:60 32:40 33:0 34:20 35:20 36:20 37:0 38:0 39:0 40:60 41:64 42:25 
0.07868633718713092 1:0 2:0 3:0 4:0 5:0 6:-100 7:100 8:0 9:0 10:0 11:0 12:0 13:0 14:0 15:0 16:0 17:0 18:0 19:0 20:0 21:0 22:40 23:40 24:0 25:0 26:0 27:60 28:0 29:0 30:0 31:60 32:40 33:0 34:20 35:20 36:20 37:0 38:0 39:0 40:60 41:41 42:25 
2 1:0 2:0 3:0 4:0 5:0 6:0 7:0 8:0 9:0 10:0 11:0 12:0 13:0 14:0 15:0 16:0 17:0 18:0 19:-100 20:100 21:60 22:20 23:0 24:0 25:20 26:0 27:20 28:20 29:0 30:20 31:60 32:20 33:0 34:0 35:20 36:0 37:60 38:20 39:0 40:20 41:50 42:48 
0.4491679534745898 1:0 2:0 3:0 4:0 5:0 6:0 7:0 8:0 9:100 10:0 11:0 12:0 13:0 14:0 15:0 16:0 17:0 18:0 19:-100 20:0 21:60 22:20 23:0 24:0 25:20 26:0 27:20 28:20 29:0 30:20 31:60 32:20 33:0 34:0 35:20 36:0 37:60 38:20 39:0 40:20 41:50 42:48 
1.772747688089471 1:0 2:0 3:0 4:0 5:0 6:0 7:0 8:100 9:0 10:0 11:-100 12:0 13:0 14:0 15:0 16:0 17:0 18:0 19:0 20:0 21:20 22:40 23:20 24:0 25:0 26:20 27:20 28:20 29:60 30:20 31:0 32:20 33:0 34:0 35:0 36:40 37:20 38:20 39:20 40:20 41:45 42:25 
2 1:100 2:-100 3:0 4:0 5:0 6:0 7:0 8:0 9:0 10:0 11:0 12:0 13:0 14:0 15:0 16:0 17:0 18:0 19:0 20:0 21:40 22:60 23:20 24:0 25:0 26:0 27:0 28:40 29:40 30:0 31:0 32:40 33:0 34:20 35:0 36:80 37:0 38:0 39:0 40:20 41:78 42:76 
1.628890344327994 1:0 2:100 3:0 4:0 5:-100 6:0 7:0 8:0 9:0 10:0 11:0 12:0 13:0 14:0 15:0 16:0 17:0 18:0 19:0 20:0 21:0 22:40 23:20 24:0 25:20 26:0 27:0 28:40 29:40 30:40 31:0 32:20 33:20 34:0 35:40 36:0 37:20 38:0 39:20 40:40 41:51 42:51 
0.3105919333186419 1:0 2:-100 3:0 4:0 5:0 6:0 7:0 8:0 9:100 10:0 11:0 12:0 13:0 14:0 15:0 16:0 17:0 18:0 19:0 20:0 21:40 22:60 23:20 24:0 25:0 26:0 27:0 28:40 29:40 30:0 31:0 32:40 33:0 34:20 35:0 36:80 37:0 38:0 39:0 40:20 41:78 42:76 
1.272169177835442 1:0 2:0 3:0 4:0 5:0 6:0 7:0 8:0 9:0 10:0 11:0 12:0 13:0 14:0 15:0 16:100 17:0 18:-100 19:0 20:0 21:20 22:40 23:0 24:20 25:0 26:20 27:0 28:0 29:60 30:0 31:20 32:0 33:0 34:0 35:60 36:40 37:40 38:0 39:20 40:20 41:21 42:47 
0.8520368761334133 1:-100 2:0 3:0 4:0 5:0 6:0 7:0 8:0 9:0 10:0 11:0 12:0 13:100 14:0 15:0 16:0 17:0 18:0 19:0 20:0 21:0 22:0 23:20 24:0 25:20 26:20 27:0 28:20 29:20 30:20 31:0 32:100 33:0 34:0 35:60 36:20 37:20 38:0 39:40 40:0 41:38 42:59 
2 1:-100 2:0 3:100 4:0 5:0 6:0 7:0 8:0 9:0 10:0 11:0 12:0 13:0 14:0 15:0 16:0 17:0 18:0 19:0 20:0 21:0 22:0 23:20 24:0 25:20 26:20 27:0 28:20 29:20 30:20 31:0 32:100 33:0 34:0 35:60 36:20 37:20 38:0 39:40 40:0 41:38 42:59 
0.9836334182277955 1:-100 2:0 3:0 4:100 5:0 6:0 7:0 8:0 9:0 10:0 11:0 12:0 13:0 14:0 15:0 16:0 17:0 18:0 19:0 20:0 21:0 22:0 23:20 24:0 25:20 26:20 27:0 28:20 29:20 30:20 31:0 32:100 33:0 34:0 35:60 36:20 37:20 38:0 39:40 40:0 41:38 42:65 
2 1:0 2:0 3:0 4:0 5:0 6:0 7:0 8:0 9:0 10:0 11:0 12:0 13:0 14:0 15:0 16:100 17:0 18:0 19:0 20:-100 21:40 22:60 23:0 24:0 25:20 26:20 27:20 28:40 29:20 30:0 31:20 32:0 33:0 34:0 35:0 36:20 37:0 38:40 39:20 40:40 41:50 42:44 
2 1:0 2:0 3:0 4:0 5:0 6:0 7:0 8:0 9:0 10:0 11:0 12:0 13:0 14:0 15:0 16:100 17:0 18:0 19:0 20:-100 21:40 22:60 23:0 24:0 25:20 26:20 27:20 28:40 29:20 30:0 31:20 32:0 33:0 34:0 35:0 36:20 37:0 38:40 39:20 40:40 41:50 42:44 
2 1:0 2:0 3:0 4:0 5:0 6:0 7:0 8:0 9:0 10:0 11:0 12:0 13:0 14:0 15:0 16:100 17:0 18:0 19:0 20:-100 21:40 22:60 23:0 24:0 25:20 26:20 27:20 28:40 29:20 30:0 31:20 32:0 33:0 34:0 35:0 36:20 37:0 38:40 39:20 40:40 41:50 42:44 
1.396473902142778 1:0 2:0 3:0 4:0 5:0 6:0 7:0 8:0 9:0 10:0 11:0 12:0 13:0 14:0 15:0 16:100 17:0 18:0 19:0 20:-100 21:40 22:60 23:0 24:0 25:20 26:20 27:20 28:40 29:20 30:0 31:20 32:0 33:0 34:0 35:0 36:20 37:0 38:40 39:20 40:40 41:50 42:44 
0.5418775590009067 1:0 2:-100 3:0 4:0 5:0 6:0 7:0 8:0 9:0 10:0 11:0 12:0 13:100 14:0 15:0 16:0 17:0 18:0 19:0 20:0 21:60 22:60 23:0 24:0 25:0 26:0 27:40 28:20 29:0 30:20 31:0 32:0 33:20 34:0 35:0 36:20 37:20 38:40 39:40 40:20 41:50 42:25 
0.1082121422451271 1:0 2:-100 3:0 4:0 5:0 6:0 7:0 8:0 9:100 10:0 11:0 12:0 13:0 14:0 15:0 16:0 17:0 18:0 19:0 20:0 21:60 22:60 23:0 24:0 25:0 26:0 27:40 28:20 29:0 30:20 31:0 32:0 33:20 34:0 35:0 36:20 37:20 38:40 39:40 40:20 41:50 42:25 
2 1:0 2:0 3:0 4:0 5:0 6:0 7:0 8:0 9:100 10:0 11:0 12:0 13:0 14:0 15:0 16:0 17:0 18:0 19:-100 20:0 21:40 22:20 23:0 24:0 25:20 26:0 27:0 28:20 29:60 30:0 31:0 32:20 33:0 34:0 35:20 36:40 37:20 38:40 39:0 40:60 41:17 42:47 
2 1:0 2:0 3:0 4:0 5:100 6:0 7:-100 8:0 9:0 10:0 11:0 12:0 13:0 14:0 15:0 16:0 17:0 18:0 19:0 20:0 21:0 22:20 23:0 24:20 25:0 26:20 27:20 28:20 29:60 30:0 31:20 32:40 33:20 34:0 35:20 36:20 37:0 38:20 39:60 40:0 41:19 42:64 
1.577014845502245 1:100 2:0 3:-100 4:0 5:0 6:0 7:0 8:0 9:0 10:0 11:0 12:0 13:0 14:0 15:0 16:0 17:0 18:0 19:0 20:0 21:60 22:40 23:0 24:0 25:0 26:0 27:0 28:20 29:60 30:20 31:0 32:0 33:0 34:0 35:40 36:40 37:20 38:0 39:20 40:40 41:38 42:61 
0.1846850936039783 1:0 2:0 3:0 4:0 5:0 6:0 7:-100 8:100 9:0 10:0 11:0 12:0 13:0 14:0 15:0 16:0 17:0 18:0 19:0 20:0 21:0 22:40 23:40 24:0 25:20 26:20 27:40 28:0 29:0 30:0 31:40 32:60 33:0 34:20 35:0 36:20 37:20 38:0 39:0 40:40 41:45 42:25 
2 1:0 2:0 3:0 4:0 5:0 6:0 7:0 8:-100 9:100 10:0 11:0 12:0 13:0 14:0 15:0 16:0 17:0 18:0 19:0 20:0 21:0 22:20 23:0 24:20 25:0 26:40 27:40 28:0 29:40 30:0 31:20 32:40 33:20 34:0 35:20 36:20 37:0 38:20 39:60 40:0 41:19 42:64 
1.716460380398537 1:0 2:0 3:0 4:0 5:0 6:0 7:0 8:0 9:0 10:0 11:0 12:100 13:-100 14:0 15:0 16:0 17:0 18:0 19:0 20:0 21:20 22:60 23:0 24:0 25:0 26:0 27:60 28:20 29:0 30:40 31:20 32:0 33:0 34:0 35:0 36:20 37:20 38:40 39:40 40:20 41:50 42:25 
2 1:0 2:0 3:0 4:0 5:0 6:0 7:0 8:0 9:-100 10:100 11:0 12:0 13:0 14:0 15:0 16:0 17:0 18:0 19:0 20:0 21:40 22:40 23:20 24:0 25:20 26:0 27:0 28:20 29:40 30:0 31:0 32:0 33:0 34:0 35:40 36:40 37:20 38:0 39:40 40:40 41:25 42:57 
2 1:0 2:0 3:0 4:0 5:0 6:0 7:0 8:0 9:-100 10:100 11:0 12:0 13:0 14:0 15:0 16:0 17:0 18:0 19:0 20:0 21:40 22:40 23:20 24:0 25:20 26:0 27:0 28:20 29:40 30:0 31:0 32:0 33:0 34:0 35:40 36:40 37:20 38:0 39:40 40:40 41:46 42:62 
2 1:0 2:0 3:0 4:0 5:0 6:0 7:0 8:0 9:-100 10:100 11:0 12:0 13:0 14:0 15:0 16:0 17:0 18:0 19:0 20:0 21:40 22:40 23:20 24:0 25:20 26:0 27:0 28:20 29:40 30:0 31:0 32:0 33:0 34:0 35:40 36:40 37:20 38:0 39:40 40:40 41:28 42:62 
2 1:0 2:0 3:0 4:0 5:0 6:0 7:0 8:0 9:-100 10:100 11:0 12:0 13:0 14:0 15:0 16:0 17:0 18:0 19:0 20:0 21:40 22:40 23:20 24:0 25:20 26:0 27:0 28:20 29:40 30:0 31:0 32:0 33:0 34:0 35:40 36:40 37:20 38:0 39:40 40:40 41:39 42:65 
0.9724148475661037 1:0 2:0 3:0 4:0 5:0 6:0 7:0 8:0 9:100 10:0 11:0 12:0 13:-100 14:0 15:0 16:0 17:0 18:0 19:0 20:0 21:20 22:60 23:0 24:0 25:0 26:0 27:60 28:20 29:0 30:40 31:20 32:0 33:0 34:0 35:0 36:20 37:20 38:40 39:40 40:20 41:50 42:25 
1.383234740861162 1:0 2:0 3:0 4:100 5:0 6:0 7:0 8:0 9:0 10:0 11:0 12:0 13:-100 14:0 15:0 16:0 17:0 18:0 19:0 20:0 21:20 22:60 23:0 24:0 25:0 26:0 27:60 28:20 29:0 30:40 31:20 32:0 33:0 34:0 35:0 36:20 37:20 38:40 39:40 40:20 41:50 42:25 
0.9212665216510968 1:0 2:0 3:100 4:0 5:0 6:0 7:0 8:0 9:0 10:0 11:0 12:0 13:-100 14:0 15:0 16:0 17:0 18:0 19:0 20:0 21:20 22:60 23:0 24:0 25:0 26:0 27:60 28:20 29:0 30:40 31:20 32:0 33:0 34:0 35:0 36:20 37:20 38:40 39:40 40:20 41:50 42:25 
1.001779287246881 1:0 2:0 3:0 4:0 5:0 6:100 7:-100 8:0 9:0 10:0 11:0 12:0 13:0 14:0 15:0 16:0 17:0 18:0 19:0 20:0 21:0 22:80 23:0 24:20 25:0 26:0 27:0 28:40 29:20 30:0 31:20 32:20 33:0 34:0 35:40 36:0 37:0 38:40 39:20 40:60 41:60 42:37 
0.7164354187027578 1:0 2:100 3:0 4:0 5:0 6:0 7:-100 8:0 9:0 10:0 11:0 12:0 13:0 14:0 15:0 16:0 17:0 18:0 19:0 20:0 21:0 22:80 23:0 24:20 25:0 26:0 27:0 28:40 29:20 30:0 31:20 32:20 33:0 34:0 35:40 36:0 37:0 38:40 39:20 40:60 41:60 42:37 
1.696898191271051 1:0 2:0 3:0 4:0 5:100 6:0 7:-100 8:0 9:0 10:0 11:0 12:0 13:0 14:0 15:0 16:0 17:0 18:0 19:0 20:0 21:0 22:80 23:0 24:20 25:0 26:0 27:0 28:40 29:20 30:0 31:20 32:20 33:0 34:0 35:40 36:0 37:0 38:40 39:20 40:60 41:60 42:37 
1.302861757783562 1:0 2:-100 3:100 4:0 5:0 6:0 7:0 8:0 9:0 10:0 11:0 12:0 13:0 14:0 15:0 16:0 17:0 18:0 19:0 20:0 21:20 22:20 23:0 24:20 25:20 26:20 27:0 28:40 29:20 30:0 31:20 32:40 33:0 34:0 35:40 36:20 37:40 38:0 39:20 40:20 41:38 42:61 
2 1:0 2:0 3:0 4:0 5:0 6:0 7:0 8:0 9:0 10:0 11:0 12:0 13:0 14:0 15:0 16:0 17:100 18:-100 19:0 20:0 21:40 22:40 23:0 24:0 25:0 26:20 27:0 28:20 29:20 30:20 31:20 32:20 33:0 34:0 35:0 36:40 37:0 38:60 39:20 40:0 41:44 42:25 
1.749425839118453 1:0 2:0 3:0 4:0 5:0 6:0 7:0 8:0 9:-100 10:0 11:100 12:0 13:0 14:0 15:0 16:0 17:0 18:0 19:0 20:0 21:0 22:80 23:20 24:0 25:0 26:0 27:0 28:0 29:40 30:20 31:60 32:20 33:0 34:0 35:0 36:60 37:0 38:20 39:20 40:20 41:21 42:51 
1.493181060064199 1:100 2:0 3:-100 4:0 5:0 6:0 7:0 8:0 9:0 10:0 11:0 12:0 13:0 14:0 15:0 16:0 17:0 18:0 19:0 20:0 21:0 22:0 23:0 24:0 25:20 26:0 27:20 28:0 29:0 30:0 31:0 32:60 33:0 34:20 35:20 36:20 37:20 38:0 39:0 40:20 41:45 42:25 
2 1:0 2:0 3:0 4:0 5:0 6:0 7:0 8:0 9:0 10:0 11:0 12:0 13:0 14:0 15:100 16:0 17:-100 18:0 19:0 20:0 21:60 22:0 23:0 24:20 25:0 26:0 27:60 28:0 29:20 30:0 31:20 32:20 33:20 34:0 35:20 36:20 37:60 38:40 39:0 40:0 41:50 42:25 
1.630597773382812 1:0 2:0 3:0 4:0 5:0 6:0 7:0 8:0 9:0 10:0 11:0 12:0 13:0 14:-100 15:100 16:0 17:0 18:0 19:0 20:0 21:20 22:40 23:20 24:0 25:0 26:0 27:60 28:20 29:20 30:20 31:0 32:40 33:0 34:0 35:0 36:40 37:20 38:0 39:20 40:40 41:45 42:25 
2 1:0 2:0 3:0 4:0 5:0 6:0 7:0 8:0 9:0 10:0 11:0 12:0 13:0 14:0 15:0 16:0 17:100 18:-100 19:0 20:0 21:40 22:20 23:20 24:0 25:40 26:0 27:0 28:60 29:20 30:0 31:20 32:20 33:0 34:0 35:0 36:20 37:40 38:60 39:0 40:0 41:53 42:55 
2 1:0 2:0 3:0 4:0 5:100 6:0 7:-100 8:0 9:0 10:0 11:0 12:0 13:0 14:0 15:0 16:0 17:0 18:0 19:0 20:0 21:20 22:40 23:20 24:0 25:20 26:0 27:20 28:20 29:20 30:20 31:0 32:40 33:0 34:20 35:0 36:20 37:20 38:0 39:20 40:60 41:45 42:25 
0.8282866524741178 1:0 2:100 3:-100 4:0 5:0 6:0 7:0 8:0 9:0 10:0 11:0 12:0 13:0 14:0 15:0 16:0 17:0 18:0 19:0 20:0 21:0 22:20 23:0 24:0 25:20 26:40 27:20 28:40 29:0 30:0 31:80 32:0 33:20 34:0 35:0 36:20 37:20 38:0 39:60 40:20 41:32 42:66 
1.471157437474649 1:0 2:0 3:0 4:-100 5:0 6:0 7:0 8:100 9:0 10:0 11:0 12:0 13:0 14:0 15:0 16:0 17:0 18:0 19:0 20:0 21:80 22:40 23:0 24:20 25:0 26:0 27:20 28:20 29:0 30:40 31:0 32:40 33:20 34:0 35:20 36:0 37:0 38:20 39:0 40:40 41:22 42:53 
1.630458782466772 1:0 2:0 3:100 4:-100 5:0 6:0 7:0 8:0 9:0 10:0 11:0 12:0 13:0 14:0 15:0 16:0 17:0 18:0 19:0 20:0 21:80 22:40 23:0 24:20 25:0 26:0 27:20 28:20 29:0 30:40 31:0 32:40 33:20 34:0 35:20 36:0 37:0 38:20 39:0 40:40 41:50 42:53 
2 1:0 2:0 3:100 4:-100 5:0 6:0 7:0 8:0 9:0 10:0 11:0 12:0 13:0 14:0 15:0 16:0 17:0 18:0 19:0 20:0 21:80 22:40 23:0 24:20 25:0 26:0 27:20 28:20 29:0 30:40 31:0 32:40 33:20 34:0 35:20 36:0 37:0 38:20 39:0 40:40 41:22 42:53 
1.617711355225149 1:0 2:0 3:100 4:-100 5:0 6:0 7:0 8:0 9:0 10:0 11:0 12:0 13:0 14:0 15:0 16:0 17:0 18:0 19:0 20:0 21:80 22:40 23:0 24:20 25:0 26:0 27:20 28:20 29:0 30:40 31:0 32:40 33:20 34:0 35:20 36:0 37:0 38:20 39:0 40:40 41:67 42:53 
0.116765745745847 1:0 2:100 3:0 4:-100 5:0 6:0 7:0 8:0 9:0 10:0 11:0 12:0 13:0 14:0 15:0 16:0 17:0 18:0 19:0 20:0 21:80 22:40 23:0 24:20 25:0 26:0 27:20 28:20 29:0 30:40 31:0 32:40 33:20 34:0 35:20 36:0 37:0 38:20 39:0 40:40 41:50 42:53 
2 1:0 2:100 3:0 4:-100 5:0 6:0 7:0 8:0 9:0 10:0 11:0 12:0 13:0 14:0 15:0 16:0 17:0 18:0 19:0 20:0 21:80 22:40 23:0 24:20 25:0 26:0 27:20 28:20 29:0 30:40 31:0 32:40 33:20 34:0 35:20 36:0 37:0 38:20 39:0 40:40 41:22 42:53 
0.7594863735474187 1:0 2:100 3:0 4:-100 5:0 6:0 7:0 8:0 9:0 10:0 11:0 12:0 13:0 14:0 15:0 16:0 17:0 18:0 19:0 20:0 21:80 22:40 23:0 24:20 25:0 26:0 27:20 28:20 29:0 30:40 31:0 32:40 33:20 34:0 35:20 36:0 37:0 38:20 39:0 40:40 41:67 42:53 
2 1:100 2:0 3:0 4:-100 5:0 6:0 7:0 8:0 9:0 10:0 11:0 12:0 13:0 14:0 15:0 16:0 17:0 18:0 19:0 20:0 21:80 22:40 23:0 24:20 25:0 26:0 27:20 28:20 29:0 30:40 31:0 32:40 33:20 34:0 35:20 36:0 37:0 38:20 39:0 40:40 41:22 42:53 
1.561669789353268 1:100 2:0 3:0 4:-100 5:0 6:0 7:0 8:0 9:0 10:0 11:0 12:0 13:0 14:0 15:0 16:0 17:0 18:0 19:0 20:0 21:80 22:40 23:0 24:20 25:0 26:0 27:20 28:20 29:0 30:40 31:0 32:40 33:20 34:0 35:20 36:0 37:0 38:20 39:0 40:40 41:50 42:53 
2 1:100 2:0 3:0 4:-100 5:0 6:0 7:0 8:0 9:0 10:0 11:0 12:0 13:0 14:0 15:0 16:0 17:0 18:0 19:0 20:0 21:80 22:40 23:0 24:20 25:0 26:0 27:20 28:20 29:0 30:40 31:0 32:40 33:20 34:0 35:20 36:0 37:0 38:20 39:0 40:40 41:67 42:53 
2 1:0 2:0 3:0 4:0 5:0 6:0 7:0 8:0 9:0 10:100 11:0 12:0 13:0 14:0 15:0 16:0 17:0 18:-100 19:0 20:0 21:20 22:20 23:40 24:0 25:0 26:0 27:0 28:20 29:0 30:40 31:20 32:0 33:0 34:0 35:20 36:60 37:60 38:0 39:20 40:40 41:21 42:65 
2 1:0 2:0 3:0 4:0 5:0 6:0 7:0 8:0 9:0 10:0 11:0 12:0 13:0 14:100 15:0 16:0 17:0 18:-100 19:0 20:0 21:20 22:20 23:40 24:0 25:0 26:0 27:0 28:20 29:0 30:40 31:20 32:0 33:0 34:0 35:20 36:60 37:60 38:0 39:20 40:40 41:21 42:65 
2 1:0 2:0 3:0 4:0 5:0 6:0 7:0 8:0 9:0 10:0 11:0 12:0 13:0 14:0 15:0 16:100 17:0 18:-100 19:0 20:0 21:20 22:20 23:40 24:0 25:0 26:0 27:0 28:20 29:0 30:40 31:20 32:0 33:0 34:0 35:20 36:60 37:60 38:0 39:20 40:40 41:21 42:65 
0.07667642811800129 1:-100 2:0 3:0 4:0 5:100 6:0 7:0 8:0 9:0 10:0 11:0 12:0 13:0 14:0 15:0 16:0 17:0 18:0 19:0 20:0 21:0 22:40 23:40 24:40 25:0 26:0 27:20 28:40 29:20 30:20 31:0 32:20 33:0 34:0 35:0 36:60 37:20 38:0 39:0 40:40 41:38 42:40 
0.1055415490697543 1:0 2:0 3:0 4:0 5:0 6:0 7:100 8:0 9:-100 10:0 11:0 12:0 13:0 14:0 15:0 16:0 17:0 18:0 19:0 20:0 21:20 22:20 23:0 24:0 25:0 26:0 27:20 28:40 29:40 30:0 31:80 32:20 33:0 34:20 35:0 36:0 37:40 38:20 39:0 40:40 41:17 42:0 
1.428487598406336 1:0 2:0 3:0 4:0 5:0 6:0 7:0 8:0 9:0 10:0 11:100 12:0 13:0 14:0 15:0 16:0 17:-100 18:0 19:0 20:0 21:0 22:40 23:40 24:0 25:20 26:0 27:0 28:40 29:20 30:40 31:0 32:0 33:0 34:0 35:20 36:40 37:40 38:20 39:0 40:40 41:26 42:50 
1.795467671038754 1:0 2:0 3:0 4:0 5:0 6:0 7:0 8:0 9:0 10:0 11:0 12:100 13:0 14:0 15:0 16:0 17:-100 18:0 19:0 20:0 21:0 22:40 23:40 24:0 25:20 26:0 27:0 28:40 29:20 30:40 31:0 32:0 33:0 34:0 35:20 36:40 37:40 38:20 39:0 40:40 41:26 42:50 
2 1:100 2:0 3:0 4:0 5:0 6:0 7:0 8:0 9:0 10:0 11:0 12:0 13:0 14:0 15:0 16:0 17:-100 18:0 19:0 20:0 21:0 22:40 23:40 24:0 25:20 26:0 27:0 28:40 29:20 30:40 31:0 32:0 33:0 34:0 35:20 36:40 37:40 38:20 39:0 40:40 41:26 42:50 
2 1:0 2:100 3:0 4:0 5:0 6:0 7:0 8:0 9:0 10:0 11:0 12:0 13:0 14:0 15:0 16:0 17:-100 18:0 19:0 20:0 21:0 22:40 23:40 24:0 25:20 26:0 27:0 28:40 29:20 30:40 31:0 32:0 33:0 34:0 35:20 36:40 37:40 38:20 39:0 40:40 41:26 42:50 
2 1:0 2:0 3:0 4:0 5:0 6:0 7:0 8:0 9:0 10:0 11:0 12:0 13:0 14:0 15:0 16:0 17:-100 18:0 19:100 20:0 21:0 22:40 23:40 24:0 25:20 26:0 27:0 28:40 29:20 30:40 31:0 32:0 33:0 34:0 35:20 36:40 37:40 38:20 39:0 40:40 41:26 42:50 
2 1:0 2:0 3:0 4:0 5:0 6:0 7:0 8:0 9:0 10:0 11:0 12:0 13:0 14:0 15:0 16:0 17:0 18:-100 19:0 20:100 21:20 22:40 23:20 24:40 25:0 26:0 27:20 28:0 29:60 30:0 31:0 32:60 33:0 34:0 35:40 36:0 37:0 38:20 39:40 40:0 41:64 42:47 
2 1:0 2:0 3:0 4:0 5:0 6:0 7:0 8:100 9:0 10:0 11:0 12:-100 13:0 14:0 15:0 16:0 17:0 18:0 19:0 20:0 21:20 22:0 23:0 24:0 25:20 26:0 27:20 28:0 29:20 30:0 31:0 32:80 33:0 34:0 35:0 36:20 37:0 38:20 39:0 40:40 41:37 42:60 
0.2478412981587332 1:-100 2:0 3:0 4:0 5:0 6:0 7:0 8:0 9:0 10:0 11:0 12:100 13:0 14:0 15:0 16:0 17:0 18:0 19:0 20:0 21:0 22:20 23:0 24:0 25:0 26:40 27:20 28:0 29:60 30:0 31:20 32:0 33:0 34:0 35:40 36:40 37:40 38:20 39:40 40:20 41:14 42:41 
2 1:-100 2:0 3:0 4:0 5:0 6:0 7:0 8:0 9:0 10:0 11:0 12:100 13:0 14:0 15:0 16:0 17:0 18:0 19:0 20:0 21:0 22:20 23:0 24:0 25:0 26:40 27:20 28:0 29:60 30:0 31:20 32:0 33:0 34:0 35:40 36:40 37:40 38:20 39:40 40:20 41:20 42:51 
2 1:-100 2:0 3:0 4:0 5:0 6:0 7:0 8:0 9:0 10:0 11:0 12:100 13:0 14:0 15:0 16:0 17:0 18:0 19:0 20:0 21:0 22:20 23:0 24:0 25:0 26:40 27:20 28:0 29:60 30:0 31:20 32:0 33:0 34:0 35:40 36:40 37:40 38:20 39:40 40:20 41:21 42:53 
1.602011675414776 1:0 2:0 3:0 4:0 5:-100 6:0 7:0 8:0 9:100 10:0 11:0 12:0 13:0 14:0 15:0 16:0 17:0 18:0 19:0 20:0 21:40 22:20 23:20 24:40 25:0 26:0 27:0 28:60 29:60 30:0 31:0 32:20 33:0 34:0 35:40 36:0 37:20 38:20 39:20 40:0 41:38 42:65 
1.466927228300634 1:0 2:0 3:0 4:100 5:-100 6:0 7:0 8:0 9:0 10:0 11:0 12:0 13:0 14:0 15:0 16:0 17:0 18:0 19:0 20:0 21:40 22:20 23:20 24:40 25:0 26:0 27:0 28:60 29:60 30:0 31:0 32:20 33:0 34:0 35:40 36:0 37:20 38:20 39:20 40:0 41:38 42:65 
2 1:0 2:0 3:0 4:0 5:0 6:0 7:0 8:0 9:0 10:0 11:0 12:0 13:0 14:0 15:100 16:-100 17:0 18:0 19:0 20:0 21:20 22:20 23:20 24:0 25:0 26:40 27:0 28:60 29:60 30:0 31:0 32:0 33:0 34:40 35:0 36:20 37:40 38:20 39:0 40:20 41:21 42:50 
0.281206395666279 1:0 2:0 3:-100 4:100 5:0 6:0 7:0 8:0 9:0 10:0 11:0 12:0 13:0 14:0 15:0 16:0 17:0 18:0 19:0 20:0 21:20 22:40 23:40 24:0 25:20 26:0 27:20 28:0 29:20 30:20 31:40 32:0 33:0 34:60 35:20 36:20 37:0 38:40 39:0 40:0 41:78 42:76 
1.867002214146289 1:0 2:0 3:0 4:0 5:0 6:0 7:0 8:0 9:100 10:0 11:0 12:0 13:0 14:0 15:0 16:0 17:0 18:0 19:-100 20:0 21:0 22:0 23:0 24:20 25:20 26:0 27:20 28:40 29:40 30:0 31:20 32:0 33:40 34:0 35:60 36:40 37:0 38:20 39:20 40:20 41:50 42:39 
0.1962987842674562 1:0 2:0 3:0 4:0 5:0 6:0 7:0 8:100 9:0 10:0 11:0 12:0 13:0 14:0 15:0 16:0 17:0 18:0 19:-100 20:0 21:0 22:0 23:0 24:20 25:20 26:0 27:20 28:40 29:40 30:0 31:20 32:0 33:40 34:0 35:60 36:40 37:0 38:20 39:20 40:20 41:14 42:25 
2 1:100 2:0 3:0 4:0 5:0 6:0 7:0 8:0 9:0 10:0 11:-100 12:0 13:0 14:0 15:0 16:0 17:0 18:0 19:0 20:0 21:40 22:40 23:40 24:0 25:0 26:0 27:0 28:0 29:60 30:0 31:60 32:20 33:20 34:0 35:0 36:40 37:0 38:0 39:20 40:20 41:45 42:74 
2 1:0 2:0 3:0 4:0 5:0 6:0 7:0 8:-100 9:100 10:0 11:0 12:0 13:0 14:0 15:0 16:0 17:0 18:0 19:0 20:0 21:0 22:20 23:40 24:0 25:0 26:0 27:20 28:20 29:20 30:0 31:20 32:80 33:0 34:0 35:20 36:0 37:40 38:0 39:40 40:40 41:19 42:65 
2 1:0 2:0 3:0 4:-100 5:100 6:0 7:0 8:0 9:0 10:0 11:0 12:0 13:0 14:0 15:0 16:0 17:0 18:0 19:0 20:0 21:40 22:60 23:20 24:0 25:40 26:0 27:0 28:40 29:20 30:20 31:20 32:0 33:0 34:0 35:40 36:20 37:20 38:0 39:0 40:20 41:50 42:25 
0.2273786526465927 1:0 2:0 3:0 4:0 5:0 6:0 7:0 8:-100 9:0 10:0 11:0 12:0 13:0 14:0 15:0 16:0 17:0 18:0 19:100 20:0 21:0 22:20 23:40 24:0 25:0 26:0 27:20 28:20 29:20 30:0 31:20 32:80 33:0 34:0 35:20 36:0 37:40 38:0 39:40 40:40 41:67 42:20 
1.421221314953137 1:0 2:0 3:0 4:0 5:0 6:0 7:0 8:0 9:100 10:-100 11:0 12:0 13:0 14:0 15:0 16:0 17:0 18:0 19:0 20:0 21:0 22:20 23:0 24:0 25:60 26:0 27:0 28:0 29:60 30:20 31:0 32:20 33:20 34:0 35:0 36:20 37:60 38:40 39:0 40:40 41:52 42:53 
2 1:0 2:0 3:0 4:0 5:0 6:0 7:0 8:100 9:0 10:0 11:0 12:0 13:0 14:0 15:0 16:-100 17:0 18:0 19:0 20:0 21:20 22:60 23:0 24:20 25:0 26:20 27:0 28:0 29:40 30:0 31:20 32:20 33:0 34:0 35:40 36:0 37:40 38:20 39:40 40:20 41:46 42:64 
2 1:0 2:0 3:0 4:0 5:100 6:0 7:-100 8:0 9:0 10:0 11:0 12:0 13:0 14:0 15:0 16:0 17:0 18:0 19:0 20:0 21:40 22:0 23:20 24:0 25:40 26:20 27:0 28:80 29:0 30:0 31:20 32:0 33:0 34:0 35:0 36:40 37:0 38:60 39:40 40:0 41:50 42:70 
1.98756631250865 1:0 2:0 3:0 4:0 5:0 6:0 7:0 8:0 9:0 10:0 11:0 12:0 13:0 14:0 15:0 16:0 17:100 18:-100 19:0 20:0 21:60 22:0 23:20 24:0 25:60 26:0 27:0 28:60 29:0 30:0 31:20 32:0 33:0 34:0 35:0 36:20 37:20 38:40 39:20 40:40 41:53 42:55 
0.6083558686431944 1:0 2:0 3:0 4:0 5:0 6:0 7:0 8:0 9:0 10:0 11:0 12:0 13:0 14:0 15:0 16:0 17:100 18:-100 19:0 20:0 21:60 22:0 23:20 24:0 25:60 26:0 27:0 28:60 29:0 30:0 31:20 32:0 33:0 34:0 35:0 36:20 37:20 38:40 39:20 40:40 41:53 42:55 
0.9250759720593084 1:0 2:0 3:0 4:0 5:0 6:0 7:0 8:0 9:0 10:0 11:0 12:0 13:0 14:0 15:0 16:0 17:0 18:0 19:100 20:-100 21:0 22:40 23:40 24:0 25:0 26:20 27:40 28:0 29:0 30:0 31:60 32:40 33:0 34:20 35:20 36:20 37:0 38:0 39:20 40:40 41:45 42:25 
0.4120655960297243 1:0 2:0 3:0 4:0 5:0 6:0 7:0 8:0 9:0 10:0 11:0 12:0 13:0 14:0 15:-100 16:0 17:100 18:0 19:0 20:0 21:0 22:20 23:40 24:0 25:20 26:0 27:40 28:20 29:20 30:0 31:80 32:20 33:0 34:0 35:20 36:0 37:0 38:0 39:40 40:40 41:31 42:25 
2 1:0 2:0 3:0 4:0 5:0 6:0 7:0 8:0 9:-100 10:0 11:0 12:0 13:0 14:0 15:0 16:100 17:0 18:0 19:0 20:0 21:0 22:60 23:20 24:0 25:0 26:0 27:0 28:20 29:40 30:20 31:60 32:20 33:0 34:0 35:0 36:60 37:0 38:20 39:20 40:20 41:38 42:53 
0.08428339198090402 1:0 2:100 3:0 4:-100 5:0 6:0 7:0 8:0 9:0 10:0 11:0 12:0 13:0 14:0 15:0 16:0 17:0 18:0 19:0 20:0 21:20 22:20 23:20 24:0 25:20 26:0 27:0 28:0 29:0 30:0 31:20 32:40 33:40 34:20 35:20 36:20 37:0 38:0 39:40 40:80 41:14 42:25 
2 1:0 2:0 3:0 4:0 5:0 6:0 7:0 8:0 9:0 10:0 11:0 12:0 13:0 14:0 15:0 16:100 17:0 18:-100 19:0 20:0 21:20 22:0 23:40 24:0 25:20 26:0 27:0 28:40 29:20 30:0 31:20 32:40 33:0 34:0 35:20 36:20 37:20 38:40 39:20 40:40 41:50 42:44 
2 1:0 2:0 3:0 4:0 5:0 6:0 7:0 8:0 9:0 10:0 11:0 12:0 13:0 14:0 15:0 16:100 17:0 18:-100 19:0 20:0 21:20 22:0 23:40 24:0 25:20 26:0 27:0 28:40 29:20 30:0 31:20 32:40 33:0 34:0 35:20 36:20 37:20 38:40 39:20 40:40 41:50 42:44 
2 1:0 2:0 3:0 4:0 5:0 6:0 7:0 8:0 9:0 10:0 11:0 12:0 13:0 14:0 15:0 16:100 17:0 18:-100 19:0 20:0 21:20 22:0 23:40 24:0 25:20 26:0 27:0 28:40 29:20 30:0 31:20 32:40 33:0 34:0 35:20 36:20 37:20 38:40 39:20 40:40 41:50 42:44 
2 1:0 2:0 3:0 4:0 5:0 6:0 7:0 8:0 9:0 10:0 11:0 12:0 13:0 14:0 15:0 16:100 17:0 18:-100 19:0 20:0 21:20 22:0 23:40 24:0 25:20 26:0 27:0 28:40 29:20 30:0 31:20 32:40 33:0 34:0 35:20 36:20 37:20 38:40 39:20 40:40 41:50 42:44 
1.268724580130008 1:0 2:0 3:0 4:0 5:0 6:0 7:0 8:0 9:0 10:0 11:100 12:0 13:0 14:0 15:0 16:-100 17:0 18:0 19:0 20:0 21:0 22:40 23:0 24:20 25:0 26:0 27:0 28:20 29:80 30:0 31:60 32:40 33:0 34:0 35:20 36:20 37:0 38:20 39:0 40:40 41:52 42:45 
1.801826613948804 1:0 2:0 3:0 4:0 5:0 6:0 7:0 8:0 9:0 10:100 11:0 12:0 13:0 14:0 15:0 16:0 17:-100 18:0 19:0 20:0 21:20 22:40 23:20 24:0 25:0 26:60 27:0 28:20 29:40 30:0 31:0 32:0 33:0 34:20 35:20 36:40 37:40 38:20 39:0 40:20 41:39 42:52 
0.8857017245701856 1:0 2:0 3:0 4:0 5:0 6:0 7:0 8:0 9:0 10:100 11:0 12:0 13:0 14:0 15:0 16:0 17:-100 18:0 19:0 20:0 21:20 22:40 23:20 24:0 25:0 26:60 27:0 28:20 29:40 30:0 31:0 32:0 33:0 34:20 35:20 36:40 37:40 38:20 39:0 40:20 41:21 42:49 
0.2536863392503828 1:0 2:0 3:0 4:0 5:0 6:0 7:0 8:0 9:-100 10:0 11:100 12:0 13:0 14:0 15:0 16:0 17:0 18:0 19:0 20:0 21:20 22:60 23:0 24:20 25:20 26:0 27:0 28:20 29:0 30:0 31:0 32:20 33:20 34:0 35:60 36:40 37:0 38:40 39:0 40:20 41:19 42:64 
2 1:0 2:0 3:0 4:0 5:0 6:0 7:0 8:0 9:0 10:0 11:0 12:0 13:0 14:-100 15:100 16:0 17:0 18:0 19:0 20:0 21:0 22:40 23:40 24:0 25:40 26:0 27:0 28:20 29:20 30:0 31:20 32:40 33:40 34:20 35:0 36:0 37:20 38:60 39:0 40:0 41:60 42:37 
2 1:0 2:0 3:0 4:0 5:0 6:0 7:0 8:100 9:0 10:0 11:0 12:0 13:0 14:0 15:0 16:0 17:0 18:0 19:-100 20:0 21:20 22:20 23:40 24:0 25:0 26:0 27:0 28:40 29:40 30:0 31:0 32:20 33:20 34:0 35:20 36:40 37:0 38:40 39:20 40:40 41:46 42:64 
1.653466599588421 1:0 2:0 3:0 4:0 5:0 6:0 7:0 8:100 9:0 10:0 11:0 12:0 13:0 14:0 15:0 16:0 17:0 18:0 19:-100 20:0 21:20 22:20 23:40 24:0 25:0 26:0 27:0 28:40 29:40 30:0 31:0 32:20 33:20 34:0 35:20 36:40 37:0 38:40 39:20 40:40 41:14 42:41 
1.967950741893119 1:0 2:100 3:0 4:-100 5:0 6:0 7:0 8:0 9:0 10:0 11:0 12:0 13:0 14:0 15:0 16:0 17:0 18:0 19:0 20:0 21:60 22:20 23:20 24:20 25:20 26:0 27:0 28:40 29:40 30:0 31:0 32:20 33:20 34:0 35:40 36:0 37:20 38:20 39:20 40:0 41:21 42:51 
0.01007897795990409 1:0 2:100 3:0 4:-100 5:0 6:0 7:0 8:0 9:0 10:0 11:0 12:0 13:0 14:0 15:0 16:0 17:0 18:0 19:0 20:0 21:60 22:20 23:20 24:20 25:20 26:0 27:0 28:40 29:40 30:0 31:0 32:20 33:20 34:0 35:40 36:0 37:20 38:20 39:20 40:0 41:38 42:61 
2 1:0 2:100 3:0 4:-100 5:0 6:0 7:0 8:0 9:0 10:0 11:0 12:0 13:0 14:0 15:0 16:0 17:0 18:0 19:0 20:0 21:60 22:20 23:20 24:20 25:20 26:0 27:0 28:40 29:40 30:0 31:0 32:20 33:20 34:0 35:40 36:0 37:20 38:20 39:20 40:0 41:40 42:64 
0.2180090852331991 1:0 2:0 3:0 4:-100 5:0 6:0 7:0 8:0 9:0 10:0 11:0 12:0 13:0 14:0 15:0 16:100 17:0 18:0 19:0 20:0 21:60 22:20 23:20 24:20 25:20 26:0 27:0 28:40 29:40 30:0 31:0 32:20 33:20 34:0 35:40 36:0 37:20 38:20 39:20 40:0 41:74 42:47 
0.8573442036508705 1:0 2:0 3:0 4:-100 5:0 6:0 7:0 8:0 9:0 10:0 11:0 12:0 13:0 14:0 15:0 16:100 17:0 18:0 19:0 20:0 21:60 22:20 23:20 24:20 25:20 26:0 27:0 28:40 29:40 30:0 31:0 32:20 33:20 34:0 35:40 36:0 37:20 38:20 39:20 40:0 41:37 42:65 
1.30520803606009 1:0 2:0 3:0 4:0 5:0 6:0 7:0 8:0 9:-100 10:0 11:100 12:0 13:0 14:0 15:0 16:0 17:0 18:0 19:0 20:0 21:40 22:20 23:20 24:0 25:20 26:0 27:0 28:0 29:60 30:0 31:20 32:40 33:0 34:0 35:0 36:60 37:0 38:20 39:0 40:60 41:50 42:63 
0.4524301733039569 1:0 2:0 3:100 4:0 5:0 6:0 7:0 8:0 9:0 10:0 11:0 12:-100 13:0 14:0 15:0 16:0 17:0 18:0 19:0 20:0 21:20 22:0 23:20 24:0 25:20 26:20 27:20 28:20 29:40 30:20 31:0 32:60 33:0 34:0 35:60 36:20 37:0 38:0 39:20 40:20 41:38 42:59 
1.964146179513546 1:0 2:0 3:0 4:0 5:0 6:0 7:0 8:0 9:0 10:0 11:0 12:-100 13:100 14:0 15:0 16:0 17:0 18:0 19:0 20:0 21:20 22:0 23:20 24:0 25:20 26:20 27:20 28:20 29:40 30:20 31:0 32:60 33:0 34:0 35:60 36:20 37:0 38:0 39:20 40:20 41:38 42:59 
1.459320753830406 1:0 2:0 3:0 4:0 5:0 6:0 7:0 8:0 9:100 10:0 11:0 12:0 13:0 14:0 15:0 16:0 17:0 18:0 19:0 20:-100 21:0 22:0 23:0 24:20 25:20 26:0 27:0 28:40 29:40 30:0 31:20 32:20 33:40 34:0 35:40 36:40 37:0 38:20 39:40 40:0 41:50 42:39 
1.814431639328062 1:0 2:0 3:0 4:0 5:0 6:0 7:0 8:0 9:0 10:0 11:100 12:-100 13:0 14:0 15:0 16:0 17:0 18:0 19:0 20:0 21:20 22:0 23:20 24:0 25:20 26:20 27:20 28:20 29:40 30:20 31:0 32:60 33:0 34:0 35:60 36:20 37:0 38:0 39:20 40:20 41:38 42:59 
2 1:0 2:0 3:0 4:0 5:0 6:0 7:0 8:0 9:100 10:0 11:0 12:0 13:0 14:0 15:0 16:-100 17:0 18:0 19:0 20:0 21:40 22:40 23:60 24:0 25:0 26:0 27:0 28:0 29:40 30:40 31:0 32:0 33:0 34:0 35:0 36:40 37:40 38:40 39:0 40:20 41:45 42:46 
2 1:0 2:0 3:0 4:0 5:0 6:0 7:0 8:0 9:100 10:0 11:0 12:0 13:0 14:0 15:0 16:-100 17:0 18:0 19:0 20:0 21:40 22:40 23:60 24:0 25:0 26:0 27:0 28:0 29:40 30:40 31:0 32:0 33:0 34:0 35:0 36:40 37:40 38:40 39:0 40:20 41:44 42:25 
2 1:0 2:0 3:0 4:0 5:0 6:0 7:0 8:0 9:100 10:0 11:0 12:0 13:0 14:0 15:0 16:0 17:0 18:0 19:0 20:-100 21:40 22:0 23:0 24:0 25:20 26:20 27:20 28:40 29:20 30:0 31:0 32:100 33:0 34:0 35:0 36:20 37:0 38:20 39:20 40:40 41:50 42:25 
2 1:0 2:0 3:0 4:0 5:0 6:0 7:0 8:0 9:100 10:0 11:0 12:0 13:0 14:0 15:0 16:-100 17:0 18:0 19:0 20:0 21:60 22:40 23:20 24:0 25:0 26:0 27:0 28:20 29:20 30:20 31:20 32:0 33:0 34:0 35:0 36:60 37:20 38:60 39:0 40:20 41:45 42:46 
2 1:0 2:0 3:0 4:0 5:0 6:0 7:0 8:0 9:100 10:0 11:0 12:0 13:0 14:0 15:0 16:-100 17:0 18:0 19:0 20:0 21:60 22:40 23:20 24:0 25:0 26:0 27:0 28:20 29:20 30:20 31:20 32:0 33:0 34:0 35:0 36:60 37:20 38:60 39:0 40:20 41:44 42:25 
2 1:0 2:0 3:0 4:0 5:0 6:0 7:0 8:0 9:0 10:0 11:-100 12:100 13:0 14:0 15:0 16:0 17:0 18:0 19:0 20:0 21:40 22:60 23:0 24:0 25:40 26:0 27:20 28:60 29:0 30:20 31:40 32:20 33:0 34:20 35:0 36:20 37:20 38:0 39:0 40:0 41:50 42:25 
2 1:0 2:0 3:0 4:0 5:0 6:0 7:0 8:0 9:0 10:0 11:-100 12:0 13:100 14:0 15:0 16:0 17:0 18:0 19:0 20:0 21:40 22:60 23:0 24:0 25:40 26:0 27:20 28:60 29:0 30:20 31:40 32:20 33:0 34:20 35:0 36:20 37:20 38:0 39:0 40:0 41:50 42:25 
1.074106654990244 1:0 2:0 3:0 4:0 5:0 6:0 7:0 8:0 9:0 10:100 11:0 12:0 13:0 14:0 15:0 16:0 17:-100 18:0 19:0 20:0 21:40 22:20 23:20 24:0 25:20 26:0 27:0 28:20 29:60 30:0 31:0 32:0 33:0 34:0 35:20 36:40 37:0 38:40 39:20 40:60 41:46 42:63 
0.5970506599514541 1:-100 2:0 3:0 4:0 5:0 6:0 7:0 8:0 9:0 10:0 11:0 12:0 13:0 14:0 15:0 16:0 17:0 18:0 19:100 20:0 21:0 22:20 23:0 24:0 25:0 26:0 27:0 28:40 29:60 30:20 31:40 32:20 33:60 34:20 35:0 36:20 37:0 38:0 39:40 40:20 41:19 42:64 
2 1:0 2:0 3:0 4:0 5:0 6:0 7:0 8:100 9:0 10:0 11:-100 12:0 13:0 14:0 15:0 16:0 17:0 18:0 19:0 20:0 21:0 22:40 23:20 24:0 25:0 26:0 27:0 28:20 29:60 30:20 31:40 32:0 33:0 34:0 35:20 36:60 37:0 38:20 39:40 40:20 41:21 42:51 
2 1:0 2:0 3:0 4:0 5:0 6:0 7:0 8:0 9:0 10:0 11:-100 12:0 13:0 14:0 15:0 16:0 17:0 18:0 19:0 20:100 21:0 22:40 23:20 24:0 25:0 26:0 27:0 28:20 29:60 30:20 31:40 32:0 33:0 34:0 35:20 36:60 37:0 38:20 39:40 40:20 41:21 42:51 
2 1:0 2:0 3:0 4:0 5:0 6:0 7:0 8:0 9:0 10:0 11:-100 12:0 13:100 14:0 15:0 16:0 17:0 18:0 19:0 20:0 21:0 22:40 23:20 24:0 25:0 26:0 27:0 28:20 29:60 30:20 31:40 32:0 33:0 34:0 35:20 36:60 37:0 38:20 39:40 40:20 41:21 42:51 
1.405567908800954 1:-100 2:0 3:0 4:0 5:0 6:0 7:100 8:0 9:0 10:0 11:0 12:0 13:0 14:0 15:0 16:0 17:0 18:0 19:0 20:0 21:0 22:20 23:0 24:0 25:0 26:0 27:0 28:40 29:60 30:20 31:40 32:20 33:60 34:20 35:0 36:20 37:0 38:0 39:40 40:20 41:19 42:64 
2 1:0 2:0 3:0 4:0 5:0 6:0 7:0 8:0 9:100 10:0 11:-100 12:0 13:0 14:0 15:0 16:0 17:0 18:0 19:0 20:0 21:0 22:40 23:20 24:0 25:0 26:0 27:0 28:20 29:60 30:20 31:40 32:0 33:0 34:0 35:20 36:60 37:0 38:20 39:40 40:20 41:17 42:47 
0.9599545924272294 1:-100 2:0 3:0 4:0 5:0 6:0 7:0 8:0 9:0 10:0 11:0 12:0 13:0 14:0 15:100 16:0 17:0 18:0 19:0 20:0 21:0 22:20 23:0 24:0 25:0 26:0 27:0 28:40 29:60 30:20 31:40 32:20 33:60 34:20 35:0 36:20 37:0 38:0 39:40 40:20 41:19 42:64 
1.250138748717774 1:0 2:-100 3:0 4:0 5:0 6:0 7:0 8:0 9:0 10:0 11:0 12:0 13:0 14:0 15:100 16:0 17:0 18:0 19:0 20:0 21:20 22:40 23:40 24:0 25:20 26:0 27:20 28:60 29:20 30:20 31:0 32:20 33:0 34:0 35:20 36:40 37:0 38:20 39:20 40:0 41:50 42:85 
2 1:0 2:0 3:0 4:0 5:0 6:0 7:0 8:0 9:0 10:0 11:0 12:0 13:0 14:0 15:0 16:0 17:100 18:-100 19:0 20:0 21:20 22:60 23:0 24:0 25:20 26:0 27:0 28:20 29:20 30:0 31:0 32:20 33:20 34:0 35:60 36:40 37:0 38:20 39:0 40:0 41:28 42:65 
2 1:0 2:0 3:0 4:0 5:0 6:0 7:0 8:0 9:0 10:0 11:0 12:0 13:0 14:0 15:0 16:0 17:100 18:-100 19:0 20:0 21:20 22:60 23:0 24:0 25:20 26:0 27:0 28:20 29:20 30:0 31:0 32:20 33:20 34:0 35:60 36:40 37:0 38:20 39:0 40:0 41:16 42:65 
2 1:0 2:0 3:0 4:0 5:0 6:0 7:0 8:0 9:0 10:0 11:0 12:0 13:0 14:0 15:0 16:0 17:100 18:-100 19:0 20:0 21:20 22:60 23:0 24:0 25:20 26:0 27:0 28:20 29:20 30:0 31:0 32:20 33:20 34:0 35:60 36:40 37:0 38:20 39:0 40:0 41:32 42:65 
0.0459114844776554 1:0 2:-100 3:0 4:0 5:0 6:0 7:0 8:0 9:0 10:0 11:0 12:0 13:0 14:0 15:0 16:100 17:0 18:0 19:0 20:0 21:20 22:40 23:40 24:0 25:20 26:0 27:20 28:60 29:20 30:20 31:0 32:20 33:0 34:0 35:20 36:40 37:0 38:20 39:20 40:0 41:50 42:85 
2 1:0 2:0 3:0 4:0 5:0 6:0 7:0 8:0 9:100 10:0 11:0 12:0 13:0 14:0 15:0 16:0 17:0 18:0 19:0 20:-100 21:0 22:40 23:60 24:0 25:0 26:0 27:60 28:60 29:0 30:0 31:0 32:40 33:0 34:0 35:20 36:40 37:0 38:40 39:0 40:0 41:38 42:65 
1.805116446803753 1:0 2:0 3:0 4:-100 5:0 6:0 7:0 8:0 9:100 10:0 11:0 12:0 13:0 14:0 15:0 16:0 17:0 18:0 19:0 20:0 21:0 22:60 23:40 24:20 25:20 26:0 27:0 28:20 29:0 30:0 31:0 32:0 33:0 34:0 35:40 36:0 37:0 38:40 39:20 40:20 41:38 42:65 
2 1:0 2:0 3:0 4:0 5:0 6:0 7:0 8:0 9:0 10:0 11:0 12:0 13:0 14:0 15:0 16:0 17:100 18:-100 19:0 20:0 21:40 22:20 23:20 24:0 25:20 26:0 27:0 28:60 29:20 30:20 31:20 32:0 33:0 34:0 35:20 36:0 37:40 38:60 39:20 40:0 41:53 42:55 
2 1:0 2:0 3:0 4:0 5:0 6:0 7:0 8:0 9:0 10:0 11:0 12:0 13:0 14:0 15:0 16:0 17:100 18:-100 19:0 20:0 21:40 22:20 23:20 24:0 25:20 26:0 27:0 28:60 29:20 30:20 31:20 32:0 33:0 34:0 35:20 36:0 37:40 38:60 39:20 40:0 41:53 42:55 
2 1:0 2:0 3:0 4:0 5:0 6:0 7:0 8:0 9:0 10:0 11:0 12:0 13:0 14:0 15:0 16:0 17:100 18:-100 19:0 20:0 21:40 22:20 23:20 24:0 25:20 26:0 27:0 28:60 29:20 30:20 31:20 32:0 33:0 34:0 35:20 36:0 37:40 38:60 39:20 40:0 41:53 42:55 
2 1:0 2:0 3:0 4:0 5:0 6:0 7:0 8:0 9:0 10:0 11:0 12:0 13:0 14:0 15:0 16:0 17:100 18:-100 19:0 20:0 21:40 22:20 23:20 24:0 25:20 26:0 27:0 28:60 29:20 30:20 31:20 32:0 33:0 34:0 35:20 36:0 37:40 38:60 39:20 40:0 41:53 42:55 
1.054040531946732 1:0 2:0 3:0 4:0 5:0 6:0 7:0 8:0 9:0 10:0 11:0 12:0 13:0 14:0 15:0 16:0 17:100 18:-100 19:0 20:0 21:40 22:20 23:20 24:0 25:20 26:0 27:0 28:60 29:20 30:20 31:20 32:0 33:0 34:0 35:20 36:0 37:40 38:60 39:20 40:0 41:53 42:55 
1.495340205533654 1:0 2:0 3:0 4:0 5:0 6:0 7:0 8:0 9:0 10:0 11:0 12:0 13:0 14:0 15:0 16:100 17:0 18:-100 19:0 20:0 21:40 22:20 23:20 24:0 25:20 26:0 27:0 28:60 29:20 30:20 31:20 32:0 33:0 34:0 35:20 36:0 37:40 38:60 39:20 40:0 41:53 42:55 
2 1:0 2:0 3:0 4:0 5:0 6:0 7:0 8:0 9:0 10:0 11:0 12:0 13:0 14:0 15:0 16:100 17:0 18:-100 19:0 20:0 21:40 22:20 23:20 24:0 25:20 26:0 27:0 28:60 29:20 30:20 31:20 32:0 33:0 34:0 35:20 36:0 37:40 38:60 39:20 40:0 41:53 42:55 
2 1:0 2:0 3:0 4:0 5:0 6:0 7:0 8:0 9:0 10:0 11:0 12:0 13:0 14:0 15:0 16:100 17:0 18:-100 19:0 20:0 21:40 22:20 23:20 24:0 25:20 26:0 27:0 28:60 29:20 30:20 31:20 32:0 33:0 34:0 35:20 36:0 37:40 38:60 39:20 40:0 41:53 42:55 
2 1:0 2:0 3:0 4:0 5:0 6:0 7:0 8:0 9:0 10:0 11:0 12:0 13:0 14:0 15:0 16:100 17:0 18:-100 19:0 20:0 21:40 22:20 23:20 24:0 25:20 26:0 27:0 28:60 29:20 30:20 31:20 32:0 33:0 34:0 35:20 36:0 37:40 38:60 39:20 40:0 41:53 42:55 
2 1:0 2:0 3:0 4:0 5:0 6:0 7:0 8:0 9:0 10:0 11:0 12:0 13:0 14:0 15:0 16:100 17:0 18:-100 19:0 20:0 21:40 22:20 23:20 24:0 25:20 26:0 27:0 28:60 29:20 30:20 31:20 32:0 33:0 34:0 35:20 36:0 37:40 38:60 39:20 40:0 41:53 42:55 
2 1:0 2:0 3:0 4:0 5:0 6:0 7:0 8:0 9:0 10:0 11:0 12:0 13:0 14:0 15:0 16:100 17:0 18:-100 19:0 20:0 21:40 22:20 23:20 24:0 25:20 26:0 27:0 28:60 29:20 30:20 31:20 32:0 33:0 34:0 35:20 36:0 37:40 38:60 39:20 40:0 41:53 42:55 
2 1:0 2:0 3:0 4:0 5:0 6:0 7:0 8:0 9:0 10:0 11:0 12:0 13:0 14:0 15:0 16:100 17:0 18:-100 19:0 20:0 21:40 22:20 23:20 24:0 25:20 26:0 27:0 28:60 29:20 30:20 31:20 32:0 33:0 34:0 35:20 36:0 37:40 38:60 39:20 40:0 41:53 42:55 
0.6287526022787534 1:0 2:0 3:0 4:0 5:0 6:0 7:0 8:0 9:0 10:0 11:0 12:0 13:0 14:0 15:0 16:100 17:0 18:-100 19:0 20:0 21:40 22:20 23:20 24:0 25:20 26:0 27:0 28:60 29:20 30:20 31:20 32:0 33:0 34:0 35:20 36:0 37:40 38:60 39:20 40:0 41:53 42:55 
2 1:0 2:0 3:0 4:0 5:0 6:0 7:0 8:0 9:0 10:0 11:0 12:0 13:0 14:0 15:-100 16:0 17:100 18:0 19:0 20:0 21:20 22:40 23:0 24:20 25:0 26:20 27:40 28:60 29:0 30:0 31:20 32:0 33:20 34:20 35:20 36:20 37:0 38:0 39:40 40:20 41:45 42:74 
2 1:0 2:0 3:0 4:0 5:100 6:-100 7:0 8:0 9:0 10:0 11:0 12:0 13:0 14:0 15:0 16:0 17:0 18:0 19:0 20:0 21:0 22:0 23:0 24:0 25:0 26:0 27:20 28:60 29:0 30:20 31:0 32:0 33:0 34:60 35:0 36:20 37:0 38:20 39:20 40:0 41:53 42:23 
1.843590157265115 1:0 2:0 3:0 4:0 5:0 6:0 7:0 8:0 9:0 10:0 11:100 12:-100 13:0 14:0 15:0 16:0 17:0 18:0 19:0 20:0 21:0 22:0 23:0 24:0 25:40 26:0 27:0 28:20 29:60 30:0 31:20 32:40 33:0 34:0 35:20 36:20 37:20 38:20 39:80 40:20 41:45 42:74 
0.8150316406961665 1:0 2:-100 3:0 4:0 5:0 6:0 7:0 8:0 9:100 10:0 11:0 12:0 13:0 14:0 15:0 16:0 17:0 18:0 19:0 20:0 21:0 22:20 23:20 24:0 25:0 26:0 27:20 28:0 29:40 30:0 31:20 32:0 33:20 34:40 35:20 36:0 37:20 38:60 39:0 40:80 41:42 42:25 
2 1:0 2:0 3:0 4:0 5:0 6:0 7:0 8:0 9:0 10:0 11:0 12:0 13:0 14:0 15:0 16:0 17:-100 18:100 19:0 20:0 21:40 22:0 23:20 24:0 25:20 26:0 27:0 28:60 29:40 30:20 31:20 32:0 33:0 34:0 35:20 36:0 37:40 38:40 39:40 40:0 41:50 42:70 
1.060616646836666 1:0 2:0 3:-100 4:0 5:0 6:0 7:0 8:0 9:100 10:0 11:0 12:0 13:0 14:0 15:0 16:0 17:0 18:0 19:0 20:0 21:0 22:60 23:0 24:0 25:20 26:0 27:40 28:20 29:60 30:0 31:0 32:0 33:0 34:0 35:20 36:80 37:0 38:40 39:0 40:20 41:68 42:82 
2 1:0 2:0 3:0 4:0 5:0 6:0 7:0 8:0 9:0 10:0 11:0 12:0 13:0 14:0 15:100 16:-100 17:0 18:0 19:0 20:0 21:20 22:0 23:40 24:20 25:40 26:0 27:20 28:0 29:0 30:20 31:0 32:0 33:0 34:0 35:20 36:100 37:0 38:40 39:40 40:0 41:46 42:25 
1.065952849773303 1:0 2:0 3:0 4:0 5:0 6:0 7:0 8:-100 9:0 10:0 11:0 12:0 13:0 14:0 15:0 16:0 17:0 18:0 19:0 20:100 21:20 22:20 23:20 24:0 25:20 26:20 27:20 28:0 29:20 30:0 31:0 32:80 33:0 34:0 35:40 36:40 37:0 38:0 39:20 40:20 41:46 42:64 
2 1:0 2:0 3:0 4:0 5:0 6:0 7:0 8:0 9:0 10:0 11:0 12:0 13:0 14:0 15:0 16:-100 17:0 18:100 19:0 20:0 21:20 22:0 23:20 24:0 25:20 26:20 27:20 28:20 29:20 30:20 31:0 32:80 33:0 34:0 35:60 36:0 37:20 38:0 39:40 40:0 41:37 42:66 
2 1:0 2:0 3:0 4:0 5:0 6:0 7:0 8:0 9:0 10:0 11:0 12:0 13:0 14:0 15:0 16:-100 17:0 18:100 19:0 20:0 21:20 22:0 23:20 24:0 25:20 26:20 27:20 28:20 29:20 30:20 31:0 32:80 33:0 34:0 35:60 36:0 37:20 38:0 39:40 40:0 41:37 42:25 
2 1:100 2:0 3:-100 4:0 5:0 6:0 7:0 8:0 9:0 10:0 11:0 12:0 13:0 14:0 15:0 16:0 17:0 18:0 19:0 20:0 21:0 22:60 23:0 24:0 25:20 26:0 27:40 28:20 29:60 30:0 31:0 32:0 33:0 34:0 35:20 36:80 37:0 38:40 39:0 40:20 41:78 42:76 
2 1:0 2:0 3:0 4:100 5:0 6:0 7:0 8:0 9:0 10:0 11:0 12:0 13:0 14:0 15:-100 16:0 17:0 18:0 19:0 20:0 21:20 22:40 23:0 24:20 25:20 26:20 27:0 28:40 29:20 30:0 31:20 32:20 33:0 34:0 35:20 36:20 37:40 38:20 39:20 40:20 41:14 42:40 
1.210715990644266 1:0 2:100 3:0 4:-100 5:0 6:0 7:0 8:0 9:0 10:0 11:0 12:0 13:0 14:0 15:0 16:0 17:0 18:0 19:0 20:0 21:0 22:40 23:0 24:0 25:20 26:0 27:20 28:40 29:60 30:0 31:0 32:0 33:20 34:20 35:60 36:20 37:0 38:20 39:20 40:20 41:19 42:66 
1.787880605286384 1:0 2:0 3:0 4:0 5:0 6:0 7:0 8:0 9:100 10:0 11:0 12:0 13:0 14:0 15:0 16:-100 17:0 18:0 19:0 20:0 21:20 22:0 23:0 24:0 25:20 26:20 27:20 28:20 29:20 30:0 31:0 32:100 33:0 34:0 35:0 36:0 37:0 38:40 39:0 40:40 41:50 42:25 
0.3728850598187051 1:0 2:0 3:0 4:0 5:0 6:0 7:0 8:100 9:0 10:0 11:0 12:0 13:0 14:0 15:-100 16:0 17:0 18:0 19:0 20:0 21:0 22:20 23:20 24:0 25:0 26:20 27:20 28:60 29:20 30:20 31:40 32:40 33:0 34:0 35:20 36:20 37:0 38:20 39:20 40:20 41:45 42:25 
0.4881935395703514 1:0 2:0 3:0 4:0 5:0 6:0 7:0 8:0 9:0 10:0 11:0 12:-100 13:0 14:0 15:0 16:0 17:100 18:0 19:0 20:0 21:40 22:20 23:20 24:0 25:20 26:0 27:20 28:20 29:20 30:0 31:0 32:0 33:0 34:0 35:0 36:0 37:20 38:0 39:20 40:40 41:45 42:25 
2 1:0 2:0 3:0 4:0 5:0 6:0 7:0 8:0 9:100 10:0 11:-100 12:0 13:0 14:0 15:0 16:0 17:0 18:0 19:0 20:0 21:0 22:80 23:0 24:0 25:20 26:0 27:0 28:40 29:40 30:0 31:60 32:20 33:0 34:0 35:0 36:60 37:20 38:0 39:20 40:0 41:50 42:30 
0.9805051247846471 1:0 2:0 3:0 4:0 5:0 6:0 7:0 8:0 9:100 10:0 11:-100 12:0 13:0 14:0 15:0 16:0 17:0 18:0 19:0 20:0 21:0 22:80 23:0 24:0 25:20 26:0 27:0 28:40 29:40 30:0 31:60 32:20 33:0 34:0 35:0 36:60 37:20 38:0 39:20 40:0 41:50 42:30 
0.6684820763095012 1:0 2:0 3:0 4:0 5:100 6:0 7:-100 8:0 9:0 10:0 11:0 12:0 13:0 14:0 15:0 16:0 17:0 18:0 19:0 20:0 21:0 22:60 23:20 24:40 25:0 26:20 27:0 28:60 29:20 30:0 31:20 32:20 33:0 34:0 35:40 36:20 37:0 38:0 39:20 40:20 41:19 42:64 
2 1:0 2:0 3:0 4:0 5:0 6:0 7:0 8:0 9:0 10:0 11:100 12:0 13:0 14:0 15:0 16:0 17:0 18:0 19:-100 20:0 21:60 22:20 23:0 24:0 25:20 26:0 27:20 28:20 29:0 30:20 31:60 32:20 33:0 34:0 35:20 36:0 37:60 38:20 39:0 40:20 41:50 42:48 
2 1:0 2:100 3:-100 4:0 5:0 6:0 7:0 8:0 9:0 10:0 11:0 12:0 13:0 14:0 15:0 16:0 17:0 18:0 19:0 20:0 21:20 22:0 23:40 24:0 25:0 26:0 27:0 28:20 29:0 30:40 31:20 32:20 33:0 34:0 35:0 36:60 37:20 38:20 39:20 40:80 41:21 42:50 
0.6030734445212749 1:-100 2:0 3:0 4:0 5:0 6:0 7:0 8:0 9:0 10:0 11:0 12:0 13:100 14:0 15:0 16:0 17:0 18:0 19:0 20:0 21:0 22:20 23:0 24:0 25:20 26:0 27:20 28:40 29:20 30:20 31:60 32:40 33:0 34:0 35:40 36:20 37:60 38:0 39:0 40:0 41:50 42:25 
2 1:100 2:0 3:0 4:0 5:0 6:0 7:0 8:0 9:-100 10:0 11:0 12:0 13:0 14:0 15:0 16:0 17:0 18:0 19:0 20:0 21:40 22:0 23:0 24:20 25:20 26:0 27:20 28:20 29:40 30:20 31:20 32:20 33:0 34:0 35:0 36:60 37:0 38:60 39:20 40:0 41:50 42:20 
1.053447402860428 1:0 2:0 3:0 4:0 5:0 6:0 7:0 8:0 9:100 10:-100 11:0 12:0 13:0 14:0 15:0 16:0 17:0 18:0 19:0 20:0 21:60 22:0 23:40 24:0 25:20 26:0 27:20 28:20 29:40 30:20 31:20 32:0 33:20 34:40 35:0 36:0 37:0 38:20 39:20 40:20 41:30 42:56 
1.540226110836845 1:0 2:0 3:0 4:0 5:100 6:-100 7:0 8:0 9:0 10:0 11:0 12:0 13:0 14:0 15:0 16:0 17:0 18:0 19:0 20:0 21:60 22:60 23:0 24:0 25:0 26:20 27:0 28:20 29:20 30:0 31:20 32:0 33:0 34:20 35:0 36:20 37:20 38:40 39:0 40:0 41:55 42:4 
0.2033807186627077 1:100 2:-100 3:0 4:0 5:0 6:0 7:0 8:0 9:0 10:0 11:0 12:0 13:0 14:0 15:0 16:0 17:0 18:0 19:0 20:0 21:60 22:0 23:60 24:20 25:0 26:0 27:0 28:20 29:20 30:40 31:0 32:40 33:0 34:0 35:0 36:20 37:20 38:40 39:0 40:20 41:45 42:46 
1.96208325211201 1:0 2:0 3:0 4:0 5:0 6:0 7:0 8:0 9:100 10:0 11:0 12:0 13:0 14:0 15:0 16:0 17:0 18:0 19:0 20:-100 21:40 22:0 23:0 24:0 25:40 26:0 27:20 28:40 29:0 30:40 31:60 32:0 33:0 34:0 35:20 36:0 37:40 38:20 39:20 40:20 41:50 42:52 
0.01349164571683359 1:0 2:0 3:0 4:0 5:0 6:0 7:0 8:0 9:100 10:0 11:0 12:0 13:0 14:0 15:0 16:0 17:0 18:0 19:0 20:-100 21:40 22:0 23:0 24:0 25:40 26:0 27:20 28:40 29:0 30:40 31:60 32:0 33:0 34:0 35:20 36:0 37:40 38:20 39:20 40:20 41:50 42:52 
1.37097888839362 1:0 2:0 3:0 4:0 5:0 6:0 7:0 8:0 9:0 10:0 11:100 12:0 13:0 14:0 15:0 16:0 17:0 18:0 19:0 20:-100 21:60 22:0 23:0 24:0 25:20 26:0 27:20 28:60 29:20 30:20 31:40 32:0 33:0 34:0 35:20 36:0 37:20 38:20 39:60 40:0 41:50 42:15 
2 1:0 2:0 3:0 4:0 5:0 6:0 7:0 8:-100 9:100 10:0 11:0 12:0 13:0 14:0 15:0 16:0 17:0 18:0 19:0 20:0 21:40 22:40 23:20 24:0 25:0 26:0 27:0 28:0 29:60 30:20 31:0 32:0 33:0 34:0 35:40 36:40 37:20 38:0 39:40 40:40 41:14 42:41 
0.6058619556619063 1:100 2:0 3:-100 4:0 5:0 6:0 7:0 8:0 9:0 10:0 11:0 12:0 13:0 14:0 15:0 16:0 17:0 18:0 19:0 20:0 21:60 22:0 23:0 24:0 25:0 26:40 27:0 28:20 29:40 30:20 31:0 32:0 33:0 34:0 35:100 36:20 37:20 38:0 39:20 40:20 41:19 42:49 
1.174810910265605 1:0 2:100 3:0 4:-100 5:0 6:0 7:0 8:0 9:0 10:0 11:0 12:0 13:0 14:0 15:0 16:0 17:0 18:0 19:0 20:0 21:0 22:60 23:40 24:20 25:20 26:0 27:0 28:20 29:0 30:0 31:0 32:0 33:0 34:0 35:40 36:0 37:0 38:40 39:20 40:20 41:21 42:47 
2 1:0 2:0 3:0 4:0 5:0 6:0 7:0 8:0 9:0 10:0 11:0 12:0 13:0 14:0 15:0 16:0 17:100 18:0 19:0 20:-100 21:60 22:0 23:20 24:20 25:0 26:20 27:0 28:40 29:60 30:0 31:20 32:0 33:20 34:0 35:0 36:40 37:0 38:0 39:60 40:0 41:45 42:74 
2 1:100 2:0 3:0 4:0 5:0 6:0 7:0 8:0 9:0 10:0 11:0 12:-100 13:0 14:0 15:0 16:0 17:0 18:0 19:0 20:0 21:20 22:0 23:40 24:0 25:20 26:0 27:0 28:20 29:0 30:0 31:0 32:120 33:0 34:20 35:0 36:40 37:20 38:20 39:40 40:0 41:50 42:25 
1.769846121732479 1:0 2:0 3:0 4:0 5:100 6:0 7:-100 8:0 9:0 10:0 11:0 12:0 13:0 14:0 15:0 16:0 17:0 18:0 19:0 20:0 21:20 22:20 23:20 24:0 25:40 26:20 27:20 28:20 29:0 30:40 31:100 32:0 33:0 34:0 35:0 36:0 37:0 38:20 39:0 40:40 41:50 42:50 
2 1:0 2:0 3:0 4:0 5:0 6:0 7:0 8:0 9:0 10:0 11:0 12:0 13:0 14:0 15:0 16:100 17:0 18:0 19:0 20:-100 21:0 22:60 23:20 24:0 25:0 26:40 27:20 28:40 29:0 30:0 31:40 32:20 33:0 34:0 35:0 36:0 37:20 38:60 39:20 40:20 41:50 42:44 
1.457452769232185 1:0 2:0 3:0 4:0 5:-100 6:0 7:0 8:0 9:100 10:0 11:0 12:0 13:0 14:0 15:0 16:0 17:0 18:0 19:0 20:0 21:20 22:0 23:0 24:0 25:0 26:0 27:0 28:0 29:60 30:0 31:20 32:0 33:0 34:20 35:0 36:40 37:20 38:60 39:0 40:20 41:37 42:5 
2 1:0 2:0 3:0 4:0 5:0 6:0 7:0 8:0 9:0 10:0 11:0 12:0 13:0 14:0 15:0 16:0 17:0 18:-100 19:100 20:0 21:20 22:60 23:0 24:0 25:0 26:0 27:40 28:40 29:0 30:20 31:20 32:0 33:20 34:0 35:20 36:20 37:40 38:0 39:40 40:20 41:50 42:25 
2 1:0 2:0 3:0 4:0 5:0 6:0 7:0 8:0 9:100 10:0 11:0 12:0 13:0 14:0 15:-100 16:0 17:0 18:0 19:0 20:0 21:20 22:40 23:0 24:20 25:20 26:20 27:0 28:40 29:20 30:0 31:20 32:20 33:0 34:0 35:20 36:20 37:40 38:20 39:20 40:20 41:21 42:51 
2 1:0 2:0 3:0 4:0 5:0 6:0 7:0 8:0 9:0 10:0 11:100 12:0 13:0 14:0 15:0 16:0 17:0 18:0 19:-100 20:0 21:20 22:0 23:0 24:0 25:40 26:0 27:60 28:20 29:0 30:20 31:80 32:0 33:0 34:20 35:0 36:20 37:0 38:20 39:40 40:20 41:50 42:50 
2 1:0 2:0 3:0 4:0 5:100 6:0 7:0 8:-100 9:0 10:0 11:0 12:0 13:0 14:0 15:0 16:0 17:0 18:0 19:0 20:0 21:0 22:60 23:40 24:0 25:0 26:0 27:40 28:40 29:0 30:20 31:40 32:60 33:0 34:20 35:0 36:20 37:0 38:20 39:0 40:0 41:38 42:66 
2 1:0 2:0 3:0 4:0 5:0 6:0 7:0 8:0 9:100 10:0 11:0 12:0 13:0 14:0 15:0 16:0 17:0 18:0 19:-100 20:0 21:20 22:0 23:0 24:0 25:40 26:0 27:60 28:20 29:0 30:20 31:80 32:0 33:0 34:20 35:0 36:20 37:0 38:20 39:40 40:20 41:50 42:50 
1.326367787942917 1:0 2:0 3:0 4:0 5:0 6:0 7:0 8:0 9:100 10:0 11:0 12:0 13:0 14:0 15:0 16:0 17:0 18:0 19:-100 20:0 21:20 22:0 23:0 24:0 25:40 26:0 27:60 28:20 29:0 30:20 31:80 32:0 33:0 34:20 35:0 36:20 37:0 38:20 39:40 40:20 41:50 42:50 
2 1:0 2:0 3:0 4:0 5:0 6:0 7:0 8:0 9:0 10:0 11:0 12:-100 13:0 14:0 15:100 16:0 17:0 18:0 19:0 20:0 21:20 22:40 23:20 24:0 25:20 26:0 27:60 28:20 29:20 30:20 31:0 32:0 33:0 34:20 35:0 36:20 37:20 38:0 39:20 40:60 41:45 42:25 
2 1:0 2:0 3:0 4:0 5:0 6:0 7:0 8:0 9:0 10:0 11:0 12:0 13:0 14:0 15:0 16:0 17:0 18:0 19:-100 20:100 21:20 22:0 23:0 24:0 25:40 26:0 27:60 28:20 29:0 30:20 31:80 32:0 33:0 34:20 35:0 36:20 37:0 38:20 39:40 40:20 41:50 42:50 
1.101758234341441 1:0 2:0 3:0 4:0 5:0 6:0 7:0 8:0 9:-100 10:0 11:100 12:0 13:0 14:0 15:0 16:0 17:0 18:0 19:0 20:0 21:40 22:20 23:40 24:0 25:0 26:0 27:0 28:0 29:20 30:20 31:0 32:0 33:20 34:0 35:20 36:40 37:0 38:0 39:20 40:120 41:32 42:66 
0.6509887530855468 1:0 2:0 3:0 4:0 5:0 6:0 7:0 8:0 9:100 10:0 11:-100 12:0 13:0 14:0 15:0 16:0 17:0 18:0 19:0 20:0 21:0 22:40 23:40 24:0 25:0 26:20 27:40 28:0 29:0 30:0 31:40 32:40 33:0 34:0 35:40 36:20 37:0 38:0 39:20 40:60 41:31 42:25 
2 1:0 2:100 3:-100 4:0 5:0 6:0 7:0 8:0 9:0 10:0 11:0 12:0 13:0 14:0 15:0 16:0 17:0 18:0 19:0 20:0 21:0 22:0 23:20 24:0 25:20 26:20 27:40 28:40 29:20 30:0 31:40 32:20 33:20 34:0 35:40 36:0 37:20 38:0 39:20 40:40 41:19 42:64 
1.192136572880986 1:0 2:0 3:0 4:0 5:0 6:0 7:0 8:0 9:0 10:0 11:0 12:0 13:0 14:100 15:0 16:0 17:0 18:0 19:-100 20:0 21:0 22:60 23:20 24:0 25:0 26:0 27:0 28:20 29:20 30:40 31:80 32:20 33:40 34:0 35:40 36:0 37:0 38:0 39:20 40:0 41:45 42:74 
0.8902036051946801 1:0 2:0 3:0 4:0 5:0 6:0 7:0 8:100 9:0 10:0 11:0 12:0 13:0 14:0 15:0 16:0 17:-100 18:0 19:0 20:0 21:80 22:60 23:0 24:0 25:0 26:40 27:0 28:20 29:20 30:0 31:20 32:0 33:0 34:20 35:0 36:20 37:0 38:40 39:0 40:0 41:30 42:4 
1.49924614435172 1:-100 2:0 3:0 4:0 5:0 6:0 7:0 8:0 9:100 10:0 11:0 12:0 13:0 14:0 15:0 16:0 17:0 18:0 19:0 20:0 21:20 22:40 23:0 24:0 25:0 26:20 27:0 28:40 29:80 30:0 31:40 32:0 33:0 34:0 35:0 36:40 37:20 38:20 39:20 40:20 41:45 42:25 
0.01662285866918015 1:100 2:0 3:-100 4:0 5:0 6:0 7:0 8:0 9:0 10:0 11:0 12:0 13:0 14:0 15:0 16:0 17:0 18:0 19:0 20:0 21:60 22:40 23:60 24:0 25:0 26:0 27:0 28:20 29:20 30:40 31:0 32:20 33:0 34:0 35:0 36:20 37:40 38:20 39:0 40:20 41:25 42:25 
2 1:100 2:0 3:-100 4:0 5:0 6:0 7:0 8:0 9:0 10:0 11:0 12:0 13:0 14:0 15:0 16:0 17:0 18:0 19:0 20:0 21:60 22:40 23:60 24:0 25:0 26:0 27:0 28:20 29:20 30:40 31:0 32:20 33:0 34:0 35:0 36:20 37:40 38:20 39:0 40:20 41:45 42:46 
2 1:0 2:0 3:0 4:0 5:0 6:0 7:0 8:0 9:0 10:0 11:0 12:0 13:0 14:0 15:0 16:0 17:100 18:-100 19:0 20:0 21:60 22:40 23:20 24:0 25:0 26:0 27:0 28:20 29:20 30:20 31:20 32:0 33:0 34:0 35:0 36:80 37:20 38:40 39:0 40:20 41:44 42:25 
2 1:0 2:0 3:0 4:0 5:0 6:0 7:0 8:0 9:0 10:0 11:0 12:0 13:0 14:0 15:0 16:0 17:0 18:-100 19:0 20:100 21:60 22:40 23:20 24:0 25:0 26:0 27:0 28:20 29:20 30:20 31:20 32:0 33:0 34:0 35:0 36:80 37:20 38:40 39:0 40:20 41:44 42:25 
0.3827683978147565 1:0 2:0 3:0 4:0 5:100 6:-100 7:0 8:0 9:0 10:0 11:0 12:0 13:0 14:0 15:0 16:0 17:0 18:0 19:0 20:0 21:0 22:20 23:20 24:0 25:0 26:0 27:40 28:0 29:40 30:0 31:80 32:0 33:0 34:0 35:0 36:40 37:20 38:40 39:20 40:40 41:50 42:52 
2 1:100 2:0 3:0 4:0 5:0 6:0 7:0 8:0 9:-100 10:0 11:0 12:0 13:0 14:0 15:0 16:0 17:0 18:0 19:0 20:0 21:20 22:20 23:20 24:0 25:0 26:20 27:20 28:40 29:40 30:0 31:40 32:20 33:0 34:0 35:0 36:40 37:20 38:20 39:40 40:0 41:45 42:25 
1.246704475621377 1:0 2:0 3:0 4:0 5:0 6:0 7:0 8:0 9:-100 10:0 11:0 12:0 13:100 14:0 15:0 16:0 17:0 18:0 19:0 20:0 21:20 22:20 23:20 24:0 25:0 26:20 27:20 28:40 29:40 30:0 31:40 32:20 33:0 34:0 35:0 36:40 37:20 38:20 39:40 40:0 41:45 42:25 
0.319987717035001 1:0 2:0 3:0 4:0 5:0 6:0 7:0 8:0 9:-100 10:0 11:0 12:0 13:0 14:0 15:0 16:0 17:0 18:0 19:0 20:100 21:20 22:20 23:20 24:0 25:0 26:20 27:20 28:40 29:40 30:0 31:40 32:20 33:0 34:0 35:0 36:40 37:20 38:20 39:40 40:0 41:45 42:25 
1.98503739517679 1:0 2:0 3:0 4:0 5:100 6:0 7:0 8:0 9:-100 10:0 11:0 12:0 13:0 14:0 15:0 16:0 17:0 18:0 19:0 20:0 21:20 22:20 23:20 24:0 25:0 26:20 27:20 28:40 29:40 30:0 31:40 32:20 33:0 34:0 35:0 36:40 37:20 38:20 39:40 40:0 41:45 42:25 
0.5814172377370461 1:0 2:0 3:0 4:100 5:0 6:0 7:0 8:0 9:-100 10:0 11:0 12:0 13:0 14:0 15:0 16:0 17:0 18:0 19:0 20:0 21:20 22:20 23:20 24:0 25:0 26:20 27:20 28:40 29:40 30:0 31:40 32:20 33:0 34:0 35:0 36:40 37:20 38:20 39:40 40:0 41:45 42:25 
1.711168125933503 1:0 2:100 3:0 4:0 5:0 6:0 7:0 8:0 9:-100 10:0 11:0 12:0 13:0 14:0 15:0 16:0 17:0 18:0 19:0 20:0 21:20 22:20 23:20 24:0 25:0 26:20 27:20 28:40 29:40 30:0 31:40 32:20 33:0 34:0 35:0 36:40 37:20 38:20 39:40 40:0 41:45 42:25 
2 1:0 2:0 3:0 4:0 5:100 6:0 7:0 8:0 9:0 10:0 11:0 12:0 13:0 14:0 15:0 16:0 17:0 18:0 19:0 20:-100 21:0 22:80 23:20 24:0 25:0 26:0 27:0 28:0 29:40 30:0 31:0 32:20 33:20 34:0 35:0 36:20 37:20 38:80 39:20 40:40 41:50 42:69 
2 1:0 2:0 3:100 4:0 5:0 6:0 7:0 8:0 9:0 10:0 11:0 12:0 13:0 14:0 15:0 16:0 17:0 18:0 19:0 20:-100 21:0 22:80 23:20 24:0 25:0 26:0 27:0 28:0 29:40 30:0 31:0 32:20 33:20 34:0 35:0 36:20 37:20 38:80 39:20 40:40 41:50 42:69 
2 1:0 2:100 3:0 4:0 5:0 6:0 7:0 8:0 9:0 10:0 11:0 12:0 13:0 14:0 15:0 16:0 17:0 18:0 19:0 20:-100 21:0 22:80 23:20 24:0 25:0 26:0 27:0 28:0 29:40 30:0 31:0 32:20 33:20 34:0 35:0 36:20 37:20 38:80 39:20 40:40 41:50 42:69 
2 1:0 2:0 3:0 4:0 5:0 6:0 7:0 8:0 9:0 10:100 11:0 12:0 13:0 14:0 15:0 16:0 17:0 18:0 19:0 20:-100 21:0 22:80 23:20 24:0 25:0 26:0 27:0 28:0 29:40 30:0 31:0 32:20 33:20 34:0 35:0 36:20 37:20 38:80 39:20 40:40 41:50 42:69 
2 1:100 2:0 3:0 4:0 5:0 6:0 7:0 8:0 9:0 10:0 11:0 12:0 13:0 14:0 15:0 16:0 17:0 18:0 19:0 20:-100 21:0 22:80 23:20 24:0 25:0 26:0 27:0 28:0 29:40 30:0 31:0 32:20 33:20 34:0 35:0 36:20 37:20 38:80 39:20 40:40 41:50 42:69 
2 1:0 2:0 3:0 4:0 5:0 6:100 7:0 8:0 9:0 10:0 11:0 12:0 13:0 14:0 15:0 16:0 17:0 18:0 19:0 20:-100 21:0 22:80 23:20 24:0 25:0 26:0 27:0 28:0 29:40 30:0 31:0 32:20 33:20 34:0 35:0 36:20 37:20 38:80 39:20 40:40 41:50 42:69 
2 1:0 2:0 3:0 4:0 5:0 6:0 7:0 8:0 9:0 10:0 11:0 12:0 13:0 14:0 15:0 16:0 17:0 18:0 19:-100 20:100 21:20 22:60 23:0 24:0 25:0 26:0 27:0 28:0 29:80 30:0 31:20 32:0 33:0 34:0 35:40 36:40 37:20 38:20 39:0 40:60 41:53 42:25 
1.893756980248074 1:0 2:0 3:0 4:0 5:0 6:0 7:0 8:0 9:0 10:0 11:0 12:0 13:0 14:0 15:0 16:100 17:0 18:0 19:0 20:-100 21:20 22:20 23:0 24:0 25:20 26:20 27:40 28:40 29:20 30:0 31:40 32:20 33:0 34:0 35:20 36:20 37:0 38:0 39:40 40:40 41:50 42:44 
2 1:0 2:0 3:0 4:0 5:0 6:0 7:0 8:0 9:0 10:0 11:0 12:0 13:0 14:0 15:0 16:100 17:0 18:0 19:0 20:-100 21:20 22:20 23:0 24:0 25:20 26:20 27:40 28:40 29:20 30:0 31:40 32:20 33:0 34:0 35:20 36:20 37:0 38:0 39:40 40:40 41:50 42:44 
0.3314423757017426 1:0 2:0 3:0 4:0 5:0 6:0 7:0 8:0 9:0 10:0 11:0 12:0 13:0 14:0 15:0 16:100 17:0 18:0 19:0 20:-100 21:20 22:20 23:0 24:0 25:20 26:20 27:40 28:40 29:20 30:0 31:40 32:20 33:0 34:0 35:20 36:20 37:0 38:0 39:40 40:40 41:50 42:44 
0.8530189053625001 1:0 2:0 3:0 4:0 5:0 6:0 7:0 8:0 9:100 10:0 11:0 12:-100 13:0 14:0 15:0 16:0 17:0 18:0 19:0 20:0 21:0 22:40 23:40 24:0 25:20 26:0 27:0 28:20 29:40 30:0 31:20 32:20 33:60 34:40 35:0 36:0 37:20 38:40 39:0 40:0 41:60 42:37 
2 1:0 2:0 3:0 4:0 5:0 6:0 7:0 8:0 9:0 10:0 11:0 12:-100 13:0 14:0 15:0 16:0 17:0 18:0 19:0 20:100 21:40 22:20 23:20 24:40 25:40 26:0 27:0 28:60 29:20 30:0 31:20 32:20 33:0 34:0 35:0 36:0 37:20 38:20 39:40 40:0 41:14 42:39 
1.089549221788047 1:0 2:100 3:-100 4:0 5:0 6:0 7:0 8:0 9:0 10:0 11:0 12:0 13:0 14:0 15:0 16:0 17:0 18:0 19:0 20:0 21:20 22:40 23:20 24:0 25:20 26:0 27:0 28:40 29:40 30:20 31:20 32:0 33:0 34:40 35:20 36:20 37:20 38:0 39:0 40:40 41:78 42:76 
1.528423519851031 1:100 2:0 3:0 4:0 5:-100 6:0 7:0 8:0 9:0 10:0 11:0 12:0 13:0 14:0 15:0 16:0 17:0 18:0 19:0 20:0 21:40 22:60 23:0 24:20 25:20 26:0 27:20 28:60 29:0 30:0 31:60 32:20 33:0 34:20 35:0 36:20 37:20 38:0 39:0 40:0 41:50 42:25 
1.48583287921274 1:0 2:-100 3:0 4:0 5:0 6:0 7:0 8:0 9:100 10:0 11:0 12:0 13:0 14:0 15:0 16:0 17:0 18:0 19:0 20:0 21:0 22:0 23:20 24:0 25:0 26:0 27:40 28:40 29:40 30:0 31:0 32:0 33:0 34:0 35:0 36:60 37:20 38:20 39:0 40:20 41:68 42:82 
0.4177565811558795 1:0 2:100 3:0 4:0 5:-100 6:0 7:0 8:0 9:0 10:0 11:0 12:0 13:0 14:0 15:0 16:0 17:0 18:0 19:0 20:0 21:40 22:60 23:0 24:20 25:20 26:0 27:20 28:60 29:0 30:0 31:60 32:20 33:0 34:20 35:0 36:20 37:20 38:0 39:0 40:0 41:50 42:25 
0.1738375221532326 1:-100 2:0 3:0 4:0 5:0 6:0 7:0 8:0 9:100 10:0 11:0 12:0 13:0 14:0 15:0 16:0 17:0 18:0 19:0 20:0 21:0 22:20 23:0 24:0 25:20 26:0 27:0 28:0 29:80 30:20 31:0 32:20 33:0 34:20 35:0 36:80 37:0 38:60 39:0 40:40 41:37 42:5 
0.9544274549333828 1:0 2:0 3:0 4:0 5:0 6:0 7:0 8:0 9:-100 10:0 11:0 12:100 13:0 14:0 15:0 16:0 17:0 18:0 19:0 20:0 21:20 22:0 23:20 24:0 25:20 26:20 27:20 28:0 29:0 30:20 31:0 32:80 33:0 34:0 35:80 36:20 37:20 38:0 39:40 40:0 41:46 42:70 
2 1:0 2:0 3:0 4:0 5:0 6:0 7:0 8:0 9:-100 10:100 11:0 12:0 13:0 14:0 15:0 16:0 17:0 18:0 19:0 20:0 21:0 22:0 23:20 24:0 25:80 26:0 27:0 28:20 29:60 30:0 31:20 32:20 33:0 34:20 35:0 36:80 37:0 38:0 39:0 40:40 41:52 42:45 
0.9188943856387655 1:0 2:0 3:0 4:-100 5:0 6:0 7:0 8:0 9:0 10:0 11:0 12:100 13:0 14:0 15:0 16:0 17:0 18:0 19:0 20:0 21:40 22:0 23:20 24:0 25:0 26:40 27:0 28:40 29:40 30:0 31:20 32:0 33:0 34:0 35:40 36:40 37:0 38:0 39:60 40:20 41:67 42:20 
2 1:0 2:0 3:0 4:0 5:0 6:0 7:0 8:0 9:0 10:0 11:0 12:0 13:0 14:0 15:0 16:0 17:0 18:0 19:-100 20:100 21:40 22:40 23:0 24:0 25:0 26:20 27:0 28:60 29:80 30:20 31:40 32:0 33:0 34:0 35:0 36:40 37:0 38:0 39:0 40:20 41:45 42:25 
0.7783995500006278 1:0 2:0 3:0 4:0 5:0 6:0 7:0 8:0 9:-100 10:0 11:100 12:0 13:0 14:0 15:0 16:0 17:0 18:0 19:0 20:0 21:0 22:0 23:0 24:20 25:20 26:0 27:0 28:0 29:40 30:0 31:0 32:20 33:0 34:20 35:20 36:40 37:20 38:40 39:0 40:0 41:50 42:61 
2 1:0 2:0 3:0 4:0 5:0 6:0 7:0 8:0 9:-100 10:0 11:100 12:0 13:0 14:0 15:0 16:0 17:0 18:0 19:0 20:0 21:0 22:0 23:0 24:20 25:20 26:0 27:0 28:0 29:40 30:0 31:0 32:20 33:0 34:20 35:20 36:40 37:20 38:40 39:0 40:0 41:50 42:62 
0.02312077919762215 1:0 2:0 3:0 4:0 5:0 6:0 7:0 8:0 9:-100 10:0 11:100 12:0 13:0 14:0 15:0 16:0 17:0 18:0 19:0 20:0 21:0 22:0 23:0 24:20 25:20 26:0 27:0 28:0 29:40 30:0 31:0 32:20 33:0 34:20 35:20 36:40 37:20 38:40 39:0 40:0 41:50 42:61 
2 1:0 2:0 3:0 4:0 5:0 6:0 7:0 8:0 9:0 10:0 11:0 12:0 13:0 14:0 15:0 16:0 17:100 18:-100 19:0 20:0 21:20 22:0 23:20 24:0 25:0 26:0 27:80 28:40 29:20 30:40 31:20 32:60 33:0 34:20 35:20 36:0 37:20 38:0 39:0 40:0 41:39 42:55 
1.975528570614086 1:0 2:0 3:0 4:0 5:0 6:0 7:-100 8:0 9:100 10:0 11:0 12:0 13:0 14:0 15:0 16:0 17:0 18:0 19:0 20:0 21:0 22:0 23:20 24:0 25:0 26:0 27:20 28:20 29:40 30:20 31:40 32:40 33:20 34:20 35:0 36:60 37:20 38:0 39:40 40:0 41:35 42:63 
2 1:0 2:0 3:0 4:0 5:0 6:0 7:-100 8:100 9:0 10:0 11:0 12:0 13:0 14:0 15:0 16:0 17:0 18:0 19:0 20:0 21:0 22:0 23:20 24:0 25:0 26:0 27:20 28:20 29:40 30:20 31:40 32:40 33:20 34:20 35:0 36:60 37:20 38:0 39:40 40:0 41:35 42:63 
0.6905474067931271 1:0 2:0 3:-100 4:0 5:0 6:0 7:0 8:0 9:0 10:0 11:0 12:100 13:0 14:0 15:0 16:0 17:0 18:0 19:0 20:0 21:20 22:20 23:20 24:0 25:20 26:0 27:0 28:40 29:40 30:0 31:0 32:20 33:20 34:0 35:20 36:40 37:0 38:40 39:40 40:20 41:38 42:59 
2 1:0 2:100 3:0 4:0 5:-100 6:0 7:0 8:0 9:0 10:0 11:0 12:0 13:0 14:0 15:0 16:0 17:0 18:0 19:0 20:0 21:20 22:40 23:0 24:0 25:0 26:0 27:40 28:40 29:0 30:20 31:0 32:20 33:0 34:40 35:0 36:40 37:0 38:80 39:0 40:20 41:50 42:66 
0.5718476414558756 1:0 2:0 3:0 4:0 5:-100 6:0 7:0 8:0 9:0 10:0 11:0 12:0 13:0 14:100 15:0 16:0 17:0 18:0 19:0 20:0 21:20 22:40 23:0 24:0 25:0 26:0 27:40 28:40 29:0 30:20 31:0 32:20 33:0 34:40 35:0 36:40 37:0 38:80 39:0 40:20 41:50 42:66 
0.6159592066072781 1:0 2:0 3:0 4:0 5:0 6:0 7:0 8:0 9:0 10:0 11:0 12:0 13:0 14:0 15:0 16:-100 17:0 18:100 19:0 20:0 21:40 22:0 23:20 24:0 25:60 26:20 27:0 28:80 29:0 30:0 31:20 32:0 33:0 34:0 35:0 36:40 37:0 38:60 39:20 40:0 41:53 42:55 
1.281021044013728 1:0 2:0 3:0 4:0 5:0 6:0 7:0 8:0 9:100 10:0 11:0 12:0 13:0 14:0 15:0 16:-100 17:0 18:0 19:0 20:0 21:0 22:40 23:20 24:0 25:0 26:0 27:0 28:20 29:60 30:20 31:60 32:20 33:0 34:0 35:20 36:40 37:0 38:20 39:20 40:20 41:47 42:62 
2 1:0 2:0 3:0 4:0 5:0 6:0 7:0 8:0 9:100 10:0 11:0 12:0 13:0 14:0 15:0 16:-100 17:0 18:0 19:0 20:0 21:0 22:40 23:20 24:0 25:0 26:0 27:0 28:20 29:60 30:20 31:60 32:20 33:0 34:0 35:20 36:40 37:0 38:20 39:20 40:20 41:21 42:51 
2 1:0 2:0 3:0 4:0 5:0 6:0 7:0 8:0 9:0 10:0 11:0 12:0 13:0 14:0 15:0 16:0 17:0 18:0 19:100 20:-100 21:40 22:0 23:0 24:0 25:0 26:20 27:20 28:40 29:20 30:0 31:0 32:0 33:40 34:0 35:80 36:0 37:60 38:0 39:40 40:0 41:28 42:65 
1.479299612995417 1:0 2:0 3:0 4:0 5:0 6:0 7:0 8:0 9:0 10:0 11:0 12:0 13:100 14:0 15:0 16:0 17:0 18:-100 19:0 20:0 21:60 22:80 23:20 24:0 25:0 26:0 27:40 28:20 29:0 30:20 31:0 32:20 33:20 34:0 35:0 36:20 37:20 38:0 39:20 40:20 41:50 42:25 
2 1:-100 2:0 3:100 4:0 5:0 6:0 7:0 8:0 9:0 10:0 11:0 12:0 13:0 14:0 15:0 16:0 17:0 18:0 19:0 20:0 21:20 22:0 23:60 24:20 25:0 26:0 27:0 28:80 29:60 30:20 31:0 32:0 33:20 34:0 35:0 36:0 37:0 38:40 39:0 40:40 41:51 42:20 
0.4185376682116627 1:0 2:0 3:0 4:0 5:0 6:0 7:0 8:0 9:0 10:0 11:0 12:100 13:0 14:0 15:0 16:0 17:0 18:-100 19:0 20:0 21:60 22:80 23:20 24:0 25:0 26:0 27:40 28:20 29:0 30:20 31:0 32:20 33:20 34:0 35:0 36:20 37:20 38:0 39:20 40:20 41:50 42:25 
2 1:0 2:0 3:0 4:0 5:0 6:0 7:0 8:100 9:0 10:0 11:0 12:0 13:0 14:-100 15:0 16:0 17:0 18:0 19:0 20:0 21:20 22:40 23:0 24:40 25:20 26:20 27:20 28:60 29:20 30:0 31:40 32:0 33:20 34:0 35:0 36:20 37:0 38:0 39:20 40:20 41:32 42:66 
0.8595516954128464 1:0 2:0 3:0 4:0 5:100 6:-100 7:0 8:0 9:0 10:0 11:0 12:0 13:0 14:0 15:0 16:0 17:0 18:0 19:0 20:0 21:0 22:20 23:20 24:0 25:0 26:0 27:0 28:0 29:20 30:0 31:20 32:0 33:0 34:0 35:0 36:60 37:20 38:20 39:20 40:0 41:50 42:20 
1.231315673258531 1:0 2:100 3:0 4:0 5:0 6:-100 7:0 8:0 9:0 10:0 11:0 12:0 13:0 14:0 15:0 16:0 17:0 18:0 19:0 20:0 21:0 22:20 23:20 24:0 25:0 26:0 27:0 28:0 29:20 30:0 31:20 32:0 33:0 34:0 35:0 36:60 37:20 38:20 39:20 40:0 41:50 42:20 
2 1:0 2:0 3:0 4:0 5:0 6:0 7:0 8:0 9:100 10:0 11:0 12:0 13:0 14:0 15:0 16:0 17:0 18:0 19:-100 20:0 21:0 22:40 23:20 24:0 25:0 26:0 27:40 28:0 29:40 30:20 31:20 32:40 33:0 34:20 35:0 36:40 37:40 38:20 39:0 40:20 41:45 42:25 
0.5708756275212881 1:0 2:0 3:0 4:0 5:0 6:0 7:0 8:100 9:-100 10:0 11:0 12:0 13:0 14:0 15:0 16:0 17:0 18:0 19:0 20:0 21:40 22:20 23:20 24:0 25:40 26:0 27:20 28:80 29:0 30:0 31:0 32:20 33:0 34:0 35:0 36:20 37:20 38:0 39:20 40:60 41:50 42:44 
0.03381689577630718 1:0 2:0 3:0 4:0 5:0 6:0 7:0 8:100 9:-100 10:0 11:0 12:0 13:0 14:0 15:0 16:0 17:0 18:0 19:0 20:0 21:40 22:20 23:20 24:0 25:40 26:0 27:20 28:80 29:0 30:0 31:0 32:20 33:0 34:0 35:0 36:20 37:20 38:0 39:20 40:60 41:50 42:44 
0.03968310918700699 1:-100 2:0 3:100 4:0 5:0 6:0 7:0 8:0 9:0 10:0 11:0 12:0 13:0 14:0 15:0 16:0 17:0 18:0 19:0 20:0 21:20 22:80 23:0 24:0 25:0 26:0 27:60 28:20 29:0 30:20 31:20 32:0 33:20 34:0 35:0 36:0 37:20 38:40 39:40 40:20 41:50 42:25 
0.02145468019953876 1:-100 2:0 3:100 4:0 5:0 6:0 7:0 8:0 9:0 10:0 11:0 12:0 13:0 14:0 15:0 16:0 17:0 18:0 19:0 20:0 21:20 22:80 23:0 24:0 25:0 26:0 27:60 28:20 29:0 30:20 31:20 32:0 33:20 34:0 35:0 36:0 37:20 38:40 39:40 40:20 41:50 42:25 
0.3198356079820499 1:0 2:-100 3:0 4:100 5:0 6:0 7:0 8:0 9:0 10:0 11:0 12:0 13:0 14:0 15:0 16:0 17:0 18:0 19:0 20:0 21:40 22:40 23:20 24:0 25:0 26:0 27:20 28:20 29:40 30:20 31:20 32:0 33:0 34:0 35:40 36:40 37:0 38:0 39:20 40:40 41:38 42:65 
2 1:0 2:0 3:0 4:0 5:0 6:0 7:0 8:0 9:0 10:0 11:100 12:0 13:0 14:0 15:0 16:0 17:0 18:0 19:0 20:-100 21:40 22:20 23:20 24:0 25:20 26:0 27:40 28:20 29:20 30:0 31:0 32:40 33:0 34:0 35:0 36:0 37:20 38:0 39:20 40:20 41:45 42:25 
2 1:0 2:0 3:0 4:0 5:0 6:0 7:0 8:100 9:0 10:0 11:0 12:0 13:0 14:0 15:0 16:0 17:0 18:0 19:0 20:-100 21:40 22:20 23:20 24:0 25:20 26:0 27:40 28:20 29:20 30:0 31:0 32:40 33:0 34:0 35:0 36:0 37:20 38:0 39:20 40:20 41:45 42:25 
2 1:0 2:0 3:0 4:0 5:100 6:-100 7:0 8:0 9:0 10:0 11:0 12:0 13:0 14:0 15:0 16:0 17:0 18:0 19:0 20:0 21:0 22:0 23:20 24:0 25:20 26:0 27:20 28:60 29:20 30:40 31:0 32:0 33:0 34:60 35:0 36:60 37:0 38:20 39:20 40:20 41:53 42:23 
0.2958243280255478 1:0 2:-100 3:0 4:0 5:0 6:0 7:0 8:0 9:0 10:0 11:0 12:0 13:0 14:0 15:100 16:0 17:0 18:0 19:0 20:0 21:20 22:40 23:0 24:0 25:0 26:0 27:60 28:40 29:0 30:20 31:20 32:0 33:20 34:0 35:0 36:20 37:20 38:40 39:40 40:20 41:50 42:25 
1.479203001927476 1:0 2:100 3:-100 4:0 5:0 6:0 7:0 8:0 9:0 10:0 11:0 12:0 13:0 14:0 15:0 16:0 17:0 18:0 19:0 20:0 21:0 22:20 23:40 24:0 25:20 26:0 27:0 28:20 29:0 30:40 31:20 32:0 33:0 34:0 35:20 36:60 37:60 38:20 39:0 40:40 41:21 42:50 
0.4461658038320289 1:0 2:0 3:0 4:0 5:0 6:0 7:0 8:-100 9:100 10:0 11:0 12:0 13:0 14:0 15:0 16:0 17:0 18:0 19:0 20:0 21:40 22:0 23:20 24:0 25:0 26:60 27:0 28:20 29:40 30:0 31:0 32:20 33:20 34:0 35:60 36:20 37:20 38:0 39:20 40:20 41:19 42:65 
0.4786505360869971 1:0 2:0 3:0 4:0 5:0 6:0 7:0 8:0 9:100 10:0 11:0 12:0 13:0 14:0 15:-100 16:0 17:0 18:0 19:0 20:0 21:0 22:20 23:0 24:0 25:20 26:0 27:20 28:0 29:0 30:60 31:0 32:0 33:20 34:0 35:0 36:0 37:0 38:20 39:0 40:20 41:50 42:39 
2 1:0 2:0 3:0 4:0 5:0 6:0 7:0 8:0 9:0 10:0 11:100 12:0 13:0 14:0 15:0 16:0 17:0 18:0 19:0 20:-100 21:40 22:40 23:20 24:0 25:20 26:0 27:40 28:20 29:20 30:20 31:0 32:40 33:0 34:20 35:0 36:20 37:20 38:0 39:20 40:20 41:45 42:25 
0.2208921607227423 1:0 2:0 3:0 4:0 5:0 6:0 7:0 8:100 9:0 10:0 11:0 12:0 13:0 14:0 15:0 16:0 17:0 18:0 19:0 20:-100 21:40 22:40 23:20 24:0 25:20 26:0 27:40 28:20 29:20 30:20 31:0 32:40 33:0 34:20 35:0 36:20 37:20 38:0 39:20 40:20 41:31 42:25 
0.877529735753281 1:0 2:0 3:0 4:0 5:0 6:0 7:0 8:100 9:0 10:0 11:0 12:0 13:0 14:0 15:0 16:0 17:0 18:0 19:0 20:-100 21:40 22:40 23:20 24:0 25:20 26:0 27:40 28:20 29:20 30:20 31:0 32:40 33:0 34:20 35:0 36:20 37:20 38:0 39:20 40:20 41:45 42:25 
0.1739599172685622 1:0 2:0 3:0 4:0 5:0 6:0 7:0 8:0 9:100 10:0 11:0 12:0 13:0 14:0 15:0 16:0 17:0 18:0 19:0 20:-100 21:40 22:40 23:20 24:0 25:20 26:0 27:40 28:20 29:20 30:20 31:0 32:40 33:0 34:20 35:0 36:20 37:20 38:0 39:20 40:20 41:45 42:25 
2 1:0 2:0 3:0 4:0 5:0 6:0 7:0 8:0 9:0 10:0 11:0 12:0 13:0 14:0 15:0 16:0 17:0 18:0 19:100 20:-100 21:20 22:40 23:20 24:20 25:20 26:0 27:0 28:60 29:0 30:40 31:20 32:20 33:20 34:0 35:0 36:20 37:20 38:20 39:20 40:0 41:21 42:50 
2 1:100 2:0 3:0 4:0 5:0 6:0 7:0 8:0 9:0 10:0 11:0 12:-100 13:0 14:0 15:0 16:0 17:0 18:0 19:0 20:0 21:0 22:60 23:20 24:0 25:0 26:0 27:0 28:20 29:60 30:60 31:40 32:20 33:0 34:0 35:0 36:0 37:0 38:20 39:20 40:40 41:50 42:48 
1.901697786375974 1:0 2:0 3:0 4:0 5:0 6:0 7:0 8:0 9:0 10:0 11:0 12:0 13:0 14:0 15:-100 16:100 17:0 18:0 19:0 20:0 21:0 22:60 23:40 24:20 25:0 26:0 27:20 28:40 29:0 30:0 31:0 32:20 33:0 34:0 35:20 36:40 37:0 38:60 39:0 40:40 41:38 42:65 
2 1:0 2:0 3:0 4:0 5:0 6:0 7:0 8:0 9:0 10:0 11:0 12:0 13:0 14:100 15:0 16:0 17:0 18:0 19:0 20:-100 21:0 22:40 23:20 24:0 25:40 26:0 27:0 28:40 29:20 30:40 31:0 32:20 33:20 34:0 35:40 36:0 37:20 38:20 39:20 40:20 41:51 42:51 
0.4000151316116861 1:0 2:0 3:-100 4:100 5:0 6:0 7:0 8:0 9:0 10:0 11:0 12:0 13:0 14:0 15:0 16:0 17:0 18:0 19:0 20:0 21:20 22:20 23:20 24:0 25:0 26:0 27:0 28:40 29:60 30:0 31:20 32:40 33:0 34:0 35:20 36:40 37:0 38:20 39:40 40:20 41:38 42:65 
2 1:0 2:100 3:0 4:0 5:0 6:0 7:0 8:0 9:-100 10:0 11:0 12:0 13:0 14:0 15:0 16:0 17:0 18:0 19:0 20:0 21:0 22:40 23:20 24:20 25:0 26:40 27:20 28:20 29:20 30:0 31:40 32:20 33:20 34:0 35:20 36:20 37:0 38:20 39:40 40:0 41:19 42:64 
0.3580695241341099 1:0 2:0 3:0 4:0 5:0 6:0 7:0 8:0 9:0 10:0 11:0 12:0 13:0 14:0 15:0 16:-100 17:0 18:100 19:0 20:0 21:20 22:0 23:0 24:0 25:0 26:0 27:0 28:20 29:60 30:20 31:0 32:20 33:0 34:0 35:20 36:0 37:20 38:20 39:20 40:0 41:53 42:55 
0.8373879967834648 1:0 2:0 3:0 4:0 5:0 6:0 7:0 8:-100 9:0 10:0 11:100 12:0 13:0 14:0 15:0 16:0 17:0 18:0 19:0 20:0 21:20 22:20 23:0 24:0 25:40 26:0 27:20 28:40 29:40 30:0 31:0 32:20 33:40 34:0 35:40 36:20 37:20 38:0 39:40 40:0 41:32 42:72 
2 1:0 2:0 3:0 4:0 5:0 6:0 7:0 8:0 9:0 10:0 11:0 12:0 13:0 14:0 15:0 16:-100 17:100 18:0 19:0 20:0 21:20 22:0 23:0 24:0 25:0 26:0 27:0 28:20 29:60 30:20 31:0 32:20 33:0 34:0 35:20 36:0 37:20 38:20 39:20 40:0 41:53 42:55 
2 1:0 2:0 3:0 4:0 5:0 6:0 7:0 8:0 9:0 10:0 11:0 12:0 13:0 14:0 15:0 16:-100 17:100 18:0 19:0 20:0 21:20 22:0 23:0 24:0 25:0 26:0 27:0 28:20 29:60 30:20 31:0 32:20 33:0 34:0 35:20 36:0 37:20 38:20 39:20 40:0 41:53 42:55 
1.462570787480941 1:0 2:0 3:0 4:0 5:0 6:0 7:0 8:0 9:0 10:0 11:0 12:0 13:0 14:0 15:0 16:-100 17:100 18:0 19:0 20:0 21:20 22:0 23:0 24:0 25:0 26:0 27:0 28:20 29:60 30:20 31:0 32:20 33:0 34:0 35:20 36:0 37:20 38:20 39:20 40:0 41:53 42:55 
0.06878655278394663 1:0 2:0 3:0 4:0 5:0 6:0 7:0 8:0 9:0 10:0 11:0 12:0 13:0 14:0 15:0 16:-100 17:100 18:0 19:0 20:0 21:20 22:0 23:0 24:0 25:0 26:0 27:0 28:20 29:60 30:20 31:0 32:20 33:0 34:0 35:20 36:0 37:20 38:20 39:20 40:0 41:53 42:55 
2 1:0 2:0 3:0 4:0 5:0 6:0 7:0 8:100 9:0 10:0 11:0 12:0 13:0 14:0 15:0 16:-100 17:0 18:0 19:0 20:0 21:20 22:0 23:40 24:20 25:40 26:0 27:20 28:0 29:0 30:20 31:0 32:0 33:0 34:0 35:20 36:100 37:0 38:40 39:40 40:0 41:46 42:25 
1.134567730603481 1:0 2:0 3:0 4:100 5:-100 6:0 7:0 8:0 9:0 10:0 11:0 12:0 13:0 14:0 15:0 16:0 17:0 18:0 19:0 20:0 21:20 22:0 23:20 24:0 25:0 26:20 27:20 28:20 29:40 30:0 31:0 32:80 33:0 34:0 35:60 36:40 37:0 38:0 39:20 40:20 41:38 42:65 
