svm_type epsilon_svr
kernel_type rbf
gamma 3.05176e-05
nr_class 2
total_sv 1939
rho 0.898314
probA 0.75637
SV
1 1:0 2:0 3:0 4:0 5:0 6:0 7:0 8:-100 9:0 10:0 11:100 12:0 13:0 14:0 15:0 16:0 17:0 18:0 19:0 20:0 21:0 22:60 23:0 24:0 25:20 26:0 27:40 28:0 29:0 30:20 31:0 32:40 33:0 34:0 35:20 36:40 37:20 38:0 39:40 40:20 41:23 42:35 43:47 
-1 1:0 2:0 3:0 4:0 5:0 6:0 7:0 8:-100 9:0 10:0 11:100 12:0 13:0 14:0 15:0 16:0 17:0 18:0 19:0 20:0 21:0 22:60 23:0 24:0 25:20 26:0 27:40 28:0 29:0 30:20 31:0 32:40 33:0 34:0 35:20 36:40 37:20 38:0 39:40 40:20 41:23 42:37 43:40 
-1 1:0 2:0 3:0 4:0 5:0 6:0 7:0 8:-100 9:0 10:0 11:100 12:0 13:0 14:0 15:0 16:0 17:0 18:0 19:0 20:0 21:0 22:60 23:0 24:0 25:20 26:0 27:40 28:0 29:0 30:20 31:0 32:40 33:0 34:0 35:20 36:40 37:20 38:0 39:40 40:20 41:23 42:50 43:20 
-1 1:0 2:-100 3:0 4:0 5:0 6:0 7:0 8:100 9:0 10:0 11:0 12:0 13:0 14:0 15:0 16:0 17:0 18:0 19:0 20:0 21:0 22:60 23:60 24:0 25:0 26:40 27:40 28:20 29:20 30:20 31:40 32:40 33:0 34:20 35:60 36:60 37:20 38:0 39:20 40:20 41:27 42:45 43:25 
1 1:0 2:0 3:0 4:0 5:0 6:0 7:0 8:100 9:-100 10:0 11:0 12:0 13:0 14:0 15:0 16:0 17:0 18:0 19:0 20:0 21:120 22:60 23:60 24:0 25:20 26:20 27:0 28:20 29:40 30:20 31:20 32:0 33:0 34:0 35:20 36:80 37:20 38:80 39:20 40:40 41:0 42:44 43:25 
0.5785685717584532 1:-100 2:0 3:0 4:0 5:0 6:0 7:0 8:0 9:0 10:0 11:0 12:100 13:0 14:0 15:0 16:0 17:0 18:0 19:0 20:0 21:0 22:100 23:20 24:0 25:0 26:60 27:20 28:20 29:20 30:20 31:60 32:40 33:80 34:20 35:40 36:40 37:0 38:40 39:40 40:0 41:0 42:32 43:64 
-1 1:-100 2:0 3:0 4:0 5:0 6:0 7:0 8:0 9:0 10:0 11:100 12:0 13:0 14:0 15:0 16:0 17:0 18:0 19:0 20:0 21:0 22:100 23:20 24:0 25:0 26:60 27:20 28:20 29:20 30:20 31:60 32:40 33:80 34:20 35:40 36:40 37:0 38:40 39:40 40:0 41:0 42:32 43:64 
-0.3712597639336143 1:-100 2:0 3:0 4:0 5:0 6:0 7:0 8:0 9:100 10:0 11:0 12:0 13:0 14:0 15:0 16:0 17:0 18:0 19:0 20:0 21:0 22:100 23:20 24:0 25:0 26:60 27:20 28:20 29:20 30:20 31:60 32:40 33:80 34:20 35:40 36:40 37:0 38:40 39:40 40:0 41:0 42:32 43:64 
-1 1:-100 2:100 3:0 4:0 5:0 6:0 7:0 8:0 9:0 10:0 11:0 12:0 13:0 14:0 15:0 16:0 17:0 18:0 19:0 20:0 21:0 22:100 23:20 24:0 25:0 26:60 27:20 28:20 29:20 30:20 31:60 32:40 33:80 34:20 35:40 36:40 37:0 38:40 39:40 40:0 41:0 42:32 43:64 
1 1:0 2:0 3:100 4:0 5:0 6:0 7:0 8:0 9:0 10:0 11:0 12:-100 13:0 14:0 15:0 16:0 17:0 18:0 19:0 20:0 21:40 22:60 23:20 24:0 25:20 26:20 27:20 28:20 29:140 30:20 31:20 32:20 33:0 34:0 35:60 36:0 37:40 38:40 39:20 40:20 41:42 42:54 43:25 
1 1:0 2:-100 3:0 4:0 5:0 6:0 7:0 8:0 9:100 10:0 11:0 12:0 13:0 14:0 15:0 16:0 17:0 18:0 19:0 20:0 21:40 22:80 23:40 24:40 25:20 26:20 27:20 28:20 29:80 30:20 31:40 32:20 33:0 34:0 35:100 36:40 37:40 38:0 39:0 40:40 41:2 42:38 43:65 
1 1:0 2:0 3:0 4:0 5:0 6:0 7:0 8:0 9:0 10:0 11:0 12:0 13:0 14:0 15:0 16:0 17:0 18:-100 19:100 20:0 21:80 22:80 23:60 24:0 25:0 26:0 27:0 28:0 29:20 30:0 31:20 32:0 33:0 34:0 35:0 36:60 37:0 38:20 39:20 40:20 41:56 42:44 43:25 
0.6465821148379078 1:0 2:0 3:0 4:0 5:0 6:0 7:0 8:0 9:100 10:0 11:0 12:0 13:0 14:0 15:0 16:0 17:0 18:0 19:-100 20:0 21:0 22:20 23:80 24:0 25:60 26:20 27:20 28:80 29:60 30:20 31:20 32:40 33:0 34:0 35:0 36:20 37:40 38:20 39:40 40:80 41:16 42:50 43:44 
-0.1306731042638589 1:0 2:0 3:0 4:0 5:0 6:0 7:0 8:0 9:0 10:0 11:0 12:0 13:0 14:0 15:0 16:0 17:0 18:-100 19:0 20:100 21:80 22:80 23:60 24:0 25:0 26:0 27:0 28:0 29:20 30:0 31:20 32:0 33:0 34:0 35:0 36:60 37:0 38:20 39:20 40:20 41:56 42:44 43:25 
0.4414725534557105 1:100 2:0 3:-100 4:0 5:0 6:0 7:0 8:0 9:0 10:0 11:0 12:0 13:0 14:0 15:0 16:0 17:0 18:0 19:0 20:0 21:40 22:80 23:40 24:0 25:40 26:40 27:20 28:20 29:60 30:0 31:60 32:60 33:0 34:0 35:40 36:60 37:20 38:60 39:0 40:100 41:1 42:50 43:44 
-1 1:100 2:0 3:-100 4:0 5:0 6:0 7:0 8:0 9:0 10:0 11:0 12:0 13:0 14:0 15:0 16:0 17:0 18:0 19:0 20:0 21:40 22:80 23:40 24:0 25:40 26:40 27:20 28:20 29:60 30:0 31:60 32:60 33:0 34:0 35:40 36:60 37:20 38:60 39:0 40:100 41:1 42:50 43:44 
1 1:0 2:-100 3:0 4:0 5:0 6:0 7:0 8:0 9:0 10:0 11:0 12:0 13:0 14:0 15:100 16:0 17:0 18:0 19:0 20:0 21:0 22:60 23:40 24:0 25:40 26:40 27:20 28:0 29:60 30:20 31:0 32:40 33:0 34:0 35:60 36:20 37:0 38:20 39:60 40:20 41:67 42:55 43:15 
1 1:0 2:0 3:0 4:0 5:0 6:0 7:0 8:0 9:0 10:0 11:0 12:0 13:0 14:0 15:0 16:0 17:100 18:-100 19:0 20:0 21:80 22:80 23:60 24:0 25:0 26:0 27:0 28:0 29:20 30:0 31:20 32:0 33:0 34:0 35:0 36:60 37:0 38:20 39:20 40:20 41:56 42:44 43:25 
-1 1:0 2:0 3:-100 4:0 5:0 6:0 7:0 8:0 9:100 10:0 11:0 12:0 13:0 14:0 15:0 16:0 17:0 18:0 19:0 20:0 21:20 22:60 23:20 24:0 25:0 26:20 27:60 28:80 29:100 30:40 31:40 32:20 33:0 34:0 35:20 36:40 37:20 38:40 39:20 40:60 41:10 42:45 43:25 
-1 1:0 2:0 3:0 4:0 5:0 6:0 7:-100 8:0 9:100 10:0 11:0 12:0 13:0 14:0 15:0 16:0 17:0 18:0 19:0 20:0 21:20 22:40 23:20 24:0 25:0 26:20 27:20 28:20 29:20 30:20 31:0 32:20 33:0 34:20 35:0 36:20 37:20 38:0 39:0 40:40 41:56 42:45 43:25 
-1 1:0 2:0 3:0 4:0 5:0 6:0 7:-100 8:0 9:100 10:0 11:0 12:0 13:0 14:0 15:0 16:0 17:0 18:0 19:0 20:0 21:20 22:40 23:20 24:0 25:0 26:20 27:20 28:20 29:20 30:20 31:0 32:20 33:0 34:20 35:0 36:20 37:20 38:0 39:0 40:40 41:56 42:45 43:25 
-1 1:0 2:0 3:0 4:0 5:0 6:0 7:0 8:0 9:0 10:-100 11:0 12:0 13:0 14:0 15:0 16:0 17:0 18:0 19:100 20:0 21:0 22:0 23:0 24:0 25:0 26:20 27:0 28:60 29:0 30:0 31:60 32:40 33:20 34:0 35:80 36:0 37:0 38:0 39:40 40:40 41:91 42:67 43:20 
-1 1:0 2:0 3:0 4:0 5:0 6:0 7:-100 8:100 9:0 10:0 11:0 12:0 13:0 14:0 15:0 16:0 17:0 18:0 19:0 20:0 21:20 22:40 23:20 24:0 25:0 26:20 27:20 28:20 29:20 30:20 31:0 32:20 33:0 34:20 35:0 36:20 37:20 38:0 39:0 40:40 41:56 42:45 43:25 
-1 1:0 2:0 3:0 4:0 5:0 6:0 7:-100 8:100 9:0 10:0 11:0 12:0 13:0 14:0 15:0 16:0 17:0 18:0 19:0 20:0 21:20 22:40 23:20 24:0 25:0 26:20 27:20 28:20 29:20 30:20 31:0 32:20 33:0 34:20 35:0 36:20 37:20 38:0 39:0 40:40 41:56 42:45 43:25 
0.4173174123467487 1:0 2:0 3:0 4:0 5:0 6:0 7:-100 8:0 9:0 10:0 11:0 12:0 13:0 14:0 15:100 16:0 17:0 18:0 19:0 20:0 21:20 22:20 23:0 24:0 25:0 26:0 27:0 28:40 29:0 30:20 31:60 32:40 33:0 34:0 35:40 36:20 37:0 38:40 39:20 40:0 41:38 42:50 43:25 
-0.0705628006425815 1:0 2:0 3:0 4:0 5:0 6:0 7:0 8:0 9:0 10:0 11:0 12:0 13:0 14:-100 15:0 16:0 17:100 18:0 19:0 20:0 21:0 22:80 23:60 24:20 25:60 26:0 27:20 28:0 29:20 30:20 31:40 32:20 33:0 34:0 35:20 36:60 37:0 38:80 39:0 40:0 41:23 42:55 43:4 
1 1:0 2:0 3:0 4:0 5:0 6:0 7:0 8:0 9:0 10:0 11:0 12:0 13:0 14:-100 15:0 16:0 17:100 18:0 19:0 20:0 21:0 22:80 23:60 24:20 25:60 26:0 27:20 28:0 29:20 30:20 31:40 32:20 33:0 34:0 35:20 36:60 37:0 38:80 39:0 40:0 41:23 42:55 43:4 
-1 1:0 2:0 3:0 4:0 5:0 6:0 7:0 8:0 9:0 10:0 11:0 12:0 13:0 14:-100 15:0 16:0 17:100 18:0 19:0 20:0 21:0 22:80 23:60 24:20 25:60 26:0 27:20 28:0 29:20 30:20 31:40 32:20 33:0 34:0 35:20 36:60 37:0 38:80 39:0 40:0 41:23 42:55 43:4 
-1 1:0 2:0 3:0 4:0 5:0 6:0 7:-100 8:0 9:0 10:0 11:100 12:0 13:0 14:0 15:0 16:0 17:0 18:0 19:0 20:0 21:20 22:40 23:20 24:0 25:0 26:20 27:20 28:20 29:20 30:20 31:0 32:20 33:0 34:20 35:0 36:20 37:20 38:0 39:0 40:40 41:56 42:45 43:25 
-0.6520482943101132 1:100 2:0 3:-100 4:0 5:0 6:0 7:0 8:0 9:0 10:0 11:0 12:0 13:0 14:0 15:0 16:0 17:0 18:0 19:0 20:0 21:20 22:60 23:20 24:0 25:0 26:20 27:60 28:80 29:100 30:40 31:40 32:20 33:0 34:0 35:20 36:40 37:20 38:40 39:20 40:60 41:10 42:45 43:25 
1 1:100 2:0 3:0 4:0 5:0 6:0 7:0 8:0 9:0 10:0 11:0 12:-100 13:0 14:0 15:0 16:0 17:0 18:0 19:0 20:0 21:20 22:80 23:80 24:0 25:0 26:0 27:20 28:0 29:60 30:40 31:20 32:40 33:40 34:0 35:0 36:0 37:20 38:20 39:20 40:40 41:36 42:50 43:48 
-1 1:0 2:0 3:0 4:0 5:0 6:0 7:0 8:0 9:0 10:0 11:0 12:0 13:0 14:0 15:0 16:-100 17:0 18:100 19:0 20:0 21:120 22:40 23:20 24:0 25:60 26:20 27:0 28:60 29:40 30:0 31:20 32:20 33:0 34:0 35:0 36:20 37:20 38:120 39:0 40:40 41:48 42:53 43:55 
1 1:0 2:0 3:0 4:0 5:0 6:0 7:0 8:0 9:0 10:0 11:0 12:0 13:0 14:0 15:0 16:-100 17:0 18:100 19:0 20:0 21:120 22:40 23:20 24:0 25:60 26:20 27:0 28:60 29:40 30:0 31:20 32:20 33:0 34:0 35:0 36:20 37:20 38:120 39:0 40:40 41:48 42:53 43:55 
-1 1:0 2:0 3:0 4:0 5:0 6:0 7:0 8:0 9:0 10:0 11:0 12:0 13:0 14:0 15:0 16:-100 17:0 18:100 19:0 20:0 21:120 22:40 23:20 24:0 25:60 26:20 27:0 28:60 29:40 30:0 31:20 32:20 33:0 34:0 35:0 36:20 37:20 38:120 39:0 40:40 41:48 42:53 43:55 
-1 1:0 2:0 3:0 4:0 5:0 6:0 7:0 8:0 9:0 10:0 11:0 12:0 13:0 14:0 15:0 16:-100 17:0 18:100 19:0 20:0 21:120 22:40 23:20 24:0 25:60 26:20 27:0 28:60 29:40 30:0 31:20 32:20 33:0 34:0 35:0 36:20 37:20 38:120 39:0 40:40 41:48 42:53 43:55 
1 1:0 2:0 3:0 4:0 5:0 6:0 7:0 8:0 9:0 10:0 11:0 12:0 13:0 14:0 15:0 16:-100 17:0 18:100 19:0 20:0 21:120 22:40 23:20 24:0 25:60 26:20 27:0 28:60 29:40 30:0 31:20 32:20 33:0 34:0 35:0 36:20 37:20 38:120 39:0 40:40 41:48 42:53 43:55 
0.8640853069800755 1:0 2:0 3:0 4:0 5:0 6:0 7:0 8:0 9:0 10:0 11:0 12:0 13:0 14:0 15:0 16:-100 17:0 18:100 19:0 20:0 21:120 22:40 23:20 24:0 25:60 26:20 27:0 28:60 29:40 30:0 31:20 32:20 33:0 34:0 35:0 36:20 37:20 38:120 39:0 40:40 41:48 42:53 43:55 
-1 1:0 2:0 3:0 4:0 5:0 6:0 7:0 8:0 9:0 10:0 11:0 12:0 13:0 14:0 15:0 16:-100 17:0 18:100 19:0 20:0 21:120 22:40 23:20 24:0 25:60 26:20 27:0 28:60 29:40 30:0 31:20 32:20 33:0 34:0 35:0 36:20 37:20 38:120 39:0 40:40 41:48 42:53 43:55 
-1 1:0 2:0 3:0 4:0 5:0 6:0 7:0 8:0 9:0 10:0 11:0 12:0 13:0 14:0 15:0 16:-100 17:0 18:100 19:0 20:0 21:120 22:40 23:20 24:0 25:60 26:20 27:0 28:60 29:40 30:0 31:20 32:20 33:0 34:0 35:0 36:20 37:20 38:120 39:0 40:40 41:48 42:53 43:55 
-1 1:0 2:0 3:0 4:0 5:0 6:0 7:0 8:0 9:0 10:0 11:0 12:0 13:0 14:0 15:0 16:-100 17:0 18:100 19:0 20:0 21:120 22:40 23:20 24:0 25:60 26:20 27:0 28:60 29:40 30:0 31:20 32:20 33:0 34:0 35:0 36:20 37:20 38:120 39:0 40:40 41:48 42:53 43:55 
1 1:0 2:0 3:0 4:0 5:0 6:0 7:0 8:0 9:0 10:0 11:0 12:0 13:0 14:0 15:0 16:-100 17:0 18:100 19:0 20:0 21:120 22:40 23:20 24:0 25:60 26:20 27:0 28:60 29:40 30:0 31:20 32:20 33:0 34:0 35:0 36:20 37:20 38:120 39:0 40:40 41:48 42:53 43:55 
-1 1:0 2:0 3:0 4:0 5:0 6:0 7:-100 8:0 9:0 10:0 11:0 12:0 13:0 14:0 15:0 16:0 17:0 18:0 19:0 20:100 21:60 22:160 23:20 24:0 25:60 26:0 27:0 28:80 29:40 30:0 31:0 32:40 33:0 34:0 35:0 36:100 37:0 38:120 39:20 40:40 41:26 42:54 43:25 
1 1:0 2:0 3:0 4:0 5:0 6:0 7:0 8:0 9:0 10:0 11:0 12:0 13:0 14:0 15:0 16:-100 17:100 18:0 19:0 20:0 21:120 22:40 23:20 24:0 25:60 26:20 27:0 28:60 29:40 30:0 31:20 32:20 33:0 34:0 35:0 36:20 37:20 38:120 39:0 40:40 41:48 42:53 43:55 
-1 1:0 2:0 3:0 4:0 5:0 6:0 7:0 8:0 9:0 10:0 11:0 12:0 13:0 14:0 15:0 16:-100 17:100 18:0 19:0 20:0 21:120 22:40 23:20 24:0 25:60 26:20 27:0 28:60 29:40 30:0 31:20 32:20 33:0 34:0 35:0 36:20 37:20 38:120 39:0 40:40 41:48 42:53 43:55 
-1 1:0 2:0 3:0 4:0 5:0 6:0 7:0 8:0 9:0 10:0 11:0 12:0 13:0 14:0 15:0 16:-100 17:100 18:0 19:0 20:0 21:120 22:40 23:20 24:0 25:60 26:20 27:0 28:60 29:40 30:0 31:20 32:20 33:0 34:0 35:0 36:20 37:20 38:120 39:0 40:40 41:48 42:53 43:55 
-1 1:0 2:0 3:0 4:0 5:0 6:0 7:0 8:0 9:0 10:0 11:0 12:0 13:0 14:0 15:0 16:-100 17:100 18:0 19:0 20:0 21:120 22:40 23:20 24:0 25:60 26:20 27:0 28:60 29:40 30:0 31:20 32:20 33:0 34:0 35:0 36:20 37:20 38:120 39:0 40:40 41:48 42:53 43:55 
1 1:0 2:0 3:0 4:0 5:0 6:0 7:0 8:0 9:0 10:0 11:0 12:0 13:0 14:0 15:0 16:-100 17:100 18:0 19:0 20:0 21:120 22:40 23:20 24:0 25:60 26:20 27:0 28:60 29:40 30:0 31:20 32:20 33:0 34:0 35:0 36:20 37:20 38:120 39:0 40:40 41:48 42:53 43:55 
1 1:0 2:0 3:0 4:0 5:0 6:0 7:0 8:0 9:0 10:0 11:0 12:0 13:0 14:0 15:0 16:-100 17:100 18:0 19:0 20:0 21:120 22:40 23:20 24:0 25:60 26:20 27:0 28:60 29:40 30:0 31:20 32:20 33:0 34:0 35:0 36:20 37:20 38:120 39:0 40:40 41:48 42:53 43:55 
-1 1:0 2:0 3:0 4:0 5:0 6:0 7:0 8:0 9:0 10:0 11:0 12:0 13:0 14:0 15:0 16:-100 17:100 18:0 19:0 20:0 21:120 22:40 23:20 24:0 25:60 26:20 27:0 28:60 29:40 30:0 31:20 32:20 33:0 34:0 35:0 36:20 37:20 38:120 39:0 40:40 41:48 42:53 43:55 
-1 1:0 2:0 3:0 4:0 5:0 6:0 7:0 8:0 9:0 10:0 11:0 12:0 13:0 14:0 15:0 16:-100 17:100 18:0 19:0 20:0 21:120 22:40 23:20 24:0 25:60 26:20 27:0 28:60 29:40 30:0 31:20 32:20 33:0 34:0 35:0 36:20 37:20 38:120 39:0 40:40 41:48 42:53 43:55 
1 1:0 2:0 3:0 4:0 5:0 6:0 7:0 8:0 9:0 10:0 11:0 12:0 13:0 14:0 15:0 16:-100 17:100 18:0 19:0 20:0 21:120 22:40 23:20 24:0 25:60 26:20 27:0 28:60 29:40 30:0 31:20 32:20 33:0 34:0 35:0 36:20 37:20 38:120 39:0 40:40 41:48 42:53 43:55 
-1 1:0 2:0 3:0 4:0 5:0 6:0 7:0 8:0 9:-100 10:100 11:0 12:0 13:0 14:0 15:0 16:0 17:0 18:0 19:0 20:0 21:40 22:40 23:40 24:0 25:0 26:20 27:0 28:20 29:40 30:0 31:20 32:20 33:0 34:0 35:0 36:20 37:20 38:20 39:0 40:0 41:83 42:45 43:25 
1 1:0 2:0 3:0 4:0 5:0 6:0 7:0 8:0 9:0 10:0 11:0 12:-100 13:0 14:0 15:0 16:0 17:0 18:100 19:0 20:0 21:40 22:80 23:0 24:40 25:20 26:0 27:0 28:40 29:20 30:0 31:20 32:20 33:0 34:0 35:20 36:20 37:40 38:0 39:40 40:0 41:62 42:46 43:64 
1 1:0 2:0 3:0 4:0 5:0 6:0 7:0 8:0 9:0 10:0 11:0 12:-100 13:0 14:0 15:0 16:0 17:0 18:100 19:0 20:0 21:40 22:80 23:0 24:40 25:20 26:0 27:0 28:40 29:20 30:0 31:20 32:20 33:0 34:0 35:20 36:20 37:40 38:0 39:40 40:0 41:62 42:46 43:66 
-1 1:0 2:0 3:0 4:0 5:0 6:0 7:0 8:0 9:0 10:0 11:0 12:-100 13:0 14:0 15:0 16:0 17:0 18:100 19:0 20:0 21:40 22:80 23:0 24:40 25:20 26:0 27:0 28:40 29:20 30:0 31:20 32:20 33:0 34:0 35:20 36:20 37:40 38:0 39:40 40:0 41:62 42:14 43:40 
-1 1:0 2:0 3:0 4:0 5:0 6:0 7:0 8:0 9:0 10:0 11:0 12:-100 13:0 14:0 15:0 16:0 17:0 18:100 19:0 20:0 21:40 22:80 23:0 24:40 25:20 26:0 27:0 28:40 29:20 30:0 31:20 32:20 33:0 34:0 35:20 36:20 37:40 38:0 39:40 40:0 41:62 42:14 43:40 
-1 1:0 2:0 3:0 4:0 5:0 6:0 7:0 8:0 9:0 10:0 11:0 12:0 13:0 14:0 15:0 16:0 17:0 18:0 19:100 20:-100 21:140 22:0 23:40 24:0 25:40 26:0 27:20 28:20 29:60 30:20 31:20 32:40 33:60 34:60 35:0 36:40 37:40 38:0 39:60 40:20 41:8 42:42 43:25 
1 1:0 2:0 3:0 4:0 5:0 6:0 7:0 8:0 9:0 10:0 11:0 12:0 13:0 14:0 15:0 16:0 17:0 18:0 19:100 20:-100 21:140 22:0 23:40 24:0 25:40 26:0 27:20 28:20 29:60 30:20 31:20 32:40 33:60 34:60 35:0 36:40 37:40 38:0 39:60 40:20 41:8 42:8 43:25 
1 1:0 2:0 3:0 4:0 5:0 6:0 7:0 8:0 9:100 10:0 11:0 12:0 13:0 14:0 15:0 16:0 17:0 18:0 19:0 20:-100 21:140 22:0 23:40 24:0 25:40 26:0 27:20 28:20 29:60 30:20 31:20 32:40 33:60 34:60 35:0 36:40 37:40 38:0 39:60 40:20 41:8 42:8 43:25 
-1 1:0 2:0 3:0 4:0 5:0 6:0 7:0 8:0 9:100 10:0 11:0 12:0 13:0 14:0 15:0 16:0 17:0 18:0 19:0 20:-100 21:140 22:0 23:40 24:0 25:40 26:0 27:20 28:20 29:60 30:20 31:20 32:40 33:60 34:60 35:0 36:40 37:40 38:0 39:60 40:20 41:8 42:42 43:25 
-1 1:0 2:0 3:0 4:0 5:0 6:0 7:0 8:0 9:0 10:0 11:0 12:0 13:0 14:0 15:-100 16:100 17:0 18:0 19:0 20:0 21:0 22:40 23:40 24:0 25:20 26:40 27:40 28:40 29:0 30:20 31:80 32:20 33:0 34:0 35:20 36:40 37:0 38:0 39:20 40:20 41:15 42:45 43:25 
-0.359082025934118 1:100 2:0 3:0 4:0 5:0 6:0 7:0 8:0 9:0 10:0 11:0 12:-100 13:0 14:0 15:0 16:0 17:0 18:0 19:0 20:0 21:40 22:0 23:20 24:40 25:20 26:20 27:20 28:20 29:60 30:0 31:0 32:60 33:20 34:0 35:60 36:20 37:0 38:0 39:0 40:40 41:41 42:14 43:42 
-1 1:100 2:0 3:0 4:0 5:0 6:0 7:0 8:0 9:0 10:0 11:0 12:-100 13:0 14:0 15:0 16:0 17:0 18:0 19:0 20:0 21:40 22:0 23:20 24:40 25:20 26:20 27:20 28:20 29:60 30:0 31:0 32:60 33:20 34:0 35:60 36:20 37:0 38:0 39:0 40:40 41:41 42:17 43:46 
1 1:100 2:0 3:0 4:0 5:0 6:0 7:0 8:0 9:0 10:0 11:0 12:-100 13:0 14:0 15:0 16:0 17:0 18:0 19:0 20:0 21:40 22:0 23:20 24:40 25:20 26:20 27:20 28:20 29:60 30:0 31:0 32:60 33:20 34:0 35:60 36:20 37:0 38:0 39:0 40:40 41:41 42:21 43:53 
-1 1:100 2:0 3:0 4:0 5:0 6:0 7:0 8:0 9:0 10:0 11:0 12:-100 13:0 14:0 15:0 16:0 17:0 18:0 19:0 20:0 21:40 22:0 23:20 24:40 25:20 26:20 27:20 28:20 29:60 30:0 31:0 32:60 33:20 34:0 35:60 36:20 37:0 38:0 39:0 40:40 41:41 42:14 43:38 
1 1:0 2:0 3:0 4:0 5:0 6:0 7:0 8:0 9:0 10:0 11:0 12:-100 13:0 14:0 15:100 16:0 17:0 18:0 19:0 20:0 21:40 22:0 23:20 24:40 25:20 26:20 27:20 28:20 29:60 30:0 31:0 32:60 33:20 34:0 35:60 36:20 37:0 38:0 39:0 40:40 41:41 42:17 43:46 
-1 1:0 2:0 3:0 4:0 5:0 6:0 7:0 8:0 9:0 10:0 11:0 12:-100 13:0 14:0 15:100 16:0 17:0 18:0 19:0 20:0 21:40 22:0 23:20 24:40 25:20 26:20 27:20 28:20 29:60 30:0 31:0 32:60 33:20 34:0 35:60 36:20 37:0 38:0 39:0 40:40 41:41 42:14 43:42 
1 1:0 2:0 3:0 4:0 5:0 6:0 7:0 8:0 9:0 10:0 11:0 12:-100 13:0 14:0 15:100 16:0 17:0 18:0 19:0 20:0 21:40 22:0 23:20 24:40 25:20 26:20 27:20 28:20 29:60 30:0 31:0 32:60 33:20 34:0 35:60 36:20 37:0 38:0 39:0 40:40 41:41 42:21 43:53 
-0.1425843210334023 1:0 2:0 3:0 4:0 5:0 6:0 7:0 8:0 9:0 10:0 11:0 12:-100 13:0 14:0 15:100 16:0 17:0 18:0 19:0 20:0 21:40 22:0 23:20 24:40 25:20 26:20 27:20 28:20 29:60 30:0 31:0 32:60 33:20 34:0 35:60 36:20 37:0 38:0 39:0 40:40 41:41 42:14 43:38 
1 1:0 2:0 3:0 4:0 5:0 6:0 7:0 8:0 9:0 10:0 11:100 12:-100 13:0 14:0 15:0 16:0 17:0 18:0 19:0 20:0 21:40 22:0 23:20 24:40 25:20 26:20 27:20 28:20 29:60 30:0 31:0 32:60 33:20 34:0 35:60 36:20 37:0 38:0 39:0 40:40 41:41 42:14 43:42 
1 1:0 2:100 3:0 4:0 5:0 6:0 7:0 8:0 9:0 10:0 11:0 12:-100 13:0 14:0 15:0 16:0 17:0 18:0 19:0 20:0 21:40 22:0 23:20 24:40 25:20 26:20 27:20 28:20 29:60 30:0 31:0 32:60 33:20 34:0 35:60 36:20 37:0 38:0 39:0 40:40 41:41 42:14 43:42 
-1 1:0 2:100 3:0 4:0 5:0 6:0 7:0 8:0 9:0 10:0 11:0 12:-100 13:0 14:0 15:0 16:0 17:0 18:0 19:0 20:0 21:40 22:0 23:20 24:40 25:20 26:20 27:20 28:20 29:60 30:0 31:0 32:60 33:20 34:0 35:60 36:20 37:0 38:0 39:0 40:40 41:41 42:17 43:46 
-1 1:0 2:100 3:0 4:0 5:0 6:0 7:0 8:0 9:0 10:0 11:0 12:-100 13:0 14:0 15:0 16:0 17:0 18:0 19:0 20:0 21:40 22:0 23:20 24:40 25:20 26:20 27:20 28:20 29:60 30:0 31:0 32:60 33:20 34:0 35:60 36:20 37:0 38:0 39:0 40:40 41:41 42:21 43:53 
-1 1:0 2:100 3:0 4:0 5:0 6:0 7:0 8:0 9:0 10:0 11:0 12:-100 13:0 14:0 15:0 16:0 17:0 18:0 19:0 20:0 21:40 22:0 23:20 24:40 25:20 26:20 27:20 28:20 29:60 30:0 31:0 32:60 33:20 34:0 35:60 36:20 37:0 38:0 39:0 40:40 41:41 42:14 43:38 
1 1:0 2:0 3:0 4:0 5:0 6:0 7:0 8:0 9:0 10:0 11:0 12:-100 13:0 14:0 15:0 16:0 17:0 18:0 19:100 20:0 21:40 22:0 23:20 24:40 25:20 26:20 27:20 28:20 29:60 30:0 31:0 32:60 33:20 34:0 35:60 36:20 37:0 38:0 39:0 40:40 41:41 42:14 43:42 
-1 1:0 2:0 3:0 4:0 5:0 6:0 7:0 8:0 9:0 10:0 11:0 12:-100 13:0 14:0 15:0 16:0 17:0 18:0 19:100 20:0 21:40 22:0 23:20 24:40 25:20 26:20 27:20 28:20 29:60 30:0 31:0 32:60 33:20 34:0 35:60 36:20 37:0 38:0 39:0 40:40 41:41 42:21 43:53 
-1 1:0 2:0 3:0 4:0 5:0 6:0 7:0 8:0 9:0 10:0 11:0 12:-100 13:0 14:100 15:0 16:0 17:0 18:0 19:0 20:0 21:40 22:0 23:20 24:40 25:20 26:20 27:20 28:20 29:60 30:0 31:0 32:60 33:20 34:0 35:60 36:20 37:0 38:0 39:0 40:40 41:41 42:14 43:42 
0.1304401728975794 1:0 2:0 3:100 4:0 5:0 6:0 7:0 8:0 9:0 10:0 11:0 12:-100 13:0 14:0 15:0 16:0 17:0 18:0 19:0 20:0 21:40 22:0 23:20 24:40 25:20 26:20 27:20 28:20 29:60 30:0 31:0 32:60 33:20 34:0 35:60 36:20 37:0 38:0 39:0 40:40 41:41 42:42 43:64 
-1 1:0 2:0 3:100 4:0 5:0 6:0 7:0 8:0 9:0 10:0 11:0 12:-100 13:0 14:0 15:0 16:0 17:0 18:0 19:0 20:0 21:40 22:0 23:20 24:40 25:20 26:20 27:20 28:20 29:60 30:0 31:0 32:60 33:20 34:0 35:60 36:20 37:0 38:0 39:0 40:40 41:41 42:17 43:46 
-1 1:0 2:0 3:100 4:0 5:0 6:0 7:0 8:0 9:0 10:0 11:0 12:-100 13:0 14:0 15:0 16:0 17:0 18:0 19:0 20:0 21:40 22:0 23:20 24:40 25:20 26:20 27:20 28:20 29:60 30:0 31:0 32:60 33:20 34:0 35:60 36:20 37:0 38:0 39:0 40:40 41:41 42:14 43:42 
-1 1:0 2:0 3:100 4:0 5:0 6:0 7:0 8:0 9:0 10:0 11:0 12:-100 13:0 14:0 15:0 16:0 17:0 18:0 19:0 20:0 21:40 22:0 23:20 24:40 25:20 26:20 27:20 28:20 29:60 30:0 31:0 32:60 33:20 34:0 35:60 36:20 37:0 38:0 39:0 40:40 41:41 42:14 43:38 
-1 1:0 2:0 3:100 4:0 5:0 6:0 7:0 8:0 9:0 10:0 11:0 12:-100 13:0 14:0 15:0 16:0 17:0 18:0 19:0 20:0 21:40 22:0 23:20 24:40 25:20 26:20 27:20 28:20 29:60 30:0 31:0 32:60 33:20 34:0 35:60 36:20 37:0 38:0 39:0 40:40 41:41 42:28 43:62 
0.4343676769794636 1:0 2:0 3:0 4:0 5:0 6:0 7:0 8:0 9:0 10:0 11:0 12:-100 13:0 14:0 15:0 16:0 17:0 18:0 19:0 20:100 21:40 22:0 23:20 24:40 25:20 26:20 27:20 28:20 29:60 30:0 31:0 32:60 33:20 34:0 35:60 36:20 37:0 38:0 39:0 40:40 41:41 42:14 43:42 
1 1:0 2:0 3:0 4:0 5:0 6:0 7:0 8:0 9:0 10:0 11:0 12:-100 13:0 14:0 15:0 16:0 17:0 18:100 19:0 20:0 21:40 22:0 23:20 24:40 25:20 26:20 27:20 28:20 29:60 30:0 31:0 32:60 33:20 34:0 35:60 36:20 37:0 38:0 39:0 40:40 41:41 42:21 43:53 
-1 1:0 2:0 3:0 4:0 5:0 6:0 7:0 8:0 9:0 10:0 11:0 12:-100 13:0 14:0 15:0 16:0 17:0 18:100 19:0 20:0 21:40 22:0 23:20 24:40 25:20 26:20 27:20 28:20 29:60 30:0 31:0 32:60 33:20 34:0 35:60 36:20 37:0 38:0 39:0 40:40 41:41 42:14 43:42 
-0.6208246670004275 1:0 2:0 3:0 4:0 5:0 6:0 7:0 8:0 9:0 10:0 11:0 12:-100 13:0 14:0 15:0 16:0 17:0 18:100 19:0 20:0 21:40 22:0 23:20 24:40 25:20 26:20 27:20 28:20 29:60 30:0 31:0 32:60 33:20 34:0 35:60 36:20 37:0 38:0 39:0 40:40 41:41 42:14 43:38 
-1 1:0 2:0 3:0 4:0 5:100 6:0 7:0 8:0 9:0 10:0 11:0 12:-100 13:0 14:0 15:0 16:0 17:0 18:0 19:0 20:0 21:40 22:0 23:20 24:40 25:20 26:20 27:20 28:20 29:60 30:0 31:0 32:60 33:20 34:0 35:60 36:20 37:0 38:0 39:0 40:40 41:41 42:14 43:42 
1 1:0 2:0 3:0 4:0 5:0 6:0 7:0 8:100 9:0 10:0 11:0 12:-100 13:0 14:0 15:0 16:0 17:0 18:0 19:0 20:0 21:40 22:0 23:20 24:40 25:20 26:20 27:20 28:20 29:60 30:0 31:0 32:60 33:20 34:0 35:60 36:20 37:0 38:0 39:0 40:40 41:41 42:14 43:42 
-1 1:0 2:0 3:0 4:0 5:0 6:0 7:0 8:0 9:100 10:0 11:0 12:-100 13:0 14:0 15:0 16:0 17:0 18:0 19:0 20:0 21:40 22:0 23:20 24:40 25:20 26:20 27:20 28:20 29:60 30:0 31:0 32:60 33:20 34:0 35:60 36:20 37:0 38:0 39:0 40:40 41:41 42:14 43:42 
0.951990477247513 1:0 2:0 3:0 4:0 5:0 6:0 7:0 8:0 9:100 10:0 11:0 12:-100 13:0 14:0 15:0 16:0 17:0 18:0 19:0 20:0 21:40 22:0 23:20 24:40 25:20 26:20 27:20 28:20 29:60 30:0 31:0 32:60 33:20 34:0 35:60 36:20 37:0 38:0 39:0 40:40 41:41 42:17 43:46 
1 1:0 2:0 3:0 4:0 5:0 6:0 7:0 8:0 9:100 10:0 11:0 12:-100 13:0 14:0 15:0 16:0 17:0 18:0 19:0 20:0 21:40 22:0 23:20 24:40 25:20 26:20 27:20 28:20 29:60 30:0 31:0 32:60 33:20 34:0 35:60 36:20 37:0 38:0 39:0 40:40 41:41 42:21 43:53 
-1 1:0 2:0 3:0 4:0 5:0 6:0 7:0 8:0 9:0 10:0 11:0 12:-100 13:100 14:0 15:0 16:0 17:0 18:0 19:0 20:0 21:40 22:0 23:20 24:40 25:20 26:20 27:20 28:20 29:60 30:0 31:0 32:60 33:20 34:0 35:60 36:20 37:0 38:0 39:0 40:40 41:41 42:14 43:42 
1 1:0 2:0 3:0 4:0 5:0 6:0 7:0 8:0 9:-100 10:0 11:100 12:0 13:0 14:0 15:0 16:0 17:0 18:0 19:0 20:0 21:40 22:140 23:60 24:20 25:40 26:60 27:20 28:20 29:80 30:0 31:40 32:20 33:80 34:0 35:20 36:20 37:40 38:0 39:40 40:40 41:2 42:19 43:64 
0.6505902284963716 1:0 2:0 3:0 4:0 5:0 6:0 7:0 8:0 9:0 10:0 11:100 12:0 13:0 14:0 15:0 16:0 17:0 18:0 19:-100 20:0 21:0 22:20 23:20 24:0 25:60 26:20 27:20 28:40 29:0 30:0 31:0 32:20 33:0 34:0 35:0 36:40 37:0 38:60 39:20 40:0 41:50 42:50 43:70 
-0.7231428721294083 1:0 2:0 3:0 4:0 5:100 6:0 7:-100 8:0 9:0 10:0 11:0 12:0 13:0 14:0 15:0 16:0 17:0 18:0 19:0 20:0 21:60 22:40 23:20 24:0 25:0 26:20 27:20 28:120 29:40 30:60 31:120 32:40 33:0 34:20 35:20 36:0 37:20 38:20 39:20 40:60 41:3 42:50 43:50 
-0.9253502050088811 1:0 2:0 3:0 4:0 5:0 6:0 7:0 8:0 9:100 10:0 11:0 12:0 13:0 14:-100 15:0 16:0 17:0 18:0 19:0 20:0 21:40 22:0 23:20 24:0 25:40 26:0 27:40 28:80 29:40 30:40 31:20 32:40 33:40 34:20 35:20 36:0 37:0 38:60 39:60 40:20 41:21 42:42 43:25 
1 1:0 2:0 3:0 4:0 5:0 6:0 7:0 8:0 9:100 10:-100 11:0 12:0 13:0 14:0 15:0 16:0 17:0 18:0 19:0 20:0 21:40 22:40 23:0 24:0 25:0 26:0 27:40 28:20 29:0 30:20 31:0 32:20 33:0 34:20 35:20 36:20 37:0 38:0 39:20 40:40 41:49 42:51 43:25 
-0.366789960999398 1:0 2:0 3:0 4:0 5:0 6:0 7:0 8:0 9:100 10:-100 11:0 12:0 13:0 14:0 15:0 16:0 17:0 18:0 19:0 20:0 21:40 22:40 23:0 24:0 25:0 26:0 27:40 28:20 29:0 30:20 31:0 32:20 33:0 34:20 35:20 36:20 37:0 38:0 39:20 40:40 41:49 42:51 43:25 
-1 1:0 2:0 3:0 4:0 5:0 6:0 7:0 8:-100 9:100 10:0 11:0 12:0 13:0 14:0 15:0 16:0 17:0 18:0 19:0 20:0 21:20 22:0 23:0 24:0 25:20 26:0 27:40 28:40 29:40 30:60 31:0 32:20 33:40 34:0 35:20 36:40 37:0 38:0 39:20 40:0 41:21 42:50 43:39 
-1 1:0 2:0 3:0 4:0 5:0 6:0 7:0 8:0 9:100 10:0 11:0 12:0 13:0 14:0 15:0 16:0 17:0 18:0 19:0 20:-100 21:0 22:40 23:80 24:0 25:20 26:40 27:60 28:40 29:40 30:0 31:60 32:40 33:0 34:0 35:60 36:20 37:20 38:40 39:0 40:20 41:19 42:45 43:25 
-1 1:0 2:0 3:0 4:0 5:0 6:0 7:0 8:0 9:100 10:0 11:0 12:0 13:0 14:0 15:0 16:0 17:0 18:0 19:0 20:-100 21:0 22:40 23:80 24:0 25:20 26:40 27:60 28:40 29:40 30:0 31:60 32:40 33:0 34:0 35:60 36:20 37:20 38:40 39:0 40:20 41:19 42:45 43:25 
-1 1:0 2:0 3:0 4:0 5:0 6:0 7:0 8:0 9:0 10:0 11:0 12:0 13:0 14:0 15:0 16:0 17:0 18:0 19:100 20:-100 21:0 22:40 23:80 24:0 25:20 26:40 27:60 28:40 29:40 30:0 31:60 32:40 33:0 34:0 35:60 36:20 37:20 38:40 39:0 40:20 41:19 42:31 43:25 
-1 1:0 2:0 3:0 4:0 5:0 6:0 7:0 8:0 9:0 10:0 11:0 12:0 13:0 14:0 15:0 16:0 17:0 18:0 19:100 20:-100 21:0 22:40 23:80 24:0 25:20 26:40 27:60 28:40 29:40 30:0 31:60 32:40 33:0 34:0 35:60 36:20 37:20 38:40 39:0 40:20 41:19 42:31 43:25 
-1 1:0 2:0 3:0 4:0 5:0 6:0 7:0 8:0 9:0 10:0 11:0 12:0 13:0 14:0 15:0 16:0 17:0 18:0 19:100 20:-100 21:0 22:40 23:80 24:0 25:20 26:40 27:60 28:40 29:40 30:0 31:60 32:40 33:0 34:0 35:60 36:20 37:20 38:40 39:0 40:20 41:19 42:45 43:25 
-0.1854041097495359 1:0 2:0 3:0 4:0 5:0 6:0 7:0 8:0 9:100 10:0 11:0 12:-100 13:0 14:0 15:0 16:0 17:0 18:0 19:0 20:0 21:60 22:100 23:40 24:0 25:20 26:20 27:0 28:60 29:60 30:0 31:0 32:20 33:0 34:60 35:20 36:40 37:20 38:20 39:0 40:20 41:66 42:68 43:82 
0.9456309405460837 1:-100 2:0 3:0 4:0 5:0 6:0 7:0 8:0 9:0 10:0 11:0 12:100 13:0 14:0 15:0 16:0 17:0 18:0 19:0 20:0 21:60 22:40 23:40 24:0 25:20 26:0 27:0 28:20 29:20 30:20 31:0 32:20 33:0 34:0 35:0 36:20 37:0 38:20 39:20 40:40 41:50 42:45 43:25 
1 1:0 2:0 3:0 4:0 5:0 6:0 7:0 8:0 9:100 10:0 11:0 12:-100 13:0 14:0 15:0 16:0 17:0 18:0 19:0 20:0 21:20 22:20 23:40 24:20 25:20 26:20 27:60 28:20 29:60 30:0 31:40 32:20 33:0 34:20 35:0 36:40 37:40 38:20 39:20 40:60 41:36 42:37 43:5 
-0.2287965969865437 1:0 2:0 3:0 4:0 5:0 6:0 7:0 8:0 9:100 10:0 11:0 12:0 13:0 14:0 15:0 16:-100 17:0 18:0 19:0 20:0 21:20 22:0 23:20 24:0 25:0 26:0 27:20 28:60 29:20 30:20 31:0 32:20 33:40 34:0 35:20 36:0 37:0 38:0 39:0 40:0 41:90 42:50 43:39 
1 1:0 2:0 3:100 4:-100 5:0 6:0 7:0 8:0 9:0 10:0 11:0 12:0 13:0 14:0 15:0 16:0 17:0 18:0 19:0 20:0 21:20 22:60 23:20 24:0 25:40 26:0 27:0 28:40 29:0 30:0 31:60 32:0 33:0 34:20 35:40 36:20 37:20 38:0 39:0 40:20 41:44 42:50 43:25 
-1 1:0 2:0 3:0 4:0 5:0 6:0 7:0 8:0 9:0 10:0 11:0 12:0 13:0 14:100 15:0 16:0 17:0 18:0 19:0 20:-100 21:0 22:80 23:20 24:0 25:20 26:0 27:20 28:20 29:20 30:20 31:60 32:20 33:0 34:20 35:40 36:0 37:40 38:40 39:20 40:20 41:28 42:50 43:25 
-1 1:0 2:0 3:0 4:0 5:0 6:0 7:0 8:0 9:0 10:0 11:0 12:0 13:0 14:100 15:0 16:0 17:0 18:0 19:0 20:-100 21:0 22:80 23:20 24:0 25:20 26:0 27:20 28:20 29:20 30:20 31:60 32:20 33:0 34:20 35:40 36:0 37:40 38:40 39:20 40:20 41:28 42:50 43:25 
-1 1:0 2:0 3:0 4:0 5:0 6:0 7:0 8:0 9:0 10:0 11:0 12:-100 13:0 14:0 15:0 16:0 17:0 18:0 19:0 20:100 21:20 22:80 23:80 24:0 25:20 26:0 27:0 28:40 29:20 30:0 31:0 32:0 33:20 34:0 35:40 36:60 37:0 38:40 39:0 40:20 41:51 42:46 43:63 
0.4934231875333538 1:0 2:0 3:0 4:0 5:0 6:0 7:0 8:0 9:0 10:0 11:0 12:-100 13:0 14:0 15:0 16:0 17:0 18:0 19:0 20:100 21:20 22:80 23:80 24:0 25:20 26:0 27:0 28:40 29:20 30:0 31:0 32:0 33:20 34:0 35:40 36:60 37:0 38:40 39:0 40:20 41:51 42:14 43:41 
0.5387063979995484 1:0 2:0 3:0 4:0 5:0 6:0 7:0 8:0 9:0 10:0 11:0 12:0 13:0 14:-100 15:0 16:0 17:100 18:0 19:0 20:0 21:20 22:0 23:20 24:0 25:40 26:0 27:40 28:40 29:20 30:0 31:0 32:80 33:0 34:0 35:60 36:0 37:0 38:40 39:0 40:20 41:51 42:50 43:49 
-1 1:0 2:0 3:0 4:0 5:0 6:0 7:0 8:100 9:0 10:0 11:0 12:-100 13:0 14:0 15:0 16:0 17:0 18:0 19:0 20:0 21:20 22:80 23:80 24:0 25:20 26:0 27:0 28:40 29:20 30:0 31:0 32:0 33:20 34:0 35:40 36:60 37:0 38:40 39:0 40:20 41:51 42:14 43:41 
-1 1:0 2:0 3:0 4:0 5:0 6:0 7:0 8:-100 9:0 10:0 11:100 12:0 13:0 14:0 15:0 16:0 17:0 18:0 19:0 20:0 21:0 22:20 23:40 24:20 25:20 26:0 27:80 28:40 29:40 30:40 31:20 32:40 33:40 34:20 35:20 36:60 37:0 38:20 39:20 40:0 41:15 42:53 43:30 
-1 1:0 2:0 3:0 4:0 5:0 6:0 7:0 8:0 9:100 10:0 11:0 12:-100 13:0 14:0 15:0 16:0 17:0 18:0 19:0 20:0 21:20 22:80 23:80 24:0 25:20 26:0 27:0 28:40 29:20 30:0 31:0 32:0 33:20 34:0 35:40 36:60 37:0 38:40 39:0 40:20 41:51 42:14 43:41 
-0.8585808671544588 1:0 2:0 3:0 4:0 5:0 6:0 7:0 8:0 9:100 10:0 11:0 12:-100 13:0 14:0 15:0 16:0 17:0 18:0 19:0 20:0 21:20 22:80 23:80 24:0 25:20 26:0 27:0 28:40 29:20 30:0 31:0 32:0 33:20 34:0 35:40 36:60 37:0 38:40 39:0 40:20 41:51 42:46 43:63 
-0.4256032500037254 1:0 2:0 3:0 4:0 5:0 6:0 7:100 8:0 9:0 10:0 11:0 12:0 13:0 14:-100 15:0 16:0 17:0 18:0 19:0 20:0 21:20 22:0 23:0 24:0 25:0 26:0 27:0 28:40 29:0 30:40 31:0 32:40 33:0 34:0 35:0 36:80 37:0 38:40 39:0 40:40 41:21 42:38 43:40 
1 1:0 2:0 3:0 4:0 5:0 6:0 7:0 8:0 9:0 10:0 11:0 12:-100 13:0 14:0 15:0 16:0 17:0 18:0 19:100 20:0 21:20 22:80 23:80 24:0 25:20 26:0 27:0 28:40 29:20 30:0 31:0 32:0 33:20 34:0 35:40 36:60 37:0 38:40 39:0 40:20 41:51 42:14 43:41 
-0.7643754327481223 1:0 2:0 3:0 4:0 5:100 6:-100 7:0 8:0 9:0 10:0 11:0 12:0 13:0 14:0 15:0 16:0 17:0 18:0 19:0 20:0 21:0 22:80 23:40 24:20 25:20 26:20 27:0 28:0 29:60 30:20 31:20 32:0 33:0 34:40 35:40 36:60 37:20 38:100 39:0 40:60 41:32 42:53 43:25 
-1 1:0 2:0 3:0 4:0 5:0 6:0 7:0 8:0 9:100 10:0 11:0 12:0 13:0 14:0 15:0 16:0 17:0 18:-100 19:0 20:0 21:40 22:80 23:40 24:40 25:20 26:40 27:60 28:80 29:100 30:0 31:60 32:80 33:20 34:0 35:40 36:0 37:40 38:0 39:60 40:60 41:10 42:64 43:47 
0.9815359768259506 1:0 2:0 3:0 4:0 5:0 6:0 7:0 8:0 9:100 10:0 11:0 12:0 13:0 14:0 15:0 16:0 17:0 18:-100 19:0 20:0 21:40 22:80 23:40 24:40 25:20 26:40 27:60 28:80 29:100 30:0 31:60 32:80 33:20 34:0 35:40 36:0 37:40 38:0 39:60 40:60 41:10 42:21 43:50 
1 1:0 2:0 3:0 4:0 5:0 6:0 7:0 8:0 9:-100 10:0 11:100 12:0 13:0 14:0 15:0 16:0 17:0 18:0 19:0 20:0 21:60 22:60 23:40 24:0 25:60 26:0 27:0 28:40 29:20 30:0 31:0 32:0 33:0 34:20 35:40 36:0 37:20 38:20 39:40 40:40 41:46 42:21 43:51 
-1 1:100 2:0 3:0 4:0 5:0 6:0 7:0 8:0 9:0 10:0 11:0 12:-100 13:0 14:0 15:0 16:0 17:0 18:0 19:0 20:0 21:20 22:80 23:80 24:0 25:20 26:0 27:0 28:40 29:20 30:0 31:0 32:0 33:20 34:0 35:40 36:60 37:0 38:40 39:0 40:20 41:51 42:46 43:63 
-1 1:100 2:0 3:0 4:0 5:0 6:0 7:0 8:0 9:0 10:0 11:0 12:-100 13:0 14:0 15:0 16:0 17:0 18:0 19:0 20:0 21:20 22:80 23:80 24:0 25:20 26:0 27:0 28:40 29:20 30:0 31:0 32:0 33:20 34:0 35:40 36:60 37:0 38:40 39:0 40:20 41:51 42:14 43:41 
-0.06031129642936041 1:0 2:0 3:0 4:0 5:0 6:0 7:0 8:0 9:0 10:0 11:100 12:-100 13:0 14:0 15:0 16:0 17:0 18:0 19:0 20:0 21:20 22:80 23:80 24:0 25:20 26:0 27:0 28:40 29:20 30:0 31:0 32:0 33:20 34:0 35:40 36:60 37:0 38:40 39:0 40:20 41:51 42:14 43:41 
0.393419334092867 1:0 2:0 3:0 4:0 5:0 6:0 7:0 8:0 9:0 10:0 11:100 12:-100 13:0 14:0 15:0 16:0 17:0 18:0 19:0 20:0 21:20 22:80 23:80 24:0 25:20 26:0 27:0 28:40 29:20 30:0 31:0 32:0 33:20 34:0 35:40 36:60 37:0 38:40 39:0 40:20 41:51 42:46 43:63 
1 1:0 2:0 3:0 4:0 5:0 6:0 7:0 8:0 9:0 10:0 11:0 12:0 13:0 14:0 15:0 16:0 17:100 18:-100 19:0 20:0 21:40 22:80 23:40 24:40 25:20 26:40 27:60 28:80 29:100 30:0 31:60 32:80 33:20 34:0 35:40 36:0 37:40 38:0 39:60 40:60 41:10 42:64 43:47 
1 1:0 2:0 3:0 4:0 5:0 6:0 7:0 8:0 9:0 10:0 11:0 12:0 13:0 14:0 15:0 16:-100 17:0 18:100 19:0 20:0 21:40 22:120 23:80 24:0 25:40 26:0 27:0 28:20 29:0 30:0 31:20 32:100 33:0 34:20 35:20 36:20 37:0 38:0 39:0 40:0 41:49 42:35 43:25 
1 1:0 2:0 3:0 4:0 5:0 6:0 7:0 8:0 9:0 10:0 11:0 12:0 13:0 14:0 15:0 16:-100 17:100 18:0 19:0 20:0 21:40 22:120 23:80 24:0 25:40 26:0 27:0 28:20 29:0 30:0 31:20 32:100 33:0 34:20 35:20 36:20 37:0 38:0 39:0 40:0 41:49 42:35 43:25 
-1 1:0 2:0 3:0 4:0 5:0 6:0 7:0 8:0 9:100 10:0 11:0 12:0 13:0 14:0 15:0 16:0 17:0 18:0 19:-100 20:0 21:0 22:40 23:0 24:0 25:80 26:0 27:40 28:40 29:40 30:40 31:0 32:20 33:80 34:0 35:20 36:20 37:20 38:20 39:20 40:0 41:23 42:50 43:39 
-0.1529349360424619 1:0 2:0 3:0 4:0 5:0 6:0 7:0 8:0 9:0 10:0 11:0 12:100 13:0 14:-100 15:0 16:0 17:0 18:0 19:0 20:0 21:60 22:140 23:80 24:20 25:80 26:0 27:20 28:80 29:40 30:20 31:40 32:40 33:60 34:0 35:80 36:0 37:20 38:20 39:0 40:60 41:3 42:60 43:37 
-1 1:0 2:0 3:0 4:0 5:0 6:0 7:0 8:0 9:0 10:0 11:0 12:100 13:0 14:0 15:0 16:0 17:0 18:0 19:0 20:-100 21:0 22:60 23:0 24:0 25:0 26:0 27:0 28:0 29:40 30:0 31:0 32:0 33:0 34:0 35:0 36:20 37:20 38:60 39:20 40:40 41:87 42:50 43:69 
-0.4485205241125495 1:0 2:0 3:0 4:0 5:0 6:0 7:0 8:0 9:0 10:0 11:0 12:0 13:0 14:-100 15:0 16:0 17:100 18:0 19:0 20:0 21:60 22:140 23:80 24:20 25:80 26:0 27:20 28:80 29:40 30:20 31:40 32:40 33:60 34:0 35:80 36:0 37:20 38:20 39:0 40:60 41:3 42:60 43:37 
1 1:0 2:0 3:0 4:0 5:0 6:0 7:0 8:0 9:-100 10:0 11:100 12:0 13:0 14:0 15:0 16:0 17:0 18:0 19:0 20:0 21:80 22:140 23:20 24:40 25:40 26:0 27:60 28:20 29:0 30:0 31:0 32:40 33:0 34:40 35:60 36:20 37:20 38:80 39:40 40:60 41:0 42:50 43:20 
-1 1:0 2:0 3:0 4:0 5:0 6:0 7:0 8:0 9:-100 10:0 11:100 12:0 13:0 14:0 15:0 16:0 17:0 18:0 19:0 20:0 21:80 22:140 23:20 24:40 25:40 26:0 27:60 28:20 29:0 30:0 31:0 32:40 33:0 34:40 35:60 36:20 37:20 38:80 39:40 40:60 41:0 42:50 43:51 
-1 1:0 2:0 3:0 4:0 5:0 6:0 7:0 8:0 9:-100 10:0 11:100 12:0 13:0 14:0 15:0 16:0 17:0 18:0 19:0 20:0 21:80 22:140 23:20 24:40 25:40 26:0 27:60 28:20 29:0 30:0 31:0 32:40 33:0 34:40 35:60 36:20 37:20 38:80 39:40 40:60 41:0 42:35 43:47 
-1 1:0 2:0 3:0 4:0 5:0 6:0 7:0 8:0 9:0 10:0 11:0 12:0 13:0 14:0 15:0 16:0 17:0 18:0 19:-100 20:100 21:0 22:20 23:20 24:20 25:0 26:20 27:20 28:0 29:20 30:0 31:0 32:20 33:0 34:0 35:20 36:20 37:0 38:0 39:0 40:20 41:80 42:38 43:65 
-1 1:-100 2:0 3:0 4:100 5:0 6:0 7:0 8:0 9:0 10:0 11:0 12:0 13:0 14:0 15:0 16:0 17:0 18:0 19:0 20:0 21:0 22:100 23:20 24:0 25:0 26:60 27:20 28:20 29:20 30:20 31:60 32:40 33:80 34:20 35:40 36:40 37:0 38:40 39:40 40:0 41:0 42:32 43:64 
1 1:0 2:0 3:0 4:0 5:-100 6:0 7:100 8:0 9:0 10:0 11:0 12:0 13:0 14:0 15:0 16:0 17:0 18:0 19:0 20:0 21:20 22:120 23:40 24:20 25:40 26:20 27:40 28:80 29:60 30:20 31:20 32:40 33:20 34:40 35:60 36:60 37:20 38:40 39:40 40:20 41:4 42:52 43:40 
1 1:0 2:0 3:0 4:0 5:-100 6:0 7:100 8:0 9:0 10:0 11:0 12:0 13:0 14:0 15:0 16:0 17:0 18:0 19:0 20:0 21:20 22:120 23:40 24:20 25:40 26:20 27:40 28:80 29:60 30:20 31:20 32:40 33:20 34:40 35:60 36:60 37:20 38:40 39:40 40:20 41:4 42:52 43:39 
1 1:0 2:-100 3:0 4:0 5:0 6:0 7:0 8:0 9:100 10:0 11:0 12:0 13:0 14:0 15:0 16:0 17:0 18:0 19:0 20:0 21:60 22:80 23:0 24:20 25:20 26:40 27:0 28:60 29:100 30:0 31:20 32:0 33:0 34:20 35:0 36:40 37:40 38:40 39:0 40:40 41:30 42:68 43:82 
-1 1:0 2:0 3:0 4:0 5:0 6:0 7:0 8:0 9:100 10:0 11:-100 12:0 13:0 14:0 15:0 16:0 17:0 18:0 19:0 20:0 21:0 22:80 23:60 24:0 25:20 26:40 27:40 28:40 29:0 30:20 31:20 32:20 33:0 34:20 35:60 36:60 37:20 38:20 39:20 40:20 41:0 42:45 43:25 
1 1:0 2:0 3:0 4:0 5:0 6:0 7:0 8:0 9:100 10:0 11:-100 12:0 13:0 14:0 15:0 16:0 17:0 18:0 19:0 20:0 21:0 22:80 23:60 24:0 25:20 26:40 27:40 28:40 29:0 30:20 31:20 32:20 33:0 34:20 35:60 36:60 37:20 38:20 39:20 40:20 41:0 42:31 43:25 
1 1:0 2:0 3:0 4:0 5:0 6:0 7:0 8:0 9:100 10:0 11:-100 12:0 13:0 14:0 15:0 16:0 17:0 18:0 19:0 20:0 21:0 22:80 23:60 24:0 25:20 26:40 27:40 28:40 29:0 30:20 31:20 32:20 33:0 34:20 35:60 36:60 37:20 38:20 39:20 40:20 41:0 42:31 43:25 
0.8871711467778488 1:0 2:0 3:0 4:0 5:0 6:0 7:0 8:0 9:0 10:0 11:0 12:0 13:0 14:0 15:0 16:-100 17:0 18:100 19:0 20:0 21:20 22:20 23:20 24:20 25:20 26:20 27:20 28:20 29:80 30:0 31:40 32:0 33:0 34:0 35:20 36:0 37:0 38:20 39:60 40:20 41:71 42:20 43:50 
-1 1:0 2:0 3:0 4:0 5:0 6:0 7:0 8:0 9:0 10:0 11:0 12:0 13:0 14:0 15:0 16:-100 17:0 18:100 19:0 20:0 21:20 22:20 23:20 24:20 25:20 26:20 27:20 28:20 29:80 30:0 31:40 32:0 33:0 34:0 35:20 36:0 37:0 38:20 39:60 40:20 41:71 42:37 43:25 
-1 1:0 2:0 3:0 4:0 5:0 6:0 7:0 8:0 9:0 10:0 11:0 12:0 13:0 14:0 15:0 16:-100 17:0 18:100 19:0 20:0 21:20 22:20 23:20 24:20 25:20 26:20 27:20 28:20 29:80 30:0 31:40 32:0 33:0 34:0 35:20 36:0 37:0 38:20 39:60 40:20 41:71 42:37 43:66 
1 1:0 2:0 3:0 4:0 5:0 6:0 7:0 8:0 9:0 10:0 11:0 12:0 13:0 14:0 15:-100 16:0 17:0 18:100 19:0 20:0 21:40 22:140 23:80 24:0 25:20 26:0 27:0 28:0 29:0 30:40 31:0 32:20 33:0 34:20 35:40 36:60 37:60 38:40 39:0 40:40 41:36 42:35 43:25 
1 1:-100 2:0 3:0 4:0 5:0 6:0 7:0 8:0 9:0 10:0 11:0 12:0 13:100 14:0 15:0 16:0 17:0 18:0 19:0 20:0 21:80 22:100 23:80 24:0 25:0 26:0 27:20 28:0 29:0 30:20 31:0 32:20 33:20 34:0 35:20 36:40 37:40 38:40 39:0 40:20 41:32 42:50 43:25 
-1 1:-100 2:100 3:0 4:0 5:0 6:0 7:0 8:0 9:0 10:0 11:0 12:0 13:0 14:0 15:0 16:0 17:0 18:0 19:0 20:0 21:80 22:100 23:80 24:0 25:0 26:0 27:20 28:0 29:0 30:20 31:0 32:20 33:20 34:0 35:20 36:40 37:40 38:40 39:0 40:20 41:32 42:50 43:25 
-1 1:-100 2:0 3:0 4:0 5:0 6:0 7:0 8:0 9:0 10:0 11:0 12:100 13:0 14:0 15:0 16:0 17:0 18:0 19:0 20:0 21:80 22:100 23:80 24:0 25:0 26:0 27:20 28:0 29:0 30:20 31:0 32:20 33:20 34:0 35:20 36:40 37:40 38:40 39:0 40:20 41:32 42:50 43:25 
-1 1:-100 2:0 3:0 4:0 5:0 6:0 7:0 8:0 9:0 10:0 11:0 12:100 13:0 14:0 15:0 16:0 17:0 18:0 19:0 20:0 21:20 22:40 23:20 24:0 25:20 26:20 27:20 28:60 29:100 30:0 31:20 32:0 33:0 34:0 35:20 36:40 37:20 38:0 39:20 40:20 41:46 42:45 43:25 
-0.7006064837896196 1:0 2:0 3:0 4:0 5:0 6:0 7:0 8:0 9:0 10:0 11:0 12:0 13:0 14:100 15:0 16:-100 17:0 18:0 19:0 20:0 21:40 22:80 23:20 24:0 25:20 26:0 27:20 28:40 29:40 30:20 31:20 32:40 33:0 34:0 35:40 36:20 37:20 38:20 39:20 40:20 41:64 42:46 43:63 
0.9309252338279153 1:100 2:0 3:0 4:0 5:0 6:0 7:0 8:0 9:0 10:0 11:-100 12:0 13:0 14:0 15:0 16:0 17:0 18:0 19:0 20:0 21:80 22:20 23:80 24:0 25:20 26:40 27:0 28:40 29:80 30:20 31:20 32:40 33:20 34:20 35:20 36:40 37:0 38:100 39:20 40:40 41:0 42:21 43:49 
1 1:0 2:0 3:0 4:0 5:0 6:0 7:0 8:0 9:100 10:0 11:0 12:0 13:0 14:0 15:0 16:0 17:0 18:-100 19:0 20:0 21:0 22:0 23:0 24:20 25:20 26:0 27:20 28:20 29:20 30:0 31:20 32:20 33:60 34:0 35:20 36:20 37:0 38:0 39:0 40:20 41:65 42:50 43:39 
-1 1:100 2:-100 3:0 4:0 5:0 6:0 7:0 8:0 9:0 10:0 11:0 12:0 13:0 14:0 15:0 16:0 17:0 18:0 19:0 20:0 21:40 22:160 23:140 24:20 25:60 26:40 27:0 28:40 29:100 30:0 31:20 32:0 33:0 34:40 35:20 36:40 37:20 38:60 39:20 40:20 41:1 42:78 43:76 
-1 1:0 2:100 3:0 4:0 5:0 6:0 7:0 8:0 9:0 10:0 11:-100 12:0 13:0 14:0 15:0 16:0 17:0 18:0 19:0 20:0 21:80 22:20 23:80 24:0 25:20 26:40 27:0 28:40 29:80 30:20 31:20 32:40 33:20 34:20 35:20 36:40 37:0 38:100 39:20 40:40 41:0 42:21 43:49 
-0.7532943696028678 1:0 2:0 3:0 4:0 5:0 6:0 7:0 8:0 9:100 10:0 11:-100 12:0 13:0 14:0 15:0 16:0 17:0 18:0 19:0 20:0 21:80 22:20 23:80 24:0 25:20 26:40 27:0 28:40 29:80 30:20 31:20 32:40 33:20 34:20 35:20 36:40 37:0 38:100 39:20 40:40 41:0 42:21 43:49 
-1 1:0 2:0 3:0 4:0 5:0 6:0 7:0 8:100 9:0 10:0 11:-100 12:0 13:0 14:0 15:0 16:0 17:0 18:0 19:0 20:0 21:80 22:20 23:80 24:0 25:20 26:40 27:0 28:40 29:80 30:20 31:20 32:40 33:20 34:20 35:20 36:40 37:0 38:100 39:20 40:40 41:0 42:21 43:49 
1 1:0 2:0 3:0 4:0 5:0 6:0 7:0 8:-100 9:100 10:0 11:0 12:0 13:0 14:0 15:0 16:0 17:0 18:0 19:0 20:0 21:20 22:60 23:0 24:40 25:20 26:0 27:0 28:40 29:20 30:0 31:40 32:40 33:0 34:0 35:20 36:40 37:0 38:20 39:60 40:0 41:73 42:14 43:38 
-0.4545905421576328 1:0 2:0 3:0 4:0 5:0 6:0 7:0 8:-100 9:100 10:0 11:0 12:0 13:0 14:0 15:0 16:0 17:0 18:0 19:0 20:0 21:20 22:60 23:0 24:40 25:20 26:0 27:0 28:40 29:20 30:0 31:40 32:40 33:0 34:0 35:20 36:40 37:0 38:20 39:60 40:0 41:73 42:14 43:41 
1 1:0 2:0 3:0 4:0 5:0 6:0 7:0 8:-100 9:100 10:0 11:0 12:0 13:0 14:0 15:0 16:0 17:0 18:0 19:0 20:0 21:20 22:60 23:0 24:40 25:20 26:0 27:0 28:40 29:20 30:0 31:40 32:40 33:0 34:0 35:20 36:40 37:0 38:20 39:60 40:0 41:73 42:17 43:46 
-1 1:0 2:0 3:0 4:0 5:0 6:0 7:0 8:-100 9:100 10:0 11:0 12:0 13:0 14:0 15:0 16:0 17:0 18:0 19:0 20:0 21:20 22:60 23:0 24:40 25:20 26:0 27:0 28:40 29:20 30:0 31:40 32:40 33:0 34:0 35:20 36:40 37:0 38:20 39:60 40:0 41:73 42:46 43:64 
1 1:0 2:0 3:0 4:0 5:0 6:0 7:0 8:-100 9:100 10:0 11:0 12:0 13:0 14:0 15:0 16:0 17:0 18:0 19:0 20:0 21:20 22:60 23:0 24:40 25:20 26:0 27:0 28:40 29:20 30:0 31:40 32:40 33:0 34:0 35:20 36:40 37:0 38:20 39:60 40:0 41:73 42:21 43:53 
0.3514411779216523 1:0 2:0 3:0 4:0 5:0 6:0 7:0 8:-100 9:0 10:0 11:0 12:0 13:0 14:0 15:0 16:0 17:0 18:100 19:0 20:0 21:20 22:60 23:0 24:40 25:20 26:0 27:0 28:40 29:20 30:0 31:40 32:40 33:0 34:0 35:20 36:40 37:0 38:20 39:60 40:0 41:73 42:38 43:65 
1 1:0 2:0 3:-100 4:0 5:0 6:0 7:0 8:0 9:100 10:0 11:0 12:0 13:0 14:0 15:0 16:0 17:0 18:0 19:0 20:0 21:40 22:40 23:60 24:0 25:20 26:0 27:80 28:40 29:40 30:20 31:20 32:20 33:0 34:0 35:0 36:40 37:0 38:0 39:60 40:80 41:34 42:45 43:25 
1 1:0 2:0 3:0 4:0 5:0 6:0 7:0 8:0 9:-100 10:0 11:0 12:0 13:0 14:0 15:0 16:100 17:0 18:0 19:0 20:0 21:60 22:140 23:20 24:20 25:40 26:20 27:0 28:60 29:60 30:0 31:20 32:0 33:0 34:0 35:0 36:20 37:40 38:60 39:20 40:20 41:0 42:55 43:4 
-1 1:0 2:0 3:0 4:0 5:0 6:0 7:0 8:0 9:-100 10:0 11:0 12:0 13:0 14:0 15:0 16:100 17:0 18:0 19:0 20:0 21:60 22:140 23:20 24:20 25:40 26:20 27:0 28:60 29:60 30:0 31:20 32:0 33:0 34:0 35:0 36:20 37:40 38:60 39:20 40:20 41:0 42:55 43:4 
0.5319081397373143 1:0 2:0 3:0 4:0 5:0 6:0 7:0 8:0 9:-100 10:0 11:0 12:0 13:0 14:0 15:0 16:100 17:0 18:0 19:0 20:0 21:60 22:140 23:20 24:20 25:40 26:20 27:0 28:60 29:60 30:0 31:20 32:0 33:0 34:0 35:0 36:20 37:40 38:60 39:20 40:20 41:0 42:55 43:4 
0.4176507360784578 1:100 2:0 3:-100 4:0 5:0 6:0 7:0 8:0 9:0 10:0 11:0 12:0 13:0 14:0 15:0 16:0 17:0 18:0 19:0 20:0 21:40 22:40 23:60 24:0 25:20 26:0 27:80 28:40 29:40 30:20 31:20 32:20 33:0 34:0 35:0 36:40 37:0 38:0 39:60 40:80 41:34 42:45 43:25 
1 1:0 2:0 3:-100 4:0 5:0 6:0 7:0 8:0 9:100 10:0 11:0 12:0 13:0 14:0 15:0 16:0 17:0 18:0 19:0 20:0 21:100 22:40 23:80 24:60 25:60 26:20 27:40 28:0 29:60 30:0 31:0 32:20 33:20 34:0 35:80 36:0 37:0 38:40 39:60 40:60 41:10 42:14 43:41 
1 1:0 2:0 3:-100 4:0 5:0 6:0 7:0 8:0 9:100 10:0 11:0 12:0 13:0 14:0 15:0 16:0 17:0 18:0 19:0 20:0 21:100 22:40 23:80 24:60 25:60 26:20 27:40 28:0 29:60 30:0 31:0 32:20 33:20 34:0 35:80 36:0 37:0 38:40 39:60 40:60 41:10 42:46 43:64 
1 1:0 2:0 3:-100 4:0 5:0 6:0 7:0 8:0 9:0 10:0 11:0 12:0 13:0 14:0 15:0 16:0 17:0 18:100 19:0 20:0 21:100 22:40 23:80 24:60 25:60 26:20 27:40 28:0 29:60 30:0 31:0 32:20 33:20 34:0 35:80 36:0 37:0 38:40 39:60 40:60 41:10 42:14 43:41 
-0.1354071459990057 1:0 2:0 3:-100 4:0 5:0 6:0 7:0 8:0 9:0 10:0 11:0 12:0 13:0 14:0 15:0 16:0 17:0 18:100 19:0 20:0 21:100 22:40 23:80 24:60 25:60 26:20 27:40 28:0 29:60 30:0 31:0 32:20 33:20 34:0 35:80 36:0 37:0 38:40 39:60 40:60 41:10 42:14 43:38 
1 1:0 2:0 3:-100 4:0 5:0 6:0 7:0 8:0 9:0 10:0 11:0 12:0 13:0 14:0 15:0 16:0 17:0 18:100 19:0 20:0 21:100 22:40 23:80 24:60 25:60 26:20 27:40 28:0 29:60 30:0 31:0 32:20 33:20 34:0 35:80 36:0 37:0 38:40 39:60 40:60 41:10 42:21 43:53 
-1 1:0 2:0 3:-100 4:0 5:0 6:0 7:0 8:0 9:0 10:0 11:0 12:0 13:0 14:0 15:0 16:0 17:0 18:100 19:0 20:0 21:100 22:40 23:80 24:60 25:60 26:20 27:40 28:0 29:60 30:0 31:0 32:20 33:20 34:0 35:80 36:0 37:0 38:40 39:60 40:60 41:10 42:46 43:64 
1 1:0 2:0 3:-100 4:0 5:0 6:0 7:0 8:0 9:0 10:0 11:0 12:0 13:0 14:0 15:0 16:0 17:0 18:0 19:0 20:100 21:100 22:40 23:80 24:60 25:60 26:20 27:40 28:0 29:60 30:0 31:0 32:20 33:20 34:0 35:80 36:0 37:0 38:40 39:60 40:60 41:10 42:14 43:41 
-1 1:0 2:0 3:-100 4:0 5:0 6:0 7:0 8:0 9:0 10:0 11:0 12:0 13:0 14:0 15:0 16:0 17:0 18:0 19:0 20:100 21:100 22:40 23:80 24:60 25:60 26:20 27:40 28:0 29:60 30:0 31:0 32:20 33:20 34:0 35:80 36:0 37:0 38:40 39:60 40:60 41:10 42:46 43:64 
-1 1:0 2:0 3:-100 4:0 5:100 6:0 7:0 8:0 9:0 10:0 11:0 12:0 13:0 14:0 15:0 16:0 17:0 18:0 19:0 20:0 21:100 22:40 23:80 24:60 25:60 26:20 27:40 28:0 29:60 30:0 31:0 32:20 33:20 34:0 35:80 36:0 37:0 38:40 39:60 40:60 41:10 42:14 43:38 
-0.2870253400131669 1:0 2:0 3:-100 4:0 5:100 6:0 7:0 8:0 9:0 10:0 11:0 12:0 13:0 14:0 15:0 16:0 17:0 18:0 19:0 20:0 21:100 22:40 23:80 24:60 25:60 26:20 27:40 28:0 29:60 30:0 31:0 32:20 33:20 34:0 35:80 36:0 37:0 38:40 39:60 40:60 41:10 42:17 43:46 
-0.4790604375718097 1:0 2:0 3:-100 4:0 5:100 6:0 7:0 8:0 9:0 10:0 11:0 12:0 13:0 14:0 15:0 16:0 17:0 18:0 19:0 20:0 21:100 22:40 23:80 24:60 25:60 26:20 27:40 28:0 29:60 30:0 31:0 32:20 33:20 34:0 35:80 36:0 37:0 38:40 39:60 40:60 41:10 42:46 43:64 
1 1:0 2:0 3:-100 4:0 5:100 6:0 7:0 8:0 9:0 10:0 11:0 12:0 13:0 14:0 15:0 16:0 17:0 18:0 19:0 20:0 21:100 22:40 23:80 24:60 25:60 26:20 27:40 28:0 29:60 30:0 31:0 32:20 33:20 34:0 35:80 36:0 37:0 38:40 39:60 40:60 41:10 42:21 43:53 
-1 1:-100 2:0 3:0 4:0 5:0 6:0 7:0 8:0 9:0 10:0 11:0 12:100 13:0 14:0 15:0 16:0 17:0 18:0 19:0 20:0 21:80 22:100 23:60 24:20 25:20 26:0 27:60 28:0 29:20 30:20 31:40 32:20 33:20 34:20 35:40 36:20 37:0 38:20 39:0 40:40 41:15 42:50 43:25 
1 1:0 2:0 3:-100 4:100 5:0 6:0 7:0 8:0 9:0 10:0 11:0 12:0 13:0 14:0 15:0 16:0 17:0 18:0 19:0 20:0 21:100 22:40 23:80 24:60 25:60 26:20 27:40 28:0 29:60 30:0 31:0 32:20 33:20 34:0 35:80 36:0 37:0 38:40 39:60 40:60 41:10 42:14 43:41 
-0.3815388359628837 1:0 2:0 3:-100 4:100 5:0 6:0 7:0 8:0 9:0 10:0 11:0 12:0 13:0 14:0 15:0 16:0 17:0 18:0 19:0 20:0 21:100 22:40 23:80 24:60 25:60 26:20 27:40 28:0 29:60 30:0 31:0 32:20 33:20 34:0 35:80 36:0 37:0 38:40 39:60 40:60 41:10 42:46 43:64 
1 1:0 2:100 3:-100 4:0 5:0 6:0 7:0 8:0 9:0 10:0 11:0 12:0 13:0 14:0 15:0 16:0 17:0 18:0 19:0 20:0 21:100 22:40 23:80 24:60 25:60 26:20 27:40 28:0 29:60 30:0 31:0 32:20 33:20 34:0 35:80 36:0 37:0 38:40 39:60 40:60 41:10 42:21 43:53 
1 1:0 2:100 3:-100 4:0 5:0 6:0 7:0 8:0 9:0 10:0 11:0 12:0 13:0 14:0 15:0 16:0 17:0 18:0 19:0 20:0 21:100 22:40 23:80 24:60 25:60 26:20 27:40 28:0 29:60 30:0 31:0 32:20 33:20 34:0 35:80 36:0 37:0 38:40 39:60 40:60 41:10 42:17 43:46 
-1 1:0 2:100 3:-100 4:0 5:0 6:0 7:0 8:0 9:0 10:0 11:0 12:0 13:0 14:0 15:0 16:0 17:0 18:0 19:0 20:0 21:100 22:40 23:80 24:60 25:60 26:20 27:40 28:0 29:60 30:0 31:0 32:20 33:20 34:0 35:80 36:0 37:0 38:40 39:60 40:60 41:10 42:46 43:64 
1 1:0 2:100 3:-100 4:0 5:0 6:0 7:0 8:0 9:0 10:0 11:0 12:0 13:0 14:0 15:0 16:0 17:0 18:0 19:0 20:0 21:100 22:40 23:80 24:60 25:60 26:20 27:40 28:0 29:60 30:0 31:0 32:20 33:20 34:0 35:80 36:0 37:0 38:40 39:60 40:60 41:10 42:14 43:41 
0.01661243360719433 1:0 2:100 3:-100 4:0 5:0 6:0 7:0 8:0 9:0 10:0 11:0 12:0 13:0 14:0 15:0 16:0 17:0 18:0 19:0 20:0 21:100 22:40 23:80 24:60 25:60 26:20 27:40 28:0 29:60 30:0 31:0 32:20 33:20 34:0 35:80 36:0 37:0 38:40 39:60 40:60 41:10 42:38 43:66 
1 1:0 2:100 3:-100 4:0 5:0 6:0 7:0 8:0 9:0 10:0 11:0 12:0 13:0 14:0 15:0 16:0 17:0 18:0 19:0 20:0 21:100 22:40 23:80 24:60 25:60 26:20 27:40 28:0 29:60 30:0 31:0 32:20 33:20 34:0 35:80 36:0 37:0 38:40 39:60 40:60 41:10 42:14 43:38 
1 1:0 2:100 3:-100 4:0 5:0 6:0 7:0 8:0 9:0 10:0 11:0 12:0 13:0 14:0 15:0 16:0 17:0 18:0 19:0 20:0 21:100 22:40 23:80 24:60 25:60 26:20 27:40 28:0 29:60 30:0 31:0 32:20 33:20 34:0 35:80 36:0 37:0 38:40 39:60 40:60 41:10 42:21 43:53 
-1 1:0 2:0 3:-100 4:0 5:0 6:0 7:0 8:0 9:0 10:100 11:0 12:0 13:0 14:0 15:0 16:0 17:0 18:0 19:0 20:0 21:100 22:40 23:80 24:60 25:60 26:20 27:40 28:0 29:60 30:0 31:0 32:20 33:20 34:0 35:80 36:0 37:0 38:40 39:60 40:60 41:10 42:17 43:46 
-1 1:0 2:0 3:-100 4:0 5:0 6:0 7:0 8:0 9:0 10:100 11:0 12:0 13:0 14:0 15:0 16:0 17:0 18:0 19:0 20:0 21:100 22:40 23:80 24:60 25:60 26:20 27:40 28:0 29:60 30:0 31:0 32:20 33:20 34:0 35:80 36:0 37:0 38:40 39:60 40:60 41:10 42:14 43:38 
0.4187926564208453 1:0 2:0 3:-100 4:0 5:0 6:0 7:0 8:0 9:0 10:100 11:0 12:0 13:0 14:0 15:0 16:0 17:0 18:0 19:0 20:0 21:100 22:40 23:80 24:60 25:60 26:20 27:40 28:0 29:60 30:0 31:0 32:20 33:20 34:0 35:80 36:0 37:0 38:40 39:60 40:60 41:10 42:21 43:53 
0.5353906015395463 1:0 2:0 3:-100 4:0 5:0 6:0 7:0 8:0 9:0 10:0 11:100 12:0 13:0 14:0 15:0 16:0 17:0 18:0 19:0 20:0 21:100 22:40 23:80 24:60 25:60 26:20 27:40 28:0 29:60 30:0 31:0 32:20 33:20 34:0 35:80 36:0 37:0 38:40 39:60 40:60 41:10 42:46 43:64 
1 1:0 2:0 3:0 4:0 5:0 6:0 7:0 8:0 9:100 10:0 11:0 12:0 13:0 14:0 15:0 16:0 17:0 18:-100 19:0 20:0 21:40 22:40 23:60 24:0 25:0 26:20 27:0 28:0 29:20 30:20 31:0 32:20 33:0 34:0 35:40 36:40 37:40 38:0 39:0 40:40 41:54 42:29 43:74 
-1 1:0 2:0 3:-100 4:0 5:0 6:100 7:0 8:0 9:0 10:0 11:0 12:0 13:0 14:0 15:0 16:0 17:0 18:0 19:0 20:0 21:100 22:40 23:80 24:60 25:60 26:20 27:40 28:0 29:60 30:0 31:0 32:20 33:20 34:0 35:80 36:0 37:0 38:40 39:60 40:60 41:10 42:46 43:64 
-0.1254574464224852 1:100 2:0 3:-100 4:0 5:0 6:0 7:0 8:0 9:0 10:0 11:0 12:0 13:0 14:0 15:0 16:0 17:0 18:0 19:0 20:0 21:100 22:40 23:80 24:60 25:60 26:20 27:40 28:0 29:60 30:0 31:0 32:20 33:20 34:0 35:80 36:0 37:0 38:40 39:60 40:60 41:10 42:14 43:41 
-1 1:0 2:0 3:-100 4:0 5:0 6:0 7:100 8:0 9:0 10:0 11:0 12:0 13:0 14:0 15:0 16:0 17:0 18:0 19:0 20:0 21:100 22:40 23:80 24:60 25:60 26:20 27:40 28:0 29:60 30:0 31:0 32:20 33:20 34:0 35:80 36:0 37:0 38:40 39:60 40:60 41:10 42:14 43:41 
-1 1:0 2:0 3:-100 4:0 5:0 6:0 7:100 8:0 9:0 10:0 11:0 12:0 13:0 14:0 15:0 16:0 17:0 18:0 19:0 20:0 21:100 22:40 23:80 24:60 25:60 26:20 27:40 28:0 29:60 30:0 31:0 32:20 33:20 34:0 35:80 36:0 37:0 38:40 39:60 40:60 41:10 42:46 43:64 
1 1:-100 2:0 3:0 4:0 5:0 6:0 7:0 8:100 9:0 10:0 11:0 12:0 13:0 14:0 15:0 16:0 17:0 18:0 19:0 20:0 21:40 22:60 23:140 24:0 25:60 26:20 27:0 28:60 29:20 30:60 31:20 32:20 33:0 34:20 35:0 36:40 37:0 38:60 39:40 40:40 41:26 42:54 43:25 
-1 1:-100 2:0 3:0 4:0 5:0 6:0 7:0 8:0 9:0 10:0 11:0 12:0 13:100 14:0 15:0 16:0 17:0 18:0 19:0 20:0 21:80 22:100 23:60 24:20 25:20 26:0 27:60 28:0 29:20 30:20 31:40 32:20 33:20 34:20 35:40 36:20 37:0 38:20 39:0 40:40 41:15 42:50 43:25 
-1 1:0 2:0 3:0 4:0 5:0 6:0 7:0 8:100 9:0 10:-100 11:0 12:0 13:0 14:0 15:0 16:0 17:0 18:0 19:0 20:0 21:0 22:20 23:0 24:20 25:0 26:0 27:40 28:0 29:20 30:0 31:40 32:20 33:40 34:0 35:20 36:60 37:0 38:0 39:40 40:20 41:73 42:42 43:61 
-1 1:0 2:0 3:0 4:0 5:0 6:0 7:0 8:0 9:100 10:-100 11:0 12:0 13:0 14:0 15:0 16:0 17:0 18:0 19:0 20:0 21:0 22:20 23:0 24:20 25:0 26:0 27:40 28:0 29:20 30:0 31:40 32:20 33:40 34:0 35:20 36:60 37:0 38:0 39:40 40:20 41:73 42:30 43:56 
1 1:0 2:0 3:0 4:0 5:-100 6:0 7:0 8:0 9:100 10:0 11:0 12:0 13:0 14:0 15:0 16:0 17:0 18:0 19:0 20:0 21:0 22:20 23:20 24:0 25:40 26:0 27:0 28:60 29:0 30:0 31:20 32:20 33:0 34:0 35:0 36:60 37:20 38:40 39:20 40:0 41:80 42:50 43:60 
-1 1:0 2:0 3:0 4:0 5:0 6:0 7:0 8:0 9:0 10:-100 11:100 12:0 13:0 14:0 15:0 16:0 17:0 18:0 19:0 20:0 21:0 22:20 23:0 24:20 25:0 26:0 27:40 28:0 29:20 30:0 31:40 32:20 33:40 34:0 35:20 36:60 37:0 38:0 39:40 40:20 41:73 42:30 43:56 
-1 1:0 2:0 3:0 4:0 5:0 6:0 7:0 8:0 9:0 10:0 11:0 12:0 13:0 14:0 15:0 16:100 17:0 18:0 19:0 20:-100 21:0 22:40 23:20 24:0 25:20 26:0 27:20 28:40 29:20 30:40 31:20 32:40 33:0 34:20 35:0 36:0 37:0 38:0 39:20 40:20 41:87 42:50 43:47 
-1 1:0 2:0 3:0 4:-100 5:0 6:0 7:0 8:0 9:100 10:0 11:0 12:0 13:0 14:0 15:0 16:0 17:0 18:0 19:0 20:0 21:60 22:100 23:40 24:20 25:60 26:20 27:20 28:80 29:80 30:0 31:20 32:40 33:0 34:0 35:40 36:20 37:20 38:60 39:20 40:0 41:25 42:38 43:65 
-1 1:0 2:0 3:0 4:-100 5:0 6:0 7:0 8:0 9:100 10:0 11:0 12:0 13:0 14:0 15:0 16:0 17:0 18:0 19:0 20:0 21:60 22:100 23:20 24:20 25:40 26:20 27:20 28:80 29:80 30:0 31:20 32:40 33:0 34:0 35:40 36:20 37:40 38:60 39:20 40:20 41:28 42:21 43:51 
-1 1:100 2:0 3:-100 4:0 5:0 6:0 7:0 8:0 9:0 10:0 11:0 12:0 13:0 14:0 15:0 16:0 17:0 18:0 19:0 20:0 21:100 22:120 23:40 24:0 25:20 26:0 27:60 28:0 29:20 30:20 31:20 32:60 33:20 34:0 35:60 36:20 37:80 38:40 39:20 40:40 41:2 42:50 43:25 
-1 1:100 2:0 3:-100 4:0 5:0 6:0 7:0 8:0 9:0 10:0 11:0 12:0 13:0 14:0 15:0 16:0 17:0 18:0 19:0 20:0 21:100 22:120 23:40 24:0 25:20 26:0 27:60 28:0 29:20 30:20 31:20 32:60 33:20 34:0 35:60 36:20 37:80 38:40 39:20 40:40 41:2 42:50 43:25 
-1 1:0 2:0 3:0 4:-100 5:0 6:0 7:0 8:0 9:0 10:0 11:0 12:0 13:0 14:0 15:0 16:100 17:0 18:0 19:0 20:0 21:60 22:100 23:20 24:20 25:40 26:20 27:20 28:80 29:80 30:0 31:20 32:40 33:0 34:0 35:40 36:20 37:40 38:60 39:20 40:20 41:28 42:21 43:47 
0.6130922698854024 1:0 2:100 3:0 4:-100 5:0 6:0 7:0 8:0 9:0 10:0 11:0 12:0 13:0 14:0 15:0 16:0 17:0 18:0 19:0 20:0 21:60 22:100 23:20 24:20 25:40 26:20 27:20 28:80 29:80 30:0 31:20 32:40 33:0 34:0 35:40 36:20 37:40 38:60 39:20 40:20 41:28 42:21 43:47 
-1 1:0 2:0 3:0 4:0 5:0 6:0 7:0 8:0 9:100 10:0 11:0 12:0 13:0 14:0 15:0 16:0 17:0 18:0 19:0 20:-100 21:40 22:100 23:0 24:0 25:40 26:0 27:40 28:40 29:20 30:20 31:0 32:40 33:0 34:40 35:20 36:60 37:20 38:60 39:60 40:0 41:2 42:50 43:20 
-0.5798393555312121 1:0 2:0 3:0 4:0 5:100 6:0 7:-100 8:0 9:0 10:0 11:0 12:0 13:0 14:0 15:0 16:0 17:0 18:0 19:0 20:0 21:40 22:120 23:40 24:20 25:0 26:40 27:40 28:80 29:160 30:20 31:80 32:80 33:0 34:0 35:40 36:60 37:60 38:20 39:60 40:0 41:8 42:48 43:54 
-1 1:0 2:0 3:0 4:0 5:0 6:0 7:0 8:100 9:0 10:0 11:0 12:0 13:0 14:0 15:0 16:0 17:0 18:0 19:0 20:-100 21:40 22:100 23:0 24:0 25:40 26:0 27:40 28:40 29:20 30:20 31:0 32:40 33:0 34:40 35:20 36:60 37:20 38:60 39:60 40:0 41:2 42:50 43:20 
1 1:0 2:0 3:0 4:-100 5:100 6:0 7:0 8:0 9:0 10:0 11:0 12:0 13:0 14:0 15:0 16:0 17:0 18:0 19:0 20:0 21:60 22:20 23:80 24:0 25:0 26:40 27:20 28:100 29:60 30:40 31:100 32:20 33:0 34:0 35:0 36:20 37:20 38:40 39:60 40:20 41:17 42:57 43:58 
1 1:0 2:0 3:0 4:0 5:0 6:0 7:0 8:0 9:0 10:0 11:0 12:0 13:0 14:0 15:0 16:0 17:0 18:0 19:100 20:-100 21:40 22:60 23:20 24:0 25:20 26:40 27:20 28:20 29:40 30:0 31:20 32:60 33:20 34:0 35:60 36:20 37:0 38:0 39:0 40:20 41:43 42:14 43:39 
-1 1:0 2:0 3:0 4:0 5:0 6:0 7:0 8:0 9:0 10:0 11:0 12:0 13:0 14:0 15:0 16:0 17:0 18:0 19:100 20:-100 21:40 22:60 23:20 24:0 25:20 26:40 27:20 28:20 29:40 30:0 31:20 32:60 33:20 34:0 35:60 36:20 37:0 38:0 39:0 40:20 41:43 42:47 43:62 
-0.3337966176329549 1:0 2:0 3:-100 4:0 5:0 6:0 7:0 8:0 9:100 10:0 11:0 12:0 13:0 14:0 15:0 16:0 17:0 18:0 19:0 20:0 21:20 22:60 23:40 24:0 25:20 26:0 27:0 28:60 29:60 30:0 31:20 32:40 33:0 34:20 35:20 36:80 37:20 38:60 39:40 40:40 41:18 42:38 43:65 
1 1:-100 2:0 3:0 4:0 5:0 6:0 7:0 8:0 9:100 10:0 11:0 12:0 13:0 14:0 15:0 16:0 17:0 18:0 19:0 20:0 21:40 22:60 23:40 24:0 25:0 26:20 27:0 28:0 29:40 30:60 31:20 32:0 33:0 34:0 35:0 36:100 37:20 38:80 39:0 40:20 41:34 42:45 43:25 
0.9733542207844121 1:-100 2:0 3:0 4:0 5:0 6:0 7:0 8:0 9:100 10:0 11:0 12:0 13:0 14:0 15:0 16:0 17:0 18:0 19:0 20:0 21:40 22:60 23:40 24:0 25:0 26:20 27:0 28:0 29:40 30:60 31:20 32:0 33:0 34:0 35:0 36:100 37:20 38:80 39:0 40:20 41:34 42:21 43:25 
0.1209915856022933 1:-100 2:0 3:100 4:0 5:0 6:0 7:0 8:0 9:0 10:0 11:0 12:0 13:0 14:0 15:0 16:0 17:0 18:0 19:0 20:0 21:120 22:0 23:40 24:60 25:20 26:0 27:60 28:0 29:0 30:0 31:0 32:40 33:40 34:40 35:40 36:40 37:60 38:40 39:60 40:20 41:27 42:50 43:25 
1 1:0 2:0 3:0 4:0 5:0 6:100 7:-100 8:0 9:0 10:0 11:0 12:0 13:0 14:0 15:0 16:0 17:0 18:0 19:0 20:0 21:0 22:0 23:20 24:0 25:60 26:0 27:40 28:40 29:0 30:0 31:0 32:0 33:0 34:0 35:0 36:20 37:0 38:40 39:80 40:0 41:59 42:42 43:25 
-0.4566653022954589 1:0 2:-100 3:0 4:0 5:0 6:0 7:0 8:0 9:100 10:0 11:0 12:0 13:0 14:0 15:0 16:0 17:0 18:0 19:0 20:0 21:120 22:40 23:60 24:0 25:20 26:20 27:0 28:20 29:40 30:40 31:20 32:0 33:0 34:0 35:40 36:80 37:0 38:100 39:20 40:40 41:0 42:45 43:46 
0.7764325818710882 1:0 2:-100 3:0 4:0 5:0 6:0 7:0 8:0 9:100 10:0 11:0 12:0 13:0 14:0 15:0 16:0 17:0 18:0 19:0 20:0 21:120 22:40 23:60 24:0 25:20 26:20 27:0 28:20 29:40 30:40 31:20 32:0 33:0 34:0 35:40 36:80 37:0 38:100 39:20 40:40 41:0 42:21 43:25 
0.9903099193531313 1:0 2:-100 3:0 4:0 5:0 6:0 7:0 8:0 9:100 10:0 11:0 12:0 13:0 14:0 15:0 16:0 17:0 18:0 19:0 20:0 21:120 22:40 23:60 24:0 25:20 26:20 27:0 28:20 29:40 30:40 31:20 32:0 33:0 34:0 35:40 36:80 37:0 38:100 39:20 40:40 41:0 42:45 43:25 
0.7924177215754951 1:0 2:0 3:0 4:0 5:-100 6:0 7:0 8:0 9:100 10:0 11:0 12:0 13:0 14:0 15:0 16:0 17:0 18:0 19:0 20:0 21:20 22:60 23:140 24:20 25:40 26:0 27:0 28:60 29:60 30:0 31:0 32:20 33:0 34:20 35:40 36:40 37:20 38:80 39:60 40:80 41:5 42:21 43:51 
0.5320983235256904 1:0 2:0 3:0 4:0 5:-100 6:0 7:0 8:0 9:0 10:0 11:0 12:100 13:0 14:0 15:0 16:0 17:0 18:0 19:0 20:0 21:0 22:60 23:40 24:0 25:0 26:0 27:20 28:20 29:40 30:20 31:40 32:60 33:0 34:0 35:20 36:0 37:80 38:20 39:20 40:20 41:41 42:50 43:25 
-1 1:-100 2:0 3:0 4:0 5:100 6:0 7:0 8:0 9:0 10:0 11:0 12:0 13:0 14:0 15:0 16:0 17:0 18:0 19:0 20:0 21:40 22:20 23:60 24:20 25:20 26:80 27:20 28:80 29:60 30:20 31:0 32:0 33:40 34:0 35:80 36:20 37:20 38:0 39:0 40:20 41:0 42:19 43:64 
0.5044890206078079 1:-100 2:0 3:0 4:0 5:0 6:0 7:0 8:0 9:100 10:0 11:0 12:0 13:0 14:0 15:0 16:0 17:0 18:0 19:0 20:0 21:40 22:20 23:60 24:20 25:20 26:80 27:20 28:80 29:60 30:20 31:0 32:0 33:40 34:0 35:80 36:20 37:20 38:0 39:0 40:20 41:0 42:19 43:49 
1 1:-100 2:0 3:0 4:0 5:0 6:0 7:0 8:0 9:100 10:0 11:0 12:0 13:0 14:0 15:0 16:0 17:0 18:0 19:0 20:0 21:40 22:20 23:60 24:20 25:20 26:80 27:20 28:80 29:60 30:20 31:0 32:0 33:40 34:0 35:80 36:20 37:20 38:0 39:0 40:20 41:0 42:19 43:64 
-0.1436613764487001 1:100 2:0 3:0 4:0 5:0 6:0 7:0 8:0 9:0 10:0 11:0 12:0 13:0 14:0 15:0 16:-100 17:0 18:0 19:0 20:0 21:0 22:20 23:20 24:20 25:20 26:0 27:40 28:60 29:0 30:40 31:0 32:40 33:0 34:0 35:0 36:60 37:0 38:20 39:20 40:0 41:83 42:32 43:25 
-1 1:0 2:0 3:0 4:0 5:0 6:100 7:0 8:0 9:0 10:0 11:0 12:0 13:0 14:0 15:0 16:-100 17:0 18:0 19:0 20:0 21:0 22:20 23:20 24:20 25:20 26:0 27:40 28:60 29:0 30:40 31:0 32:40 33:0 34:0 35:0 36:60 37:0 38:20 39:20 40:0 41:83 42:32 43:25 
-1 1:-100 2:0 3:0 4:0 5:0 6:0 7:0 8:0 9:0 10:0 11:0 12:0 13:0 14:0 15:0 16:100 17:0 18:0 19:0 20:0 21:20 22:20 23:0 24:0 25:20 26:0 27:0 28:40 29:40 30:0 31:20 32:20 33:0 34:40 35:20 36:0 37:0 38:40 39:20 40:20 41:72 42:50 43:25 
-1 1:-100 2:0 3:0 4:0 5:0 6:0 7:0 8:0 9:0 10:0 11:0 12:0 13:0 14:0 15:0 16:100 17:0 18:0 19:0 20:0 21:20 22:20 23:0 24:0 25:20 26:0 27:0 28:40 29:40 30:0 31:20 32:20 33:0 34:40 35:20 36:0 37:0 38:40 39:20 40:20 41:72 42:50 43:67 
-1 1:-100 2:0 3:0 4:0 5:0 6:0 7:0 8:0 9:0 10:0 11:0 12:0 13:0 14:100 15:0 16:0 17:0 18:0 19:0 20:0 21:20 22:20 23:0 24:0 25:20 26:0 27:0 28:40 29:40 30:0 31:20 32:20 33:0 34:40 35:20 36:0 37:0 38:40 39:20 40:20 41:72 42:50 43:25 
-1 1:-100 2:0 3:0 4:0 5:0 6:0 7:0 8:0 9:0 10:0 11:0 12:0 13:0 14:100 15:0 16:0 17:0 18:0 19:0 20:0 21:20 22:20 23:0 24:0 25:20 26:0 27:0 28:40 29:40 30:0 31:20 32:20 33:0 34:40 35:20 36:0 37:0 38:40 39:20 40:20 41:72 42:50 43:67 
1 1:0 2:-100 3:0 4:0 5:0 6:0 7:0 8:0 9:100 10:0 11:0 12:0 13:0 14:0 15:0 16:0 17:0 18:0 19:0 20:0 21:60 22:100 23:20 24:20 25:20 26:40 27:0 28:60 29:100 30:0 31:20 32:0 33:0 34:20 35:0 36:80 37:20 38:60 39:0 40:20 41:24 42:68 43:82 
-1 1:0 2:0 3:0 4:0 5:0 6:0 7:0 8:0 9:0 10:0 11:0 12:0 13:0 14:0 15:0 16:-100 17:0 18:0 19:0 20:100 21:40 22:80 23:40 24:20 25:0 26:20 27:20 28:40 29:60 30:0 31:20 32:0 33:40 34:20 35:40 36:20 37:0 38:20 39:20 40:20 41:37 42:67 43:20 
-1 1:-100 2:0 3:0 4:0 5:0 6:0 7:100 8:0 9:0 10:0 11:0 12:0 13:0 14:0 15:0 16:0 17:0 18:0 19:0 20:0 21:20 22:20 23:0 24:0 25:20 26:0 27:0 28:40 29:40 30:0 31:20 32:20 33:0 34:40 35:20 36:0 37:0 38:40 39:20 40:20 41:72 42:50 43:67 
1 1:0 2:0 3:0 4:0 5:0 6:0 7:0 8:0 9:0 10:-100 11:100 12:0 13:0 14:0 15:0 16:0 17:0 18:0 19:0 20:0 21:20 22:60 23:20 24:0 25:20 26:20 27:40 28:80 29:60 30:20 31:40 32:20 33:0 34:0 35:20 36:40 37:20 38:40 39:20 40:20 41:27 42:52 43:63 
0.4149489626065824 1:-100 2:0 3:0 4:0 5:0 6:0 7:0 8:0 9:0 10:0 11:0 12:0 13:0 14:0 15:0 16:100 17:0 18:0 19:0 20:0 21:20 22:0 23:0 24:40 25:20 26:60 27:20 28:20 29:40 30:0 31:40 32:0 33:20 34:20 35:0 36:40 37:20 38:20 39:80 40:20 41:7 42:32 43:66 
1 1:0 2:0 3:0 4:0 5:0 6:0 7:0 8:0 9:100 10:0 11:0 12:0 13:0 14:0 15:0 16:0 17:0 18:0 19:-100 20:0 21:20 22:20 23:40 24:0 25:0 26:0 27:40 28:60 29:40 30:20 31:80 32:80 33:80 34:0 35:20 36:0 37:0 38:0 39:0 40:60 41:30 42:50 43:25 
0.8619766435440527 1:0 2:0 3:0 4:0 5:0 6:0 7:0 8:0 9:100 10:0 11:0 12:0 13:0 14:0 15:0 16:0 17:0 18:0 19:-100 20:0 21:20 22:20 23:40 24:0 25:0 26:0 27:40 28:60 29:40 30:20 31:80 32:80 33:80 34:0 35:20 36:0 37:0 38:0 39:0 40:60 41:30 42:50 43:50 
1 1:0 2:0 3:0 4:0 5:0 6:0 7:0 8:0 9:0 10:0 11:0 12:0 13:0 14:0 15:0 16:-100 17:100 18:0 19:0 20:0 21:40 22:20 23:20 24:0 25:80 26:0 27:0 28:60 29:20 30:0 31:40 32:20 33:0 34:20 35:0 36:40 37:40 38:60 39:20 40:0 41:36 42:53 43:55 
1 1:0 2:0 3:0 4:0 5:0 6:0 7:0 8:0 9:0 10:0 11:0 12:0 13:0 14:0 15:0 16:-100 17:0 18:100 19:0 20:0 21:40 22:20 23:20 24:0 25:80 26:0 27:0 28:60 29:20 30:0 31:40 32:20 33:0 34:20 35:0 36:40 37:40 38:60 39:20 40:0 41:36 42:53 43:55 
1 1:0 2:0 3:0 4:0 5:0 6:0 7:0 8:0 9:0 10:0 11:0 12:0 13:0 14:0 15:0 16:-100 17:0 18:100 19:0 20:0 21:40 22:20 23:20 24:0 25:80 26:0 27:0 28:60 29:20 30:0 31:40 32:20 33:0 34:20 35:0 36:40 37:40 38:60 39:20 40:0 41:36 42:53 43:55 
1 1:0 2:0 3:0 4:0 5:0 6:0 7:0 8:0 9:0 10:0 11:0 12:0 13:0 14:0 15:0 16:-100 17:0 18:100 19:0 20:0 21:40 22:20 23:20 24:0 25:80 26:0 27:0 28:60 29:20 30:0 31:40 32:20 33:0 34:20 35:0 36:40 37:40 38:60 39:20 40:0 41:36 42:53 43:55 
1 1:0 2:0 3:0 4:0 5:0 6:0 7:0 8:0 9:0 10:0 11:0 12:0 13:0 14:0 15:0 16:-100 17:0 18:100 19:0 20:0 21:40 22:20 23:20 24:0 25:80 26:0 27:0 28:60 29:20 30:0 31:40 32:20 33:0 34:20 35:0 36:40 37:40 38:60 39:20 40:0 41:36 42:53 43:55 
1 1:0 2:0 3:0 4:0 5:0 6:0 7:0 8:0 9:0 10:0 11:0 12:0 13:0 14:0 15:0 16:-100 17:0 18:100 19:0 20:0 21:40 22:20 23:20 24:0 25:80 26:0 27:0 28:60 29:20 30:0 31:40 32:20 33:0 34:20 35:0 36:40 37:40 38:60 39:20 40:0 41:36 42:53 43:55 
0.351688308324888 1:0 2:0 3:0 4:0 5:0 6:0 7:0 8:0 9:0 10:0 11:0 12:0 13:0 14:0 15:0 16:-100 17:0 18:100 19:0 20:0 21:40 22:20 23:20 24:0 25:80 26:0 27:0 28:60 29:20 30:0 31:40 32:20 33:0 34:20 35:0 36:40 37:40 38:60 39:20 40:0 41:36 42:53 43:55 
1 1:0 2:0 3:0 4:0 5:0 6:0 7:0 8:0 9:0 10:0 11:0 12:0 13:100 14:-100 15:0 16:0 17:0 18:0 19:0 20:0 21:60 22:60 23:40 24:40 25:20 26:0 27:40 28:0 29:0 30:20 31:40 32:20 33:0 34:0 35:40 36:20 37:0 38:0 39:0 40:40 41:43 42:50 43:25 
-1 1:100 2:0 3:0 4:0 5:0 6:0 7:0 8:0 9:0 10:0 11:0 12:0 13:-100 14:0 15:0 16:0 17:0 18:0 19:0 20:0 21:20 22:80 23:80 24:0 25:0 26:0 27:0 28:40 29:40 30:0 31:20 32:20 33:0 34:0 35:20 36:60 37:0 38:40 39:40 40:20 41:2 42:46 43:70 
-1 1:100 2:0 3:0 4:0 5:0 6:0 7:0 8:0 9:0 10:0 11:0 12:-100 13:0 14:0 15:0 16:0 17:0 18:0 19:0 20:0 21:20 22:0 23:20 24:0 25:0 26:0 27:40 28:60 29:40 30:40 31:0 32:100 33:0 34:0 35:80 36:0 37:0 38:20 39:0 40:40 41:24 42:50 43:48 
1 1:0 2:0 3:0 4:0 5:0 6:0 7:0 8:0 9:100 10:0 11:0 12:0 13:0 14:0 15:0 16:0 17:0 18:-100 19:0 20:0 21:40 22:60 23:60 24:0 25:20 26:0 27:40 28:60 29:40 30:0 31:40 32:20 33:0 34:0 35:40 36:40 37:20 38:20 39:0 40:40 41:63 42:50 43:43 
-0.08414595975486171 1:0 2:0 3:0 4:0 5:0 6:0 7:0 8:0 9:0 10:0 11:0 12:0 13:0 14:0 15:0 16:-100 17:0 18:0 19:100 20:0 21:40 22:40 23:20 24:0 25:20 26:0 27:0 28:0 29:20 30:20 31:0 32:0 33:0 34:0 35:0 36:0 37:0 38:0 39:20 40:40 41:101 42:44 43:25 
1 1:0 2:0 3:0 4:0 5:0 6:0 7:0 8:0 9:0 10:0 11:0 12:0 13:0 14:0 15:100 16:-100 17:0 18:0 19:0 20:0 21:20 22:40 23:40 24:0 25:0 26:20 27:80 28:40 29:40 30:20 31:20 32:20 33:0 34:20 35:20 36:0 37:20 38:0 39:20 40:40 41:35 42:45 43:25 
-0.3602290915976821 1:0 2:0 3:0 4:0 5:0 6:0 7:0 8:0 9:0 10:0 11:0 12:0 13:0 14:0 15:0 16:100 17:0 18:-100 19:0 20:0 21:20 22:0 23:20 24:40 25:20 26:0 27:40 28:0 29:0 30:0 31:0 32:60 33:0 34:0 35:0 36:20 37:0 38:20 39:20 40:20 41:79 42:50 43:25 
0.1385596641939025 1:0 2:0 3:0 4:0 5:100 6:0 7:-100 8:0 9:0 10:0 11:0 12:0 13:0 14:0 15:0 16:0 17:0 18:0 19:0 20:0 21:0 22:0 23:0 24:0 25:0 26:0 27:20 28:20 29:40 30:20 31:40 32:60 33:0 34:0 35:40 36:20 37:20 38:0 39:60 40:60 41:58 42:19 43:64 
-1 1:0 2:0 3:0 4:0 5:100 6:0 7:-100 8:0 9:0 10:0 11:0 12:0 13:0 14:0 15:0 16:0 17:0 18:0 19:0 20:0 21:40 22:40 23:0 24:0 25:0 26:0 27:20 28:20 29:0 30:20 31:0 32:0 33:0 34:0 35:0 36:0 37:0 38:20 39:20 40:20 41:79 42:50 43:25 
1 1:0 2:0 3:0 4:0 5:0 6:0 7:-100 8:0 9:100 10:0 11:0 12:0 13:0 14:0 15:0 16:0 17:0 18:0 19:0 20:0 21:40 22:40 23:0 24:0 25:0 26:0 27:20 28:20 29:0 30:20 31:0 32:0 33:0 34:0 35:0 36:0 37:0 38:20 39:20 40:20 41:79 42:50 43:25 
-1 1:-100 2:0 3:0 4:0 5:0 6:0 7:0 8:0 9:0 10:0 11:0 12:0 13:0 14:0 15:0 16:0 17:0 18:0 19:0 20:100 21:0 22:20 23:40 24:0 25:20 26:0 27:20 28:20 29:20 30:0 31:20 32:20 33:0 34:0 35:40 36:20 37:20 38:40 39:20 40:20 41:65 42:19 43:64 
-1 1:-100 2:0 3:0 4:0 5:0 6:0 7:0 8:100 9:0 10:0 11:0 12:0 13:0 14:0 15:0 16:0 17:0 18:0 19:0 20:0 21:0 22:20 23:40 24:0 25:20 26:0 27:20 28:20 29:20 30:0 31:20 32:20 33:0 34:0 35:40 36:20 37:20 38:40 39:20 40:20 41:69 42:19 43:64 
-1 1:-100 2:0 3:0 4:0 5:0 6:0 7:0 8:0 9:100 10:0 11:0 12:0 13:0 14:0 15:0 16:0 17:0 18:0 19:0 20:0 21:0 22:20 23:40 24:0 25:20 26:0 27:20 28:20 29:20 30:0 31:20 32:20 33:0 34:0 35:40 36:20 37:20 38:40 39:20 40:20 41:69 42:19 43:49 
-1 1:-100 2:0 3:0 4:0 5:0 6:0 7:0 8:0 9:100 10:0 11:0 12:0 13:0 14:0 15:0 16:0 17:0 18:0 19:0 20:0 21:0 22:20 23:40 24:0 25:20 26:0 27:20 28:20 29:20 30:0 31:20 32:20 33:0 34:0 35:40 36:20 37:20 38:40 39:20 40:20 41:69 42:19 43:64 
0.6320423163633345 1:-100 2:100 3:0 4:0 5:0 6:0 7:0 8:0 9:0 10:0 11:0 12:0 13:0 14:0 15:0 16:0 17:0 18:0 19:0 20:0 21:0 22:20 23:40 24:0 25:20 26:0 27:20 28:20 29:20 30:0 31:20 32:20 33:0 34:0 35:40 36:20 37:20 38:40 39:20 40:20 41:69 42:19 43:64 
-0.4980020317310658 1:-100 2:0 3:0 4:100 5:0 6:0 7:0 8:0 9:0 10:0 11:0 12:0 13:0 14:0 15:0 16:0 17:0 18:0 19:0 20:0 21:0 22:20 23:40 24:0 25:20 26:0 27:20 28:20 29:20 30:0 31:20 32:20 33:0 34:0 35:40 36:20 37:20 38:40 39:20 40:20 41:69 42:19 43:64 
1 1:-100 2:0 3:100 4:0 5:0 6:0 7:0 8:0 9:0 10:0 11:0 12:0 13:0 14:0 15:0 16:0 17:0 18:0 19:0 20:0 21:0 22:20 23:40 24:0 25:20 26:0 27:20 28:20 29:20 30:0 31:20 32:20 33:0 34:0 35:40 36:20 37:20 38:40 39:20 40:20 41:69 42:19 43:64 
-1 1:0 2:0 3:0 4:0 5:0 6:0 7:0 8:0 9:0 10:0 11:0 12:0 13:0 14:0 15:-100 16:0 17:0 18:100 19:0 20:0 21:100 22:20 23:40 24:20 25:20 26:0 27:0 28:80 29:0 30:0 31:40 32:0 33:0 34:0 35:0 36:40 37:40 38:80 39:0 40:0 41:67 42:50 43:70 
0.4146851837772159 1:0 2:0 3:0 4:0 5:0 6:0 7:0 8:0 9:0 10:0 11:0 12:0 13:0 14:0 15:-100 16:0 17:0 18:100 19:0 20:0 21:100 22:20 23:40 24:20 25:20 26:0 27:0 28:80 29:0 30:0 31:40 32:0 33:0 34:0 35:0 36:40 37:40 38:80 39:0 40:0 41:67 42:50 43:70 
-1 1:0 2:0 3:0 4:0 5:0 6:0 7:0 8:0 9:100 10:0 11:0 12:0 13:0 14:0 15:-100 16:0 17:0 18:0 19:0 20:0 21:100 22:20 23:40 24:20 25:20 26:0 27:0 28:80 29:0 30:0 31:40 32:0 33:0 34:0 35:0 36:40 37:40 38:80 39:0 40:0 41:67 42:50 43:70 
-1 1:0 2:0 3:0 4:0 5:0 6:0 7:0 8:0 9:100 10:0 11:0 12:0 13:0 14:0 15:-100 16:0 17:0 18:0 19:0 20:0 21:100 22:20 23:40 24:20 25:20 26:0 27:0 28:80 29:0 30:0 31:40 32:0 33:0 34:0 35:0 36:40 37:40 38:80 39:0 40:0 41:67 42:50 43:70 
-1 1:0 2:100 3:0 4:0 5:0 6:0 7:0 8:0 9:0 10:0 11:0 12:0 13:0 14:0 15:-100 16:0 17:0 18:0 19:0 20:0 21:100 22:20 23:40 24:20 25:20 26:0 27:0 28:80 29:0 30:0 31:40 32:0 33:0 34:0 35:0 36:40 37:40 38:80 39:0 40:0 41:67 42:50 43:70 
0.7550616584253662 1:0 2:100 3:0 4:0 5:0 6:0 7:0 8:0 9:0 10:0 11:0 12:0 13:0 14:0 15:-100 16:0 17:0 18:0 19:0 20:0 21:100 22:20 23:40 24:20 25:20 26:0 27:0 28:80 29:0 30:0 31:40 32:0 33:0 34:0 35:0 36:40 37:40 38:80 39:0 40:0 41:67 42:50 43:70 
1 1:0 2:-100 3:0 4:0 5:0 6:0 7:0 8:0 9:100 10:0 11:0 12:0 13:0 14:0 15:0 16:0 17:0 18:0 19:0 20:0 21:20 22:40 23:40 24:0 25:0 26:0 27:40 28:20 29:40 30:20 31:60 32:40 33:0 34:0 35:0 36:80 37:0 38:20 39:40 40:0 41:44 42:38 43:53 
1 1:-100 2:0 3:0 4:0 5:0 6:0 7:100 8:0 9:0 10:0 11:0 12:0 13:0 14:0 15:0 16:0 17:0 18:0 19:0 20:0 21:0 22:20 23:40 24:0 25:20 26:0 27:20 28:20 29:20 30:0 31:20 32:20 33:0 34:0 35:40 36:20 37:20 38:40 39:20 40:20 41:65 42:19 43:64 
-1 1:0 2:0 3:0 4:0 5:0 6:0 7:100 8:0 9:0 10:-100 11:0 12:0 13:0 14:0 15:0 16:0 17:0 18:0 19:0 20:0 21:20 22:0 23:40 24:20 25:0 26:0 27:40 28:20 29:20 30:20 31:0 32:40 33:0 34:0 35:0 36:100 37:0 38:0 39:40 40:20 41:70 42:32 43:25 
-1 1:0 2:0 3:0 4:0 5:0 6:100 7:0 8:0 9:0 10:-100 11:0 12:0 13:0 14:0 15:0 16:0 17:0 18:0 19:0 20:0 21:20 22:0 23:40 24:20 25:0 26:0 27:40 28:20 29:20 30:20 31:0 32:40 33:0 34:0 35:0 36:100 37:0 38:0 39:40 40:20 41:70 42:32 43:25 
0.6732796956131876 1:0 2:0 3:0 4:0 5:0 6:0 7:0 8:0 9:0 10:-100 11:0 12:0 13:0 14:0 15:100 16:0 17:0 18:0 19:0 20:0 21:20 22:0 23:40 24:20 25:0 26:0 27:40 28:20 29:20 30:20 31:0 32:40 33:0 34:0 35:0 36:100 37:0 38:0 39:40 40:20 41:70 42:32 43:25 
-1 1:0 2:100 3:0 4:0 5:0 6:0 7:0 8:0 9:0 10:-100 11:0 12:0 13:0 14:0 15:0 16:0 17:0 18:0 19:0 20:0 21:20 22:0 23:40 24:20 25:0 26:0 27:40 28:20 29:20 30:20 31:0 32:40 33:0 34:0 35:0 36:100 37:0 38:0 39:40 40:20 41:70 42:32 43:25 
0.9467059250583912 1:0 2:0 3:0 4:0 5:0 6:0 7:0 8:0 9:100 10:0 11:0 12:-100 13:0 14:0 15:0 16:0 17:0 18:0 19:0 20:0 21:20 22:100 23:20 24:0 25:40 26:0 27:40 28:40 29:40 30:0 31:20 32:20 33:20 34:0 35:0 36:40 37:60 38:60 39:0 40:120 41:0 42:50 43:58 
-1 1:0 2:0 3:0 4:0 5:0 6:0 7:0 8:0 9:100 10:0 11:0 12:-100 13:0 14:0 15:0 16:0 17:0 18:0 19:0 20:0 21:20 22:100 23:20 24:0 25:40 26:0 27:40 28:40 29:40 30:0 31:20 32:20 33:20 34:0 35:0 36:40 37:60 38:60 39:0 40:120 41:0 42:50 43:58 
1 1:0 2:0 3:0 4:0 5:0 6:0 7:0 8:100 9:0 10:-100 11:0 12:0 13:0 14:0 15:0 16:0 17:0 18:0 19:0 20:0 21:20 22:0 23:40 24:20 25:0 26:0 27:40 28:20 29:20 30:20 31:0 32:40 33:0 34:0 35:0 36:100 37:0 38:0 39:40 40:20 41:70 42:32 43:25 
1 1:0 2:0 3:0 4:0 5:0 6:0 7:0 8:0 9:100 10:0 11:0 12:0 13:0 14:0 15:0 16:-100 17:0 18:0 19:0 20:0 21:0 22:40 23:0 24:0 25:0 26:40 27:0 28:40 29:0 30:20 31:60 32:20 33:0 34:0 35:20 36:0 37:0 38:0 39:20 40:20 41:63 42:45 43:25 
0.1986141669560087 1:0 2:0 3:0 4:0 5:0 6:0 7:0 8:0 9:0 10:0 11:0 12:0 13:0 14:0 15:0 16:100 17:0 18:0 19:0 20:-100 21:80 22:0 23:40 24:0 25:60 26:20 27:0 28:40 29:20 30:20 31:0 32:0 33:0 34:0 35:0 36:40 37:40 38:40 39:0 40:20 41:39 42:53 43:55 
-1 1:0 2:0 3:0 4:0 5:0 6:0 7:0 8:0 9:0 10:0 11:0 12:0 13:0 14:0 15:0 16:100 17:0 18:0 19:0 20:-100 21:80 22:0 23:40 24:0 25:60 26:20 27:0 28:40 29:20 30:20 31:0 32:0 33:0 34:0 35:0 36:40 37:40 38:40 39:0 40:20 41:39 42:53 43:55 
-1 1:0 2:0 3:0 4:0 5:0 6:0 7:0 8:0 9:0 10:0 11:0 12:0 13:0 14:0 15:0 16:100 17:0 18:0 19:0 20:-100 21:80 22:0 23:40 24:0 25:60 26:20 27:0 28:40 29:20 30:20 31:0 32:0 33:0 34:0 35:0 36:40 37:40 38:40 39:0 40:20 41:39 42:53 43:55 
-1 1:0 2:0 3:0 4:0 5:0 6:0 7:0 8:0 9:0 10:0 11:0 12:0 13:0 14:0 15:0 16:100 17:0 18:0 19:0 20:-100 21:80 22:0 23:40 24:0 25:60 26:20 27:0 28:40 29:20 30:20 31:0 32:0 33:0 34:0 35:0 36:40 37:40 38:40 39:0 40:20 41:39 42:53 43:55 
-1 1:0 2:0 3:0 4:0 5:0 6:0 7:0 8:0 9:0 10:0 11:0 12:0 13:0 14:0 15:0 16:100 17:0 18:0 19:0 20:-100 21:80 22:0 23:40 24:0 25:60 26:20 27:0 28:40 29:20 30:20 31:0 32:0 33:0 34:0 35:0 36:40 37:40 38:40 39:0 40:20 41:39 42:53 43:55 
1 1:0 2:0 3:0 4:0 5:0 6:0 7:0 8:0 9:0 10:0 11:0 12:0 13:0 14:0 15:0 16:100 17:0 18:0 19:0 20:-100 21:80 22:0 23:40 24:0 25:60 26:20 27:0 28:40 29:20 30:20 31:0 32:0 33:0 34:0 35:0 36:40 37:40 38:40 39:0 40:20 41:39 42:53 43:55 
0.002029494170480492 1:0 2:0 3:0 4:0 5:0 6:0 7:0 8:0 9:100 10:0 11:0 12:0 13:0 14:0 15:-100 16:0 17:0 18:0 19:0 20:0 21:0 22:0 23:0 24:0 25:20 26:0 27:40 28:60 29:20 30:40 31:0 32:20 33:40 34:0 35:40 36:20 37:0 38:20 39:40 40:0 41:80 42:50 43:39 
-0.1937915330954714 1:0 2:0 3:0 4:0 5:0 6:0 7:0 8:0 9:0 10:0 11:0 12:0 13:0 14:0 15:0 16:0 17:100 18:0 19:0 20:-100 21:80 22:0 23:40 24:0 25:60 26:20 27:0 28:40 29:20 30:20 31:0 32:0 33:0 34:0 35:0 36:40 37:40 38:40 39:0 40:20 41:39 42:53 43:55 
1 1:0 2:0 3:0 4:0 5:0 6:0 7:0 8:0 9:0 10:0 11:0 12:0 13:0 14:0 15:0 16:0 17:100 18:0 19:0 20:-100 21:80 22:0 23:40 24:0 25:60 26:20 27:0 28:40 29:20 30:20 31:0 32:0 33:0 34:0 35:0 36:40 37:40 38:40 39:0 40:20 41:39 42:53 43:55 
-0.6978937634184567 1:0 2:100 3:0 4:0 5:0 6:0 7:0 8:0 9:0 10:0 11:0 12:0 13:0 14:-100 15:0 16:0 17:0 18:0 19:0 20:0 21:20 22:60 23:20 24:20 25:20 26:20 27:20 28:20 29:100 30:0 31:40 32:20 33:20 34:0 35:20 36:40 37:0 38:20 39:20 40:40 41:24 42:45 43:74 
-1 1:0 2:0 3:0 4:0 5:0 6:0 7:0 8:0 9:0 10:0 11:0 12:-100 13:0 14:0 15:0 16:0 17:0 18:0 19:0 20:100 21:40 22:40 23:20 24:40 25:40 26:0 27:0 28:80 29:20 30:0 31:0 32:20 33:0 34:0 35:0 36:20 37:0 38:20 39:20 40:0 41:84 42:14 43:39 
1 1:0 2:0 3:0 4:0 5:0 6:0 7:0 8:0 9:0 10:0 11:0 12:-100 13:0 14:0 15:0 16:0 17:0 18:0 19:0 20:100 21:40 22:40 23:20 24:40 25:40 26:0 27:0 28:80 29:20 30:0 31:0 32:20 33:0 34:0 35:0 36:20 37:0 38:20 39:20 40:0 41:84 42:47 43:62 
-0.4548938247823205 1:0 2:0 3:0 4:0 5:-100 6:0 7:100 8:0 9:0 10:0 11:0 12:0 13:0 14:0 15:0 16:0 17:0 18:0 19:0 20:0 21:0 22:100 23:0 24:40 25:20 26:0 27:40 28:40 29:20 30:20 31:20 32:60 33:40 34:20 35:40 36:80 37:20 38:20 39:20 40:20 41:17 42:42 43:25 
-1 1:0 2:0 3:0 4:0 5:0 6:0 7:0 8:0 9:0 10:0 11:100 12:0 13:0 14:0 15:-100 16:0 17:0 18:0 19:0 20:0 21:0 22:40 23:40 24:0 25:20 26:40 27:40 28:40 29:0 30:20 31:80 32:20 33:0 34:0 35:20 36:40 37:0 38:0 39:20 40:20 41:15 42:45 43:25 
-1 1:0 2:0 3:-100 4:0 5:0 6:0 7:0 8:0 9:100 10:0 11:0 12:0 13:0 14:0 15:0 16:0 17:0 18:0 19:0 20:0 21:140 22:80 23:60 24:0 25:20 26:20 27:0 28:20 29:40 30:40 31:20 32:0 33:0 34:0 35:40 36:60 37:0 38:80 39:20 40:40 41:0 42:25 43:25 
-1 1:0 2:0 3:-100 4:0 5:0 6:0 7:0 8:0 9:100 10:0 11:0 12:0 13:0 14:0 15:0 16:0 17:0 18:0 19:0 20:0 21:140 22:80 23:60 24:0 25:20 26:20 27:0 28:20 29:40 30:40 31:20 32:0 33:0 34:0 35:40 36:60 37:0 38:80 39:20 40:40 41:0 42:45 43:25 
-1 1:0 2:0 3:-100 4:0 5:0 6:0 7:0 8:0 9:100 10:0 11:0 12:0 13:0 14:0 15:0 16:0 17:0 18:0 19:0 20:0 21:140 22:80 23:60 24:0 25:20 26:20 27:0 28:20 29:40 30:40 31:20 32:0 33:0 34:0 35:40 36:60 37:0 38:80 39:20 40:40 41:0 42:21 43:25 
-0.5699339552825188 1:0 2:0 3:0 4:0 5:0 6:0 7:0 8:0 9:100 10:0 11:-100 12:0 13:0 14:0 15:0 16:0 17:0 18:0 19:0 20:0 21:20 22:20 23:20 24:0 25:0 26:0 27:40 28:40 29:0 30:20 31:60 32:0 33:20 34:0 35:0 36:0 37:0 38:0 39:20 40:60 41:72 42:50 43:25 
-1 1:0 2:0 3:0 4:0 5:0 6:0 7:0 8:0 9:100 10:0 11:-100 12:0 13:0 14:0 15:0 16:0 17:0 18:0 19:0 20:0 21:20 22:20 23:20 24:0 25:0 26:0 27:40 28:40 29:0 30:20 31:60 32:0 33:20 34:0 35:0 36:0 37:0 38:0 39:20 40:60 41:72 42:50 43:50 
1 1:100 2:0 3:-100 4:0 5:0 6:0 7:0 8:0 9:0 10:0 11:0 12:0 13:0 14:0 15:0 16:0 17:0 18:0 19:0 20:0 21:140 22:80 23:60 24:0 25:20 26:20 27:0 28:20 29:40 30:40 31:20 32:0 33:0 34:0 35:40 36:60 37:0 38:80 39:20 40:40 41:0 42:21 43:25 
1 1:100 2:0 3:-100 4:0 5:0 6:0 7:0 8:0 9:0 10:0 11:0 12:0 13:0 14:0 15:0 16:0 17:0 18:0 19:0 20:0 21:140 22:80 23:60 24:0 25:20 26:20 27:0 28:20 29:40 30:40 31:20 32:0 33:0 34:0 35:40 36:60 37:0 38:80 39:20 40:40 41:0 42:45 43:25 
1 1:100 2:0 3:-100 4:0 5:0 6:0 7:0 8:0 9:0 10:0 11:0 12:0 13:0 14:0 15:0 16:0 17:0 18:0 19:0 20:0 21:140 22:80 23:60 24:0 25:20 26:20 27:0 28:20 29:40 30:40 31:20 32:0 33:0 34:0 35:40 36:60 37:0 38:80 39:20 40:40 41:0 42:45 43:46 
1 1:-100 2:0 3:0 4:0 5:0 6:0 7:0 8:0 9:100 10:0 11:0 12:0 13:0 14:0 15:0 16:0 17:0 18:0 19:0 20:0 21:60 22:100 23:40 24:40 25:60 26:20 27:0 28:60 29:40 30:0 31:20 32:40 33:0 34:0 35:20 36:20 37:20 38:20 39:60 40:0 41:0 42:38 43:61 
1 1:-100 2:0 3:0 4:0 5:0 6:0 7:0 8:0 9:100 10:0 11:0 12:0 13:0 14:0 15:0 16:0 17:0 18:0 19:0 20:0 21:60 22:100 23:40 24:40 25:60 26:20 27:0 28:60 29:40 30:0 31:20 32:40 33:0 34:0 35:20 36:20 37:20 38:20 39:60 40:0 41:0 42:38 43:65 
-1 1:-100 2:0 3:0 4:0 5:100 6:0 7:0 8:0 9:0 10:0 11:0 12:0 13:0 14:0 15:0 16:0 17:0 18:0 19:0 20:0 21:60 22:100 23:40 24:40 25:60 26:20 27:0 28:60 29:40 30:0 31:20 32:40 33:0 34:0 35:20 36:20 37:20 38:20 39:60 40:0 41:0 42:40 43:64 
0.7770097322514347 1:-100 2:0 3:0 4:0 5:100 6:0 7:0 8:0 9:0 10:0 11:0 12:0 13:0 14:0 15:0 16:0 17:0 18:0 19:0 20:0 21:60 22:100 23:40 24:40 25:60 26:20 27:0 28:60 29:40 30:0 31:20 32:40 33:0 34:0 35:20 36:20 37:20 38:20 39:60 40:0 41:0 42:21 43:51 
-1 1:-100 2:0 3:100 4:0 5:0 6:0 7:0 8:0 9:0 10:0 11:0 12:0 13:0 14:0 15:0 16:0 17:0 18:0 19:0 20:0 21:60 22:100 23:40 24:40 25:60 26:20 27:0 28:60 29:40 30:0 31:20 32:40 33:0 34:0 35:20 36:20 37:20 38:20 39:60 40:0 41:0 42:21 43:51 
-1 1:-100 2:0 3:100 4:0 5:0 6:0 7:0 8:0 9:0 10:0 11:0 12:0 13:0 14:0 15:0 16:0 17:0 18:0 19:0 20:0 21:60 22:100 23:40 24:40 25:60 26:20 27:0 28:60 29:40 30:0 31:20 32:40 33:0 34:0 35:20 36:20 37:20 38:20 39:60 40:0 41:0 42:40 43:64 
0.804368132202175 1:-100 2:0 3:0 4:100 5:0 6:0 7:0 8:0 9:0 10:0 11:0 12:0 13:0 14:0 15:0 16:0 17:0 18:0 19:0 20:0 21:60 22:100 23:40 24:40 25:60 26:20 27:0 28:60 29:40 30:0 31:20 32:40 33:0 34:0 35:20 36:20 37:20 38:20 39:60 40:0 41:0 42:38 43:65 
-0.8342839020977387 1:-100 2:0 3:0 4:0 5:0 6:0 7:0 8:0 9:0 10:0 11:0 12:100 13:0 14:0 15:0 16:0 17:0 18:0 19:0 20:0 21:20 22:60 23:120 24:0 25:20 26:20 27:120 28:60 29:40 30:20 31:20 32:40 33:0 34:20 35:40 36:20 37:20 38:20 39:60 40:80 41:0 42:45 43:25 
-1 1:0 2:0 3:0 4:0 5:0 6:0 7:0 8:0 9:0 10:0 11:0 12:0 13:0 14:0 15:100 16:-100 17:0 18:0 19:0 20:0 21:20 22:40 23:40 24:40 25:40 26:40 27:60 28:40 29:80 30:0 31:20 32:60 33:0 34:20 35:0 36:60 37:20 38:0 39:40 40:40 41:25 42:37 43:5 
1 1:0 2:0 3:0 4:0 5:0 6:0 7:0 8:-100 9:100 10:0 11:0 12:0 13:0 14:0 15:0 16:0 17:0 18:0 19:0 20:0 21:40 22:80 23:20 24:20 25:20 26:20 27:0 28:20 29:80 30:0 31:0 32:0 33:0 34:0 35:0 36:20 37:20 38:40 39:20 40:40 41:36 42:68 43:82 
-1 1:0 2:0 3:0 4:0 5:0 6:0 7:0 8:0 9:100 10:0 11:0 12:0 13:0 14:0 15:0 16:0 17:0 18:0 19:0 20:-100 21:100 22:60 23:20 24:0 25:20 26:0 27:0 28:40 29:20 30:20 31:20 32:0 33:0 34:0 35:0 36:40 37:0 38:20 39:20 40:20 41:40 42:44 43:25 
-1 1:0 2:0 3:0 4:0 5:0 6:0 7:-100 8:100 9:0 10:0 11:0 12:0 13:0 14:0 15:0 16:0 17:0 18:0 19:0 20:0 21:20 22:0 23:40 24:0 25:60 26:0 27:40 28:60 29:40 30:40 31:0 32:40 33:40 34:0 35:80 36:60 37:0 38:0 39:40 40:0 41:5 42:14 43:25 
-1 1:0 2:0 3:0 4:0 5:0 6:0 7:-100 8:100 9:0 10:0 11:0 12:0 13:0 14:0 15:0 16:0 17:0 18:0 19:0 20:0 21:20 22:0 23:40 24:0 25:60 26:0 27:40 28:60 29:40 30:40 31:0 32:40 33:40 34:0 35:80 36:60 37:0 38:0 39:40 40:0 41:6 42:14 43:25 
-1 1:0 2:0 3:0 4:0 5:0 6:0 7:0 8:0 9:0 10:0 11:0 12:0 13:0 14:0 15:0 16:-100 17:0 18:100 19:0 20:0 21:20 22:40 23:40 24:40 25:40 26:40 27:60 28:40 29:80 30:0 31:20 32:60 33:0 34:20 35:0 36:60 37:20 38:0 39:40 40:40 41:25 42:37 43:5 
-0.1129838851324364 1:0 2:0 3:0 4:0 5:0 6:0 7:0 8:0 9:100 10:0 11:0 12:0 13:0 14:0 15:0 16:-100 17:0 18:0 19:0 20:0 21:20 22:40 23:40 24:40 25:40 26:40 27:60 28:40 29:80 30:0 31:20 32:60 33:0 34:20 35:0 36:60 37:20 38:0 39:40 40:40 41:25 42:37 43:5 
-1 1:-100 2:0 3:0 4:0 5:0 6:0 7:0 8:0 9:100 10:0 11:0 12:0 13:0 14:0 15:0 16:0 17:0 18:0 19:0 20:0 21:80 22:80 23:100 24:0 25:20 26:20 27:0 28:20 29:40 30:40 31:0 32:20 33:0 34:0 35:80 36:60 37:20 38:60 39:0 40:40 41:0 42:45 43:25 
-1 1:-100 2:0 3:0 4:0 5:0 6:0 7:0 8:0 9:100 10:0 11:0 12:0 13:0 14:0 15:0 16:0 17:0 18:0 19:0 20:0 21:80 22:80 23:100 24:0 25:20 26:20 27:0 28:20 29:40 30:40 31:0 32:20 33:0 34:0 35:80 36:60 37:20 38:60 39:0 40:40 41:0 42:25 43:25 
-1 1:0 2:0 3:0 4:0 5:0 6:0 7:0 8:0 9:100 10:0 11:0 12:0 13:0 14:0 15:0 16:-100 17:0 18:0 19:0 20:0 21:0 22:80 23:20 24:0 25:0 26:0 27:0 28:20 29:60 30:0 31:20 32:20 33:20 34:20 35:20 36:20 37:20 38:20 39:20 40:20 41:73 42:47 43:62 
-1 1:0 2:0 3:0 4:0 5:0 6:0 7:0 8:0 9:100 10:0 11:0 12:0 13:0 14:0 15:0 16:-100 17:0 18:0 19:0 20:0 21:0 22:80 23:20 24:0 25:0 26:0 27:0 28:20 29:60 30:0 31:20 32:20 33:20 34:20 35:20 36:20 37:20 38:20 39:20 40:20 41:73 42:21 43:51 
0.1581484793231384 1:0 2:0 3:0 4:0 5:0 6:0 7:0 8:0 9:0 10:0 11:100 12:0 13:0 14:0 15:-100 16:0 17:0 18:0 19:0 20:0 21:80 22:40 23:40 24:60 25:0 26:0 27:20 28:40 29:20 30:20 31:60 32:20 33:40 34:20 35:60 36:40 37:40 38:40 39:40 40:0 41:11 42:51 43:10 
-1 1:0 2:0 3:0 4:0 5:0 6:0 7:0 8:0 9:-100 10:0 11:100 12:0 13:0 14:0 15:0 16:0 17:0 18:0 19:0 20:0 21:80 22:100 23:80 24:60 25:40 26:60 27:40 28:20 29:40 30:0 31:0 32:80 33:20 34:0 35:100 36:0 37:20 38:0 39:40 40:40 41:0 42:21 43:51 
-1 1:100 2:0 3:0 4:0 5:0 6:0 7:0 8:0 9:-100 10:0 11:0 12:0 13:0 14:0 15:0 16:0 17:0 18:0 19:0 20:0 21:80 22:100 23:80 24:60 25:40 26:60 27:40 28:20 29:40 30:0 31:0 32:80 33:20 34:0 35:100 36:0 37:20 38:0 39:40 40:40 41:0 42:21 43:40 
1 1:0 2:0 3:0 4:0 5:0 6:0 7:0 8:0 9:0 10:0 11:100 12:-100 13:0 14:0 15:0 16:0 17:0 18:0 19:0 20:0 21:60 22:20 23:20 24:20 25:20 26:60 27:40 28:20 29:100 30:20 31:0 32:60 33:0 34:0 35:80 36:40 37:0 38:0 39:40 40:40 41:22 42:38 43:65 
-1 1:0 2:0 3:0 4:0 5:0 6:0 7:0 8:0 9:0 10:0 11:0 12:0 13:0 14:100 15:0 16:0 17:0 18:0 19:-100 20:0 21:20 22:20 23:40 24:0 25:0 26:20 27:40 28:0 29:40 30:20 31:0 32:60 33:0 34:0 35:40 36:20 37:40 38:0 39:20 40:20 41:66 42:14 43:39 
1 1:0 2:0 3:0 4:0 5:0 6:0 7:0 8:0 9:0 10:0 11:0 12:0 13:0 14:100 15:0 16:0 17:0 18:0 19:-100 20:0 21:20 22:20 23:40 24:0 25:0 26:20 27:40 28:0 29:40 30:20 31:0 32:60 33:0 34:0 35:40 36:20 37:40 38:0 39:20 40:20 41:66 42:47 43:62 
0.002935289666635912 1:0 2:0 3:0 4:0 5:0 6:0 7:0 8:0 9:0 10:0 11:0 12:0 13:0 14:0 15:0 16:0 17:0 18:0 19:-100 20:100 21:20 22:20 23:40 24:0 25:0 26:20 27:40 28:0 29:40 30:20 31:0 32:60 33:0 34:0 35:40 36:20 37:40 38:0 39:20 40:20 41:66 42:49 43:66 
-1 1:0 2:0 3:0 4:0 5:0 6:0 7:0 8:0 9:0 10:0 11:0 12:0 13:0 14:0 15:0 16:0 17:0 18:0 19:-100 20:100 21:20 22:20 23:40 24:0 25:0 26:20 27:40 28:0 29:40 30:20 31:0 32:60 33:0 34:0 35:40 36:20 37:40 38:0 39:20 40:20 41:66 42:14 43:40 
1 1:0 2:0 3:0 4:0 5:0 6:0 7:0 8:0 9:0 10:0 11:0 12:0 13:0 14:0 15:0 16:0 17:0 18:0 19:-100 20:100 21:20 22:20 23:40 24:0 25:0 26:20 27:40 28:0 29:40 30:20 31:0 32:60 33:0 34:0 35:40 36:20 37:40 38:0 39:20 40:20 41:66 42:21 43:53 
1 1:0 2:0 3:0 4:0 5:0 6:0 7:0 8:-100 9:100 10:0 11:0 12:0 13:0 14:0 15:0 16:0 17:0 18:0 19:0 20:0 21:40 22:80 23:0 24:0 25:0 26:20 27:20 28:0 29:20 30:0 31:60 32:0 33:0 34:0 35:0 36:0 37:20 38:80 39:0 40:20 41:63 42:50 43:43 
0.9440568929812461 1:0 2:0 3:0 4:100 5:0 6:0 7:0 8:0 9:0 10:0 11:0 12:0 13:0 14:0 15:0 16:-100 17:0 18:0 19:0 20:0 21:20 22:40 23:20 24:20 25:40 26:0 27:0 28:40 29:0 30:0 31:60 32:0 33:0 34:20 35:40 36:0 37:20 38:0 39:0 40:20 41:42 42:50 43:25 
-1 1:0 2:0 3:0 4:0 5:0 6:0 7:0 8:0 9:100 10:0 11:0 12:0 13:0 14:0 15:0 16:0 17:0 18:0 19:-100 20:0 21:0 22:20 23:60 24:0 25:40 26:0 27:60 28:20 29:20 30:0 31:60 32:60 33:0 34:20 35:40 36:0 37:0 38:20 39:40 40:60 41:34 42:45 43:25 
-1 1:0 2:0 3:0 4:0 5:0 6:0 7:0 8:0 9:0 10:0 11:0 12:0 13:0 14:100 15:0 16:-100 17:0 18:0 19:0 20:0 21:20 22:40 23:20 24:20 25:40 26:0 27:0 28:40 29:0 30:0 31:60 32:0 33:0 34:20 35:40 36:0 37:20 38:0 39:0 40:20 41:42 42:50 43:25 
1 1:0 2:0 3:0 4:0 5:0 6:0 7:0 8:0 9:100 10:0 11:-100 12:0 13:0 14:0 15:0 16:0 17:0 18:0 19:0 20:0 21:0 22:20 23:40 24:0 25:60 26:0 27:40 28:0 29:20 30:0 31:0 32:60 33:0 34:20 35:40 36:20 37:20 38:20 39:40 40:60 41:23 42:45 43:25 
-1 1:0 2:0 3:0 4:0 5:0 6:0 7:0 8:0 9:0 10:0 11:0 12:0 13:0 14:0 15:0 16:0 17:0 18:0 19:100 20:-100 21:60 22:60 23:20 24:40 25:0 26:20 27:20 28:60 29:40 30:0 31:20 32:20 33:0 34:0 35:60 36:40 37:0 38:0 39:20 40:0 41:46 42:28 43:65 
-1 1:0 2:0 3:0 4:0 5:0 6:0 7:0 8:0 9:0 10:0 11:0 12:0 13:0 14:100 15:-100 16:0 17:0 18:0 19:0 20:0 21:40 22:40 23:20 24:60 25:0 26:0 27:40 28:40 29:40 30:60 31:40 32:0 33:80 34:80 35:60 36:0 37:20 38:40 39:60 40:20 41:2 42:51 43:10 
-0.3071367419364402 1:0 2:-100 3:0 4:0 5:0 6:0 7:0 8:0 9:100 10:0 11:0 12:0 13:0 14:0 15:0 16:0 17:0 18:0 19:0 20:0 21:200 22:60 23:80 24:0 25:20 26:20 27:0 28:40 29:40 30:40 31:20 32:20 33:0 34:0 35:60 36:60 37:20 38:60 39:20 40:40 41:0 42:25 43:25 
-1 1:0 2:-100 3:0 4:0 5:0 6:0 7:0 8:0 9:100 10:0 11:0 12:0 13:0 14:0 15:0 16:0 17:0 18:0 19:0 20:0 21:200 22:60 23:80 24:0 25:20 26:20 27:0 28:40 29:40 30:40 31:20 32:20 33:0 34:0 35:60 36:60 37:20 38:60 39:20 40:40 41:0 42:45 43:25 
1 1:0 2:0 3:0 4:0 5:0 6:0 7:0 8:0 9:100 10:0 11:0 12:0 13:0 14:0 15:0 16:0 17:0 18:0 19:0 20:-100 21:0 22:40 23:20 24:20 25:40 26:20 27:40 28:20 29:60 30:20 31:20 32:0 33:0 34:0 35:0 36:80 37:0 38:40 39:0 40:40 41:18 42:37 43:5 
0.7938491433199681 1:0 2:0 3:0 4:0 5:0 6:0 7:0 8:0 9:0 10:0 11:0 12:0 13:0 14:100 15:0 16:0 17:0 18:0 19:0 20:-100 21:0 22:40 23:20 24:20 25:40 26:20 27:40 28:20 29:60 30:20 31:20 32:0 33:0 34:0 35:0 36:80 37:0 38:40 39:0 40:40 41:18 42:37 43:5 
1 1:0 2:0 3:-100 4:100 5:0 6:0 7:0 8:0 9:0 10:0 11:0 12:0 13:0 14:0 15:0 16:0 17:0 18:0 19:0 20:0 21:100 22:120 23:40 24:0 25:20 26:0 27:60 28:0 29:20 30:20 31:20 32:60 33:20 34:0 35:60 36:20 37:80 38:40 39:20 40:40 41:2 42:50 43:25 
1 1:0 2:100 3:-100 4:0 5:0 6:0 7:0 8:0 9:0 10:0 11:0 12:0 13:0 14:0 15:0 16:0 17:0 18:0 19:0 20:0 21:100 22:120 23:40 24:0 25:20 26:0 27:60 28:0 29:20 30:20 31:20 32:60 33:20 34:0 35:60 36:20 37:80 38:40 39:20 40:40 41:2 42:50 43:25 
1 1:0 2:100 3:-100 4:0 5:0 6:0 7:0 8:0 9:0 10:0 11:0 12:0 13:0 14:0 15:0 16:0 17:0 18:0 19:0 20:0 21:100 22:120 23:40 24:0 25:20 26:0 27:60 28:0 29:20 30:20 31:20 32:60 33:20 34:0 35:60 36:20 37:80 38:40 39:20 40:40 41:2 42:50 43:25 
1 1:0 2:0 3:0 4:0 5:0 6:0 7:0 8:0 9:0 10:0 11:0 12:0 13:0 14:0 15:0 16:0 17:100 18:-100 19:0 20:0 21:80 22:20 23:40 24:20 25:20 26:0 27:0 28:40 29:40 30:0 31:20 32:20 33:0 34:0 35:0 36:20 37:40 38:80 39:0 40:0 41:44 42:53 43:55 
0.7518177806485972 1:0 2:0 3:0 4:0 5:0 6:0 7:0 8:0 9:0 10:0 11:0 12:0 13:0 14:0 15:0 16:0 17:100 18:-100 19:0 20:0 21:80 22:20 23:40 24:20 25:20 26:0 27:0 28:40 29:40 30:0 31:20 32:20 33:0 34:0 35:0 36:20 37:40 38:80 39:0 40:0 41:44 42:53 43:55 
1 1:0 2:0 3:0 4:0 5:0 6:0 7:0 8:0 9:0 10:0 11:0 12:0 13:0 14:0 15:0 16:0 17:100 18:-100 19:0 20:0 21:80 22:20 23:40 24:20 25:20 26:0 27:0 28:40 29:40 30:0 31:20 32:20 33:0 34:0 35:0 36:20 37:40 38:80 39:0 40:0 41:44 42:53 43:55 
1 1:0 2:0 3:0 4:0 5:0 6:0 7:0 8:0 9:0 10:0 11:0 12:0 13:0 14:0 15:0 16:0 17:100 18:-100 19:0 20:0 21:80 22:20 23:40 24:20 25:20 26:0 27:0 28:40 29:40 30:0 31:20 32:20 33:0 34:0 35:0 36:20 37:40 38:80 39:0 40:0 41:44 42:53 43:55 
1 1:0 2:0 3:0 4:0 5:0 6:0 7:0 8:0 9:0 10:0 11:0 12:0 13:0 14:0 15:0 16:0 17:100 18:-100 19:0 20:0 21:80 22:20 23:40 24:20 25:20 26:0 27:0 28:40 29:40 30:0 31:20 32:20 33:0 34:0 35:0 36:20 37:40 38:80 39:0 40:0 41:44 42:53 43:55 
1 1:0 2:0 3:0 4:0 5:0 6:0 7:0 8:0 9:0 10:0 11:0 12:0 13:0 14:0 15:0 16:0 17:100 18:-100 19:0 20:0 21:80 22:20 23:40 24:20 25:20 26:0 27:0 28:40 29:40 30:0 31:20 32:20 33:0 34:0 35:0 36:20 37:40 38:80 39:0 40:0 41:44 42:53 43:55 
-1 1:0 2:0 3:0 4:0 5:0 6:0 7:0 8:0 9:0 10:0 11:0 12:0 13:0 14:0 15:100 16:0 17:0 18:-100 19:0 20:0 21:80 22:20 23:40 24:20 25:20 26:0 27:0 28:40 29:40 30:0 31:20 32:20 33:0 34:0 35:0 36:20 37:40 38:80 39:0 40:0 41:44 42:53 43:55 
1 1:0 2:0 3:0 4:0 5:0 6:0 7:0 8:0 9:0 10:0 11:0 12:0 13:0 14:0 15:100 16:0 17:0 18:-100 19:0 20:0 21:80 22:20 23:40 24:20 25:20 26:0 27:0 28:40 29:40 30:0 31:20 32:20 33:0 34:0 35:0 36:20 37:40 38:80 39:0 40:0 41:44 42:53 43:55 
-1 1:0 2:0 3:0 4:0 5:0 6:0 7:0 8:0 9:0 10:0 11:0 12:0 13:0 14:0 15:100 16:0 17:0 18:-100 19:0 20:0 21:80 22:20 23:40 24:20 25:20 26:0 27:0 28:40 29:40 30:0 31:20 32:20 33:0 34:0 35:0 36:20 37:40 38:80 39:0 40:0 41:44 42:53 43:55 
-1 1:0 2:0 3:0 4:0 5:0 6:0 7:0 8:0 9:0 10:0 11:0 12:0 13:0 14:0 15:100 16:0 17:0 18:-100 19:0 20:0 21:80 22:20 23:40 24:20 25:20 26:0 27:0 28:40 29:40 30:0 31:20 32:20 33:0 34:0 35:0 36:20 37:40 38:80 39:0 40:0 41:44 42:53 43:55 
-1 1:0 2:0 3:0 4:0 5:0 6:0 7:0 8:0 9:0 10:0 11:0 12:0 13:0 14:0 15:100 16:0 17:0 18:-100 19:0 20:0 21:80 22:20 23:40 24:20 25:20 26:0 27:0 28:40 29:40 30:0 31:20 32:20 33:0 34:0 35:0 36:20 37:40 38:80 39:0 40:0 41:44 42:53 43:55 
1 1:0 2:0 3:0 4:0 5:0 6:0 7:0 8:0 9:0 10:0 11:0 12:0 13:0 14:0 15:100 16:0 17:0 18:-100 19:0 20:0 21:80 22:20 23:40 24:20 25:20 26:0 27:0 28:40 29:40 30:0 31:20 32:20 33:0 34:0 35:0 36:20 37:40 38:80 39:0 40:0 41:44 42:50 43:70 
-1 1:0 2:0 3:0 4:0 5:0 6:0 7:0 8:0 9:0 10:0 11:0 12:0 13:0 14:0 15:100 16:0 17:0 18:-100 19:0 20:0 21:80 22:20 23:40 24:20 25:20 26:0 27:0 28:40 29:40 30:0 31:20 32:20 33:0 34:0 35:0 36:20 37:40 38:80 39:0 40:0 41:44 42:53 43:55 
1 1:0 2:0 3:0 4:0 5:0 6:0 7:0 8:0 9:0 10:0 11:0 12:0 13:0 14:0 15:100 16:0 17:0 18:-100 19:0 20:0 21:80 22:20 23:40 24:20 25:20 26:0 27:0 28:40 29:40 30:0 31:20 32:20 33:0 34:0 35:0 36:20 37:40 38:80 39:0 40:0 41:44 42:53 43:55 
1 1:0 2:0 3:0 4:0 5:0 6:0 7:0 8:0 9:0 10:0 11:0 12:0 13:0 14:0 15:100 16:0 17:0 18:-100 19:0 20:0 21:80 22:20 23:40 24:20 25:20 26:0 27:0 28:40 29:40 30:0 31:20 32:20 33:0 34:0 35:0 36:20 37:40 38:80 39:0 40:0 41:44 42:53 43:55 
-1 1:0 2:0 3:0 4:0 5:0 6:0 7:0 8:0 9:0 10:0 11:0 12:0 13:0 14:0 15:100 16:0 17:0 18:-100 19:0 20:0 21:80 22:20 23:40 24:20 25:20 26:0 27:0 28:40 29:40 30:0 31:20 32:20 33:0 34:0 35:0 36:20 37:40 38:80 39:0 40:0 41:44 42:53 43:55 
1 1:0 2:0 3:0 4:0 5:0 6:0 7:0 8:0 9:0 10:0 11:0 12:0 13:0 14:0 15:100 16:0 17:0 18:-100 19:0 20:0 21:80 22:20 23:40 24:20 25:20 26:0 27:0 28:40 29:40 30:0 31:20 32:20 33:0 34:0 35:0 36:20 37:40 38:80 39:0 40:0 41:44 42:53 43:55 
1 1:0 2:0 3:0 4:0 5:0 6:0 7:0 8:0 9:0 10:0 11:0 12:0 13:0 14:0 15:100 16:0 17:0 18:-100 19:0 20:0 21:80 22:20 23:40 24:20 25:20 26:0 27:0 28:40 29:40 30:0 31:20 32:20 33:0 34:0 35:0 36:20 37:40 38:80 39:0 40:0 41:44 42:53 43:55 
1 1:0 2:0 3:0 4:0 5:0 6:0 7:0 8:0 9:0 10:0 11:0 12:0 13:0 14:0 15:100 16:0 17:0 18:-100 19:0 20:0 21:80 22:20 23:40 24:20 25:20 26:0 27:0 28:40 29:40 30:0 31:20 32:20 33:0 34:0 35:0 36:20 37:40 38:80 39:0 40:0 41:44 42:53 43:55 
-1 1:0 2:0 3:0 4:0 5:0 6:0 7:0 8:0 9:0 10:0 11:0 12:0 13:0 14:0 15:100 16:0 17:0 18:-100 19:0 20:0 21:80 22:20 23:40 24:20 25:20 26:0 27:0 28:40 29:40 30:0 31:20 32:20 33:0 34:0 35:0 36:20 37:40 38:80 39:0 40:0 41:44 42:50 43:70 
1 1:0 2:0 3:0 4:0 5:0 6:0 7:0 8:0 9:0 10:0 11:0 12:0 13:0 14:0 15:100 16:0 17:0 18:-100 19:0 20:0 21:80 22:20 23:40 24:20 25:20 26:0 27:0 28:40 29:40 30:0 31:20 32:20 33:0 34:0 35:0 36:20 37:40 38:80 39:0 40:0 41:44 42:53 43:55 
-0.5590622463616696 1:0 2:0 3:0 4:0 5:0 6:0 7:0 8:0 9:0 10:0 11:0 12:0 13:0 14:0 15:100 16:0 17:0 18:-100 19:0 20:0 21:80 22:20 23:40 24:20 25:20 26:0 27:0 28:40 29:40 30:0 31:20 32:20 33:0 34:0 35:0 36:20 37:40 38:80 39:0 40:0 41:44 42:53 43:55 
1 1:0 2:0 3:0 4:0 5:0 6:0 7:0 8:0 9:0 10:0 11:0 12:0 13:0 14:0 15:100 16:0 17:0 18:-100 19:0 20:0 21:80 22:20 23:40 24:20 25:20 26:0 27:0 28:40 29:40 30:0 31:20 32:20 33:0 34:0 35:0 36:20 37:40 38:80 39:0 40:0 41:44 42:53 43:55 
1 1:0 2:0 3:0 4:0 5:0 6:0 7:0 8:0 9:0 10:0 11:0 12:0 13:0 14:0 15:100 16:0 17:0 18:-100 19:0 20:0 21:80 22:20 23:40 24:20 25:20 26:0 27:0 28:40 29:40 30:0 31:20 32:20 33:0 34:0 35:0 36:20 37:40 38:80 39:0 40:0 41:44 42:53 43:55 
1 1:0 2:0 3:0 4:0 5:0 6:0 7:0 8:0 9:0 10:0 11:0 12:0 13:0 14:0 15:100 16:0 17:0 18:-100 19:0 20:0 21:80 22:20 23:40 24:20 25:20 26:0 27:0 28:40 29:40 30:0 31:20 32:20 33:0 34:0 35:0 36:20 37:40 38:80 39:0 40:0 41:44 42:53 43:55 
-1 1:0 2:0 3:0 4:0 5:0 6:0 7:0 8:0 9:0 10:0 11:0 12:0 13:0 14:0 15:100 16:0 17:0 18:-100 19:0 20:0 21:80 22:20 23:40 24:20 25:20 26:0 27:0 28:40 29:40 30:0 31:20 32:20 33:0 34:0 35:0 36:20 37:40 38:80 39:0 40:0 41:44 42:53 43:55 
0.8467225634783282 1:0 2:0 3:-100 4:0 5:100 6:0 7:0 8:0 9:0 10:0 11:0 12:0 13:0 14:0 15:0 16:0 17:0 18:0 19:0 20:0 21:100 22:120 23:40 24:0 25:20 26:0 27:60 28:0 29:20 30:20 31:20 32:60 33:20 34:0 35:60 36:20 37:80 38:40 39:20 40:40 41:2 42:50 43:25 
-1 1:0 2:0 3:-100 4:0 5:0 6:0 7:0 8:0 9:0 10:0 11:0 12:0 13:100 14:0 15:0 16:0 17:0 18:0 19:0 20:0 21:100 22:120 23:40 24:0 25:20 26:0 27:60 28:0 29:20 30:20 31:20 32:60 33:20 34:0 35:60 36:20 37:80 38:40 39:20 40:40 41:2 42:50 43:25 
-1 1:0 2:0 3:-100 4:0 5:0 6:0 7:0 8:0 9:0 10:0 11:0 12:0 13:100 14:0 15:0 16:0 17:0 18:0 19:0 20:0 21:100 22:120 23:40 24:0 25:20 26:0 27:60 28:0 29:20 30:20 31:20 32:60 33:20 34:0 35:60 36:20 37:80 38:40 39:20 40:40 41:2 42:50 43:25 
-1 1:0 2:0 3:-100 4:0 5:0 6:0 7:0 8:0 9:100 10:0 11:0 12:0 13:0 14:0 15:0 16:0 17:0 18:0 19:0 20:0 21:100 22:120 23:40 24:0 25:20 26:0 27:60 28:0 29:20 30:20 31:20 32:60 33:20 34:0 35:60 36:20 37:80 38:40 39:20 40:40 41:2 42:50 43:25 
-1 1:0 2:0 3:-100 4:0 5:0 6:0 7:0 8:0 9:100 10:0 11:0 12:0 13:0 14:0 15:0 16:0 17:0 18:0 19:0 20:0 21:100 22:120 23:40 24:0 25:20 26:0 27:60 28:0 29:20 30:20 31:20 32:60 33:20 34:0 35:60 36:20 37:80 38:40 39:20 40:40 41:2 42:50 43:25 
-1 1:0 2:100 3:0 4:0 5:0 6:0 7:0 8:0 9:-100 10:0 11:0 12:0 13:0 14:0 15:0 16:0 17:0 18:0 19:0 20:0 21:60 22:140 23:20 24:20 25:40 26:20 27:0 28:60 29:60 30:0 31:20 32:0 33:0 34:0 35:0 36:20 37:40 38:60 39:20 40:20 41:0 42:55 43:4 
1 1:0 2:100 3:0 4:0 5:0 6:0 7:0 8:0 9:-100 10:0 11:0 12:0 13:0 14:0 15:0 16:0 17:0 18:0 19:0 20:0 21:60 22:140 23:20 24:20 25:40 26:20 27:0 28:60 29:60 30:0 31:20 32:0 33:0 34:0 35:0 36:20 37:40 38:60 39:20 40:20 41:0 42:55 43:4 
-1 1:0 2:100 3:0 4:0 5:0 6:0 7:0 8:0 9:-100 10:0 11:0 12:0 13:0 14:0 15:0 16:0 17:0 18:0 19:0 20:0 21:60 22:140 23:20 24:20 25:40 26:20 27:0 28:60 29:60 30:0 31:20 32:0 33:0 34:0 35:0 36:20 37:40 38:60 39:20 40:20 41:0 42:55 43:4 
0.07480508314167243 1:0 2:-100 3:0 4:100 5:0 6:0 7:0 8:0 9:0 10:0 11:0 12:0 13:0 14:0 15:0 16:0 17:0 18:0 19:0 20:0 21:40 22:160 23:140 24:20 25:60 26:40 27:0 28:40 29:100 30:0 31:20 32:0 33:0 34:40 35:20 36:40 37:20 38:60 39:20 40:20 41:1 42:78 43:76 
-1 1:0 2:100 3:0 4:0 5:0 6:0 7:0 8:0 9:0 10:0 11:0 12:0 13:0 14:0 15:0 16:0 17:0 18:-100 19:0 20:0 21:80 22:20 23:40 24:20 25:20 26:0 27:0 28:40 29:40 30:0 31:20 32:20 33:0 34:0 35:0 36:20 37:40 38:80 39:0 40:0 41:44 42:50 43:70 
0.3897429533040569 1:0 2:100 3:0 4:0 5:0 6:0 7:0 8:0 9:0 10:0 11:0 12:0 13:0 14:0 15:0 16:0 17:0 18:-100 19:0 20:0 21:80 22:20 23:40 24:20 25:20 26:0 27:0 28:40 29:40 30:0 31:20 32:20 33:0 34:0 35:0 36:20 37:40 38:80 39:0 40:0 41:44 42:50 43:70 
-1 1:0 2:0 3:-100 4:0 5:0 6:0 7:0 8:0 9:0 10:0 11:0 12:100 13:0 14:0 15:0 16:0 17:0 18:0 19:0 20:0 21:100 22:120 23:40 24:0 25:20 26:0 27:60 28:0 29:20 30:20 31:20 32:60 33:20 34:0 35:60 36:20 37:80 38:40 39:20 40:40 41:2 42:50 43:25 
-0.6625966902601537 1:0 2:-100 3:100 4:0 5:0 6:0 7:0 8:0 9:0 10:0 11:0 12:0 13:0 14:0 15:0 16:0 17:0 18:0 19:0 20:0 21:40 22:160 23:140 24:20 25:60 26:40 27:0 28:40 29:100 30:0 31:20 32:0 33:0 34:40 35:20 36:40 37:20 38:60 39:20 40:20 41:1 42:78 43:76 
1 1:0 2:0 3:0 4:0 5:0 6:0 7:0 8:0 9:0 10:0 11:0 12:0 13:0 14:0 15:0 16:100 17:0 18:-100 19:0 20:0 21:80 22:20 23:40 24:20 25:20 26:0 27:0 28:40 29:40 30:0 31:20 32:20 33:0 34:0 35:0 36:20 37:40 38:80 39:0 40:0 41:44 42:50 43:70 
-0.3566777580521545 1:-100 2:0 3:0 4:0 5:0 6:0 7:100 8:0 9:0 10:0 11:0 12:0 13:0 14:0 15:0 16:0 17:0 18:0 19:0 20:0 21:0 22:20 23:20 24:0 25:20 26:60 27:0 28:20 29:40 30:0 31:0 32:0 33:20 34:0 35:60 36:0 37:60 38:20 39:20 40:0 41:60 42:19 43:64 
1 1:-100 2:0 3:0 4:0 5:0 6:0 7:0 8:0 9:0 10:0 11:0 12:0 13:0 14:0 15:100 16:0 17:0 18:0 19:0 20:0 21:0 22:20 23:20 24:0 25:20 26:60 27:0 28:20 29:40 30:0 31:0 32:0 33:20 34:0 35:60 36:0 37:60 38:20 39:20 40:0 41:60 42:19 43:64 
1 1:-100 2:0 3:0 4:0 5:0 6:0 7:0 8:0 9:0 10:100 11:0 12:0 13:0 14:0 15:0 16:0 17:0 18:0 19:0 20:0 21:0 22:20 23:20 24:0 25:20 26:60 27:0 28:20 29:40 30:0 31:0 32:0 33:20 34:0 35:60 36:0 37:60 38:20 39:20 40:0 41:60 42:20 43:68 
-1 1:-100 2:100 3:0 4:0 5:0 6:0 7:0 8:0 9:0 10:0 11:0 12:0 13:0 14:0 15:0 16:0 17:0 18:0 19:0 20:0 21:0 22:20 23:20 24:0 25:20 26:60 27:0 28:20 29:40 30:0 31:0 32:0 33:20 34:0 35:60 36:0 37:60 38:20 39:20 40:0 41:60 42:19 43:64 
1 1:0 2:0 3:0 4:0 5:-100 6:0 7:100 8:0 9:0 10:0 11:0 12:0 13:0 14:0 15:0 16:0 17:0 18:0 19:0 20:0 21:60 22:40 23:0 24:0 25:0 26:20 27:20 28:40 29:140 30:20 31:40 32:0 33:0 34:0 35:20 36:60 37:20 38:40 39:0 40:20 41:11 42:35 43:50 
0.776339820163673 1:-100 2:0 3:100 4:0 5:0 6:0 7:0 8:0 9:0 10:0 11:0 12:0 13:0 14:0 15:0 16:0 17:0 18:0 19:0 20:0 21:0 22:20 23:20 24:0 25:20 26:60 27:0 28:20 29:40 30:0 31:0 32:0 33:20 34:0 35:60 36:0 37:60 38:20 39:20 40:0 41:60 42:19 43:64 
1 1:-100 2:0 3:0 4:0 5:0 6:0 7:0 8:100 9:0 10:0 11:0 12:0 13:0 14:0 15:0 16:0 17:0 18:0 19:0 20:0 21:0 22:20 23:20 24:0 25:20 26:60 27:0 28:20 29:40 30:0 31:0 32:0 33:20 34:0 35:60 36:0 37:60 38:20 39:20 40:0 41:60 42:19 43:64 
-1 1:0 2:0 3:0 4:0 5:0 6:0 7:0 8:0 9:0 10:0 11:0 12:0 13:0 14:0 15:0 16:100 17:0 18:0 19:-100 20:0 21:20 22:40 23:20 24:40 25:0 26:20 27:40 28:60 29:0 30:0 31:20 32:0 33:0 34:0 35:20 36:40 37:20 38:0 39:20 40:20 41:64 42:45 43:74 
1 1:0 2:0 3:0 4:0 5:0 6:0 7:0 8:0 9:100 10:0 11:-100 12:0 13:0 14:0 15:0 16:0 17:0 18:0 19:0 20:0 21:80 22:20 23:20 24:0 25:20 26:20 27:60 28:20 29:60 30:0 31:60 32:20 33:0 34:0 35:0 36:0 37:40 38:0 39:20 40:40 41:53 42:50 43:25 
1 1:0 2:0 3:0 4:0 5:0 6:0 7:0 8:0 9:100 10:0 11:-100 12:0 13:0 14:0 15:0 16:0 17:0 18:0 19:0 20:0 21:80 22:20 23:20 24:0 25:20 26:20 27:60 28:20 29:60 30:0 31:60 32:20 33:0 34:0 35:0 36:0 37:40 38:0 39:20 40:40 41:53 42:50 43:50 
0.4045868629798611 1:0 2:0 3:0 4:0 5:0 6:0 7:0 8:0 9:100 10:0 11:0 12:0 13:0 14:0 15:0 16:0 17:0 18:-100 19:0 20:0 21:80 22:20 23:40 24:0 25:60 26:20 27:140 28:60 29:80 30:80 31:20 32:40 33:0 34:60 35:20 36:20 37:20 38:40 39:120 40:20 41:4 42:50 43:25 
-0.03741641715620576 1:0 2:0 3:0 4:0 5:0 6:0 7:0 8:0 9:0 10:0 11:0 12:0 13:0 14:0 15:0 16:-100 17:0 18:0 19:100 20:0 21:60 22:60 23:100 24:20 25:0 26:0 27:0 28:20 29:20 30:60 31:20 32:40 33:0 34:0 35:0 36:40 37:40 38:80 39:20 40:40 41:32 42:35 43:25 
-1 1:0 2:0 3:0 4:0 5:0 6:0 7:0 8:0 9:0 10:0 11:0 12:0 13:0 14:0 15:0 16:-100 17:100 18:0 19:0 20:0 21:60 22:60 23:100 24:20 25:0 26:0 27:0 28:20 29:20 30:60 31:20 32:40 33:0 34:0 35:0 36:40 37:40 38:80 39:20 40:40 41:32 42:35 43:25 
-1 1:0 2:0 3:0 4:0 5:0 6:0 7:0 8:0 9:0 10:0 11:0 12:0 13:0 14:-100 15:0 16:0 17:0 18:0 19:100 20:0 21:20 22:100 23:100 24:0 25:40 26:0 27:60 28:60 29:80 30:0 31:0 32:40 33:0 34:0 35:20 36:80 37:20 38:80 39:20 40:40 41:18 42:39 43:66 
-1 1:0 2:0 3:0 4:0 5:-100 6:0 7:0 8:0 9:100 10:0 11:0 12:0 13:0 14:0 15:0 16:0 17:0 18:0 19:0 20:0 21:0 22:40 23:40 24:20 25:60 26:0 27:80 28:20 29:40 30:40 31:20 32:40 33:80 34:0 35:60 36:40 37:20 38:40 39:60 40:20 41:10 42:14 43:25 
0.3639630048776394 1:0 2:0 3:0 4:0 5:0 6:0 7:0 8:0 9:0 10:0 11:0 12:0 13:0 14:0 15:0 16:100 17:0 18:0 19:0 20:-100 21:40 22:20 23:40 24:0 25:60 26:0 27:0 28:40 29:0 30:20 31:0 32:0 33:0 34:0 35:0 36:40 37:20 38:40 39:0 40:20 41:86 42:53 43:55 
1 1:0 2:0 3:0 4:0 5:0 6:0 7:0 8:0 9:0 10:0 11:0 12:0 13:0 14:0 15:0 16:100 17:0 18:0 19:0 20:-100 21:40 22:20 23:40 24:0 25:60 26:0 27:0 28:40 29:0 30:20 31:0 32:0 33:0 34:0 35:0 36:40 37:20 38:40 39:0 40:20 41:86 42:53 43:55 
1 1:0 2:0 3:0 4:0 5:0 6:0 7:0 8:0 9:0 10:0 11:0 12:0 13:0 14:0 15:0 16:100 17:0 18:0 19:0 20:-100 21:40 22:20 23:40 24:0 25:60 26:0 27:0 28:40 29:0 30:20 31:0 32:0 33:0 34:0 35:0 36:40 37:20 38:40 39:0 40:20 41:86 42:53 43:55 
1 1:0 2:0 3:0 4:0 5:0 6:0 7:0 8:0 9:0 10:0 11:0 12:0 13:0 14:0 15:0 16:0 17:0 18:0 19:100 20:-100 21:40 22:20 23:40 24:0 25:60 26:0 27:0 28:40 29:0 30:20 31:0 32:0 33:0 34:0 35:0 36:40 37:20 38:40 39:0 40:20 41:86 42:53 43:55 
-1 1:0 2:0 3:0 4:0 5:0 6:0 7:0 8:0 9:0 10:0 11:0 12:0 13:0 14:0 15:0 16:0 17:0 18:0 19:100 20:-100 21:40 22:20 23:40 24:0 25:60 26:0 27:0 28:40 29:0 30:20 31:0 32:0 33:0 34:0 35:0 36:40 37:20 38:40 39:0 40:20 41:86 42:53 43:55 
-1 1:0 2:0 3:0 4:0 5:0 6:0 7:0 8:0 9:0 10:0 11:0 12:0 13:0 14:0 15:0 16:0 17:0 18:0 19:100 20:-100 21:40 22:20 23:40 24:0 25:60 26:0 27:0 28:40 29:0 30:20 31:0 32:0 33:0 34:0 35:0 36:40 37:20 38:40 39:0 40:20 41:86 42:53 43:55 
-0.4463704294401799 1:0 2:0 3:0 4:0 5:0 6:0 7:0 8:0 9:0 10:0 11:0 12:0 13:0 14:0 15:0 16:0 17:0 18:0 19:100 20:-100 21:40 22:20 23:40 24:0 25:60 26:0 27:0 28:40 29:0 30:20 31:0 32:0 33:0 34:0 35:0 36:40 37:20 38:40 39:0 40:20 41:86 42:53 43:55 
-1 1:0 2:0 3:0 4:0 5:0 6:0 7:0 8:0 9:0 10:0 11:0 12:0 13:0 14:0 15:0 16:0 17:0 18:0 19:100 20:-100 21:40 22:20 23:40 24:0 25:60 26:0 27:0 28:40 29:0 30:20 31:0 32:0 33:0 34:0 35:0 36:40 37:20 38:40 39:0 40:20 41:86 42:53 43:55 
1 1:0 2:0 3:0 4:0 5:0 6:0 7:0 8:0 9:100 10:0 11:0 12:0 13:0 14:0 15:-100 16:0 17:0 18:0 19:0 20:0 21:20 22:60 23:60 24:0 25:20 26:40 27:60 28:20 29:20 30:20 31:20 32:60 33:0 34:0 35:0 36:40 37:20 38:0 39:0 40:60 41:31 42:45 43:25 
1 1:0 2:100 3:0 4:0 5:0 6:0 7:0 8:0 9:-100 10:0 11:0 12:0 13:0 14:0 15:0 16:0 17:0 18:0 19:0 20:0 21:60 22:80 23:20 24:40 25:40 26:80 27:20 28:40 29:40 30:0 31:40 32:20 33:40 34:0 35:40 36:40 37:20 38:20 39:60 40:0 41:0 42:45 43:74 
1 1:0 2:0 3:0 4:0 5:0 6:0 7:0 8:0 9:100 10:-100 11:0 12:0 13:0 14:0 15:0 16:0 17:0 18:0 19:0 20:0 21:0 22:60 23:40 24:0 25:0 26:0 27:20 28:0 29:80 30:0 31:20 32:20 33:0 34:60 35:0 36:60 37:20 38:40 39:0 40:0 41:52 42:68 43:82 
-0.7009414623539338 1:0 2:0 3:0 4:0 5:0 6:0 7:0 8:0 9:0 10:0 11:0 12:0 13:100 14:0 15:0 16:0 17:0 18:0 19:0 20:-100 21:100 22:80 23:20 24:20 25:0 26:0 27:60 28:20 29:0 30:20 31:0 32:0 33:20 34:0 35:0 36:20 37:0 38:40 39:20 40:0 41:34 42:50 43:25 
-1 1:0 2:0 3:0 4:0 5:0 6:0 7:0 8:0 9:0 10:0 11:0 12:0 13:100 14:0 15:0 16:0 17:0 18:0 19:0 20:-100 21:100 22:80 23:20 24:20 25:0 26:0 27:60 28:20 29:0 30:20 31:0 32:0 33:20 34:0 35:0 36:20 37:0 38:40 39:20 40:0 41:34 42:50 43:25 
1 1:0 2:0 3:0 4:0 5:0 6:0 7:0 8:0 9:0 10:0 11:0 12:0 13:0 14:0 15:100 16:-100 17:0 18:0 19:0 20:0 21:0 22:60 23:60 24:0 25:40 26:40 27:20 28:0 29:20 30:20 31:20 32:60 33:0 34:0 35:40 36:40 37:20 38:0 39:0 40:20 41:54 42:45 43:25 
1 1:0 2:0 3:0 4:0 5:0 6:0 7:0 8:0 9:0 10:0 11:0 12:0 13:0 14:0 15:0 16:0 17:0 18:0 19:100 20:-100 21:100 22:80 23:20 24:20 25:0 26:0 27:60 28:20 29:0 30:20 31:0 32:0 33:20 34:0 35:0 36:20 37:0 38:40 39:20 40:0 41:34 42:50 43:25 
-0.5834792852581827 1:0 2:0 3:0 4:0 5:0 6:0 7:0 8:-100 9:100 10:0 11:0 12:0 13:0 14:0 15:0 16:0 17:0 18:0 19:0 20:0 21:80 22:60 23:40 24:0 25:0 26:0 27:0 28:40 29:40 30:0 31:0 32:0 33:0 34:40 35:40 36:80 37:20 38:20 39:0 40:40 41:20 42:68 43:82 
-1 1:0 2:100 3:0 4:0 5:0 6:0 7:0 8:0 9:0 10:0 11:0 12:0 13:0 14:0 15:0 16:0 17:-100 18:0 19:0 20:0 21:20 22:20 23:40 24:0 25:0 26:100 27:20 28:20 29:0 30:0 31:20 32:40 33:0 34:20 35:20 36:0 37:40 38:20 39:40 40:20 41:32 42:21 43:50 
1 1:0 2:0 3:0 4:0 5:0 6:0 7:0 8:0 9:100 10:0 11:-100 12:0 13:0 14:0 15:0 16:0 17:0 18:0 19:0 20:0 21:60 22:100 23:20 24:40 25:40 26:40 27:0 28:20 29:80 30:0 31:20 32:20 33:0 34:0 35:40 36:40 37:40 38:20 39:40 40:0 41:0 42:21 43:51 
