svm_type c_svc
kernel_type rbf
gamma 3.05176e-05
nr_class 2
total_sv 1286
rho 0.1399
label 0 1
probA -1.91883
probB 0.0671767
nr_sv 708 578
SV
2 1:-100 2:100 3:0 4:0 5:0 6:0 7:0 8:0 9:0 10:0 11:0 12:0 13:0 14:0 15:0 16:0 17:0 18:0 19:0 20:0 21:0 22:40 23:0 24:0 25:0 26:40 27:0 28:20 29:20 30:20 31:0 32:20 33:20 34:20 35:40 36:40 37:0 38:20 39:20 40:40 41:32 42:64 
2 1:-100 2:0 3:0 4:100 5:0 6:0 7:0 8:0 9:0 10:0 11:0 12:0 13:0 14:0 15:0 16:0 17:0 18:0 19:0 20:0 21:0 22:40 23:0 24:0 25:0 26:40 27:0 28:20 29:20 30:20 31:0 32:20 33:20 34:20 35:40 36:40 37:0 38:20 39:20 40:40 41:32 42:64 
0.2259816947910501 1:0 2:0 3:0 4:0 5:0 6:0 7:0 8:0 9:0 10:0 11:0 12:0 13:0 14:0 15:0 16:0 17:0 18:-100 19:100 20:0 21:60 22:40 23:20 24:0 25:0 26:20 27:0 28:20 29:20 30:20 31:20 32:0 33:0 34:0 35:0 36:60 37:20 38:40 39:0 40:20 41:45 42:46 
1.998142914816777 1:0 2:0 3:0 4:0 5:0 6:0 7:0 8:0 9:100 10:0 11:0 12:0 13:0 14:0 15:0 16:0 17:0 18:0 19:-100 20:0 21:0 22:20 23:60 24:0 25:20 26:0 27:20 28:60 29:40 30:0 31:0 32:20 33:0 34:0 35:0 36:0 37:40 38:20 39:0 40:60 41:50 42:44 
0.912350295037618 1:0 2:0 3:0 4:0 5:0 6:0 7:0 8:0 9:100 10:0 11:0 12:0 13:0 14:0 15:0 16:0 17:0 18:0 19:-100 20:0 21:0 22:20 23:60 24:0 25:20 26:0 27:20 28:60 29:40 30:0 31:0 32:20 33:0 34:0 35:0 36:0 37:40 38:20 39:0 40:60 41:50 42:44 
0.5086011132630895 1:0 2:0 3:0 4:0 5:0 6:0 7:0 8:0 9:0 10:0 11:0 12:0 13:0 14:0 15:0 16:0 17:0 18:-100 19:0 20:100 21:60 22:40 23:20 24:0 25:0 26:20 27:0 28:20 29:20 30:20 31:20 32:0 33:0 34:0 35:0 36:60 37:20 38:40 39:0 40:20 41:44 42:25 
2 1:0 2:0 3:0 4:0 5:100 6:0 7:-100 8:0 9:0 10:0 11:0 12:0 13:0 14:0 15:0 16:0 17:0 18:0 19:0 20:0 21:20 22:40 23:20 24:0 25:0 26:0 27:40 28:20 29:20 30:20 31:0 32:40 33:0 34:20 35:0 36:20 37:20 38:0 39:20 40:60 41:45 42:25 
0.6888416852744299 1:0 2:0 3:0 4:0 5:0 6:0 7:-100 8:0 9:0 10:0 11:0 12:0 13:0 14:0 15:100 16:0 17:0 18:0 19:0 20:0 21:40 22:40 23:0 24:0 25:0 26:0 27:20 28:40 29:0 30:20 31:60 32:0 33:20 34:0 35:20 36:20 37:40 38:20 39:20 40:0 41:50 42:25 
1.480975771425428 1:0 2:0 3:0 4:0 5:0 6:0 7:0 8:0 9:0 10:0 11:0 12:0 13:0 14:-100 15:0 16:0 17:100 18:0 19:0 20:0 21:0 22:60 23:40 24:0 25:40 26:0 27:0 28:0 29:0 30:20 31:20 32:20 33:0 34:0 35:40 36:40 37:0 38:40 39:0 40:40 41:55 42:4 
2 1:0 2:0 3:0 4:0 5:0 6:0 7:0 8:0 9:0 10:0 11:0 12:0 13:0 14:0 15:0 16:-100 17:0 18:100 19:0 20:0 21:20 22:20 23:0 24:20 25:20 26:20 27:0 28:40 29:0 30:0 31:20 32:0 33:0 34:0 35:0 36:40 37:0 38:40 39:20 40:0 41:53 42:55 
0.9890096261156586 1:0 2:0 3:0 4:0 5:0 6:0 7:0 8:0 9:0 10:0 11:0 12:0 13:0 14:0 15:0 16:-100 17:0 18:100 19:0 20:0 21:20 22:20 23:0 24:20 25:20 26:20 27:0 28:40 29:0 30:0 31:20 32:0 33:0 34:0 35:0 36:40 37:0 38:40 39:20 40:0 41:53 42:55 
1.277863388015858 1:0 2:0 3:0 4:0 5:0 6:0 7:-100 8:0 9:0 10:0 11:0 12:0 13:0 14:0 15:0 16:0 17:0 18:0 19:0 20:100 21:0 22:100 23:0 24:0 25:20 26:0 27:0 28:20 29:40 30:0 31:0 32:20 33:0 34:0 35:0 36:20 37:0 38:100 39:20 40:20 41:54 42:25 
1.606114526107815 1:0 2:0 3:0 4:0 5:0 6:0 7:0 8:0 9:0 10:0 11:0 12:0 13:0 14:0 15:0 16:-100 17:100 18:0 19:0 20:0 21:20 22:20 23:0 24:20 25:20 26:20 27:0 28:40 29:0 30:0 31:20 32:0 33:0 34:0 35:0 36:40 37:0 38:40 39:20 40:0 41:53 42:55 
2 1:0 2:0 3:0 4:0 5:0 6:0 7:0 8:0 9:-100 10:100 11:0 12:0 13:0 14:0 15:0 16:0 17:0 18:0 19:0 20:0 21:20 22:20 23:20 24:0 25:0 26:20 27:20 28:40 29:40 30:0 31:40 32:20 33:0 34:0 35:0 36:40 37:20 38:20 39:40 40:0 41:45 42:25 
1.684801251448651 1:0 2:0 3:0 4:0 5:0 6:0 7:0 8:0 9:0 10:0 11:0 12:-100 13:0 14:0 15:0 16:0 17:0 18:100 19:0 20:0 21:20 22:40 23:0 24:40 25:20 26:0 27:0 28:60 29:20 30:0 31:20 32:20 33:0 34:0 35:20 36:20 37:40 38:20 39:20 40:0 41:14 42:40 
1.802372204931244 1:0 2:0 3:0 4:0 5:0 6:0 7:0 8:0 9:0 10:0 11:0 12:-100 13:0 14:0 15:0 16:0 17:0 18:100 19:0 20:0 21:20 22:40 23:0 24:40 25:20 26:0 27:0 28:60 29:20 30:0 31:20 32:20 33:0 34:0 35:20 36:20 37:40 38:20 39:20 40:0 41:14 42:40 
2 1:0 2:0 3:0 4:0 5:0 6:0 7:0 8:0 9:0 10:0 11:0 12:-100 13:0 14:0 15:0 16:0 17:0 18:100 19:0 20:0 21:20 22:40 23:0 24:40 25:20 26:0 27:0 28:60 29:20 30:0 31:20 32:20 33:0 34:0 35:20 36:20 37:40 38:20 39:20 40:0 41:28 42:63 
2 1:0 2:0 3:0 4:0 5:0 6:0 7:0 8:0 9:0 10:0 11:0 12:-100 13:0 14:0 15:0 16:0 17:0 18:100 19:0 20:0 21:20 22:40 23:0 24:40 25:20 26:0 27:0 28:60 29:20 30:0 31:20 32:20 33:0 34:0 35:20 36:20 37:40 38:20 39:20 40:0 41:21 42:52 
0.3465953379432126 1:0 2:0 3:0 4:0 5:0 6:0 7:0 8:0 9:100 10:0 11:0 12:-100 13:0 14:0 15:0 16:0 17:0 18:0 19:0 20:0 21:20 22:40 23:0 24:40 25:20 26:0 27:0 28:60 29:20 30:0 31:20 32:20 33:0 34:0 35:20 36:20 37:40 38:20 39:20 40:0 41:21 42:51 
1.598779650238137 1:0 2:0 3:0 4:100 5:0 6:0 7:0 8:0 9:0 10:0 11:0 12:0 13:0 14:0 15:-100 16:0 17:0 18:0 19:0 20:0 21:0 22:20 23:20 24:0 25:0 26:20 27:20 28:60 29:20 30:20 31:20 32:20 33:0 34:0 35:20 36:40 37:0 38:40 39:20 40:20 41:31 42:25 
2 1:0 2:0 3:0 4:0 5:0 6:0 7:0 8:0 9:100 10:0 11:0 12:0 13:0 14:0 15:0 16:0 17:0 18:0 19:0 20:-100 21:60 22:0 23:0 24:0 25:20 26:0 27:20 28:20 29:20 30:40 31:20 32:0 33:0 34:20 35:0 36:0 37:0 38:0 39:20 40:0 41:42 42:25 
2 1:0 2:0 3:0 4:0 5:0 6:0 7:0 8:0 9:100 10:0 11:0 12:0 13:0 14:0 15:0 16:0 17:0 18:0 19:0 20:-100 21:60 22:0 23:0 24:0 25:20 26:0 27:20 28:20 29:20 30:40 31:20 32:0 33:0 34:20 35:0 36:0 37:0 38:0 39:20 40:0 41:8 42:25 
2 1:100 2:0 3:0 4:0 5:0 6:0 7:0 8:0 9:0 10:0 11:0 12:-100 13:0 14:0 15:0 16:0 17:0 18:0 19:0 20:0 21:20 22:20 23:20 24:0 25:20 26:20 27:20 28:20 29:20 30:0 31:0 32:60 33:0 34:0 35:40 36:20 37:0 38:0 39:20 40:20 41:21 42:53 
2 1:0 2:0 3:0 4:0 5:0 6:0 7:0 8:0 9:0 10:0 11:0 12:-100 13:0 14:0 15:100 16:0 17:0 18:0 19:0 20:0 21:20 22:20 23:20 24:0 25:20 26:20 27:20 28:20 29:20 30:0 31:0 32:60 33:0 34:0 35:40 36:20 37:0 38:0 39:20 40:20 41:17 42:46 
1.211986759905086 1:0 2:0 3:0 4:0 5:0 6:0 7:0 8:0 9:0 10:0 11:0 12:-100 13:0 14:0 15:100 16:0 17:0 18:0 19:0 20:0 21:20 22:20 23:20 24:0 25:20 26:20 27:20 28:20 29:20 30:0 31:0 32:60 33:0 34:0 35:40 36:20 37:0 38:0 39:20 40:20 41:14 42:42 
0.7698678365612163 1:0 2:100 3:0 4:0 5:0 6:0 7:0 8:0 9:0 10:0 11:0 12:-100 13:0 14:0 15:0 16:0 17:0 18:0 19:0 20:0 21:20 22:20 23:20 24:0 25:20 26:20 27:20 28:20 29:20 30:0 31:0 32:60 33:0 34:0 35:40 36:20 37:0 38:0 39:20 40:20 41:17 42:46 
2 1:0 2:100 3:0 4:0 5:0 6:0 7:0 8:0 9:0 10:0 11:0 12:-100 13:0 14:0 15:0 16:0 17:0 18:0 19:0 20:0 21:20 22:20 23:20 24:0 25:20 26:20 27:20 28:20 29:20 30:0 31:0 32:60 33:0 34:0 35:40 36:20 37:0 38:0 39:20 40:20 41:21 42:53 
0.280027646327373 1:0 2:0 3:100 4:0 5:0 6:0 7:0 8:0 9:0 10:0 11:0 12:-100 13:0 14:0 15:0 16:0 17:0 18:0 19:0 20:0 21:20 22:20 23:20 24:0 25:20 26:20 27:20 28:20 29:20 30:0 31:0 32:60 33:0 34:0 35:40 36:20 37:0 38:0 39:20 40:20 41:21 42:53 
2 1:0 2:0 3:100 4:0 5:0 6:0 7:0 8:0 9:0 10:0 11:0 12:-100 13:0 14:0 15:0 16:0 17:0 18:0 19:0 20:0 21:20 22:20 23:20 24:0 25:20 26:20 27:20 28:20 29:20 30:0 31:0 32:60 33:0 34:0 35:40 36:20 37:0 38:0 39:20 40:20 41:42 42:64 
2 1:0 2:0 3:100 4:0 5:0 6:0 7:0 8:0 9:0 10:0 11:0 12:-100 13:0 14:0 15:0 16:0 17:0 18:0 19:0 20:0 21:20 22:20 23:20 24:0 25:20 26:20 27:20 28:20 29:20 30:0 31:0 32:60 33:0 34:0 35:40 36:20 37:0 38:0 39:20 40:20 41:28 42:62 
1.127275107356043 1:0 2:0 3:0 4:0 5:0 6:0 7:0 8:0 9:0 10:0 11:0 12:-100 13:0 14:0 15:0 16:0 17:0 18:0 19:0 20:100 21:20 22:20 23:20 24:0 25:20 26:20 27:20 28:20 29:20 30:0 31:0 32:60 33:0 34:0 35:40 36:20 37:0 38:0 39:20 40:20 41:14 42:42 
0.417083734218144 1:0 2:0 3:0 4:0 5:0 6:0 7:0 8:0 9:0 10:0 11:0 12:-100 13:0 14:0 15:0 16:0 17:0 18:100 19:0 20:0 21:20 22:20 23:20 24:0 25:20 26:20 27:20 28:20 29:20 30:0 31:0 32:60 33:0 34:0 35:40 36:20 37:0 38:0 39:20 40:20 41:21 42:53 
1.449286419288969 1:0 2:0 3:0 4:0 5:100 6:0 7:0 8:0 9:0 10:0 11:0 12:-100 13:0 14:0 15:0 16:0 17:0 18:0 19:0 20:0 21:20 22:20 23:20 24:0 25:20 26:20 27:20 28:20 29:20 30:0 31:0 32:60 33:0 34:0 35:40 36:20 37:0 38:0 39:20 40:20 41:14 42:42 
1.489686521101234 1:-100 2:0 3:0 4:100 5:0 6:0 7:0 8:0 9:0 10:0 11:0 12:0 13:0 14:0 15:0 16:0 17:0 18:0 19:0 20:0 21:20 22:60 23:20 24:0 25:0 26:0 27:20 28:0 29:40 30:20 31:20 32:0 33:0 34:0 35:60 36:40 37:0 38:0 39:20 40:40 41:38 42:65 
0.9903814211335146 1:0 2:0 3:0 4:0 5:0 6:0 7:0 8:0 9:100 10:0 11:0 12:0 13:0 14:-100 15:0 16:0 17:0 18:0 19:0 20:0 21:40 22:20 23:20 24:0 25:20 26:0 27:0 28:60 29:40 30:0 31:20 32:40 33:0 34:0 35:0 36:0 37:20 38:0 39:80 40:0 41:42 42:25 
1.075477283883316 1:0 2:0 3:0 4:0 5:0 6:0 7:0 8:0 9:0 10:0 11:0 12:0 13:0 14:0 15:0 16:0 17:0 18:0 19:100 20:-100 21:20 22:20 23:40 24:0 25:20 26:0 27:0 28:80 29:20 30:20 31:40 32:0 33:0 34:0 35:20 36:40 37:0 38:20 39:20 40:0 41:63 42:25 
1.206586960457547 1:0 2:0 3:0 4:0 5:0 6:0 7:0 8:0 9:100 10:0 11:0 12:0 13:0 14:0 15:0 16:-100 17:0 18:0 19:0 20:0 21:0 22:20 23:40 24:0 25:20 26:0 27:60 28:20 29:20 30:60 31:0 32:20 33:20 34:0 35:40 36:0 37:0 38:20 39:20 40:0 41:50 42:39 
1.998965200516382 1:0 2:0 3:0 4:0 5:0 6:0 7:0 8:0 9:0 10:0 11:0 12:0 13:0 14:100 15:0 16:0 17:0 18:0 19:0 20:-100 21:40 22:40 23:20 24:0 25:0 26:0 27:40 28:40 29:40 30:60 31:0 32:20 33:0 34:0 35:0 36:20 37:20 38:20 39:0 40:0 41:50 42:25 
0.5166701923925868 1:0 2:0 3:0 4:0 5:0 6:0 7:0 8:0 9:0 10:0 11:0 12:0 13:0 14:100 15:0 16:0 17:0 18:0 19:0 20:-100 21:40 22:40 23:20 24:0 25:0 26:0 27:40 28:40 29:40 30:60 31:0 32:20 33:0 34:0 35:0 36:20 37:20 38:20 39:0 40:0 41:50 42:25 
0.2756806209341693 1:0 2:0 3:0 4:0 5:0 6:0 7:0 8:0 9:0 10:0 11:0 12:-100 13:0 14:0 15:0 16:0 17:0 18:0 19:0 20:100 21:20 22:20 23:40 24:0 25:20 26:0 27:0 28:40 29:20 30:0 31:0 32:0 33:20 34:0 35:20 36:40 37:0 38:40 39:60 40:20 41:46 42:63 
0.3116305101306108 1:0 2:0 3:0 4:0 5:0 6:0 7:0 8:-100 9:0 10:0 11:100 12:0 13:0 14:0 15:0 16:0 17:0 18:0 19:0 20:0 21:60 22:20 23:20 24:0 25:0 26:0 27:20 28:60 29:20 30:20 31:0 32:40 33:0 34:0 35:20 36:40 37:0 38:20 39:20 40:0 41:53 42:30 
0.1747458465729079 1:0 2:0 3:0 4:0 5:100 6:-100 7:0 8:0 9:0 10:0 11:0 12:0 13:0 14:0 15:0 16:0 17:0 18:0 19:0 20:0 21:20 22:40 23:20 24:20 25:20 26:0 27:0 28:0 29:0 30:0 31:40 32:0 33:0 34:0 35:20 36:60 37:0 38:60 39:0 40:60 41:53 42:25 
2 1:0 2:0 3:0 4:0 5:0 6:0 7:0 8:0 9:100 10:0 11:0 12:0 13:0 14:0 15:0 16:0 17:0 18:-100 19:0 20:0 21:20 22:40 23:20 24:40 25:0 26:0 27:20 28:0 29:60 30:0 31:0 32:60 33:0 34:0 35:40 36:0 37:0 38:20 39:40 40:0 41:21 42:50 
1.191818494493057 1:0 2:0 3:0 4:0 5:0 6:0 7:0 8:0 9:0 10:0 11:100 12:-100 13:0 14:0 15:0 16:0 17:0 18:0 19:0 20:0 21:20 22:20 23:40 24:0 25:20 26:0 27:0 28:40 29:20 30:0 31:0 32:0 33:20 34:0 35:20 36:40 37:0 38:40 39:60 40:20 41:46 42:63 
0.4028049276601129 1:0 2:0 3:0 4:0 5:0 6:0 7:0 8:0 9:100 10:-100 11:0 12:0 13:0 14:0 15:0 16:0 17:0 18:0 19:0 20:0 21:0 22:40 23:20 24:0 25:20 26:20 27:40 28:40 29:60 30:20 31:0 32:20 33:0 34:0 35:0 36:0 37:20 38:20 39:20 40:20 41:52 42:63 
1.943882797423138 1:0 2:0 3:0 4:0 5:0 6:0 7:0 8:0 9:0 10:0 11:0 12:100 13:0 14:-100 15:0 16:0 17:0 18:0 19:0 20:0 21:0 22:40 23:40 24:0 25:40 26:0 27:0 28:20 29:20 30:0 31:20 32:40 33:40 34:20 35:0 36:0 37:20 38:60 39:0 40:0 41:60 42:37 
2 1:0 2:0 3:0 4:0 5:0 6:0 7:0 8:0 9:0 10:0 11:0 12:100 13:0 14:0 15:0 16:0 17:0 18:0 19:0 20:-100 21:0 22:80 23:20 24:0 25:0 26:0 27:0 28:0 29:40 30:0 31:0 32:20 33:20 34:0 35:0 36:20 37:20 38:80 39:20 40:40 41:50 42:69 
2 1:0 2:0 3:0 4:0 5:0 6:0 7:0 8:0 9:0 10:0 11:0 12:0 13:0 14:-100 15:0 16:0 17:100 18:0 19:0 20:0 21:0 22:40 23:40 24:0 25:40 26:0 27:0 28:20 29:20 30:0 31:20 32:40 33:40 34:20 35:0 36:0 37:20 38:60 39:0 40:0 41:60 42:37 
0.2879986908442989 1:0 2:0 3:0 4:0 5:0 6:0 7:0 8:0 9:-100 10:0 11:100 12:0 13:0 14:0 15:0 16:0 17:0 18:0 19:0 20:0 21:20 22:20 23:20 24:20 25:0 26:0 27:60 28:60 29:20 30:0 31:0 32:20 33:0 34:0 35:40 36:40 37:0 38:0 39:0 40:40 41:50 42:51 
2 1:0 2:0 3:0 4:0 5:0 6:0 7:0 8:0 9:100 10:0 11:0 12:0 13:0 14:0 15:0 16:0 17:0 18:-100 19:0 20:0 21:0 22:20 23:20 24:20 25:0 26:20 27:20 28:20 29:40 30:0 31:20 32:20 33:0 34:0 35:0 36:80 37:0 38:20 39:20 40:40 41:37 42:5 
1.243988112722182 1:0 2:-100 3:0 4:0 5:0 6:0 7:0 8:0 9:100 10:0 11:0 12:0 13:0 14:0 15:0 16:0 17:0 18:0 19:0 20:0 21:80 22:40 23:0 24:0 25:0 26:40 27:0 28:20 29:20 30:0 31:20 32:0 33:0 34:20 35:0 36:20 37:20 38:60 39:0 40:0 41:68 42:82 
0.129126329707572 1:0 2:0 3:0 4:0 5:0 6:0 7:0 8:0 9:0 10:0 11:0 12:0 13:0 14:0 15:0 16:-100 17:0 18:100 19:0 20:0 21:20 22:20 23:0 24:0 25:0 26:40 27:20 28:0 29:60 30:20 31:20 32:20 33:0 34:0 35:20 36:0 37:20 38:20 39:60 40:20 41:37 42:66 
2 1:0 2:0 3:0 4:0 5:0 6:0 7:0 8:0 9:0 10:0 11:0 12:0 13:0 14:0 15:0 16:-100 17:0 18:100 19:0 20:0 21:20 22:20 23:0 24:0 25:0 26:40 27:20 28:0 29:60 30:20 31:20 32:20 33:0 34:0 35:20 36:0 37:20 38:20 39:60 40:20 41:20 42:50 
2 1:0 2:0 3:0 4:0 5:0 6:0 7:0 8:0 9:0 10:0 11:-100 12:100 13:0 14:0 15:0 16:0 17:0 18:0 19:0 20:0 21:40 22:40 23:20 24:0 25:0 26:0 27:20 28:20 29:0 30:0 31:20 32:20 33:20 34:20 35:20 36:20 37:40 38:40 39:0 40:20 41:21 42:49 
2 1:0 2:100 3:0 4:0 5:0 6:0 7:0 8:0 9:0 10:0 11:-100 12:0 13:0 14:0 15:0 16:0 17:0 18:0 19:0 20:0 21:40 22:40 23:20 24:0 25:0 26:0 27:20 28:20 29:0 30:0 31:20 32:20 33:20 34:20 35:20 36:20 37:40 38:40 39:0 40:20 41:21 42:49 
1.722624861453057 1:0 2:0 3:0 4:0 5:0 6:0 7:0 8:0 9:100 10:0 11:-100 12:0 13:0 14:0 15:0 16:0 17:0 18:0 19:0 20:0 21:40 22:40 23:20 24:0 25:0 26:0 27:20 28:20 29:0 30:0 31:20 32:20 33:20 34:20 35:20 36:20 37:40 38:40 39:0 40:20 41:21 42:49 
0.432006339877167 1:0 2:-100 3:0 4:0 5:0 6:0 7:0 8:0 9:100 10:0 11:0 12:0 13:0 14:0 15:0 16:0 17:0 18:0 19:0 20:0 21:0 22:0 23:0 24:0 25:20 26:0 27:20 28:20 29:0 30:80 31:0 32:20 33:40 34:0 35:20 36:20 37:0 38:20 39:0 40:20 41:50 42:39 
0.1375158265670968 1:0 2:0 3:-100 4:0 5:0 6:0 7:0 8:0 9:0 10:0 11:0 12:0 13:0 14:0 15:0 16:0 17:0 18:100 19:0 20:0 21:0 22:20 23:20 24:40 25:20 26:0 27:0 28:20 29:0 30:0 31:0 32:0 33:0 34:0 35:20 36:0 37:0 38:40 39:20 40:20 41:46 42:64 
0.761883036520282 1:0 2:0 3:-100 4:0 5:0 6:0 7:0 8:0 9:0 10:0 11:0 12:0 13:0 14:0 15:0 16:0 17:0 18:0 19:0 20:100 21:0 22:20 23:20 24:40 25:20 26:0 27:0 28:20 29:0 30:0 31:0 32:0 33:0 34:0 35:20 36:0 37:0 38:40 39:20 40:20 41:46 42:64 
0.6906071554535608 1:0 2:0 3:-100 4:0 5:0 6:0 7:0 8:0 9:0 10:100 11:0 12:0 13:0 14:0 15:0 16:0 17:0 18:0 19:0 20:0 21:0 22:20 23:20 24:40 25:20 26:0 27:0 28:20 29:0 30:0 31:0 32:0 33:0 34:0 35:20 36:0 37:0 38:40 39:20 40:20 41:21 42:53 
0.6883095571521621 1:0 2:0 3:-100 4:0 5:0 6:0 7:0 8:0 9:0 10:0 11:100 12:0 13:0 14:0 15:0 16:0 17:0 18:0 19:0 20:0 21:0 22:20 23:20 24:40 25:20 26:0 27:0 28:20 29:0 30:0 31:0 32:0 33:0 34:0 35:20 36:0 37:0 38:40 39:20 40:20 41:46 42:64 
2 1:0 2:0 3:0 4:0 5:0 6:0 7:0 8:0 9:100 10:0 11:0 12:0 13:0 14:0 15:0 16:0 17:0 18:-100 19:0 20:0 21:60 22:40 23:60 24:0 25:0 26:0 27:0 28:20 29:20 30:40 31:0 32:0 33:0 34:0 35:0 36:60 37:40 38:0 39:0 40:20 41:44 42:25 
1.033538856410918 1:0 2:0 3:-100 4:0 5:0 6:0 7:0 8:0 9:0 10:0 11:0 12:100 13:0 14:0 15:0 16:0 17:0 18:0 19:0 20:0 21:0 22:20 23:20 24:40 25:20 26:0 27:0 28:20 29:0 30:0 31:0 32:0 33:0 34:0 35:20 36:0 37:0 38:40 39:20 40:20 41:21 42:53 
1.990235514539075 1:0 2:0 3:-100 4:0 5:0 6:100 7:0 8:0 9:0 10:0 11:0 12:0 13:0 14:0 15:0 16:0 17:0 18:0 19:0 20:0 21:0 22:20 23:20 24:40 25:20 26:0 27:0 28:20 29:0 30:0 31:0 32:0 33:0 34:0 35:20 36:0 37:0 38:40 39:20 40:20 41:46 42:64 
2 1:100 2:0 3:-100 4:0 5:0 6:0 7:0 8:0 9:0 10:0 11:0 12:0 13:0 14:0 15:0 16:0 17:0 18:0 19:0 20:0 21:0 22:20 23:20 24:40 25:20 26:0 27:0 28:20 29:0 30:0 31:0 32:0 33:0 34:0 35:20 36:0 37:0 38:40 39:20 40:20 41:14 42:41 
1.449445823425041 1:100 2:0 3:-100 4:0 5:0 6:0 7:0 8:0 9:0 10:0 11:0 12:0 13:0 14:0 15:0 16:0 17:0 18:0 19:0 20:0 21:0 22:20 23:20 24:40 25:20 26:0 27:0 28:20 29:0 30:0 31:0 32:0 33:0 34:0 35:20 36:0 37:0 38:40 39:20 40:20 41:46 42:64 
1.776003465414727 1:0 2:0 3:-100 4:0 5:0 6:0 7:100 8:0 9:0 10:0 11:0 12:0 13:0 14:0 15:0 16:0 17:0 18:0 19:0 20:0 21:0 22:20 23:20 24:40 25:20 26:0 27:0 28:20 29:0 30:0 31:0 32:0 33:0 34:0 35:20 36:0 37:0 38:40 39:20 40:20 41:46 42:64 
0.1203552712270182 1:0 2:0 3:0 4:0 5:0 6:0 7:0 8:0 9:0 10:-100 11:100 12:0 13:0 14:0 15:0 16:0 17:0 18:0 19:0 20:0 21:0 22:0 23:0 24:0 25:0 26:0 27:40 28:20 29:40 30:0 31:40 32:60 33:40 34:0 35:20 36:40 37:20 38:20 39:20 40:0 41:30 42:56 
2 1:0 2:0 3:0 4:0 5:0 6:0 7:0 8:0 9:0 10:0 11:0 12:0 13:0 14:0 15:0 16:100 17:0 18:0 19:0 20:-100 21:0 22:40 23:20 24:0 25:20 26:0 27:20 28:40 29:20 30:40 31:40 32:40 33:0 34:0 35:0 36:0 37:20 38:0 39:20 40:40 41:50 42:47 
2 1:0 2:0 3:0 4:-100 5:0 6:0 7:0 8:0 9:100 10:0 11:0 12:0 13:0 14:0 15:0 16:0 17:0 18:0 19:0 20:0 21:40 22:20 23:20 24:20 25:40 26:0 27:0 28:60 29:60 30:0 31:0 32:40 33:0 34:0 35:0 36:0 37:20 38:20 39:20 40:0 41:38 42:65 
2 1:0 2:0 3:0 4:-100 5:0 6:0 7:0 8:0 9:0 10:0 11:0 12:0 13:0 14:0 15:0 16:100 17:0 18:0 19:0 20:0 21:40 22:20 23:20 24:20 25:40 26:0 27:0 28:60 29:40 30:0 31:0 32:40 33:20 34:0 35:0 36:0 37:20 38:20 39:20 40:0 41:21 42:47 
2 1:0 2:0 3:0 4:0 5:100 6:0 7:-100 8:0 9:0 10:0 11:0 12:0 13:0 14:0 15:0 16:0 17:0 18:0 19:0 20:0 21:0 22:40 23:20 24:0 25:20 26:20 27:0 28:60 29:60 30:20 31:40 32:20 33:0 34:0 35:20 36:0 37:20 38:0 39:20 40:0 41:48 42:54 
2 1:0 2:0 3:0 4:0 5:0 6:0 7:0 8:100 9:0 10:0 11:0 12:0 13:0 14:0 15:0 16:0 17:0 18:0 19:0 20:-100 21:20 22:0 23:20 24:0 25:20 26:0 27:20 28:40 29:20 30:0 31:0 32:20 33:0 34:0 35:20 36:80 37:20 38:40 39:20 40:20 41:50 42:20 
1.844850201487028 1:-100 2:0 3:100 4:0 5:0 6:0 7:0 8:0 9:0 10:0 11:0 12:0 13:0 14:0 15:0 16:0 17:0 18:0 19:0 20:0 21:40 22:0 23:40 24:0 25:20 26:0 27:0 28:0 29:0 30:0 31:0 32:40 33:20 34:40 35:0 36:20 37:40 38:0 39:80 40:20 41:50 42:25 
0.113651509031553 1:0 2:0 3:0 4:0 5:-100 6:0 7:0 8:0 9:0 10:0 11:0 12:100 13:0 14:0 15:0 16:0 17:0 18:0 19:0 20:0 21:40 22:0 23:20 24:0 25:0 26:0 27:0 28:20 29:20 30:20 31:60 32:40 33:0 34:0 35:40 36:20 37:60 38:20 39:0 40:0 41:50 42:25 
0.7477611953403605 1:-100 2:0 3:0 4:0 5:100 6:0 7:0 8:0 9:0 10:0 11:0 12:0 13:0 14:0 15:0 16:0 17:0 18:0 19:0 20:0 21:40 22:0 23:20 24:0 25:0 26:20 27:0 28:20 29:80 30:20 31:0 32:0 33:20 34:0 35:60 36:20 37:20 38:0 39:0 40:40 41:19 42:64 
2 1:-100 2:0 3:0 4:0 5:0 6:0 7:0 8:0 9:100 10:0 11:0 12:0 13:0 14:0 15:0 16:0 17:0 18:0 19:0 20:0 21:40 22:0 23:20 24:0 25:0 26:20 27:0 28:20 29:80 30:20 31:0 32:0 33:20 34:0 35:60 36:20 37:20 38:0 39:0 40:40 41:19 42:64 
2 1:0 2:0 3:0 4:0 5:0 6:100 7:0 8:0 9:0 10:0 11:0 12:0 13:0 14:0 15:0 16:-100 17:0 18:0 19:0 20:0 21:0 22:20 23:20 24:40 25:20 26:0 27:40 28:20 29:20 30:40 31:20 32:40 33:0 34:0 35:0 36:40 37:0 38:20 39:20 40:0 41:32 42:25 
1.079182167746447 1:0 2:0 3:0 4:0 5:0 6:0 7:0 8:0 9:0 10:0 11:0 12:0 13:0 14:0 15:-100 16:0 17:100 18:0 19:0 20:0 21:0 22:40 23:60 24:40 25:0 26:0 27:0 28:40 29:0 30:20 31:40 32:40 33:20 34:0 35:20 36:0 37:0 38:0 39:40 40:0 41:51 42:10 
1.735725642808095 1:-100 2:0 3:0 4:0 5:0 6:0 7:0 8:0 9:0 10:0 11:0 12:0 13:0 14:0 15:0 16:100 17:0 18:0 19:0 20:0 21:0 22:20 23:0 24:0 25:20 26:0 27:0 28:40 29:40 30:0 31:20 32:40 33:0 34:20 35:20 36:0 37:0 38:60 39:20 40:60 41:50 42:67 
1.116430623040916 1:-100 2:0 3:0 4:0 5:0 6:0 7:0 8:0 9:0 10:0 11:0 12:0 13:0 14:0 15:0 16:0 17:0 18:100 19:0 20:0 21:0 22:20 23:0 24:0 25:20 26:0 27:0 28:40 29:40 30:0 31:20 32:40 33:0 34:20 35:20 36:0 37:0 38:60 39:20 40:60 41:50 42:67 
0.2539648226464964 1:-100 2:0 3:0 4:0 5:0 6:0 7:0 8:0 9:0 10:0 11:0 12:0 13:0 14:0 15:0 16:100 17:0 18:0 19:0 20:0 21:20 22:0 23:0 24:20 25:0 26:40 27:0 28:40 29:40 30:20 31:20 32:0 33:20 34:20 35:0 36:80 37:0 38:0 39:20 40:20 41:32 42:66 
0.2578863751994857 1:0 2:0 3:0 4:0 5:0 6:0 7:0 8:0 9:100 10:0 11:0 12:0 13:0 14:0 15:0 16:0 17:0 18:0 19:-100 20:0 21:20 22:0 23:0 24:0 25:0 26:0 27:40 28:20 29:20 30:0 31:100 32:40 33:60 34:0 35:0 36:0 37:0 38:0 39:0 40:40 41:50 42:50 
2 1:0 2:0 3:0 4:0 5:0 6:0 7:0 8:0 9:100 10:0 11:-100 12:0 13:0 14:0 15:0 16:0 17:0 18:0 19:0 20:0 21:20 22:60 23:0 24:0 25:20 26:20 27:20 28:40 29:0 30:0 31:20 32:0 33:0 34:0 35:0 36:0 37:20 38:40 39:20 40:80 41:50 42:44 
2 1:0 2:0 3:0 4:0 5:0 6:0 7:0 8:0 9:0 10:0 11:0 12:0 13:0 14:0 15:0 16:-100 17:0 18:100 19:0 20:0 21:20 22:20 23:20 24:0 25:40 26:0 27:0 28:60 29:40 30:0 31:40 32:20 33:0 34:0 35:0 36:0 37:40 38:60 39:0 40:0 41:53 42:55 
0.5632008830617155 1:0 2:0 3:0 4:0 5:0 6:0 7:0 8:0 9:0 10:0 11:0 12:0 13:0 14:0 15:0 16:-100 17:0 18:100 19:0 20:0 21:20 22:20 23:20 24:0 25:40 26:0 27:0 28:60 29:40 30:0 31:40 32:20 33:0 34:0 35:0 36:0 37:40 38:60 39:0 40:0 41:53 42:55 
2 1:0 2:0 3:0 4:0 5:0 6:0 7:0 8:0 9:0 10:0 11:0 12:0 13:0 14:0 15:100 16:-100 17:0 18:0 19:0 20:0 21:0 22:20 23:20 24:0 25:20 26:20 27:0 28:80 29:0 30:20 31:40 32:20 33:0 34:0 35:40 36:20 37:0 38:20 39:20 40:20 41:45 42:25 
1.578528430792589 1:0 2:0 3:0 4:0 5:0 6:0 7:0 8:0 9:0 10:0 11:0 12:0 13:0 14:0 15:100 16:-100 17:0 18:0 19:0 20:0 21:0 22:20 23:20 24:0 25:20 26:20 27:0 28:80 29:0 30:20 31:40 32:20 33:0 34:0 35:40 36:20 37:0 38:20 39:20 40:20 41:45 42:25 
2 1:100 2:0 3:0 4:0 5:0 6:0 7:0 8:0 9:0 10:0 11:0 12:-100 13:0 14:0 15:0 16:0 17:0 18:0 19:0 20:0 21:20 22:0 23:20 24:0 25:0 26:0 27:60 28:60 29:20 30:20 31:0 32:60 33:0 34:20 35:60 36:0 37:0 38:20 39:0 40:0 41:50 42:48 
2 1:0 2:0 3:0 4:0 5:0 6:0 7:0 8:0 9:0 10:0 11:0 12:0 13:0 14:0 15:0 16:100 17:0 18:-100 19:0 20:0 21:40 22:0 23:0 24:40 25:20 26:0 27:0 28:20 29:0 30:0 31:0 32:100 33:0 34:0 35:20 36:40 37:0 38:40 39:20 40:20 41:50 42:25 
2 1:0 2:0 3:0 4:0 5:100 6:0 7:-100 8:0 9:0 10:0 11:0 12:0 13:0 14:0 15:0 16:0 17:0 18:0 19:0 20:0 21:60 22:80 23:20 24:0 25:0 26:0 27:20 28:20 29:0 30:20 31:0 32:20 33:20 34:0 35:0 36:20 37:0 38:20 39:20 40:40 41:50 42:25 
0.4257158372055705 1:-100 2:0 3:0 4:0 5:0 6:0 7:0 8:0 9:0 10:0 11:0 12:0 13:0 14:0 15:0 16:0 17:0 18:0 19:0 20:100 21:0 22:20 23:0 24:0 25:20 26:0 27:0 28:0 29:20 30:0 31:0 32:20 33:20 34:0 35:40 36:20 37:0 38:40 39:0 40:0 41:19 42:64 
2 1:-100 2:100 3:0 4:0 5:0 6:0 7:0 8:0 9:0 10:0 11:0 12:0 13:0 14:0 15:0 16:0 17:0 18:0 19:0 20:0 21:0 22:20 23:0 24:0 25:20 26:0 27:0 28:0 29:20 30:0 31:0 32:20 33:20 34:0 35:40 36:20 37:0 38:40 39:0 40:0 41:19 42:64 
0.7418258706795862 1:-100 2:0 3:0 4:100 5:0 6:0 7:0 8:0 9:0 10:0 11:0 12:0 13:0 14:0 15:0 16:0 17:0 18:0 19:0 20:0 21:0 22:20 23:0 24:0 25:20 26:0 27:0 28:0 29:20 30:0 31:0 32:20 33:20 34:0 35:40 36:20 37:0 38:40 39:0 40:0 41:19 42:64 
1.081390811308756 1:0 2:0 3:0 4:0 5:0 6:0 7:0 8:0 9:100 10:0 11:0 12:0 13:0 14:0 15:-100 16:0 17:0 18:0 19:0 20:0 21:0 22:0 23:40 24:0 25:20 26:0 27:60 28:20 29:40 30:60 31:0 32:20 33:20 34:0 35:20 36:40 37:0 38:0 39:20 40:0 41:50 42:39 
1.330743028041902 1:-100 2:0 3:0 4:0 5:0 6:0 7:0 8:0 9:0 10:0 11:0 12:0 13:0 14:0 15:100 16:0 17:0 18:0 19:0 20:0 21:0 22:20 23:0 24:0 25:20 26:0 27:0 28:0 29:20 30:0 31:0 32:20 33:20 34:0 35:40 36:20 37:0 38:40 39:0 40:0 41:19 42:64 
1.342693518202484 1:0 2:0 3:0 4:0 5:0 6:0 7:0 8:0 9:100 10:0 11:0 12:0 13:0 14:0 15:-100 16:0 17:0 18:0 19:0 20:0 21:20 22:0 23:0 24:20 25:20 26:20 27:0 28:20 29:0 30:0 31:0 32:0 33:0 34:0 35:0 36:40 37:20 38:20 39:40 40:0 41:50 42:70 
2 1:0 2:100 3:0 4:0 5:0 6:0 7:0 8:0 9:0 10:0 11:0 12:0 13:0 14:0 15:-100 16:0 17:0 18:0 19:0 20:0 21:20 22:0 23:0 24:20 25:20 26:20 27:0 28:20 29:0 30:0 31:0 32:0 33:0 34:0 35:0 36:40 37:20 38:20 39:40 40:0 41:50 42:70 
2 1:0 2:100 3:0 4:0 5:0 6:0 7:0 8:0 9:0 10:0 11:0 12:0 13:0 14:0 15:-100 16:0 17:0 18:0 19:0 20:0 21:20 22:0 23:0 24:20 25:20 26:20 27:0 28:20 29:0 30:0 31:0 32:0 33:0 34:0 35:0 36:40 37:20 38:20 39:40 40:0 41:50 42:70 
0.9118869228063758 1:0 2:0 3:0 4:0 5:0 6:0 7:100 8:0 9:0 10:-100 11:0 12:0 13:0 14:0 15:0 16:0 17:0 18:0 19:0 20:0 21:0 22:40 23:20 24:20 25:20 26:0 27:40 28:60 29:20 30:20 31:0 32:40 33:0 34:0 35:0 36:60 37:0 38:0 39:20 40:0 41:32 42:25 
0.7495768343297857 1:100 2:0 3:0 4:0 5:0 6:0 7:0 8:0 9:0 10:-100 11:0 12:0 13:0 14:0 15:0 16:0 17:0 18:0 19:0 20:0 21:0 22:40 23:20 24:20 25:20 26:0 27:40 28:60 29:20 30:20 31:0 32:40 33:0 34:0 35:0 36:60 37:0 38:0 39:20 40:0 41:32 42:25 
0.2761873874964337 1:0 2:0 3:0 4:0 5:0 6:100 7:0 8:0 9:0 10:-100 11:0 12:0 13:0 14:0 15:0 16:0 17:0 18:0 19:0 20:0 21:0 22:40 23:20 24:20 25:20 26:0 27:40 28:60 29:20 30:20 31:0 32:40 33:0 34:0 35:0 36:60 37:0 38:0 39:20 40:0 41:32 42:25 
2 1:0 2:100 3:0 4:0 5:0 6:0 7:0 8:0 9:0 10:-100 11:0 12:0 13:0 14:0 15:0 16:0 17:0 18:0 19:0 20:0 21:0 22:40 23:20 24:20 25:20 26:0 27:40 28:60 29:20 30:20 31:0 32:40 33:0 34:0 35:0 36:60 37:0 38:0 39:20 40:0 41:32 42:25 
0.7981488815877393 1:0 2:0 3:0 4:0 5:0 6:0 7:0 8:0 9:100 10:0 11:0 12:-100 13:0 14:0 15:0 16:0 17:0 18:0 19:0 20:0 21:20 22:0 23:20 24:0 25:20 26:0 27:20 28:20 29:40 30:0 31:40 32:40 33:0 34:20 35:0 36:0 37:40 38:0 39:40 40:40 41:50 42:58 
1.547024143390678 1:0 2:0 3:0 4:0 5:0 6:0 7:0 8:0 9:0 10:0 11:0 12:0 13:0 14:0 15:0 16:100 17:0 18:0 19:0 20:-100 21:60 22:0 23:40 24:0 25:60 26:0 27:0 28:40 29:20 30:0 31:20 32:0 33:0 34:20 35:0 36:0 37:40 38:40 39:0 40:20 41:53 42:55 
0.3129810578343521 1:0 2:0 3:0 4:0 5:0 6:0 7:0 8:0 9:0 10:0 11:0 12:0 13:0 14:0 15:0 16:100 17:0 18:0 19:0 20:-100 21:60 22:0 23:40 24:0 25:60 26:0 27:0 28:40 29:20 30:0 31:20 32:0 33:0 34:20 35:0 36:0 37:40 38:40 39:0 40:20 41:53 42:55 
0.4976777511243269 1:0 2:0 3:0 4:0 5:0 6:0 7:0 8:0 9:0 10:0 11:0 12:0 13:0 14:0 15:0 16:0 17:100 18:0 19:0 20:-100 21:60 22:0 23:40 24:0 25:60 26:0 27:0 28:40 29:20 30:0 31:20 32:0 33:0 34:20 35:0 36:0 37:40 38:40 39:0 40:20 41:53 42:55 
1.322150714075894 1:0 2:0 3:0 4:0 5:0 6:0 7:0 8:-100 9:100 10:0 11:0 12:0 13:0 14:0 15:0 16:0 17:0 18:0 19:0 20:0 21:20 22:40 23:20 24:0 25:0 26:20 27:0 28:20 29:80 30:0 31:40 32:20 33:0 34:0 35:0 36:40 37:20 38:20 39:20 40:0 41:45 42:25 
1.526931787262499 1:0 2:0 3:0 4:0 5:0 6:0 7:0 8:0 9:0 10:0 11:0 12:100 13:0 14:-100 15:0 16:0 17:0 18:0 19:0 20:0 21:20 22:0 23:0 24:0 25:20 26:0 27:60 28:40 29:0 30:20 31:40 32:20 33:0 34:0 35:0 36:20 37:0 38:40 39:60 40:20 41:42 42:25 
2 1:0 2:0 3:0 4:0 5:-100 6:0 7:100 8:0 9:0 10:0 11:0 12:0 13:0 14:0 15:0 16:0 17:0 18:0 19:0 20:0 21:0 22:20 23:20 24:20 25:0 26:0 27:20 28:60 29:20 30:20 31:0 32:20 33:0 34:0 35:20 36:100 37:0 38:20 39:0 40:20 41:42 42:25 
0.1032683444389472 1:-100 2:0 3:100 4:0 5:0 6:0 7:0 8:0 9:0 10:0 11:0 12:0 13:0 14:0 15:0 16:0 17:0 18:0 19:0 20:0 21:20 22:20 23:0 24:60 25:40 26:0 27:0 28:60 29:20 30:0 31:20 32:40 33:0 34:0 35:20 36:0 37:20 38:20 39:20 40:0 41:21 42:51 
1.494916368220094 1:-100 2:0 3:100 4:0 5:0 6:0 7:0 8:0 9:0 10:0 11:0 12:0 13:0 14:0 15:0 16:0 17:0 18:0 19:0 20:0 21:20 22:20 23:0 24:60 25:40 26:0 27:0 28:60 29:20 30:0 31:20 32:40 33:0 34:0 35:20 36:0 37:20 38:20 39:20 40:0 41:40 42:64 
0.2214664932869101 1:-100 2:0 3:0 4:100 5:0 6:0 7:0 8:0 9:0 10:0 11:0 12:0 13:0 14:0 15:0 16:0 17:0 18:0 19:0 20:0 21:20 22:20 23:0 24:60 25:40 26:0 27:0 28:60 29:20 30:0 31:20 32:40 33:0 34:0 35:20 36:0 37:20 38:20 39:20 40:0 41:38 42:65 
0.8005026431819735 1:0 2:0 3:0 4:0 5:0 6:0 7:0 8:0 9:0 10:0 11:0 12:0 13:0 14:0 15:100 16:-100 17:0 18:0 19:0 20:0 21:20 22:20 23:40 24:20 25:20 26:0 27:40 28:20 29:20 30:0 31:20 32:40 33:0 34:20 35:0 36:0 37:20 38:20 39:20 40:20 41:37 42:5 
0.6803370552684961 1:0 2:0 3:0 4:0 5:0 6:0 7:0 8:0 9:0 10:0 11:0 12:0 13:0 14:0 15:0 16:-100 17:0 18:100 19:0 20:0 21:20 22:20 23:40 24:20 25:20 26:0 27:40 28:20 29:20 30:0 31:20 32:40 33:0 34:20 35:0 36:0 37:20 38:20 39:20 40:20 41:37 42:5 
1.097963119968118 1:0 2:0 3:0 4:0 5:0 6:0 7:0 8:0 9:100 10:0 11:0 12:0 13:0 14:0 15:0 16:-100 17:0 18:0 19:0 20:0 21:20 22:40 23:20 24:0 25:0 26:0 27:0 28:40 29:60 30:0 31:20 32:0 33:20 34:0 35:20 36:20 37:0 38:20 39:60 40:20 41:47 42:62 
0.6903041346578924 1:0 2:0 3:0 4:0 5:0 6:0 7:0 8:0 9:100 10:0 11:0 12:0 13:0 14:0 15:0 16:-100 17:0 18:0 19:0 20:0 21:20 22:40 23:20 24:0 25:0 26:0 27:0 28:40 29:60 30:0 31:20 32:0 33:20 34:0 35:20 36:20 37:0 38:20 39:60 40:20 41:21 42:51 
0.7891007511209215 1:0 2:0 3:0 4:0 5:0 6:0 7:0 8:0 9:0 10:0 11:100 12:0 13:0 14:0 15:-100 16:0 17:0 18:0 19:0 20:0 21:0 22:40 23:60 24:40 25:0 26:0 27:0 28:40 29:0 30:20 31:40 32:40 33:20 34:0 35:20 36:0 37:0 38:20 39:20 40:0 41:51 42:10 
2 1:100 2:0 3:0 4:0 5:0 6:0 7:0 8:0 9:-100 10:0 11:0 12:0 13:0 14:0 15:0 16:0 17:0 18:0 19:0 20:0 21:40 22:40 23:20 24:40 25:20 26:0 27:0 28:20 29:20 30:0 31:20 32:0 33:20 34:0 35:40 36:0 37:20 38:0 39:20 40:40 41:21 42:40 
2 1:0 2:0 3:0 4:0 5:0 6:0 7:0 8:0 9:0 10:0 11:0 12:0 13:0 14:100 15:0 16:0 17:0 18:0 19:-100 20:0 21:20 22:0 23:20 24:0 25:20 26:20 27:20 28:0 29:20 30:20 31:20 32:60 33:0 34:0 35:60 36:40 37:20 38:0 39:20 40:0 41:14 42:39 
2 1:0 2:0 3:0 4:0 5:0 6:0 7:0 8:0 9:0 10:0 11:0 12:0 13:0 14:0 15:0 16:0 17:0 18:0 19:-100 20:100 21:20 22:0 23:20 24:0 25:20 26:20 27:20 28:0 29:20 30:20 31:20 32:60 33:0 34:0 35:60 36:40 37:20 38:0 39:20 40:0 41:14 42:40 
0.8238801806492833 1:0 2:0 3:0 4:0 5:0 6:0 7:-100 8:0 9:100 10:0 11:0 12:0 13:0 14:0 15:0 16:0 17:0 18:0 19:0 20:0 21:20 22:20 23:20 24:20 25:0 26:0 27:0 28:0 29:40 30:0 31:20 32:20 33:0 34:0 35:0 36:100 37:0 38:60 39:0 40:40 41:37 42:5 
0.296746933890669 1:0 2:0 3:0 4:0 5:0 6:0 7:0 8:0 9:0 10:0 11:0 12:0 13:0 14:100 15:0 16:-100 17:0 18:0 19:0 20:0 21:40 22:60 23:20 24:20 25:40 26:0 27:20 28:40 29:0 30:0 31:60 32:20 33:0 34:20 35:0 36:0 37:20 38:0 39:0 40:0 41:50 42:25 
0.6170136004079935 1:0 2:0 3:0 4:0 5:0 6:0 7:0 8:0 9:0 10:0 11:0 12:0 13:0 14:0 15:0 16:0 17:0 18:0 19:100 20:-100 21:0 22:60 23:20 24:20 25:0 26:0 27:20 28:60 29:40 30:0 31:20 32:20 33:0 34:0 35:60 36:20 37:0 38:0 39:20 40:0 41:15 42:65 
2 1:0 2:0 3:0 4:0 5:0 6:0 7:0 8:0 9:0 10:0 11:0 12:0 13:0 14:0 15:0 16:0 17:0 18:0 19:100 20:-100 21:0 22:60 23:20 24:20 25:0 26:0 27:20 28:60 29:40 30:0 31:20 32:20 33:0 34:0 35:60 36:20 37:0 38:0 39:20 40:0 41:28 42:65 
0.8195634510159054 1:100 2:0 3:0 4:0 5:0 6:0 7:0 8:0 9:0 10:0 11:0 12:-100 13:0 14:0 15:0 16:0 17:0 18:0 19:0 20:0 21:0 22:0 23:40 24:0 25:0 26:0 27:40 28:40 29:20 30:0 31:0 32:60 33:0 34:0 35:80 36:0 37:20 38:40 39:0 40:20 41:50 42:48 
2 1:0 2:0 3:0 4:0 5:0 6:0 7:0 8:0 9:0 10:0 11:0 12:0 13:0 14:100 15:0 16:0 17:0 18:0 19:0 20:-100 21:20 22:40 23:20 24:20 25:20 26:0 27:20 28:0 29:20 30:20 31:20 32:20 33:0 34:40 35:0 36:60 37:0 38:40 39:0 40:0 41:37 42:5 
1.362021217159142 1:0 2:100 3:-100 4:0 5:0 6:0 7:0 8:0 9:0 10:0 11:0 12:0 13:0 14:0 15:0 16:0 17:0 18:0 19:0 20:0 21:40 22:40 23:0 24:0 25:0 26:0 27:40 28:40 29:20 30:40 31:0 32:20 33:0 34:0 35:0 36:20 37:20 38:40 39:20 40:20 41:50 42:25 
1.920668904460004 1:0 2:0 3:-100 4:0 5:100 6:0 7:0 8:0 9:0 10:0 11:0 12:0 13:0 14:0 15:0 16:0 17:0 18:0 19:0 20:0 21:40 22:40 23:0 24:0 25:0 26:0 27:40 28:40 29:20 30:40 31:0 32:20 33:0 34:0 35:0 36:20 37:20 38:40 39:20 40:20 41:50 42:25 
1.782260247202681 1:0 2:100 3:0 4:0 5:0 6:0 7:0 8:0 9:-100 10:0 11:0 12:0 13:0 14:0 15:0 16:0 17:0 18:0 19:0 20:0 21:0 22:40 23:0 24:20 25:40 26:0 27:0 28:60 29:60 30:0 31:0 32:0 33:0 34:0 35:20 36:20 37:20 38:20 39:20 40:40 41:55 42:4 
1.471070188364785 1:0 2:-100 3:0 4:100 5:0 6:0 7:0 8:0 9:0 10:0 11:0 12:0 13:0 14:0 15:0 16:0 17:0 18:0 19:0 20:0 21:0 22:20 23:20 24:20 25:20 26:0 27:0 28:20 29:100 30:0 31:0 32:0 33:0 34:0 35:20 36:40 37:20 38:20 39:20 40:40 41:78 42:76 
0.07890373294643124 1:0 2:-100 3:100 4:0 5:0 6:0 7:0 8:0 9:0 10:0 11:0 12:0 13:0 14:0 15:0 16:0 17:0 18:0 19:0 20:0 21:0 22:20 23:20 24:20 25:20 26:0 27:0 28:20 29:100 30:0 31:0 32:0 33:0 34:0 35:20 36:40 37:20 38:20 39:20 40:40 41:78 42:76 
2 1:-100 2:0 3:0 4:0 5:0 6:0 7:100 8:0 9:0 10:0 11:0 12:0 13:0 14:0 15:0 16:0 17:0 18:0 19:0 20:0 21:0 22:0 23:20 24:0 25:0 26:40 27:0 28:20 29:40 30:20 31:0 32:0 33:20 34:0 35:100 36:0 37:40 38:0 39:40 40:20 41:19 42:64 
2 1:-100 2:0 3:0 4:0 5:100 6:0 7:0 8:0 9:0 10:0 11:0 12:0 13:0 14:0 15:0 16:0 17:0 18:0 19:0 20:0 21:0 22:0 23:20 24:0 25:0 26:40 27:0 28:20 29:40 30:20 31:0 32:0 33:20 34:0 35:100 36:0 37:40 38:0 39:40 40:20 41:19 42:64 
1.167197150719075 1:0 2:0 3:0 4:0 5:0 6:0 7:0 8:0 9:0 10:0 11:0 12:0 13:0 14:0 15:0 16:100 17:0 18:0 19:-100 20:0 21:0 22:40 23:0 24:20 25:0 26:20 27:40 28:60 29:40 30:0 31:20 32:0 33:0 34:20 35:40 36:20 37:0 38:0 39:20 40:20 41:45 42:74 
0.868886183871742 1:0 2:0 3:0 4:0 5:0 6:0 7:0 8:0 9:100 10:0 11:0 12:0 13:0 14:0 15:0 16:0 17:0 18:-100 19:0 20:0 21:40 22:20 23:20 24:0 25:20 26:20 27:40 28:20 29:0 30:40 31:100 32:0 33:0 34:0 35:0 36:0 37:0 38:0 39:0 40:40 41:50 42:48 
0.8031521869958533 1:0 2:0 3:0 4:0 5:0 6:0 7:0 8:0 9:0 10:0 11:0 12:0 13:0 14:0 15:0 16:-100 17:0 18:0 19:100 20:0 21:20 22:0 23:60 24:0 25:0 26:0 27:0 28:20 29:20 30:40 31:20 32:20 33:0 34:0 35:0 36:40 37:20 38:40 39:20 40:40 41:35 42:25 
2 1:0 2:0 3:0 4:0 5:0 6:0 7:0 8:0 9:0 10:0 11:0 12:0 13:0 14:-100 15:0 16:0 17:0 18:0 19:100 20:0 21:0 22:60 23:40 24:0 25:0 26:0 27:40 28:60 29:0 30:20 31:40 32:40 33:0 34:0 35:0 36:20 37:0 38:20 39:20 40:0 41:39 42:66 
2 1:0 2:0 3:0 4:0 5:0 6:0 7:0 8:0 9:0 10:0 11:0 12:0 13:0 14:0 15:0 16:0 17:0 18:0 19:100 20:-100 21:60 22:0 23:40 24:0 25:80 26:0 27:0 28:40 29:20 30:0 31:20 32:0 33:0 34:20 35:0 36:0 37:20 38:40 39:0 40:20 41:53 42:55 
1.481044716265129 1:0 2:0 3:0 4:0 5:0 6:0 7:0 8:0 9:0 10:0 11:0 12:0 13:0 14:0 15:0 16:0 17:0 18:0 19:100 20:-100 21:60 22:0 23:40 24:0 25:80 26:0 27:0 28:40 29:20 30:0 31:20 32:0 33:0 34:20 35:0 36:0 37:20 38:40 39:0 40:20 41:53 42:55 
1.719054327839676 1:0 2:0 3:0 4:0 5:0 6:0 7:0 8:0 9:0 10:0 11:0 12:0 13:100 14:0 15:0 16:0 17:0 18:0 19:0 20:-100 21:60 22:80 23:0 24:0 25:0 26:0 27:40 28:20 29:0 30:20 31:20 32:0 33:20 34:0 35:0 36:0 37:20 38:40 39:40 40:0 41:50 42:25 
2 1:0 2:0 3:0 4:0 5:0 6:0 7:0 8:-100 9:100 10:0 11:0 12:0 13:0 14:0 15:0 16:0 17:0 18:0 19:0 20:0 21:40 22:40 23:40 24:0 25:0 26:20 27:0 28:20 29:60 30:0 31:0 32:0 33:0 34:20 35:20 36:20 37:20 38:20 39:0 40:40 41:68 42:82 
1.11770721371249 1:0 2:0 3:0 4:0 5:0 6:0 7:0 8:0 9:0 10:0 11:0 12:0 13:0 14:0 15:0 16:100 17:0 18:-100 19:0 20:0 21:60 22:40 23:0 24:0 25:0 26:0 27:40 28:0 29:20 30:0 31:20 32:40 33:0 34:20 35:0 36:0 37:40 38:0 39:20 40:60 41:50 42:44 
1.69612094300302 1:0 2:0 3:0 4:0 5:0 6:0 7:0 8:0 9:0 10:0 11:0 12:0 13:0 14:0 15:0 16:100 17:0 18:-100 19:0 20:0 21:60 22:40 23:0 24:0 25:0 26:0 27:40 28:0 29:20 30:0 31:20 32:40 33:0 34:20 35:0 36:0 37:40 38:0 39:20 40:60 41:50 42:44 
1.406120711820609 1:0 2:-100 3:0 4:0 5:0 6:0 7:0 8:0 9:0 10:0 11:0 12:0 13:0 14:0 15:0 16:0 17:0 18:100 19:0 20:0 21:40 22:0 23:0 24:0 25:0 26:0 27:0 28:20 29:40 30:20 31:0 32:0 33:0 34:0 35:0 36:20 37:20 38:0 39:20 40:0 41:50 42:70 
1.151028039458023 1:0 2:0 3:0 4:0 5:0 6:0 7:0 8:-100 9:100 10:0 11:0 12:0 13:0 14:0 15:0 16:0 17:0 18:0 19:0 20:0 21:20 22:0 23:40 24:0 25:0 26:40 27:20 28:0 29:0 30:0 31:40 32:40 33:0 34:20 35:20 36:20 37:60 38:0 39:20 40:20 41:21 42:49 
0.2592527437901599 1:0 2:0 3:0 4:0 5:0 6:0 7:0 8:0 9:100 10:0 11:0 12:0 13:0 14:0 15:0 16:-100 17:0 18:0 19:0 20:0 21:20 22:80 23:20 24:0 25:0 26:0 27:0 28:40 29:60 30:0 31:0 32:20 33:0 34:40 35:0 36:40 37:0 38:40 39:0 40:0 41:28 42:25 
2 1:0 2:0 3:0 4:0 5:0 6:0 7:0 8:0 9:0 10:0 11:0 12:0 13:0 14:0 15:0 16:100 17:0 18:-100 19:0 20:0 21:40 22:0 23:20 24:0 25:20 26:0 27:0 28:60 29:60 30:20 31:20 32:0 33:0 34:0 35:20 36:0 37:40 38:20 39:40 40:0 41:53 42:55 
2 1:0 2:0 3:0 4:0 5:0 6:0 7:0 8:0 9:0 10:0 11:0 12:0 13:0 14:0 15:0 16:100 17:0 18:-100 19:0 20:0 21:40 22:0 23:20 24:0 25:20 26:0 27:0 28:60 29:60 30:20 31:20 32:0 33:0 34:0 35:20 36:0 37:40 38:20 39:40 40:0 41:53 42:55 
1.880546816530932 1:0 2:0 3:0 4:0 5:0 6:0 7:0 8:0 9:0 10:0 11:0 12:0 13:0 14:0 15:0 16:100 17:0 18:-100 19:0 20:0 21:40 22:0 23:20 24:0 25:20 26:0 27:0 28:60 29:60 30:20 31:20 32:0 33:0 34:0 35:20 36:0 37:40 38:20 39:40 40:0 41:53 42:55 
2 1:0 2:0 3:0 4:0 5:100 6:0 7:-100 8:0 9:0 10:0 11:0 12:0 13:0 14:0 15:0 16:0 17:0 18:0 19:0 20:0 21:60 22:0 23:0 24:0 25:0 26:0 27:0 28:40 29:0 30:0 31:0 32:0 33:40 34:0 35:60 36:0 37:60 38:0 39:20 40:20 41:19 42:64 
0.4018100015374895 1:100 2:0 3:-100 4:0 5:0 6:0 7:0 8:0 9:0 10:0 11:0 12:0 13:0 14:0 15:0 16:0 17:0 18:0 19:0 20:0 21:20 22:0 23:20 24:20 25:20 26:0 27:0 28:0 29:20 30:20 31:20 32:40 33:0 34:0 35:0 36:40 37:40 38:20 39:0 40:0 41:50 42:25 
0.4506445286135862 1:-100 2:0 3:0 4:0 5:0 6:0 7:0 8:0 9:100 10:0 11:0 12:0 13:0 14:0 15:0 16:0 17:0 18:0 19:0 20:0 21:60 22:40 23:0 24:0 25:0 26:40 27:0 28:20 29:60 30:0 31:0 32:0 33:0 34:20 35:0 36:20 37:20 38:60 39:0 40:20 41:68 42:82 
2 1:0 2:0 3:0 4:0 5:100 6:0 7:-100 8:0 9:0 10:0 11:0 12:0 13:0 14:0 15:0 16:0 17:0 18:0 19:0 20:0 21:0 22:0 23:20 24:0 25:0 26:0 27:20 28:20 29:40 30:20 31:40 32:40 33:20 34:20 35:0 36:60 37:20 38:0 39:40 40:0 41:35 42:63 
2 1:0 2:0 3:0 4:0 5:0 6:0 7:0 8:0 9:0 10:0 11:0 12:0 13:0 14:0 15:0 16:0 17:0 18:0 19:100 20:-100 21:20 22:0 23:20 24:0 25:0 26:20 27:20 28:40 29:40 30:20 31:20 32:20 33:20 34:0 35:20 36:20 37:20 38:0 39:60 40:0 41:15 42:65 
2 1:0 2:0 3:0 4:0 5:0 6:0 7:0 8:0 9:0 10:0 11:0 12:0 13:0 14:0 15:0 16:0 17:0 18:0 19:100 20:-100 21:20 22:0 23:20 24:0 25:0 26:20 27:20 28:40 29:40 30:20 31:20 32:20 33:20 34:0 35:20 36:20 37:20 38:0 39:60 40:0 41:16 42:65 
2 1:0 2:0 3:0 4:0 5:0 6:0 7:0 8:0 9:0 10:0 11:0 12:0 13:0 14:0 15:0 16:0 17:0 18:0 19:100 20:-100 21:20 22:0 23:20 24:0 25:0 26:20 27:20 28:40 29:40 30:20 31:20 32:20 33:20 34:0 35:20 36:20 37:20 38:0 39:60 40:0 41:32 42:65 
2 1:0 2:0 3:0 4:0 5:0 6:0 7:0 8:0 9:0 10:0 11:0 12:0 13:0 14:0 15:0 16:0 17:0 18:0 19:100 20:-100 21:20 22:0 23:20 24:0 25:0 26:20 27:20 28:40 29:40 30:20 31:20 32:20 33:20 34:0 35:20 36:20 37:20 38:0 39:60 40:0 41:28 42:65 
2 1:0 2:0 3:0 4:0 5:0 6:0 7:100 8:0 9:0 10:0 11:-100 12:0 13:0 14:0 15:0 16:0 17:0 18:0 19:0 20:0 21:40 22:40 23:40 24:0 25:0 26:0 27:0 28:0 29:60 30:0 31:60 32:20 33:20 34:0 35:0 36:40 37:0 38:0 39:20 40:20 41:45 42:74 
0.4640921401709344 1:0 2:0 3:0 4:0 5:-100 6:0 7:0 8:0 9:100 10:0 11:0 12:0 13:0 14:0 15:0 16:0 17:0 18:0 19:0 20:0 21:60 22:0 23:40 24:0 25:20 26:0 27:0 28:40 29:20 30:0 31:20 32:0 33:0 34:20 35:0 36:0 37:40 38:60 39:0 40:40 41:50 42:60 
2 1:0 2:0 3:0 4:0 5:0 6:0 7:0 8:0 9:0 10:0 11:-100 12:0 13:0 14:0 15:0 16:0 17:0 18:0 19:0 20:100 21:40 22:40 23:40 24:0 25:0 26:0 27:0 28:0 29:60 30:0 31:60 32:20 33:20 34:0 35:0 36:40 37:0 38:0 39:20 40:20 41:45 42:74 
2 1:0 2:0 3:0 4:0 5:0 6:0 7:0 8:0 9:100 10:0 11:-100 12:0 13:0 14:0 15:0 16:0 17:0 18:0 19:0 20:0 21:40 22:40 23:40 24:0 25:0 26:0 27:0 28:0 29:60 30:0 31:60 32:20 33:20 34:0 35:0 36:40 37:0 38:0 39:20 40:20 41:45 42:74 
0.336729187544224 1:0 2:0 3:0 4:0 5:0 6:-100 7:100 8:0 9:0 10:0 11:0 12:0 13:0 14:0 15:0 16:0 17:0 18:0 19:0 20:0 21:0 22:40 23:40 24:0 25:0 26:0 27:60 28:0 29:0 30:0 31:60 32:40 33:0 34:20 35:20 36:20 37:0 38:0 39:0 40:60 41:64 42:25 
0.2851100114243937 1:0 2:0 3:0 4:0 5:0 6:-100 7:100 8:0 9:0 10:0 11:0 12:0 13:0 14:0 15:0 16:0 17:0 18:0 19:0 20:0 21:0 22:40 23:40 24:0 25:0 26:0 27:60 28:0 29:0 30:0 31:60 32:40 33:0 34:20 35:20 36:20 37:0 38:0 39:0 40:60 41:41 42:25 
2 1:0 2:0 3:0 4:0 5:0 6:0 7:0 8:0 9:0 10:0 11:0 12:0 13:0 14:0 15:0 16:0 17:0 18:0 19:-100 20:100 21:60 22:20 23:0 24:0 25:20 26:0 27:20 28:20 29:0 30:20 31:60 32:20 33:0 34:0 35:20 36:0 37:60 38:20 39:0 40:20 41:50 42:48 
1.557067284225719 1:0 2:0 3:0 4:0 5:0 6:0 7:0 8:0 9:100 10:0 11:0 12:0 13:0 14:0 15:0 16:0 17:0 18:0 19:-100 20:0 21:60 22:20 23:0 24:0 25:20 26:0 27:20 28:20 29:0 30:20 31:60 32:20 33:0 34:0 35:20 36:0 37:60 38:20 39:0 40:20 41:50 42:48 
1.398174490012093 1:0 2:0 3:0 4:0 5:0 6:0 7:0 8:100 9:0 10:0 11:-100 12:0 13:0 14:0 15:0 16:0 17:0 18:0 19:0 20:0 21:20 22:40 23:20 24:0 25:0 26:20 27:20 28:20 29:60 30:20 31:0 32:20 33:0 34:0 35:0 36:40 37:20 38:20 39:20 40:20 41:45 42:25 
2 1:100 2:-100 3:0 4:0 5:0 6:0 7:0 8:0 9:0 10:0 11:0 12:0 13:0 14:0 15:0 16:0 17:0 18:0 19:0 20:0 21:40 22:60 23:20 24:0 25:0 26:0 27:0 28:40 29:40 30:0 31:0 32:40 33:0 34:20 35:0 36:80 37:0 38:0 39:0 40:20 41:78 42:76 
1.839637974950465 1:0 2:100 3:0 4:0 5:-100 6:0 7:0 8:0 9:0 10:0 11:0 12:0 13:0 14:0 15:0 16:0 17:0 18:0 19:0 20:0 21:0 22:40 23:20 24:0 25:20 26:0 27:0 28:40 29:40 30:40 31:0 32:20 33:20 34:0 35:40 36:0 37:20 38:0 39:20 40:40 41:51 42:51 
0.6232980953056724 1:0 2:-100 3:0 4:0 5:0 6:0 7:0 8:0 9:100 10:0 11:0 12:0 13:0 14:0 15:0 16:0 17:0 18:0 19:0 20:0 21:40 22:60 23:20 24:0 25:0 26:0 27:0 28:40 29:40 30:0 31:0 32:40 33:0 34:20 35:0 36:80 37:0 38:0 39:0 40:20 41:78 42:76 
1.398500118692277 1:0 2:0 3:0 4:0 5:0 6:0 7:0 8:0 9:0 10:0 11:0 12:0 13:0 14:0 15:0 16:100 17:0 18:-100 19:0 20:0 21:20 22:40 23:0 24:20 25:0 26:20 27:0 28:0 29:60 30:0 31:20 32:0 33:0 34:0 35:60 36:40 37:40 38:0 39:20 40:20 41:21 42:47 
0.6283547463585112 1:0 2:0 3:0 4:0 5:0 6:0 7:0 8:0 9:100 10:0 11:0 12:0 13:0 14:0 15:0 16:-100 17:0 18:0 19:0 20:0 21:20 22:0 23:0 24:0 25:40 26:0 27:20 28:40 29:40 30:0 31:20 32:20 33:20 34:0 35:40 36:20 37:0 38:20 39:40 40:20 41:50 42:39 
0.5852812633748441 1:-100 2:0 3:0 4:0 5:0 6:0 7:0 8:0 9:0 10:0 11:0 12:0 13:100 14:0 15:0 16:0 17:0 18:0 19:0 20:0 21:0 22:0 23:20 24:0 25:20 26:20 27:0 28:20 29:20 30:20 31:0 32:100 33:0 34:0 35:60 36:20 37:20 38:0 39:40 40:0 41:38 42:59 
2 1:-100 2:0 3:100 4:0 5:0 6:0 7:0 8:0 9:0 10:0 11:0 12:0 13:0 14:0 15:0 16:0 17:0 18:0 19:0 20:0 21:0 22:0 23:20 24:0 25:20 26:20 27:0 28:20 29:20 30:20 31:0 32:100 33:0 34:0 35:60 36:20 37:20 38:0 39:40 40:0 41:38 42:59 
0.4799208313214822 1:-100 2:0 3:0 4:100 5:0 6:0 7:0 8:0 9:0 10:0 11:0 12:0 13:0 14:0 15:0 16:0 17:0 18:0 19:0 20:0 21:0 22:0 23:20 24:0 25:20 26:20 27:0 28:20 29:20 30:20 31:0 32:100 33:0 34:0 35:60 36:20 37:20 38:0 39:40 40:0 41:38 42:65 
2 1:0 2:0 3:0 4:0 5:0 6:0 7:0 8:0 9:0 10:0 11:0 12:0 13:0 14:0 15:0 16:100 17:0 18:0 19:0 20:-100 21:40 22:60 23:0 24:0 25:20 26:20 27:20 28:40 29:20 30:0 31:20 32:0 33:0 34:0 35:0 36:20 37:0 38:40 39:20 40:40 41:50 42:44 
2 1:0 2:0 3:0 4:0 5:0 6:0 7:0 8:0 9:0 10:0 11:0 12:0 13:0 14:0 15:0 16:100 17:0 18:0 19:0 20:-100 21:40 22:60 23:0 24:0 25:20 26:20 27:20 28:40 29:20 30:0 31:20 32:0 33:0 34:0 35:0 36:20 37:0 38:40 39:20 40:40 41:50 42:44 
2 1:0 2:0 3:0 4:0 5:0 6:0 7:0 8:0 9:0 10:0 11:0 12:0 13:0 14:0 15:0 16:100 17:0 18:0 19:0 20:-100 21:40 22:60 23:0 24:0 25:20 26:20 27:20 28:40 29:20 30:0 31:20 32:0 33:0 34:0 35:0 36:20 37:0 38:40 39:20 40:40 41:50 42:44 
2 1:0 2:0 3:0 4:0 5:0 6:0 7:0 8:0 9:0 10:0 11:0 12:0 13:0 14:0 15:0 16:100 17:0 18:0 19:0 20:-100 21:40 22:60 23:0 24:0 25:20 26:20 27:20 28:40 29:20 30:0 31:20 32:0 33:0 34:0 35:0 36:20 37:0 38:40 39:20 40:40 41:50 42:44 
0.1851686048039116 1:0 2:0 3:0 4:0 5:0 6:0 7:0 8:0 9:0 10:0 11:0 12:0 13:0 14:0 15:0 16:100 17:0 18:0 19:0 20:-100 21:40 22:60 23:0 24:0 25:20 26:20 27:20 28:40 29:20 30:0 31:20 32:0 33:0 34:0 35:0 36:20 37:0 38:40 39:20 40:40 41:50 42:44 
0.2777864429518235 1:0 2:-100 3:0 4:0 5:0 6:0 7:0 8:0 9:0 10:0 11:0 12:0 13:100 14:0 15:0 16:0 17:0 18:0 19:0 20:0 21:60 22:60 23:0 24:0 25:0 26:0 27:40 28:20 29:0 30:20 31:0 32:0 33:20 34:0 35:0 36:20 37:20 38:40 39:40 40:20 41:50 42:25 
2 1:0 2:0 3:0 4:0 5:0 6:0 7:0 8:0 9:100 10:0 11:0 12:0 13:0 14:0 15:0 16:0 17:0 18:0 19:-100 20:0 21:40 22:20 23:0 24:0 25:20 26:0 27:0 28:20 29:60 30:0 31:0 32:20 33:0 34:0 35:20 36:40 37:20 38:40 39:0 40:60 41:17 42:47 
1.414604906730124 1:100 2:-100 3:0 4:0 5:0 6:0 7:0 8:0 9:0 10:0 11:0 12:0 13:0 14:0 15:0 16:0 17:0 18:0 19:0 20:0 21:60 22:60 23:0 24:0 25:0 26:0 27:40 28:20 29:0 30:20 31:0 32:0 33:20 34:0 35:0 36:20 37:20 38:40 39:40 40:20 41:50 42:25 
1.170947036234338 1:0 2:0 3:0 4:0 5:-100 6:0 7:0 8:0 9:100 10:0 11:0 12:0 13:0 14:0 15:0 16:0 17:0 18:0 19:0 20:0 21:0 22:20 23:0 24:0 25:0 26:0 27:20 28:20 29:0 30:80 31:0 32:20 33:20 34:0 35:20 36:0 37:0 38:20 39:0 40:20 41:50 42:39 
2 1:0 2:0 3:0 4:0 5:100 6:0 7:-100 8:0 9:0 10:0 11:0 12:0 13:0 14:0 15:0 16:0 17:0 18:0 19:0 20:0 21:0 22:20 23:0 24:20 25:0 26:20 27:20 28:20 29:60 30:0 31:20 32:40 33:20 34:0 35:20 36:20 37:0 38:20 39:60 40:0 41:19 42:64 
0.06614320312987214 1:0 2:0 3:0 4:0 5:0 6:0 7:-100 8:0 9:100 10:0 11:0 12:0 13:0 14:0 15:0 16:0 17:0 18:0 19:0 20:0 21:0 22:20 23:0 24:20 25:0 26:20 27:20 28:20 29:60 30:0 31:20 32:40 33:20 34:0 35:20 36:20 37:0 38:20 39:60 40:0 41:19 42:64 
1.950371018951019 1:100 2:0 3:-100 4:0 5:0 6:0 7:0 8:0 9:0 10:0 11:0 12:0 13:0 14:0 15:0 16:0 17:0 18:0 19:0 20:0 21:60 22:40 23:0 24:0 25:0 26:0 27:0 28:20 29:60 30:20 31:0 32:0 33:0 34:0 35:40 36:40 37:20 38:0 39:20 40:40 41:38 42:61 
1.808517859631527 1:0 2:0 3:0 4:0 5:0 6:0 7:0 8:-100 9:100 10:0 11:0 12:0 13:0 14:0 15:0 16:0 17:0 18:0 19:0 20:0 21:0 22:20 23:0 24:20 25:0 26:40 27:40 28:0 29:40 30:0 31:20 32:40 33:20 34:0 35:20 36:20 37:0 38:20 39:60 40:0 41:19 42:64 
0.09034603289465191 1:0 2:0 3:0 4:0 5:0 6:0 7:0 8:-100 9:0 10:0 11:0 12:0 13:0 14:0 15:0 16:0 17:100 18:0 19:0 20:0 21:0 22:20 23:0 24:20 25:0 26:40 27:40 28:0 29:40 30:0 31:20 32:40 33:20 34:0 35:20 36:20 37:0 38:20 39:60 40:0 41:19 42:64 
1.782432891540338 1:0 2:0 3:0 4:0 5:0 6:0 7:0 8:0 9:0 10:0 11:0 12:100 13:-100 14:0 15:0 16:0 17:0 18:0 19:0 20:0 21:20 22:60 23:0 24:0 25:0 26:0 27:60 28:20 29:0 30:40 31:20 32:0 33:0 34:0 35:0 36:20 37:20 38:40 39:40 40:20 41:50 42:25 
2 1:0 2:0 3:0 4:0 5:0 6:0 7:0 8:0 9:-100 10:100 11:0 12:0 13:0 14:0 15:0 16:0 17:0 18:0 19:0 20:0 21:40 22:40 23:20 24:0 25:20 26:0 27:0 28:20 29:40 30:0 31:0 32:0 33:0 34:0 35:40 36:40 37:20 38:0 39:40 40:40 41:25 42:57 
2 1:0 2:0 3:0 4:0 5:0 6:0 7:0 8:0 9:-100 10:100 11:0 12:0 13:0 14:0 15:0 16:0 17:0 18:0 19:0 20:0 21:40 22:40 23:20 24:0 25:20 26:0 27:0 28:20 29:40 30:0 31:0 32:0 33:0 34:0 35:40 36:40 37:20 38:0 39:40 40:40 41:46 42:62 
2 1:0 2:0 3:0 4:0 5:0 6:0 7:0 8:0 9:-100 10:100 11:0 12:0 13:0 14:0 15:0 16:0 17:0 18:0 19:0 20:0 21:40 22:40 23:20 24:0 25:20 26:0 27:0 28:20 29:40 30:0 31:0 32:0 33:0 34:0 35:40 36:40 37:20 38:0 39:40 40:40 41:28 42:62 
2 1:0 2:0 3:0 4:0 5:0 6:0 7:0 8:0 9:-100 10:100 11:0 12:0 13:0 14:0 15:0 16:0 17:0 18:0 19:0 20:0 21:40 22:40 23:20 24:0 25:20 26:0 27:0 28:20 29:40 30:0 31:0 32:0 33:0 34:0 35:40 36:40 37:20 38:0 39:40 40:40 41:39 42:65 
1.458896630485815 1:0 2:0 3:0 4:0 5:0 6:0 7:0 8:0 9:100 10:0 11:0 12:0 13:-100 14:0 15:0 16:0 17:0 18:0 19:0 20:0 21:20 22:60 23:0 24:0 25:0 26:0 27:60 28:20 29:0 30:40 31:20 32:0 33:0 34:0 35:0 36:20 37:20 38:40 39:40 40:20 41:50 42:25 
0.8653872950231448 1:0 2:0 3:0 4:100 5:0 6:0 7:0 8:0 9:0 10:0 11:0 12:0 13:-100 14:0 15:0 16:0 17:0 18:0 19:0 20:0 21:20 22:60 23:0 24:0 25:0 26:0 27:60 28:20 29:0 30:40 31:20 32:0 33:0 34:0 35:0 36:20 37:20 38:40 39:40 40:20 41:50 42:25 
1.101684694196915 1:0 2:0 3:100 4:0 5:0 6:0 7:0 8:0 9:0 10:0 11:0 12:0 13:-100 14:0 15:0 16:0 17:0 18:0 19:0 20:0 21:20 22:60 23:0 24:0 25:0 26:0 27:60 28:20 29:0 30:40 31:20 32:0 33:0 34:0 35:0 36:20 37:20 38:40 39:40 40:20 41:50 42:25 
0.9714666871142678 1:0 2:100 3:0 4:0 5:0 6:0 7:-100 8:0 9:0 10:0 11:0 12:0 13:0 14:0 15:0 16:0 17:0 18:0 19:0 20:0 21:0 22:80 23:0 24:20 25:0 26:0 27:0 28:40 29:20 30:0 31:20 32:20 33:0 34:0 35:40 36:0 37:0 38:40 39:20 40:60 41:60 42:37 
1.543740437294529 1:0 2:0 3:0 4:0 5:100 6:0 7:-100 8:0 9:0 10:0 11:0 12:0 13:0 14:0 15:0 16:0 17:0 18:0 19:0 20:0 21:0 22:80 23:0 24:20 25:0 26:0 27:0 28:40 29:20 30:0 31:20 32:20 33:0 34:0 35:40 36:0 37:0 38:40 39:20 40:60 41:60 42:37 
1.442042845330994 1:0 2:-100 3:100 4:0 5:0 6:0 7:0 8:0 9:0 10:0 11:0 12:0 13:0 14:0 15:0 16:0 17:0 18:0 19:0 20:0 21:20 22:20 23:0 24:20 25:20 26:20 27:0 28:40 29:20 30:0 31:20 32:40 33:0 34:0 35:40 36:20 37:40 38:0 39:20 40:20 41:38 42:61 
2 1:0 2:0 3:0 4:0 5:0 6:0 7:0 8:0 9:0 10:0 11:0 12:0 13:0 14:0 15:0 16:0 17:100 18:-100 19:0 20:0 21:40 22:40 23:0 24:0 25:0 26:20 27:0 28:20 29:20 30:20 31:20 32:20 33:0 34:0 35:0 36:40 37:0 38:60 39:20 40:0 41:44 42:25 
1.46455571427951 1:100 2:0 3:-100 4:0 5:0 6:0 7:0 8:0 9:0 10:0 11:0 12:0 13:0 14:0 15:0 16:0 17:0 18:0 19:0 20:0 21:0 22:0 23:0 24:0 25:20 26:0 27:20 28:0 29:0 30:0 31:0 32:60 33:0 34:20 35:20 36:20 37:20 38:0 39:0 40:20 41:45 42:25 
2 1:0 2:0 3:0 4:0 5:0 6:0 7:0 8:0 9:0 10:0 11:0 12:0 13:0 14:0 15:100 16:0 17:-100 18:0 19:0 20:0 21:60 22:0 23:0 24:20 25:0 26:0 27:60 28:0 29:20 30:0 31:20 32:20 33:20 34:0 35:20 36:20 37:60 38:40 39:0 40:0 41:50 42:25 
2 1:0 2:0 3:0 4:0 5:0 6:0 7:0 8:0 9:0 10:0 11:0 12:0 13:0 14:-100 15:100 16:0 17:0 18:0 19:0 20:0 21:20 22:40 23:20 24:0 25:0 26:0 27:60 28:20 29:20 30:20 31:0 32:40 33:0 34:0 35:0 36:40 37:20 38:0 39:20 40:40 41:45 42:25 
2 1:0 2:0 3:0 4:0 5:0 6:0 7:0 8:0 9:0 10:0 11:0 12:0 13:0 14:0 15:0 16:0 17:100 18:-100 19:0 20:0 21:40 22:20 23:20 24:0 25:40 26:0 27:0 28:60 29:20 30:0 31:20 32:20 33:0 34:0 35:0 36:20 37:40 38:60 39:0 40:0 41:53 42:55 
2 1:0 2:0 3:0 4:0 5:100 6:0 7:-100 8:0 9:0 10:0 11:0 12:0 13:0 14:0 15:0 16:0 17:0 18:0 19:0 20:0 21:20 22:40 23:20 24:0 25:20 26:0 27:20 28:20 29:20 30:20 31:0 32:40 33:0 34:20 35:0 36:20 37:20 38:0 39:20 40:60 41:45 42:25 
1.856777235396646 1:0 2:100 3:-100 4:0 5:0 6:0 7:0 8:0 9:0 10:0 11:0 12:0 13:0 14:0 15:0 16:0 17:0 18:0 19:0 20:0 21:0 22:20 23:0 24:0 25:20 26:40 27:20 28:40 29:0 30:0 31:80 32:0 33:20 34:0 35:0 36:20 37:20 38:0 39:60 40:20 41:32 42:66 
1.532884268247636 1:0 2:0 3:0 4:-100 5:0 6:0 7:0 8:100 9:0 10:0 11:0 12:0 13:0 14:0 15:0 16:0 17:0 18:0 19:0 20:0 21:80 22:40 23:0 24:20 25:0 26:0 27:20 28:20 29:0 30:40 31:0 32:40 33:20 34:0 35:20 36:0 37:0 38:20 39:0 40:40 41:22 42:53 
2 1:0 2:0 3:100 4:-100 5:0 6:0 7:0 8:0 9:0 10:0 11:0 12:0 13:0 14:0 15:0 16:0 17:0 18:0 19:0 20:0 21:80 22:40 23:0 24:20 25:0 26:0 27:20 28:20 29:0 30:40 31:0 32:40 33:20 34:0 35:20 36:0 37:0 38:20 39:0 40:40 41:50 42:53 
2 1:0 2:0 3:100 4:-100 5:0 6:0 7:0 8:0 9:0 10:0 11:0 12:0 13:0 14:0 15:0 16:0 17:0 18:0 19:0 20:0 21:80 22:40 23:0 24:20 25:0 26:0 27:20 28:20 29:0 30:40 31:0 32:40 33:20 34:0 35:20 36:0 37:0 38:20 39:0 40:40 41:22 42:53 
1.306834540170053 1:0 2:0 3:100 4:-100 5:0 6:0 7:0 8:0 9:0 10:0 11:0 12:0 13:0 14:0 15:0 16:0 17:0 18:0 19:0 20:0 21:80 22:40 23:0 24:20 25:0 26:0 27:20 28:20 29:0 30:40 31:0 32:40 33:20 34:0 35:20 36:0 37:0 38:20 39:0 40:40 41:67 42:53 
0.5363485026500698 1:0 2:100 3:0 4:-100 5:0 6:0 7:0 8:0 9:0 10:0 11:0 12:0 13:0 14:0 15:0 16:0 17:0 18:0 19:0 20:0 21:80 22:40 23:0 24:20 25:0 26:0 27:20 28:20 29:0 30:40 31:0 32:40 33:20 34:0 35:20 36:0 37:0 38:20 39:0 40:40 41:50 42:53 
2 1:0 2:100 3:0 4:-100 5:0 6:0 7:0 8:0 9:0 10:0 11:0 12:0 13:0 14:0 15:0 16:0 17:0 18:0 19:0 20:0 21:80 22:40 23:0 24:20 25:0 26:0 27:20 28:20 29:0 30:40 31:0 32:40 33:20 34:0 35:20 36:0 37:0 38:20 39:0 40:40 41:22 42:53 
2 1:100 2:0 3:0 4:-100 5:0 6:0 7:0 8:0 9:0 10:0 11:0 12:0 13:0 14:0 15:0 16:0 17:0 18:0 19:0 20:0 21:80 22:40 23:0 24:20 25:0 26:0 27:20 28:20 29:0 30:40 31:0 32:40 33:20 34:0 35:20 36:0 37:0 38:20 39:0 40:40 41:22 42:53 
2 1:100 2:0 3:0 4:-100 5:0 6:0 7:0 8:0 9:0 10:0 11:0 12:0 13:0 14:0 15:0 16:0 17:0 18:0 19:0 20:0 21:80 22:40 23:0 24:20 25:0 26:0 27:20 28:20 29:0 30:40 31:0 32:40 33:20 34:0 35:20 36:0 37:0 38:20 39:0 40:40 41:50 42:53 
2 1:100 2:0 3:0 4:-100 5:0 6:0 7:0 8:0 9:0 10:0 11:0 12:0 13:0 14:0 15:0 16:0 17:0 18:0 19:0 20:0 21:80 22:40 23:0 24:20 25:0 26:0 27:20 28:20 29:0 30:40 31:0 32:40 33:20 34:0 35:20 36:0 37:0 38:20 39:0 40:40 41:67 42:53 
2 1:0 2:0 3:0 4:0 5:0 6:0 7:0 8:0 9:0 10:100 11:0 12:0 13:0 14:0 15:0 16:0 17:0 18:-100 19:0 20:0 21:20 22:20 23:40 24:0 25:0 26:0 27:0 28:20 29:0 30:40 31:20 32:0 33:0 34:0 35:20 36:60 37:60 38:0 39:20 40:40 41:21 42:65 
2 1:0 2:0 3:0 4:0 5:0 6:0 7:0 8:0 9:0 10:0 11:0 12:0 13:0 14:0 15:0 16:0 17:100 18:-100 19:0 20:0 21:20 22:20 23:40 24:0 25:0 26:0 27:0 28:20 29:0 30:40 31:20 32:0 33:0 34:0 35:20 36:60 37:60 38:0 39:20 40:40 41:21 42:65 
2 1:0 2:0 3:0 4:0 5:0 6:0 7:0 8:0 9:0 10:0 11:0 12:0 13:0 14:100 15:0 16:0 17:0 18:-100 19:0 20:0 21:20 22:20 23:40 24:0 25:0 26:0 27:0 28:20 29:0 30:40 31:20 32:0 33:0 34:0 35:20 36:60 37:60 38:0 39:20 40:40 41:21 42:65 
2 1:0 2:0 3:0 4:0 5:0 6:0 7:0 8:0 9:0 10:0 11:0 12:0 13:0 14:0 15:0 16:100 17:0 18:-100 19:0 20:0 21:20 22:20 23:40 24:0 25:0 26:0 27:0 28:20 29:0 30:40 31:20 32:0 33:0 34:0 35:20 36:60 37:60 38:0 39:20 40:40 41:21 42:65 
0.02476095035120602 1:-100 2:0 3:0 4:0 5:100 6:0 7:0 8:0 9:0 10:0 11:0 12:0 13:0 14:0 15:0 16:0 17:0 18:0 19:0 20:0 21:0 22:40 23:40 24:40 25:0 26:0 27:20 28:40 29:20 30:20 31:0 32:20 33:0 34:0 35:0 36:60 37:20 38:0 39:0 40:40 41:38 42:40 
0.6033763992079102 1:0 2:0 3:0 4:0 5:0 6:0 7:100 8:0 9:-100 10:0 11:0 12:0 13:0 14:0 15:0 16:0 17:0 18:0 19:0 20:0 21:20 22:20 23:0 24:0 25:0 26:0 27:20 28:40 29:40 30:0 31:80 32:20 33:0 34:20 35:0 36:0 37:40 38:20 39:0 40:40 41:17 42:0 
2 1:0 2:0 3:0 4:0 5:0 6:0 7:0 8:0 9:0 10:0 11:100 12:0 13:0 14:0 15:0 16:0 17:-100 18:0 19:0 20:0 21:0 22:40 23:40 24:0 25:20 26:0 27:0 28:40 29:20 30:40 31:0 32:0 33:0 34:0 35:20 36:40 37:40 38:20 39:0 40:40 41:26 42:50 
2 1:0 2:0 3:0 4:0 5:0 6:0 7:0 8:0 9:0 10:0 11:0 12:100 13:0 14:0 15:0 16:0 17:-100 18:0 19:0 20:0 21:0 22:40 23:40 24:0 25:20 26:0 27:0 28:40 29:20 30:40 31:0 32:0 33:0 34:0 35:20 36:40 37:40 38:20 39:0 40:40 41:26 42:50 
2 1:100 2:0 3:0 4:0 5:0 6:0 7:0 8:0 9:0 10:0 11:0 12:0 13:0 14:0 15:0 16:0 17:-100 18:0 19:0 20:0 21:0 22:40 23:40 24:0 25:20 26:0 27:0 28:40 29:20 30:40 31:0 32:0 33:0 34:0 35:20 36:40 37:40 38:20 39:0 40:40 41:26 42:50 
2 1:0 2:100 3:0 4:0 5:0 6:0 7:0 8:0 9:0 10:0 11:0 12:0 13:0 14:0 15:0 16:0 17:-100 18:0 19:0 20:0 21:0 22:40 23:40 24:0 25:20 26:0 27:0 28:40 29:20 30:40 31:0 32:0 33:0 34:0 35:20 36:40 37:40 38:20 39:0 40:40 41:26 42:50 
2 1:0 2:0 3:0 4:0 5:0 6:0 7:0 8:0 9:0 10:0 11:0 12:0 13:0 14:0 15:0 16:0 17:-100 18:0 19:100 20:0 21:0 22:40 23:40 24:0 25:20 26:0 27:0 28:40 29:20 30:40 31:0 32:0 33:0 34:0 35:20 36:40 37:40 38:20 39:0 40:40 41:26 42:50 
2 1:0 2:0 3:0 4:0 5:0 6:0 7:0 8:0 9:0 10:0 11:0 12:0 13:0 14:0 15:0 16:0 17:0 18:-100 19:0 20:100 21:20 22:40 23:20 24:40 25:0 26:0 27:20 28:0 29:60 30:0 31:0 32:60 33:0 34:0 35:40 36:0 37:0 38:20 39:40 40:0 41:64 42:47 
0.3548280241953029 1:0 2:0 3:0 4:0 5:0 6:0 7:0 8:0 9:-100 10:0 11:100 12:0 13:0 14:0 15:0 16:0 17:0 18:0 19:0 20:0 21:60 22:0 23:20 24:0 25:0 26:0 27:0 28:20 29:60 30:20 31:0 32:0 33:20 34:0 35:40 36:20 37:20 38:0 39:20 40:60 41:19 42:64 
2 1:0 2:0 3:0 4:0 5:0 6:0 7:0 8:100 9:0 10:0 11:0 12:-100 13:0 14:0 15:0 16:0 17:0 18:0 19:0 20:0 21:20 22:0 23:0 24:0 25:20 26:0 27:20 28:0 29:20 30:0 31:0 32:80 33:0 34:0 35:0 36:20 37:0 38:20 39:0 40:40 41:37 42:60 
1.001865561497219 1:0 2:0 3:0 4:0 5:-100 6:0 7:0 8:0 9:0 10:0 11:100 12:0 13:0 14:0 15:0 16:0 17:0 18:0 19:0 20:0 21:40 22:0 23:0 24:40 25:0 26:0 27:0 28:20 29:0 30:0 31:0 32:120 33:0 34:0 35:0 36:40 37:0 38:60 39:20 40:20 41:50 42:25 
1.66926866358249 1:-100 2:0 3:0 4:0 5:0 6:0 7:0 8:0 9:0 10:0 11:0 12:100 13:0 14:0 15:0 16:0 17:0 18:0 19:0 20:0 21:0 22:20 23:0 24:0 25:0 26:40 27:20 28:0 29:60 30:0 31:20 32:0 33:0 34:0 35:40 36:40 37:40 38:20 39:40 40:20 41:20 42:51 
2 1:-100 2:0 3:0 4:0 5:0 6:0 7:0 8:0 9:0 10:0 11:0 12:100 13:0 14:0 15:0 16:0 17:0 18:0 19:0 20:0 21:0 22:20 23:0 24:0 25:0 26:40 27:20 28:0 29:60 30:0 31:20 32:0 33:0 34:0 35:40 36:40 37:40 38:20 39:40 40:20 41:21 42:53 
1.961732916682621 1:0 2:0 3:0 4:0 5:-100 6:0 7:0 8:0 9:100 10:0 11:0 12:0 13:0 14:0 15:0 16:0 17:0 18:0 19:0 20:0 21:40 22:20 23:20 24:40 25:0 26:0 27:0 28:60 29:60 30:0 31:0 32:20 33:0 34:0 35:40 36:0 37:20 38:20 39:20 40:0 41:38 42:65 
1.053163703694508 1:0 2:0 3:0 4:100 5:-100 6:0 7:0 8:0 9:0 10:0 11:0 12:0 13:0 14:0 15:0 16:0 17:0 18:0 19:0 20:0 21:40 22:20 23:20 24:40 25:0 26:0 27:0 28:60 29:60 30:0 31:0 32:20 33:0 34:0 35:40 36:0 37:20 38:20 39:20 40:0 41:38 42:65 
2 1:0 2:0 3:0 4:0 5:0 6:0 7:0 8:0 9:100 10:0 11:0 12:0 13:0 14:0 15:0 16:0 17:0 18:0 19:-100 20:0 21:0 22:0 23:0 24:20 25:20 26:0 27:20 28:40 29:40 30:0 31:20 32:0 33:40 34:0 35:60 36:40 37:0 38:20 39:20 40:20 41:50 42:39 
2 1:100 2:0 3:0 4:0 5:0 6:0 7:0 8:0 9:0 10:0 11:-100 12:0 13:0 14:0 15:0 16:0 17:0 18:0 19:0 20:0 21:40 22:40 23:40 24:0 25:0 26:0 27:0 28:0 29:60 30:0 31:60 32:20 33:20 34:0 35:0 36:40 37:0 38:0 39:20 40:20 41:45 42:74 
2 1:0 2:0 3:0 4:0 5:0 6:0 7:0 8:-100 9:100 10:0 11:0 12:0 13:0 14:0 15:0 16:0 17:0 18:0 19:0 20:0 21:0 22:20 23:40 24:0 25:0 26:0 27:20 28:20 29:20 30:0 31:20 32:80 33:0 34:0 35:20 36:0 37:40 38:0 39:40 40:40 41:19 42:65 
2 1:0 2:0 3:0 4:-100 5:100 6:0 7:0 8:0 9:0 10:0 11:0 12:0 13:0 14:0 15:0 16:0 17:0 18:0 19:0 20:0 21:40 22:60 23:20 24:0 25:40 26:0 27:0 28:40 29:20 30:20 31:20 32:0 33:0 34:0 35:40 36:20 37:20 38:0 39:0 40:20 41:50 42:25 
0.1860514137607135 1:0 2:0 3:0 4:-100 5:0 6:0 7:0 8:0 9:100 10:0 11:0 12:0 13:0 14:0 15:0 16:0 17:0 18:0 19:0 20:0 21:40 22:60 23:20 24:0 25:40 26:0 27:0 28:40 29:20 30:20 31:20 32:0 33:0 34:0 35:40 36:20 37:20 38:0 39:0 40:20 41:50 42:25 
2 1:0 2:0 3:0 4:0 5:0 6:0 7:0 8:0 9:100 10:-100 11:0 12:0 13:0 14:0 15:0 16:0 17:0 18:0 19:0 20:0 21:0 22:20 23:0 24:0 25:60 26:0 27:0 28:0 29:60 30:20 31:0 32:20 33:20 34:0 35:0 36:20 37:60 38:40 39:0 40:40 41:52 42:53 
2 1:0 2:0 3:0 4:0 5:100 6:0 7:-100 8:0 9:0 10:0 11:0 12:0 13:0 14:0 15:0 16:0 17:0 18:0 19:0 20:0 21:40 22:0 23:20 24:0 25:40 26:20 27:0 28:80 29:0 30:0 31:20 32:0 33:0 34:0 35:0 36:40 37:0 38:60 39:40 40:0 41:50 42:70 
2 1:0 2:0 3:0 4:0 5:0 6:0 7:0 8:0 9:0 10:0 11:0 12:0 13:0 14:0 15:0 16:0 17:100 18:-100 19:0 20:0 21:60 22:0 23:20 24:0 25:60 26:0 27:0 28:60 29:0 30:0 31:20 32:0 33:0 34:0 35:0 36:20 37:20 38:40 39:20 40:40 41:53 42:55 
1.290220089679007 1:0 2:0 3:0 4:0 5:0 6:0 7:0 8:0 9:0 10:0 11:0 12:0 13:0 14:0 15:0 16:0 17:100 18:-100 19:0 20:0 21:60 22:0 23:20 24:0 25:60 26:0 27:0 28:60 29:0 30:0 31:20 32:0 33:0 34:0 35:0 36:20 37:20 38:40 39:20 40:40 41:53 42:55 
1.1075465321554 1:0 2:0 3:0 4:0 5:0 6:0 7:0 8:0 9:0 10:0 11:0 12:0 13:0 14:0 15:0 16:0 17:0 18:0 19:100 20:-100 21:0 22:40 23:40 24:0 25:0 26:20 27:40 28:0 29:0 30:0 31:60 32:40 33:0 34:20 35:20 36:20 37:0 38:0 39:20 40:40 41:45 42:25 
1.109268173102121 1:0 2:0 3:0 4:0 5:0 6:0 7:0 8:0 9:0 10:0 11:0 12:0 13:0 14:0 15:-100 16:0 17:100 18:0 19:0 20:0 21:0 22:20 23:40 24:0 25:20 26:0 27:40 28:20 29:20 30:0 31:80 32:20 33:0 34:0 35:20 36:0 37:0 38:0 39:40 40:40 41:31 42:25 
1.360331425798956 1:0 2:0 3:0 4:0 5:0 6:0 7:0 8:0 9:-100 10:0 11:100 12:0 13:0 14:0 15:0 16:0 17:0 18:0 19:0 20:0 21:0 22:60 23:20 24:0 25:0 26:0 27:0 28:20 29:40 30:20 31:60 32:20 33:0 34:0 35:0 36:60 37:0 38:20 39:20 40:20 41:21 42:51 
2 1:0 2:0 3:0 4:0 5:0 6:0 7:0 8:0 9:-100 10:0 11:0 12:0 13:0 14:0 15:0 16:100 17:0 18:0 19:0 20:0 21:0 22:60 23:20 24:0 25:0 26:0 27:0 28:20 29:40 30:20 31:60 32:20 33:0 34:0 35:0 36:60 37:0 38:20 39:20 40:20 41:38 42:53 
2 1:0 2:0 3:0 4:0 5:0 6:0 7:0 8:0 9:0 10:0 11:0 12:0 13:0 14:0 15:0 16:100 17:0 18:-100 19:0 20:0 21:20 22:0 23:40 24:0 25:20 26:0 27:0 28:40 29:20 30:0 31:20 32:40 33:0 34:0 35:20 36:20 37:20 38:40 39:20 40:40 41:50 42:44 
2 1:0 2:0 3:0 4:0 5:0 6:0 7:0 8:0 9:0 10:0 11:0 12:0 13:0 14:0 15:0 16:100 17:0 18:-100 19:0 20:0 21:20 22:0 23:40 24:0 25:20 26:0 27:0 28:40 29:20 30:0 31:20 32:40 33:0 34:0 35:20 36:20 37:20 38:40 39:20 40:40 41:50 42:44 
2 1:0 2:0 3:0 4:0 5:0 6:0 7:0 8:0 9:0 10:0 11:0 12:0 13:0 14:0 15:0 16:100 17:0 18:-100 19:0 20:0 21:20 22:0 23:40 24:0 25:20 26:0 27:0 28:40 29:20 30:0 31:20 32:40 33:0 34:0 35:20 36:20 37:20 38:40 39:20 40:40 41:50 42:44 
2 1:0 2:0 3:0 4:0 5:0 6:0 7:0 8:0 9:0 10:0 11:0 12:0 13:0 14:0 15:0 16:100 17:0 18:-100 19:0 20:0 21:20 22:0 23:40 24:0 25:20 26:0 27:0 28:40 29:20 30:0 31:20 32:40 33:0 34:0 35:20 36:20 37:20 38:40 39:20 40:40 41:50 42:44 
1.289269039798468 1:0 2:0 3:0 4:0 5:0 6:0 7:0 8:0 9:0 10:0 11:100 12:0 13:0 14:0 15:0 16:-100 17:0 18:0 19:0 20:0 21:0 22:40 23:0 24:20 25:0 26:0 27:0 28:20 29:80 30:0 31:60 32:40 33:0 34:0 35:20 36:20 37:0 38:20 39:0 40:40 41:52 42:45 
2 1:0 2:0 3:0 4:0 5:0 6:0 7:0 8:0 9:0 10:100 11:0 12:0 13:0 14:0 15:0 16:0 17:-100 18:0 19:0 20:0 21:20 22:40 23:20 24:0 25:0 26:60 27:0 28:20 29:40 30:0 31:0 32:0 33:0 34:20 35:20 36:40 37:40 38:20 39:0 40:20 41:39 42:52 
1.10130118459561 1:0 2:0 3:0 4:0 5:0 6:0 7:0 8:0 9:0 10:100 11:0 12:0 13:0 14:0 15:0 16:0 17:-100 18:0 19:0 20:0 21:20 22:40 23:20 24:0 25:0 26:60 27:0 28:20 29:40 30:0 31:0 32:0 33:0 34:20 35:20 36:40 37:40 38:20 39:0 40:20 41:21 42:49 
0.6644621030222779 1:0 2:0 3:0 4:0 5:0 6:0 7:0 8:0 9:-100 10:0 11:100 12:0 13:0 14:0 15:0 16:0 17:0 18:0 19:0 20:0 21:20 22:60 23:0 24:20 25:20 26:0 27:0 28:20 29:0 30:0 31:0 32:20 33:20 34:0 35:60 36:40 37:0 38:40 39:0 40:20 41:19 42:64 
2 1:0 2:0 3:0 4:0 5:0 6:0 7:0 8:0 9:0 10:0 11:0 12:0 13:0 14:-100 15:100 16:0 17:0 18:0 19:0 20:0 21:0 22:40 23:40 24:0 25:40 26:0 27:0 28:20 29:20 30:0 31:20 32:40 33:40 34:20 35:0 36:0 37:20 38:60 39:0 40:0 41:60 42:37 
2 1:0 2:0 3:0 4:0 5:0 6:0 7:0 8:100 9:0 10:0 11:0 12:0 13:0 14:0 15:0 16:0 17:0 18:0 19:-100 20:0 21:20 22:20 23:40 24:0 25:0 26:0 27:0 28:40 29:40 30:0 31:0 32:20 33:20 34:0 35:20 36:40 37:0 38:40 39:20 40:40 41:46 42:64 
1.161099808192984 1:0 2:0 3:0 4:0 5:0 6:0 7:0 8:100 9:0 10:0 11:0 12:0 13:0 14:0 15:0 16:0 17:0 18:0 19:-100 20:0 21:20 22:20 23:40 24:0 25:0 26:0 27:0 28:40 29:40 30:0 31:0 32:20 33:20 34:0 35:20 36:40 37:0 38:40 39:20 40:40 41:14 42:41 
0.7246619529219198 1:0 2:100 3:0 4:-100 5:0 6:0 7:0 8:0 9:0 10:0 11:0 12:0 13:0 14:0 15:0 16:0 17:0 18:0 19:0 20:0 21:60 22:20 23:20 24:20 25:20 26:0 27:0 28:40 29:40 30:0 31:0 32:20 33:20 34:0 35:40 36:0 37:20 38:20 39:20 40:0 41:21 42:51 
1.132204746727637 1:0 2:100 3:0 4:-100 5:0 6:0 7:0 8:0 9:0 10:0 11:0 12:0 13:0 14:0 15:0 16:0 17:0 18:0 19:0 20:0 21:60 22:20 23:20 24:20 25:20 26:0 27:0 28:40 29:40 30:0 31:0 32:20 33:20 34:0 35:40 36:0 37:20 38:20 39:20 40:0 41:38 42:61 
2 1:0 2:100 3:0 4:-100 5:0 6:0 7:0 8:0 9:0 10:0 11:0 12:0 13:0 14:0 15:0 16:0 17:0 18:0 19:0 20:0 21:60 22:20 23:20 24:20 25:20 26:0 27:0 28:40 29:40 30:0 31:0 32:20 33:20 34:0 35:40 36:0 37:20 38:20 39:20 40:0 41:40 42:64 
0.4302991437985355 1:0 2:0 3:0 4:-100 5:0 6:0 7:0 8:0 9:0 10:0 11:0 12:0 13:0 14:0 15:0 16:100 17:0 18:0 19:0 20:0 21:60 22:20 23:20 24:20 25:20 26:0 27:0 28:40 29:40 30:0 31:0 32:20 33:20 34:0 35:40 36:0 37:20 38:20 39:20 40:0 41:37 42:65 
1.346602740402767 1:0 2:0 3:0 4:0 5:0 6:0 7:0 8:0 9:-100 10:0 11:100 12:0 13:0 14:0 15:0 16:0 17:0 18:0 19:0 20:0 21:40 22:20 23:20 24:0 25:20 26:0 27:0 28:0 29:60 30:0 31:20 32:40 33:0 34:0 35:0 36:60 37:0 38:20 39:0 40:60 41:50 42:63 
0.01121188400554508 1:0 2:0 3:0 4:-100 5:0 6:0 7:0 8:0 9:100 10:0 11:0 12:0 13:0 14:0 15:0 16:0 17:0 18:0 19:0 20:0 21:60 22:20 23:20 24:20 25:20 26:0 27:0 28:40 29:60 30:0 31:0 32:20 33:0 34:0 35:40 36:0 37:20 38:20 39:20 40:0 41:38 42:65 
1.617241223183326 1:0 2:0 3:100 4:0 5:0 6:0 7:0 8:0 9:0 10:0 11:0 12:-100 13:0 14:0 15:0 16:0 17:0 18:0 19:0 20:0 21:20 22:0 23:20 24:0 25:20 26:20 27:20 28:20 29:40 30:20 31:0 32:60 33:0 34:0 35:60 36:20 37:0 38:0 39:20 40:20 41:38 42:59 
1.779749048778474 1:0 2:0 3:0 4:0 5:0 6:0 7:0 8:0 9:0 10:0 11:0 12:-100 13:100 14:0 15:0 16:0 17:0 18:0 19:0 20:0 21:20 22:0 23:20 24:0 25:20 26:20 27:20 28:20 29:40 30:20 31:0 32:60 33:0 34:0 35:60 36:20 37:0 38:0 39:20 40:20 41:38 42:59 
1.71678107791987 1:0 2:0 3:0 4:0 5:0 6:0 7:0 8:0 9:100 10:0 11:0 12:0 13:0 14:0 15:0 16:0 17:0 18:0 19:0 20:-100 21:0 22:0 23:0 24:20 25:20 26:0 27:0 28:40 29:40 30:0 31:20 32:20 33:40 34:0 35:40 36:40 37:0 38:20 39:40 40:0 41:50 42:39 
1.482516897279521 1:0 2:0 3:0 4:0 5:0 6:0 7:0 8:0 9:100 10:0 11:0 12:0 13:0 14:0 15:0 16:0 17:0 18:-100 19:0 20:0 21:80 22:40 23:0 24:0 25:0 26:20 27:0 28:40 29:60 30:0 31:0 32:0 33:0 34:40 35:0 36:20 37:20 38:0 39:0 40:40 41:28 42:25 
2 1:0 2:0 3:0 4:0 5:0 6:0 7:0 8:0 9:100 10:0 11:0 12:0 13:0 14:0 15:0 16:-100 17:0 18:0 19:0 20:0 21:40 22:40 23:60 24:0 25:0 26:0 27:0 28:0 29:40 30:40 31:0 32:0 33:0 34:0 35:0 36:40 37:40 38:40 39:0 40:20 41:45 42:46 
2 1:0 2:0 3:0 4:0 5:0 6:0 7:0 8:0 9:100 10:0 11:0 12:0 13:0 14:0 15:0 16:-100 17:0 18:0 19:0 20:0 21:40 22:40 23:60 24:0 25:0 26:0 27:0 28:0 29:40 30:40 31:0 32:0 33:0 34:0 35:0 36:40 37:40 38:40 39:0 40:20 41:44 42:25 
2 1:0 2:0 3:0 4:0 5:0 6:0 7:0 8:0 9:100 10:0 11:0 12:0 13:0 14:0 15:0 16:0 17:0 18:0 19:0 20:-100 21:40 22:0 23:0 24:0 25:20 26:20 27:20 28:40 29:20 30:0 31:0 32:100 33:0 34:0 35:0 36:20 37:0 38:20 39:20 40:40 41:50 42:25 
2 1:0 2:0 3:0 4:0 5:0 6:0 7:0 8:0 9:100 10:0 11:0 12:0 13:0 14:0 15:0 16:-100 17:0 18:0 19:0 20:0 21:60 22:40 23:20 24:0 25:0 26:0 27:0 28:20 29:20 30:20 31:20 32:0 33:0 34:0 35:0 36:60 37:20 38:60 39:0 40:20 41:45 42:46 
2 1:0 2:0 3:0 4:0 5:0 6:0 7:0 8:0 9:100 10:0 11:0 12:0 13:0 14:0 15:0 16:-100 17:0 18:0 19:0 20:0 21:60 22:40 23:20 24:0 25:0 26:0 27:0 28:20 29:20 30:20 31:20 32:0 33:0 34:0 35:0 36:60 37:20 38:60 39:0 40:20 41:44 42:25 
2 1:0 2:0 3:0 4:0 5:0 6:0 7:0 8:0 9:0 10:0 11:-100 12:100 13:0 14:0 15:0 16:0 17:0 18:0 19:0 20:0 21:40 22:60 23:0 24:0 25:40 26:0 27:20 28:60 29:0 30:20 31:40 32:20 33:0 34:20 35:0 36:20 37:20 38:0 39:0 40:0 41:50 42:25 
0.4840502740819032 1:0 2:0 3:0 4:0 5:0 6:0 7:0 8:0 9:100 10:-100 11:0 12:0 13:0 14:0 15:0 16:0 17:0 18:0 19:0 20:0 21:0 22:20 23:0 24:0 25:60 26:0 27:0 28:20 29:0 30:20 31:20 32:40 33:20 34:0 35:0 36:20 37:60 38:40 39:0 40:40 41:52 42:53 
2 1:0 2:0 3:0 4:0 5:0 6:0 7:0 8:0 9:0 10:0 11:-100 12:0 13:100 14:0 15:0 16:0 17:0 18:0 19:0 20:0 21:40 22:60 23:0 24:0 25:40 26:0 27:20 28:60 29:0 30:20 31:40 32:20 33:0 34:20 35:0 36:20 37:20 38:0 39:0 40:0 41:50 42:25 
0.8345148014091421 1:0 2:0 3:0 4:0 5:0 6:0 7:0 8:0 9:0 10:100 11:0 12:0 13:0 14:0 15:0 16:0 17:-100 18:0 19:0 20:0 21:40 22:20 23:20 24:0 25:20 26:0 27:0 28:20 29:60 30:0 31:0 32:0 33:0 34:0 35:20 36:40 37:0 38:40 39:20 40:60 41:46 42:63 
0.01629801075040244 1:-100 2:0 3:0 4:0 5:0 6:0 7:0 8:0 9:0 10:0 11:0 12:0 13:0 14:0 15:0 16:0 17:0 18:0 19:100 20:0 21:0 22:20 23:0 24:0 25:0 26:0 27:0 28:40 29:60 30:20 31:40 32:20 33:60 34:20 35:0 36:20 37:0 38:0 39:40 40:20 41:19 42:64 
2 1:0 2:0 3:0 4:0 5:0 6:0 7:0 8:0 9:0 10:100 11:-100 12:0 13:0 14:0 15:0 16:0 17:0 18:0 19:0 20:0 21:0 22:40 23:20 24:0 25:0 26:0 27:0 28:20 29:60 30:20 31:40 32:0 33:0 34:0 35:20 36:60 37:0 38:20 39:40 40:20 41:21 42:51 
1.429256011889269 1:-100 2:0 3:0 4:0 5:0 6:0 7:0 8:0 9:0 10:0 11:0 12:0 13:0 14:0 15:0 16:0 17:0 18:0 19:0 20:100 21:0 22:20 23:0 24:0 25:0 26:0 27:0 28:40 29:60 30:20 31:40 32:20 33:60 34:20 35:0 36:20 37:0 38:0 39:40 40:20 41:19 42:64 
2 1:0 2:0 3:0 4:0 5:0 6:0 7:0 8:100 9:0 10:0 11:-100 12:0 13:0 14:0 15:0 16:0 17:0 18:0 19:0 20:0 21:0 22:40 23:20 24:0 25:0 26:0 27:0 28:20 29:60 30:20 31:40 32:0 33:0 34:0 35:20 36:60 37:0 38:20 39:40 40:20 41:21 42:51 
2 1:0 2:0 3:0 4:0 5:0 6:0 7:0 8:0 9:0 10:0 11:-100 12:0 13:0 14:0 15:0 16:0 17:0 18:0 19:0 20:100 21:0 22:40 23:20 24:0 25:0 26:0 27:0 28:20 29:60 30:20 31:40 32:0 33:0 34:0 35:20 36:60 37:0 38:20 39:40 40:20 41:21 42:51 
2 1:0 2:0 3:0 4:0 5:0 6:0 7:0 8:0 9:0 10:0 11:-100 12:0 13:100 14:0 15:0 16:0 17:0 18:0 19:0 20:0 21:0 22:40 23:20 24:0 25:0 26:0 27:0 28:20 29:60 30:20 31:40 32:0 33:0 34:0 35:20 36:60 37:0 38:20 39:40 40:20 41:21 42:51 
0.9434066376431878 1:-100 2:0 3:0 4:0 5:0 6:0 7:100 8:0 9:0 10:0 11:0 12:0 13:0 14:0 15:0 16:0 17:0 18:0 19:0 20:0 21:0 22:20 23:0 24:0 25:0 26:0 27:0 28:40 29:60 30:20 31:40 32:20 33:60 34:20 35:0 36:20 37:0 38:0 39:40 40:20 41:19 42:64 
2 1:0 2:0 3:0 4:0 5:0 6:0 7:0 8:0 9:100 10:0 11:-100 12:0 13:0 14:0 15:0 16:0 17:0 18:0 19:0 20:0 21:0 22:40 23:20 24:0 25:0 26:0 27:0 28:20 29:60 30:20 31:40 32:0 33:0 34:0 35:20 36:60 37:0 38:20 39:40 40:20 41:17 42:47 
2 1:0 2:0 3:0 4:0 5:0 6:0 7:0 8:0 9:0 10:0 11:-100 12:0 13:0 14:0 15:0 16:0 17:0 18:0 19:100 20:0 21:0 22:40 23:20 24:0 25:0 26:0 27:0 28:20 29:60 30:20 31:40 32:0 33:0 34:0 35:20 36:60 37:0 38:20 39:40 40:20 41:21 42:51 
0.5155852503193297 1:-100 2:0 3:0 4:0 5:0 6:0 7:0 8:0 9:0 10:0 11:0 12:0 13:0 14:0 15:100 16:0 17:0 18:0 19:0 20:0 21:0 22:20 23:0 24:0 25:0 26:0 27:0 28:40 29:60 30:20 31:40 32:20 33:60 34:20 35:0 36:20 37:0 38:0 39:40 40:20 41:19 42:64 
0.6123908386814291 1:0 2:-100 3:0 4:0 5:0 6:0 7:0 8:0 9:0 10:0 11:0 12:0 13:0 14:0 15:100 16:0 17:0 18:0 19:0 20:0 21:20 22:40 23:40 24:0 25:20 26:0 27:20 28:60 29:20 30:20 31:0 32:20 33:0 34:0 35:20 36:40 37:0 38:20 39:20 40:0 41:50 42:85 
2 1:0 2:0 3:0 4:0 5:0 6:0 7:0 8:0 9:0 10:0 11:0 12:0 13:0 14:0 15:0 16:0 17:100 18:-100 19:0 20:0 21:20 22:60 23:0 24:0 25:20 26:0 27:0 28:20 29:20 30:0 31:0 32:20 33:20 34:0 35:60 36:40 37:0 38:20 39:0 40:0 41:28 42:65 
2 1:0 2:0 3:0 4:0 5:0 6:0 7:0 8:0 9:0 10:0 11:0 12:0 13:0 14:0 15:0 16:0 17:100 18:-100 19:0 20:0 21:20 22:60 23:0 24:0 25:20 26:0 27:0 28:20 29:20 30:0 31:0 32:20 33:20 34:0 35:60 36:40 37:0 38:20 39:0 40:0 41:16 42:65 
2 1:0 2:0 3:0 4:0 5:0 6:0 7:0 8:0 9:0 10:0 11:0 12:0 13:0 14:0 15:0 16:0 17:100 18:-100 19:0 20:0 21:20 22:60 23:0 24:0 25:20 26:0 27:0 28:20 29:20 30:0 31:0 32:20 33:20 34:0 35:60 36:40 37:0 38:20 39:0 40:0 41:32 42:65 
2 1:0 2:0 3:0 4:0 5:0 6:0 7:0 8:0 9:100 10:0 11:0 12:0 13:0 14:0 15:0 16:0 17:0 18:0 19:0 20:-100 21:0 22:40 23:60 24:0 25:0 26:0 27:60 28:60 29:0 30:0 31:0 32:40 33:0 34:0 35:20 36:40 37:0 38:40 39:0 40:0 41:38 42:65 
1.459821118073988 1:0 2:0 3:0 4:-100 5:0 6:0 7:0 8:0 9:100 10:0 11:0 12:0 13:0 14:0 15:0 16:0 17:0 18:0 19:0 20:0 21:0 22:60 23:40 24:20 25:20 26:0 27:0 28:20 29:0 30:0 31:0 32:0 33:0 34:0 35:40 36:0 37:0 38:40 39:20 40:20 41:38 42:65 
2 1:0 2:0 3:0 4:0 5:0 6:0 7:0 8:0 9:0 10:0 11:0 12:0 13:0 14:0 15:0 16:0 17:100 18:-100 19:0 20:0 21:40 22:20 23:20 24:0 25:20 26:0 27:0 28:60 29:20 30:20 31:20 32:0 33:0 34:0 35:20 36:0 37:40 38:60 39:20 40:0 41:53 42:55 
2 1:0 2:0 3:0 4:0 5:0 6:0 7:0 8:0 9:0 10:0 11:0 12:0 13:0 14:0 15:0 16:0 17:100 18:-100 19:0 20:0 21:40 22:20 23:20 24:0 25:20 26:0 27:0 28:60 29:20 30:20 31:20 32:0 33:0 34:0 35:20 36:0 37:40 38:60 39:20 40:0 41:53 42:55 
2 1:0 2:0 3:0 4:0 5:0 6:0 7:0 8:0 9:0 10:0 11:0 12:0 13:0 14:0 15:0 16:0 17:100 18:-100 19:0 20:0 21:40 22:20 23:20 24:0 25:20 26:0 27:0 28:60 29:20 30:20 31:20 32:0 33:0 34:0 35:20 36:0 37:40 38:60 39:20 40:0 41:53 42:55 
2 1:0 2:0 3:0 4:0 5:0 6:0 7:0 8:0 9:0 10:0 11:0 12:0 13:0 14:0 15:0 16:0 17:100 18:-100 19:0 20:0 21:40 22:20 23:20 24:0 25:20 26:0 27:0 28:60 29:20 30:20 31:20 32:0 33:0 34:0 35:20 36:0 37:40 38:60 39:20 40:0 41:53 42:55 
0.6796870903934092 1:0 2:0 3:0 4:0 5:0 6:0 7:0 8:0 9:0 10:0 11:0 12:0 13:0 14:0 15:0 16:0 17:100 18:-100 19:0 20:0 21:40 22:20 23:20 24:0 25:20 26:0 27:0 28:60 29:20 30:20 31:20 32:0 33:0 34:0 35:20 36:0 37:40 38:60 39:20 40:0 41:53 42:55 
0.003469663611143209 1:0 2:0 3:0 4:0 5:0 6:0 7:0 8:0 9:0 10:0 11:0 12:0 13:0 14:0 15:0 16:0 17:100 18:-100 19:0 20:0 21:40 22:20 23:20 24:0 25:20 26:0 27:0 28:60 29:20 30:20 31:20 32:0 33:0 34:0 35:20 36:0 37:40 38:60 39:20 40:0 41:53 42:55 
0.5129319997945906 1:0 2:0 3:0 4:0 5:0 6:0 7:0 8:0 9:0 10:0 11:0 12:0 13:0 14:0 15:0 16:100 17:0 18:-100 19:0 20:0 21:40 22:20 23:20 24:0 25:20 26:0 27:0 28:60 29:20 30:20 31:20 32:0 33:0 34:0 35:20 36:0 37:40 38:60 39:20 40:0 41:53 42:55 
2 1:0 2:0 3:0 4:0 5:0 6:0 7:0 8:0 9:0 10:0 11:0 12:0 13:0 14:0 15:0 16:100 17:0 18:-100 19:0 20:0 21:40 22:20 23:20 24:0 25:20 26:0 27:0 28:60 29:20 30:20 31:20 32:0 33:0 34:0 35:20 36:0 37:40 38:60 39:20 40:0 41:53 42:55 
2 1:0 2:0 3:0 4:0 5:0 6:0 7:0 8:0 9:0 10:0 11:0 12:0 13:0 14:0 15:0 16:100 17:0 18:-100 19:0 20:0 21:40 22:20 23:20 24:0 25:20 26:0 27:0 28:60 29:20 30:20 31:20 32:0 33:0 34:0 35:20 36:0 37:40 38:60 39:20 40:0 41:53 42:55 
2 1:0 2:0 3:0 4:0 5:0 6:0 7:0 8:0 9:0 10:0 11:0 12:0 13:0 14:0 15:0 16:100 17:0 18:-100 19:0 20:0 21:40 22:20 23:20 24:0 25:20 26:0 27:0 28:60 29:20 30:20 31:20 32:0 33:0 34:0 35:20 36:0 37:40 38:60 39:20 40:0 41:53 42:55 
2 1:0 2:0 3:0 4:0 5:0 6:0 7:0 8:0 9:0 10:0 11:0 12:0 13:0 14:0 15:0 16:100 17:0 18:-100 19:0 20:0 21:40 22:20 23:20 24:0 25:20 26:0 27:0 28:60 29:20 30:20 31:20 32:0 33:0 34:0 35:20 36:0 37:40 38:60 39:20 40:0 41:53 42:55 
2 1:0 2:0 3:0 4:0 5:0 6:0 7:0 8:0 9:0 10:0 11:0 12:0 13:0 14:0 15:0 16:100 17:0 18:-100 19:0 20:0 21:40 22:20 23:20 24:0 25:20 26:0 27:0 28:60 29:20 30:20 31:20 32:0 33:0 34:0 35:20 36:0 37:40 38:60 39:20 40:0 41:53 42:55 
2 1:0 2:0 3:0 4:0 5:0 6:0 7:0 8:0 9:0 10:0 11:0 12:0 13:0 14:0 15:0 16:100 17:0 18:-100 19:0 20:0 21:40 22:20 23:20 24:0 25:20 26:0 27:0 28:60 29:20 30:20 31:20 32:0 33:0 34:0 35:20 36:0 37:40 38:60 39:20 40:0 41:53 42:55 
1.878268954494596 1:0 2:0 3:0 4:0 5:0 6:0 7:0 8:0 9:0 10:0 11:0 12:0 13:0 14:0 15:0 16:100 17:0 18:-100 19:0 20:0 21:40 22:20 23:20 24:0 25:20 26:0 27:0 28:60 29:20 30:20 31:20 32:0 33:0 34:0 35:20 36:0 37:40 38:60 39:20 40:0 41:53 42:55 
2 1:0 2:0 3:0 4:0 5:0 6:0 7:0 8:0 9:0 10:0 11:0 12:0 13:0 14:0 15:-100 16:0 17:100 18:0 19:0 20:0 21:20 22:40 23:0 24:20 25:0 26:20 27:40 28:60 29:0 30:0 31:20 32:0 33:20 34:20 35:20 36:20 37:0 38:0 39:40 40:20 41:45 42:74 
2 1:0 2:0 3:0 4:0 5:100 6:-100 7:0 8:0 9:0 10:0 11:0 12:0 13:0 14:0 15:0 16:0 17:0 18:0 19:0 20:0 21:0 22:0 23:0 24:0 25:0 26:0 27:20 28:60 29:0 30:20 31:0 32:0 33:0 34:60 35:0 36:20 37:0 38:20 39:20 40:0 41:53 42:23 
1.819605217202647 1:0 2:0 3:0 4:0 5:0 6:0 7:0 8:0 9:0 10:0 11:100 12:-100 13:0 14:0 15:0 16:0 17:0 18:0 19:0 20:0 21:0 22:0 23:0 24:0 25:40 26:0 27:0 28:20 29:60 30:0 31:20 32:40 33:0 34:0 35:20 36:20 37:20 38:20 39:80 40:20 41:45 42:74 
1.666172000454847 1:0 2:0 3:0 4:0 5:0 6:0 7:0 8:0 9:-100 10:0 11:0 12:100 13:0 14:0 15:0 16:0 17:0 18:0 19:0 20:0 21:20 22:40 23:20 24:20 25:0 26:0 27:0 28:0 29:0 30:20 31:0 32:0 33:0 34:0 35:40 36:0 37:0 38:0 39:0 40:20 41:50 42:25 
0.5961577838626391 1:0 2:-100 3:0 4:0 5:0 6:0 7:0 8:0 9:100 10:0 11:0 12:0 13:0 14:0 15:0 16:0 17:0 18:0 19:0 20:0 21:0 22:20 23:20 24:0 25:0 26:0 27:20 28:0 29:40 30:0 31:20 32:0 33:20 34:40 35:20 36:0 37:20 38:60 39:0 40:80 41:42 42:25 
0.2080396383050968 1:100 2:-100 3:0 4:0 5:0 6:0 7:0 8:0 9:0 10:0 11:0 12:0 13:0 14:0 15:0 16:0 17:0 18:0 19:0 20:0 21:0 22:20 23:20 24:0 25:0 26:0 27:20 28:0 29:40 30:0 31:20 32:0 33:20 34:40 35:20 36:0 37:20 38:60 39:0 40:80 41:42 42:25 
1.410375024909921 1:0 2:-100 3:0 4:100 5:0 6:0 7:0 8:0 9:0 10:0 11:0 12:0 13:0 14:0 15:0 16:0 17:0 18:0 19:0 20:0 21:0 22:40 23:40 24:0 25:0 26:0 27:40 28:40 29:40 30:20 31:40 32:40 33:0 34:20 35:0 36:20 37:0 38:0 39:20 40:0 41:38 42:65 
0.8671252055494207 1:0 2:0 3:0 4:0 5:0 6:0 7:0 8:0 9:100 10:0 11:0 12:0 13:0 14:0 15:0 16:0 17:0 18:0 19:-100 20:0 21:40 22:20 23:20 24:40 25:20 26:0 27:0 28:40 29:40 30:0 31:0 32:20 33:20 34:0 35:40 36:0 37:20 38:20 39:0 40:20 41:38 42:59 
2 1:0 2:0 3:0 4:0 5:0 6:0 7:0 8:0 9:0 10:0 11:0 12:0 13:0 14:0 15:0 16:0 17:-100 18:100 19:0 20:0 21:40 22:0 23:20 24:0 25:20 26:0 27:0 28:60 29:40 30:20 31:20 32:0 33:0 34:0 35:20 36:0 37:40 38:40 39:40 40:0 41:50 42:70 
0.3599017123958664 1:0 2:0 3:-100 4:0 5:0 6:0 7:0 8:0 9:100 10:0 11:0 12:0 13:0 14:0 15:0 16:0 17:0 18:0 19:0 20:0 21:0 22:60 23:0 24:0 25:20 26:0 27:40 28:20 29:60 30:0 31:0 32:0 33:0 34:0 35:20 36:80 37:0 38:40 39:0 40:20 41:68 42:82 
2 1:0 2:0 3:0 4:0 5:0 6:0 7:0 8:0 9:0 10:0 11:0 12:0 13:0 14:0 15:100 16:-100 17:0 18:0 19:0 20:0 21:20 22:0 23:40 24:20 25:40 26:0 27:20 28:0 29:0 30:20 31:0 32:0 33:0 34:0 35:20 36:100 37:0 38:40 39:40 40:0 41:46 42:25 
1.376713107154302 1:0 2:0 3:0 4:0 5:0 6:0 7:0 8:-100 9:0 10:0 11:0 12:0 13:0 14:0 15:0 16:0 17:0 18:0 19:0 20:100 21:20 22:20 23:20 24:0 25:20 26:20 27:20 28:0 29:20 30:0 31:0 32:80 33:0 34:0 35:40 36:40 37:0 38:0 39:20 40:20 41:46 42:64 
2 1:0 2:0 3:0 4:0 5:0 6:0 7:0 8:0 9:0 10:0 11:0 12:0 13:0 14:0 15:0 16:-100 17:0 18:100 19:0 20:0 21:20 22:0 23:20 24:0 25:20 26:20 27:20 28:20 29:20 30:20 31:0 32:80 33:0 34:0 35:60 36:0 37:20 38:0 39:40 40:0 41:37 42:66 
2 1:0 2:0 3:0 4:0 5:0 6:0 7:0 8:0 9:0 10:0 11:0 12:0 13:0 14:0 15:0 16:-100 17:0 18:100 19:0 20:0 21:20 22:0 23:20 24:0 25:20 26:20 27:20 28:20 29:20 30:20 31:0 32:80 33:0 34:0 35:60 36:0 37:20 38:0 39:40 40:0 41:37 42:25 
2 1:100 2:0 3:-100 4:0 5:0 6:0 7:0 8:0 9:0 10:0 11:0 12:0 13:0 14:0 15:0 16:0 17:0 18:0 19:0 20:0 21:0 22:60 23:0 24:0 25:20 26:0 27:40 28:20 29:60 30:0 31:0 32:0 33:0 34:0 35:20 36:80 37:0 38:40 39:0 40:20 41:78 42:76 
0.9289267723985368 1:0 2:100 3:0 4:-100 5:0 6:0 7:0 8:0 9:0 10:0 11:0 12:0 13:0 14:0 15:0 16:0 17:0 18:0 19:0 20:0 21:0 22:40 23:0 24:0 25:20 26:0 27:20 28:40 29:60 30:0 31:0 32:0 33:20 34:20 35:60 36:20 37:0 38:20 39:20 40:20 41:19 42:66 
1.788841801698043 1:0 2:0 3:0 4:0 5:0 6:0 7:0 8:0 9:100 10:0 11:0 12:0 13:0 14:0 15:0 16:-100 17:0 18:0 19:0 20:0 21:20 22:0 23:0 24:0 25:20 26:20 27:20 28:20 29:20 30:0 31:0 32:100 33:0 34:0 35:0 36:0 37:0 38:40 39:0 40:40 41:50 42:25 
0.6901237471030501 1:0 2:0 3:0 4:0 5:0 6:0 7:0 8:0 9:0 10:0 11:0 12:-100 13:0 14:0 15:0 16:0 17:100 18:0 19:0 20:0 21:40 22:20 23:20 24:0 25:20 26:0 27:20 28:20 29:20 30:0 31:0 32:0 33:0 34:0 35:0 36:0 37:20 38:0 39:20 40:40 41:45 42:25 
2 1:0 2:0 3:0 4:0 5:0 6:0 7:0 8:0 9:100 10:0 11:-100 12:0 13:0 14:0 15:0 16:0 17:0 18:0 19:0 20:0 21:0 22:80 23:0 24:0 25:20 26:0 27:0 28:40 29:40 30:0 31:60 32:20 33:0 34:0 35:0 36:60 37:20 38:0 39:20 40:0 41:50 42:30 
2 1:0 2:0 3:0 4:0 5:0 6:0 7:0 8:0 9:100 10:0 11:-100 12:0 13:0 14:0 15:0 16:0 17:0 18:0 19:0 20:0 21:0 22:80 23:0 24:0 25:20 26:0 27:0 28:40 29:40 30:0 31:60 32:20 33:0 34:0 35:0 36:60 37:20 38:0 39:20 40:0 41:50 42:30 
0.9812072461014808 1:0 2:0 3:0 4:0 5:100 6:0 7:-100 8:0 9:0 10:0 11:0 12:0 13:0 14:0 15:0 16:0 17:0 18:0 19:0 20:0 21:0 22:60 23:20 24:40 25:0 26:20 27:0 28:60 29:20 30:0 31:20 32:20 33:0 34:0 35:40 36:20 37:0 38:0 39:20 40:20 41:19 42:64 
2 1:0 2:0 3:0 4:0 5:0 6:0 7:0 8:0 9:0 10:0 11:100 12:0 13:0 14:0 15:0 16:0 17:0 18:0 19:-100 20:0 21:60 22:20 23:0 24:0 25:20 26:0 27:20 28:20 29:0 30:20 31:60 32:20 33:0 34:0 35:20 36:0 37:60 38:20 39:0 40:20 41:50 42:48 
2 1:0 2:100 3:-100 4:0 5:0 6:0 7:0 8:0 9:0 10:0 11:0 12:0 13:0 14:0 15:0 16:0 17:0 18:0 19:0 20:0 21:20 22:0 23:40 24:0 25:0 26:0 27:0 28:20 29:0 30:40 31:20 32:20 33:0 34:0 35:0 36:60 37:20 38:20 39:20 40:80 41:21 42:50 
0.7334165980287474 1:-100 2:0 3:0 4:0 5:0 6:0 7:0 8:0 9:0 10:0 11:0 12:0 13:100 14:0 15:0 16:0 17:0 18:0 19:0 20:0 21:0 22:20 23:0 24:0 25:20 26:0 27:20 28:40 29:20 30:20 31:60 32:40 33:0 34:0 35:40 36:20 37:60 38:0 39:0 40:0 41:50 42:25 
2 1:100 2:0 3:0 4:0 5:0 6:0 7:0 8:0 9:-100 10:0 11:0 12:0 13:0 14:0 15:0 16:0 17:0 18:0 19:0 20:0 21:40 22:0 23:0 24:20 25:20 26:0 27:20 28:20 29:40 30:20 31:20 32:20 33:0 34:0 35:0 36:60 37:0 38:60 39:20 40:0 41:50 42:20 
1.975132838212499 1:0 2:0 3:0 4:0 5:0 6:0 7:0 8:0 9:100 10:-100 11:0 12:0 13:0 14:0 15:0 16:0 17:0 18:0 19:0 20:0 21:60 22:0 23:40 24:0 25:20 26:0 27:20 28:20 29:40 30:20 31:20 32:0 33:20 34:40 35:0 36:0 37:0 38:20 39:20 40:20 41:30 42:56 
2 1:0 2:0 3:0 4:0 5:100 6:-100 7:0 8:0 9:0 10:0 11:0 12:0 13:0 14:0 15:0 16:0 17:0 18:0 19:0 20:0 21:60 22:60 23:0 24:0 25:0 26:20 27:0 28:20 29:20 30:0 31:20 32:0 33:0 34:20 35:0 36:20 37:20 38:40 39:0 40:0 41:55 42:4 
2 1:0 2:0 3:0 4:0 5:0 6:0 7:0 8:0 9:100 10:0 11:0 12:0 13:0 14:0 15:0 16:0 17:0 18:0 19:0 20:-100 21:40 22:0 23:0 24:0 25:40 26:0 27:20 28:40 29:0 30:40 31:60 32:0 33:0 34:0 35:20 36:0 37:40 38:20 39:20 40:20 41:50 42:52 
0.06784986726688755 1:0 2:0 3:0 4:0 5:0 6:0 7:0 8:0 9:100 10:0 11:0 12:0 13:0 14:0 15:0 16:0 17:0 18:0 19:0 20:-100 21:40 22:0 23:0 24:0 25:40 26:0 27:20 28:40 29:0 30:40 31:60 32:0 33:0 34:0 35:20 36:0 37:40 38:20 39:20 40:20 41:50 42:52 
0.3816243777343756 1:0 2:-100 3:100 4:0 5:0 6:0 7:0 8:0 9:0 10:0 11:0 12:0 13:0 14:0 15:0 16:0 17:0 18:0 19:0 20:0 21:0 22:20 23:0 24:20 25:40 26:0 27:0 28:0 29:40 30:0 31:20 32:20 33:0 34:20 35:20 36:80 37:0 38:60 39:0 40:20 41:78 42:76 
1.129635969802874 1:0 2:0 3:0 4:0 5:0 6:0 7:0 8:0 9:0 10:0 11:100 12:0 13:0 14:0 15:0 16:0 17:0 18:0 19:0 20:-100 21:60 22:0 23:0 24:0 25:20 26:0 27:20 28:60 29:20 30:20 31:40 32:0 33:0 34:0 35:20 36:0 37:20 38:20 39:60 40:0 41:50 42:15 
0.03561854565440241 1:0 2:0 3:0 4:0 5:0 6:0 7:0 8:0 9:0 10:0 11:100 12:0 13:0 14:0 15:0 16:0 17:0 18:0 19:0 20:-100 21:60 22:0 23:0 24:0 25:20 26:0 27:20 28:60 29:20 30:20 31:40 32:0 33:0 34:0 35:20 36:0 37:20 38:20 39:60 40:0 41:50 42:15 
1.456466629903256 1:0 2:0 3:0 4:0 5:0 6:0 7:0 8:-100 9:100 10:0 11:0 12:0 13:0 14:0 15:0 16:0 17:0 18:0 19:0 20:0 21:40 22:40 23:20 24:0 25:0 26:0 27:0 28:0 29:60 30:20 31:0 32:0 33:0 34:0 35:40 36:40 37:20 38:0 39:40 40:40 41:14 42:41 
0.7862394071741694 1:100 2:0 3:-100 4:0 5:0 6:0 7:0 8:0 9:0 10:0 11:0 12:0 13:0 14:0 15:0 16:0 17:0 18:0 19:0 20:0 21:60 22:0 23:0 24:0 25:0 26:40 27:0 28:20 29:40 30:20 31:0 32:0 33:0 34:0 35:100 36:20 37:20 38:0 39:20 40:20 41:19 42:49 
1.550172464286685 1:0 2:100 3:0 4:-100 5:0 6:0 7:0 8:0 9:0 10:0 11:0 12:0 13:0 14:0 15:0 16:0 17:0 18:0 19:0 20:0 21:0 22:60 23:40 24:20 25:20 26:0 27:0 28:20 29:0 30:0 31:0 32:0 33:0 34:0 35:40 36:0 37:0 38:40 39:20 40:20 41:21 42:47 
2 1:0 2:0 3:0 4:0 5:0 6:0 7:0 8:0 9:0 10:0 11:0 12:0 13:0 14:0 15:0 16:0 17:100 18:0 19:0 20:-100 21:60 22:0 23:20 24:20 25:0 26:20 27:0 28:40 29:60 30:0 31:20 32:0 33:20 34:0 35:0 36:40 37:0 38:0 39:60 40:0 41:45 42:74 
2 1:100 2:0 3:0 4:0 5:0 6:0 7:0 8:0 9:0 10:0 11:0 12:-100 13:0 14:0 15:0 16:0 17:0 18:0 19:0 20:0 21:20 22:0 23:40 24:0 25:20 26:0 27:0 28:20 29:0 30:0 31:0 32:120 33:0 34:20 35:0 36:40 37:20 38:20 39:40 40:0 41:50 42:25 
2 1:0 2:0 3:0 4:0 5:100 6:0 7:-100 8:0 9:0 10:0 11:0 12:0 13:0 14:0 15:0 16:0 17:0 18:0 19:0 20:0 21:20 22:20 23:20 24:0 25:40 26:20 27:20 28:20 29:0 30:40 31:100 32:0 33:0 34:0 35:0 36:0 37:0 38:20 39:0 40:40 41:50 42:50 
0.2394780805372789 1:0 2:0 3:0 4:0 5:100 6:0 7:-100 8:0 9:0 10:0 11:0 12:0 13:0 14:0 15:0 16:0 17:0 18:0 19:0 20:0 21:20 22:20 23:20 24:0 25:40 26:20 27:20 28:20 29:0 30:40 31:100 32:0 33:0 34:0 35:0 36:0 37:0 38:20 39:0 40:40 41:50 42:25 
2 1:0 2:0 3:0 4:0 5:0 6:0 7:0 8:0 9:0 10:0 11:0 12:0 13:0 14:0 15:0 16:100 17:0 18:0 19:0 20:-100 21:0 22:60 23:20 24:0 25:0 26:40 27:20 28:40 29:0 30:0 31:40 32:20 33:0 34:0 35:0 36:0 37:20 38:60 39:20 40:20 41:50 42:44 
0.7672879223726696 1:0 2:0 3:0 4:0 5:-100 6:0 7:0 8:0 9:100 10:0 11:0 12:0 13:0 14:0 15:0 16:0 17:0 18:0 19:0 20:0 21:20 22:0 23:0 24:0 25:0 26:0 27:0 28:0 29:60 30:0 31:20 32:0 33:0 34:20 35:0 36:40 37:20 38:60 39:0 40:20 41:37 42:5 
1.871964366558933 1:0 2:0 3:0 4:0 5:0 6:0 7:0 8:0 9:0 10:0 11:0 12:0 13:0 14:0 15:0 16:0 17:0 18:-100 19:100 20:0 21:20 22:60 23:0 24:0 25:0 26:0 27:40 28:40 29:0 30:20 31:20 32:0 33:20 34:0 35:20 36:20 37:40 38:0 39:40 40:20 41:50 42:25 
0.9400018682580613 1:0 2:0 3:0 4:0 5:0 6:0 7:0 8:0 9:100 10:0 11:0 12:0 13:0 14:0 15:-100 16:0 17:0 18:0 19:0 20:0 21:20 22:40 23:0 24:20 25:20 26:20 27:0 28:40 29:20 30:0 31:20 32:20 33:0 34:0 35:20 36:20 37:40 38:20 39:20 40:20 41:21 42:51 
2 1:0 2:0 3:0 4:0 5:0 6:0 7:0 8:0 9:0 10:0 11:100 12:0 13:0 14:0 15:0 16:0 17:0 18:0 19:-100 20:0 21:20 22:0 23:0 24:0 25:40 26:0 27:60 28:20 29:0 30:20 31:80 32:0 33:0 34:20 35:0 36:20 37:0 38:20 39:40 40:20 41:50 42:50 
2 1:0 2:0 3:0 4:0 5:0 6:0 7:0 8:0 9:100 10:0 11:0 12:0 13:0 14:0 15:0 16:0 17:0 18:0 19:-100 20:0 21:20 22:0 23:0 24:0 25:40 26:0 27:60 28:20 29:0 30:20 31:80 32:0 33:0 34:20 35:0 36:20 37:0 38:20 39:40 40:20 41:50 42:50 
0.8871851513546327 1:0 2:0 3:0 4:0 5:0 6:0 7:0 8:0 9:100 10:0 11:0 12:0 13:0 14:0 15:0 16:0 17:0 18:0 19:-100 20:0 21:20 22:0 23:0 24:0 25:40 26:0 27:60 28:20 29:0 30:20 31:80 32:0 33:0 34:20 35:0 36:20 37:0 38:20 39:40 40:20 41:50 42:50 
2 1:0 2:0 3:0 4:0 5:0 6:0 7:0 8:0 9:0 10:0 11:0 12:-100 13:0 14:0 15:100 16:0 17:0 18:0 19:0 20:0 21:20 22:40 23:20 24:0 25:20 26:0 27:60 28:20 29:20 30:20 31:0 32:0 33:0 34:20 35:0 36:20 37:20 38:0 39:20 40:60 41:45 42:25 
2 1:0 2:0 3:0 4:0 5:0 6:0 7:0 8:0 9:0 10:0 11:0 12:0 13:0 14:0 15:0 16:0 17:0 18:0 19:-100 20:100 21:20 22:0 23:0 24:0 25:40 26:0 27:60 28:20 29:0 30:20 31:80 32:0 33:0 34:20 35:0 36:20 37:0 38:20 39:40 40:20 41:50 42:50 
1.251482356467467 1:0 2:0 3:0 4:0 5:0 6:0 7:0 8:0 9:-100 10:0 11:100 12:0 13:0 14:0 15:0 16:0 17:0 18:0 19:0 20:0 21:40 22:20 23:40 24:0 25:0 26:0 27:0 28:0 29:20 30:20 31:0 32:0 33:20 34:0 35:20 36:40 37:0 38:0 39:20 40:120 41:32 42:66 
0.2847121455989406 1:0 2:0 3:0 4:0 5:0 6:0 7:0 8:0 9:100 10:0 11:-100 12:0 13:0 14:0 15:0 16:0 17:0 18:0 19:0 20:0 21:0 22:40 23:40 24:0 25:0 26:20 27:40 28:0 29:0 30:0 31:40 32:40 33:0 34:0 35:40 36:20 37:0 38:0 39:20 40:60 41:31 42:25 
2 1:0 2:100 3:-100 4:0 5:0 6:0 7:0 8:0 9:0 10:0 11:0 12:0 13:0 14:0 15:0 16:0 17:0 18:0 19:0 20:0 21:0 22:0 23:20 24:0 25:20 26:20 27:40 28:40 29:20 30:0 31:40 32:20 33:20 34:0 35:40 36:0 37:20 38:0 39:20 40:40 41:19 42:64 
1.436706057992605 1:0 2:0 3:0 4:0 5:0 6:0 7:0 8:0 9:0 10:0 11:0 12:0 13:0 14:100 15:0 16:0 17:0 18:0 19:-100 20:0 21:0 22:60 23:20 24:0 25:0 26:0 27:0 28:20 29:20 30:40 31:80 32:20 33:40 34:0 35:40 36:0 37:0 38:0 39:20 40:0 41:45 42:74 
2 1:100 2:0 3:-100 4:0 5:0 6:0 7:0 8:0 9:0 10:0 11:0 12:0 13:0 14:0 15:0 16:0 17:0 18:0 19:0 20:0 21:60 22:40 23:60 24:0 25:0 26:0 27:0 28:20 29:20 30:40 31:0 32:20 33:0 34:0 35:0 36:20 37:40 38:20 39:0 40:20 41:45 42:46 
1.780553476489314 1:0 2:0 3:0 4:0 5:0 6:0 7:0 8:0 9:0 10:0 11:0 12:0 13:0 14:0 15:0 16:0 17:100 18:-100 19:0 20:0 21:60 22:40 23:20 24:0 25:0 26:0 27:0 28:20 29:20 30:20 31:20 32:0 33:0 34:0 35:0 36:80 37:20 38:40 39:0 40:20 41:44 42:25 
1.789501648416795 1:0 2:0 3:0 4:0 5:0 6:0 7:0 8:0 9:0 10:0 11:0 12:0 13:0 14:0 15:0 16:0 17:0 18:-100 19:0 20:100 21:60 22:40 23:20 24:0 25:0 26:0 27:0 28:20 29:20 30:20 31:20 32:0 33:0 34:0 35:0 36:80 37:20 38:40 39:0 40:20 41:44 42:25 
1.272052539616453 1:0 2:0 3:0 4:0 5:0 6:100 7:0 8:0 9:-100 10:0 11:0 12:0 13:0 14:0 15:0 16:0 17:0 18:0 19:0 20:0 21:20 22:20 23:20 24:0 25:0 26:20 27:20 28:40 29:40 30:0 31:40 32:20 33:0 34:0 35:0 36:40 37:20 38:20 39:40 40:0 41:45 42:25 
2 1:100 2:0 3:0 4:0 5:0 6:0 7:0 8:0 9:-100 10:0 11:0 12:0 13:0 14:0 15:0 16:0 17:0 18:0 19:0 20:0 21:20 22:20 23:20 24:0 25:0 26:20 27:20 28:40 29:40 30:0 31:40 32:20 33:0 34:0 35:0 36:40 37:20 38:20 39:40 40:0 41:45 42:25 
1.276140482901482 1:0 2:0 3:0 4:0 5:0 6:0 7:0 8:0 9:-100 10:0 11:0 12:0 13:100 14:0 15:0 16:0 17:0 18:0 19:0 20:0 21:20 22:20 23:20 24:0 25:0 26:20 27:20 28:40 29:40 30:0 31:40 32:20 33:0 34:0 35:0 36:40 37:20 38:20 39:40 40:0 41:45 42:25 
2 1:0 2:0 3:0 4:0 5:100 6:0 7:0 8:0 9:-100 10:0 11:0 12:0 13:0 14:0 15:0 16:0 17:0 18:0 19:0 20:0 21:20 22:20 23:20 24:0 25:0 26:20 27:20 28:40 29:40 30:0 31:40 32:20 33:0 34:0 35:0 36:40 37:20 38:20 39:40 40:0 41:45 42:25 
2 1:0 2:0 3:100 4:0 5:0 6:0 7:0 8:0 9:-100 10:0 11:0 12:0 13:0 14:0 15:0 16:0 17:0 18:0 19:0 20:0 21:20 22:20 23:20 24:0 25:0 26:20 27:20 28:40 29:40 30:0 31:40 32:20 33:0 34:0 35:0 36:40 37:20 38:20 39:40 40:0 41:45 42:25 
1.373800023983801 1:0 2:100 3:0 4:0 5:0 6:0 7:0 8:0 9:-100 10:0 11:0 12:0 13:0 14:0 15:0 16:0 17:0 18:0 19:0 20:0 21:20 22:20 23:20 24:0 25:0 26:20 27:20 28:40 29:40 30:0 31:40 32:20 33:0 34:0 35:0 36:40 37:20 38:20 39:40 40:0 41:45 42:25 
2 1:0 2:0 3:0 4:0 5:100 6:0 7:0 8:0 9:0 10:0 11:0 12:0 13:0 14:0 15:0 16:0 17:0 18:0 19:0 20:-100 21:0 22:80 23:20 24:0 25:0 26:0 27:0 28:0 29:40 30:0 31:0 32:20 33:20 34:0 35:0 36:20 37:20 38:80 39:20 40:40 41:50 42:69 
2 1:0 2:100 3:0 4:0 5:0 6:0 7:0 8:0 9:0 10:0 11:0 12:0 13:0 14:0 15:0 16:0 17:0 18:0 19:0 20:-100 21:0 22:80 23:20 24:0 25:0 26:0 27:0 28:0 29:40 30:0 31:0 32:20 33:20 34:0 35:0 36:20 37:20 38:80 39:20 40:40 41:50 42:69 
2 1:0 2:0 3:0 4:0 5:0 6:0 7:0 8:0 9:0 10:100 11:0 12:0 13:0 14:0 15:0 16:0 17:0 18:0 19:0 20:-100 21:0 22:80 23:20 24:0 25:0 26:0 27:0 28:0 29:40 30:0 31:0 32:20 33:20 34:0 35:0 36:20 37:20 38:80 39:20 40:40 41:50 42:69 
2 1:100 2:0 3:0 4:0 5:0 6:0 7:0 8:0 9:0 10:0 11:0 12:0 13:0 14:0 15:0 16:0 17:0 18:0 19:0 20:-100 21:0 22:80 23:20 24:0 25:0 26:0 27:0 28:0 29:40 30:0 31:0 32:20 33:20 34:0 35:0 36:20 37:20 38:80 39:20 40:40 41:50 42:69 
2 1:0 2:0 3:0 4:0 5:0 6:100 7:0 8:0 9:0 10:0 11:0 12:0 13:0 14:0 15:0 16:0 17:0 18:0 19:0 20:-100 21:0 22:80 23:20 24:0 25:0 26:0 27:0 28:0 29:40 30:0 31:0 32:20 33:20 34:0 35:0 36:20 37:20 38:80 39:20 40:40 41:50 42:69 
1.618614007399334 1:0 2:0 3:0 4:0 5:0 6:0 7:0 8:0 9:0 10:0 11:0 12:0 13:0 14:0 15:0 16:0 17:0 18:0 19:-100 20:100 21:20 22:60 23:0 24:0 25:0 26:0 27:0 28:0 29:80 30:0 31:20 32:0 33:0 34:0 35:40 36:40 37:20 38:20 39:0 40:60 41:53 42:25 
0.6900854290264635 1:0 2:0 3:0 4:0 5:0 6:0 7:0 8:0 9:0 10:0 11:0 12:0 13:0 14:0 15:0 16:100 17:0 18:0 19:0 20:-100 21:20 22:20 23:0 24:0 25:20 26:20 27:40 28:40 29:20 30:0 31:40 32:20 33:0 34:0 35:20 36:20 37:0 38:0 39:40 40:40 41:50 42:44 
1.808710240903642 1:0 2:0 3:0 4:0 5:0 6:0 7:0 8:0 9:0 10:0 11:0 12:0 13:0 14:0 15:0 16:100 17:0 18:0 19:0 20:-100 21:20 22:20 23:0 24:0 25:20 26:20 27:40 28:40 29:20 30:0 31:40 32:20 33:0 34:0 35:20 36:20 37:0 38:0 39:40 40:40 41:50 42:44 
0.2951918879711369 1:100 2:0 3:-100 4:0 5:0 6:0 7:0 8:0 9:0 10:0 11:0 12:0 13:0 14:0 15:0 16:0 17:0 18:0 19:0 20:0 21:0 22:20 23:20 24:0 25:20 26:0 27:0 28:80 29:20 30:40 31:40 32:0 33:0 34:0 35:20 36:40 37:0 38:20 39:20 40:20 41:45 42:25 
1.482870134501257 1:0 2:0 3:0 4:0 5:0 6:0 7:0 8:0 9:100 10:0 11:0 12:-100 13:0 14:0 15:0 16:0 17:0 18:0 19:0 20:0 21:0 22:40 23:40 24:0 25:20 26:0 27:0 28:20 29:40 30:0 31:20 32:20 33:60 34:40 35:0 36:0 37:20 38:40 39:0 40:0 41:60 42:37 
2 1:0 2:0 3:0 4:0 5:0 6:0 7:0 8:0 9:0 10:0 11:0 12:-100 13:0 14:0 15:0 16:0 17:0 18:0 19:0 20:100 21:40 22:20 23:20 24:40 25:40 26:0 27:0 28:60 29:20 30:0 31:20 32:20 33:0 34:0 35:0 36:0 37:20 38:20 39:40 40:0 41:14 42:39 
1.493018865604828 1:0 2:100 3:-100 4:0 5:0 6:0 7:0 8:0 9:0 10:0 11:0 12:0 13:0 14:0 15:0 16:0 17:0 18:0 19:0 20:0 21:20 22:40 23:20 24:0 25:20 26:0 27:0 28:40 29:40 30:20 31:20 32:0 33:0 34:40 35:20 36:20 37:20 38:0 39:0 40:40 41:78 42:76 
1.759073031341522 1:100 2:0 3:0 4:0 5:-100 6:0 7:0 8:0 9:0 10:0 11:0 12:0 13:0 14:0 15:0 16:0 17:0 18:0 19:0 20:0 21:40 22:60 23:0 24:20 25:20 26:0 27:20 28:60 29:0 30:0 31:60 32:20 33:0 34:20 35:0 36:20 37:20 38:0 39:0 40:0 41:50 42:25 
0.8110509268810334 1:0 2:-100 3:0 4:0 5:0 6:0 7:0 8:0 9:100 10:0 11:0 12:0 13:0 14:0 15:0 16:0 17:0 18:0 19:0 20:0 21:0 22:0 23:20 24:0 25:0 26:0 27:40 28:40 29:40 30:0 31:0 32:0 33:0 34:0 35:0 36:60 37:20 38:20 39:0 40:20 41:68 42:82 
0.09174594285069658 1:0 2:100 3:0 4:0 5:-100 6:0 7:0 8:0 9:0 10:0 11:0 12:0 13:0 14:0 15:0 16:0 17:0 18:0 19:0 20:0 21:40 22:60 23:0 24:20 25:20 26:0 27:20 28:60 29:0 30:0 31:60 32:20 33:0 34:20 35:0 36:20 37:20 38:0 39:0 40:0 41:50 42:25 
2 1:0 2:0 3:0 4:0 5:0 6:0 7:0 8:0 9:-100 10:0 11:0 12:100 13:0 14:0 15:0 16:0 17:0 18:0 19:0 20:0 21:20 22:0 23:20 24:0 25:20 26:20 27:20 28:0 29:0 30:20 31:0 32:80 33:0 34:0 35:80 36:20 37:20 38:0 39:40 40:0 41:46 42:70 
2 1:0 2:0 3:0 4:0 5:0 6:0 7:0 8:0 9:-100 10:100 11:0 12:0 13:0 14:0 15:0 16:0 17:0 18:0 19:0 20:0 21:0 22:0 23:20 24:0 25:80 26:0 27:0 28:20 29:60 30:0 31:20 32:20 33:0 34:20 35:0 36:80 37:0 38:0 39:0 40:40 41:52 42:45 
2 1:0 2:0 3:0 4:0 5:0 6:0 7:0 8:0 9:0 10:0 11:0 12:0 13:0 14:0 15:0 16:0 17:0 18:0 19:100 20:-100 21:80 22:0 23:20 24:0 25:0 26:20 27:0 28:20 29:80 30:20 31:0 32:0 33:20 34:0 35:60 36:20 37:20 38:0 39:0 40:0 41:28 42:65 
0.9171318950195243 1:0 2:0 3:0 4:-100 5:0 6:0 7:0 8:0 9:0 10:0 11:0 12:100 13:0 14:0 15:0 16:0 17:0 18:0 19:0 20:0 21:40 22:0 23:20 24:0 25:0 26:40 27:0 28:40 29:40 30:0 31:20 32:0 33:0 34:0 35:40 36:40 37:0 38:0 39:60 40:20 41:67 42:20 
2 1:0 2:0 3:0 4:0 5:0 6:0 7:0 8:0 9:0 10:0 11:0 12:0 13:0 14:0 15:0 16:0 17:0 18:0 19:-100 20:100 21:40 22:40 23:0 24:0 25:0 26:20 27:0 28:60 29:80 30:20 31:40 32:0 33:0 34:0 35:0 36:40 37:0 38:0 39:0 40:20 41:45 42:25 
2 1:0 2:0 3:0 4:0 5:0 6:0 7:0 8:0 9:0 10:0 11:0 12:0 13:0 14:0 15:0 16:0 17:100 18:-100 19:0 20:0 21:20 22:0 23:20 24:0 25:0 26:0 27:80 28:40 29:20 30:40 31:20 32:60 33:0 34:20 35:20 36:0 37:20 38:0 39:0 40:0 41:39 42:55 
2 1:0 2:0 3:0 4:0 5:0 6:0 7:-100 8:100 9:0 10:0 11:0 12:0 13:0 14:0 15:0 16:0 17:0 18:0 19:0 20:0 21:0 22:0 23:20 24:0 25:0 26:0 27:20 28:20 29:40 30:20 31:40 32:40 33:20 34:20 35:0 36:60 37:20 38:0 39:40 40:0 41:35 42:63 
1.251333913441458 1:0 2:0 3:-100 4:0 5:0 6:0 7:0 8:0 9:0 10:0 11:0 12:100 13:0 14:0 15:0 16:0 17:0 18:0 19:0 20:0 21:20 22:20 23:20 24:0 25:20 26:0 27:0 28:40 29:40 30:0 31:0 32:20 33:20 34:0 35:20 36:40 37:0 38:40 39:40 40:20 41:38 42:59 
2 1:0 2:100 3:0 4:0 5:-100 6:0 7:0 8:0 9:0 10:0 11:0 12:0 13:0 14:0 15:0 16:0 17:0 18:0 19:0 20:0 21:20 22:40 23:0 24:0 25:0 26:0 27:40 28:40 29:0 30:20 31:0 32:20 33:0 34:40 35:0 36:40 37:0 38:80 39:0 40:20 41:50 42:66 
0.7809318770755568 1:0 2:0 3:0 4:0 5:-100 6:0 7:0 8:0 9:0 10:0 11:0 12:0 13:0 14:100 15:0 16:0 17:0 18:0 19:0 20:0 21:20 22:40 23:0 24:0 25:0 26:0 27:40 28:40 29:0 30:20 31:0 32:20 33:0 34:40 35:0 36:40 37:0 38:80 39:0 40:20 41:50 42:66 
2 1:0 2:0 3:0 4:0 5:0 6:0 7:0 8:0 9:100 10:0 11:0 12:0 13:0 14:0 15:0 16:-100 17:0 18:0 19:0 20:0 21:0 22:40 23:20 24:0 25:0 26:0 27:0 28:20 29:60 30:20 31:60 32:20 33:0 34:0 35:20 36:40 37:0 38:20 39:20 40:20 41:47 42:62 
0.9782799721503238 1:0 2:0 3:0 4:0 5:0 6:0 7:0 8:0 9:100 10:0 11:0 12:0 13:0 14:0 15:0 16:-100 17:0 18:0 19:0 20:0 21:0 22:40 23:20 24:0 25:0 26:0 27:0 28:20 29:60 30:20 31:60 32:20 33:0 34:0 35:20 36:40 37:0 38:20 39:20 40:20 41:21 42:51 
2 1:0 2:0 3:0 4:0 5:0 6:0 7:0 8:0 9:0 10:0 11:0 12:0 13:0 14:0 15:0 16:0 17:0 18:0 19:100 20:-100 21:40 22:0 23:0 24:0 25:0 26:20 27:20 28:40 29:20 30:0 31:0 32:0 33:40 34:0 35:80 36:0 37:60 38:0 39:40 40:0 41:28 42:65 
1.198734220532382 1:0 2:0 3:0 4:0 5:0 6:0 7:0 8:0 9:0 10:0 11:0 12:0 13:100 14:0 15:0 16:0 17:0 18:-100 19:0 20:0 21:60 22:80 23:20 24:0 25:0 26:0 27:40 28:20 29:0 30:20 31:0 32:20 33:20 34:0 35:0 36:20 37:20 38:0 39:20 40:20 41:50 42:25 
2 1:-100 2:0 3:100 4:0 5:0 6:0 7:0 8:0 9:0 10:0 11:0 12:0 13:0 14:0 15:0 16:0 17:0 18:0 19:0 20:0 21:20 22:0 23:60 24:20 25:0 26:0 27:0 28:80 29:60 30:20 31:0 32:0 33:20 34:0 35:0 36:0 37:0 38:40 39:0 40:40 41:51 42:20 
2 1:0 2:0 3:0 4:0 5:0 6:0 7:0 8:100 9:0 10:0 11:0 12:0 13:0 14:-100 15:0 16:0 17:0 18:0 19:0 20:0 21:20 22:40 23:0 24:40 25:20 26:20 27:20 28:60 29:20 30:0 31:40 32:0 33:20 34:0 35:0 36:20 37:0 38:0 39:20 40:20 41:32 42:66 
0.924793789773657 1:0 2:0 3:0 4:0 5:100 6:-100 7:0 8:0 9:0 10:0 11:0 12:0 13:0 14:0 15:0 16:0 17:0 18:0 19:0 20:0 21:0 22:20 23:20 24:0 25:0 26:0 27:0 28:0 29:20 30:0 31:20 32:0 33:0 34:0 35:0 36:60 37:20 38:20 39:20 40:0 41:50 42:20 
1.046424664158577 1:0 2:100 3:0 4:0 5:0 6:-100 7:0 8:0 9:0 10:0 11:0 12:0 13:0 14:0 15:0 16:0 17:0 18:0 19:0 20:0 21:0 22:20 23:20 24:0 25:0 26:0 27:0 28:0 29:20 30:0 31:20 32:0 33:0 34:0 35:0 36:60 37:20 38:20 39:20 40:0 41:50 42:20 
2 1:0 2:0 3:0 4:0 5:0 6:0 7:0 8:0 9:100 10:0 11:0 12:0 13:0 14:0 15:0 16:0 17:0 18:0 19:-100 20:0 21:0 22:40 23:20 24:0 25:0 26:0 27:40 28:0 29:40 30:20 31:20 32:40 33:0 34:20 35:0 36:40 37:40 38:20 39:0 40:20 41:45 42:25 
0.1375828440552213 1:0 2:-100 3:0 4:0 5:100 6:0 7:0 8:0 9:0 10:0 11:0 12:0 13:0 14:0 15:0 16:0 17:0 18:0 19:0 20:0 21:40 22:20 23:20 24:40 25:20 26:0 27:0 28:20 29:40 30:0 31:20 32:0 33:20 34:0 35:40 36:0 37:20 38:20 39:20 40:20 41:40 42:64 
1.674711236587568 1:0 2:0 3:0 4:0 5:0 6:0 7:0 8:0 9:0 10:0 11:100 12:0 13:0 14:0 15:0 16:0 17:0 18:0 19:0 20:-100 21:40 22:20 23:20 24:0 25:20 26:0 27:40 28:20 29:20 30:0 31:0 32:40 33:0 34:0 35:0 36:0 37:20 38:0 39:20 40:20 41:45 42:25 
2 1:0 2:0 3:0 4:0 5:0 6:0 7:0 8:100 9:0 10:0 11:0 12:0 13:0 14:0 15:0 16:0 17:0 18:0 19:0 20:-100 21:40 22:20 23:20 24:0 25:20 26:0 27:40 28:20 29:20 30:0 31:0 32:40 33:0 34:0 35:0 36:0 37:20 38:0 39:20 40:20 41:45 42:25 
2 1:0 2:0 3:0 4:0 5:100 6:-100 7:0 8:0 9:0 10:0 11:0 12:0 13:0 14:0 15:0 16:0 17:0 18:0 19:0 20:0 21:0 22:0 23:20 24:0 25:20 26:0 27:20 28:60 29:20 30:40 31:0 32:0 33:0 34:60 35:0 36:60 37:0 38:20 39:20 40:20 41:53 42:23 
0.5626890884877828 1:0 2:0 3:0 4:0 5:0 6:0 7:0 8:0 9:100 10:0 11:0 12:0 13:0 14:0 15:0 16:0 17:-100 18:0 19:0 20:0 21:20 22:20 23:0 24:0 25:40 26:0 27:40 28:60 29:60 30:0 31:0 32:20 33:40 34:0 35:20 36:20 37:0 38:0 39:20 40:0 41:50 42:39 
1.757219619989967 1:0 2:100 3:-100 4:0 5:0 6:0 7:0 8:0 9:0 10:0 11:0 12:0 13:0 14:0 15:0 16:0 17:0 18:0 19:0 20:0 21:0 22:20 23:40 24:0 25:20 26:0 27:0 28:20 29:0 30:40 31:20 32:0 33:0 34:0 35:20 36:60 37:60 38:20 39:0 40:40 41:21 42:50 
0.2827302987032851 1:0 2:0 3:0 4:0 5:0 6:0 7:0 8:-100 9:100 10:0 11:0 12:0 13:0 14:0 15:0 16:0 17:0 18:0 19:0 20:0 21:40 22:0 23:20 24:0 25:0 26:60 27:0 28:20 29:40 30:0 31:0 32:20 33:20 34:0 35:60 36:20 37:20 38:0 39:20 40:20 41:19 42:65 
0.06421281511087434 1:0 2:0 3:0 4:0 5:0 6:0 7:0 8:0 9:100 10:0 11:0 12:0 13:0 14:0 15:-100 16:0 17:0 18:0 19:0 20:0 21:0 22:20 23:0 24:0 25:20 26:0 27:20 28:0 29:0 30:60 31:0 32:0 33:20 34:0 35:0 36:0 37:0 38:20 39:0 40:20 41:50 42:39 
2 1:0 2:0 3:0 4:0 5:0 6:0 7:0 8:0 9:0 10:0 11:100 12:0 13:0 14:0 15:0 16:0 17:0 18:0 19:0 20:-100 21:40 22:40 23:20 24:0 25:20 26:0 27:40 28:20 29:20 30:20 31:0 32:40 33:0 34:20 35:0 36:20 37:20 38:0 39:20 40:20 41:45 42:25 
0.09897105661026938 1:0 2:0 3:0 4:0 5:0 6:0 7:0 8:100 9:0 10:0 11:0 12:0 13:0 14:0 15:0 16:0 17:0 18:0 19:0 20:-100 21:40 22:40 23:20 24:0 25:20 26:0 27:40 28:20 29:20 30:20 31:0 32:40 33:0 34:20 35:0 36:20 37:20 38:0 39:20 40:20 41:31 42:25 
2 1:0 2:0 3:0 4:0 5:0 6:0 7:0 8:0 9:0 10:0 11:0 12:0 13:0 14:0 15:0 16:0 17:0 18:0 19:100 20:-100 21:20 22:40 23:20 24:20 25:20 26:0 27:0 28:60 29:0 30:40 31:20 32:20 33:20 34:0 35:0 36:20 37:20 38:20 39:20 40:0 41:21 42:50 
2 1:100 2:0 3:0 4:0 5:0 6:0 7:0 8:0 9:0 10:0 11:0 12:-100 13:0 14:0 15:0 16:0 17:0 18:0 19:0 20:0 21:0 22:60 23:20 24:0 25:0 26:0 27:0 28:20 29:60 30:60 31:40 32:20 33:0 34:0 35:0 36:0 37:0 38:20 39:20 40:40 41:50 42:48 
1.884756827803286 1:0 2:0 3:0 4:0 5:0 6:0 7:0 8:0 9:0 10:0 11:0 12:0 13:0 14:0 15:-100 16:100 17:0 18:0 19:0 20:0 21:0 22:60 23:40 24:20 25:0 26:0 27:20 28:40 29:0 30:0 31:0 32:20 33:0 34:0 35:20 36:40 37:0 38:60 39:0 40:40 41:38 42:65 
2 1:0 2:0 3:0 4:0 5:0 6:0 7:0 8:0 9:0 10:0 11:0 12:0 13:0 14:100 15:0 16:0 17:0 18:0 19:0 20:-100 21:0 22:40 23:20 24:0 25:40 26:0 27:0 28:40 29:20 30:40 31:0 32:20 33:20 34:0 35:40 36:0 37:20 38:20 39:20 40:20 41:51 42:51 
0.7915780159929019 1:0 2:0 3:-100 4:100 5:0 6:0 7:0 8:0 9:0 10:0 11:0 12:0 13:0 14:0 15:0 16:0 17:0 18:0 19:0 20:0 21:20 22:20 23:20 24:0 25:0 26:0 27:0 28:40 29:60 30:0 31:20 32:40 33:0 34:0 35:20 36:40 37:0 38:20 39:40 40:20 41:38 42:65 
0.0494265229371228 1:0 2:0 3:0 4:0 5:0 6:0 7:0 8:0 9:-100 10:0 11:100 12:0 13:0 14:0 15:0 16:0 17:0 18:0 19:0 20:0 21:0 22:40 23:20 24:20 25:0 26:40 27:20 28:20 29:20 30:0 31:40 32:20 33:20 34:0 35:20 36:20 37:0 38:20 39:40 40:0 41:19 42:64 
2 1:0 2:100 3:0 4:0 5:0 6:0 7:0 8:0 9:-100 10:0 11:0 12:0 13:0 14:0 15:0 16:0 17:0 18:0 19:0 20:0 21:0 22:40 23:20 24:20 25:0 26:40 27:20 28:20 29:20 30:0 31:40 32:20 33:20 34:0 35:20 36:20 37:0 38:20 39:40 40:0 41:19 42:64 
1.340583423898356 1:0 2:0 3:0 4:0 5:0 6:0 7:0 8:-100 9:0 10:0 11:100 12:0 13:0 14:0 15:0 16:0 17:0 18:0 19:0 20:0 21:20 22:20 23:0 24:0 25:40 26:0 27:20 28:40 29:40 30:0 31:0 32:20 33:40 34:0 35:40 36:20 37:20 38:0 39:40 40:0 41:32 42:72 
2 1:0 2:0 3:0 4:0 5:0 6:0 7:0 8:0 9:0 10:0 11:0 12:0 13:0 14:0 15:0 16:-100 17:100 18:0 19:0 20:0 21:20 22:0 23:0 24:0 25:0 26:0 27:0 28:20 29:60 30:20 31:0 32:20 33:0 34:0 35:20 36:0 37:20 38:20 39:20 40:0 41:53 42:55 
2 1:0 2:0 3:0 4:0 5:0 6:0 7:0 8:0 9:0 10:0 11:0 12:0 13:0 14:0 15:0 16:-100 17:100 18:0 19:0 20:0 21:20 22:0 23:0 24:0 25:0 26:0 27:0 28:20 29:60 30:20 31:0 32:20 33:0 34:0 35:20 36:0 37:20 38:20 39:20 40:0 41:53 42:55 
1.71700813868787 1:0 2:0 3:0 4:0 5:0 6:0 7:0 8:0 9:0 10:0 11:0 12:0 13:0 14:0 15:0 16:-100 17:100 18:0 19:0 20:0 21:20 22:0 23:0 24:0 25:0 26:0 27:0 28:20 29:60 30:20 31:0 32:20 33:0 34:0 35:20 36:0 37:20 38:20 39:20 40:0 41:53 42:55 
0.1912176984635872 1:0 2:0 3:0 4:0 5:0 6:0 7:0 8:0 9:0 10:0 11:0 12:0 13:0 14:0 15:0 16:-100 17:100 18:0 19:0 20:0 21:20 22:0 23:0 24:0 25:0 26:0 27:0 28:20 29:60 30:20 31:0 32:20 33:0 34:0 35:20 36:0 37:20 38:20 39:20 40:0 41:53 42:55 
1.212883310727553 1:0 2:0 3:0 4:0 5:0 6:0 7:0 8:100 9:0 10:0 11:0 12:0 13:0 14:0 15:0 16:-100 17:0 18:0 19:0 20:0 21:20 22:0 23:40 24:20 25:40 26:0 27:20 28:0 29:0 30:20 31:0 32:0 33:0 34:0 35:20 36:100 37:0 38:40 39:40 40:0 41:46 42:25 
1.353897675224745 1:0 2:0 3:0 4:100 5:-100 6:0 7:0 8:0 9:0 10:0 11:0 12:0 13:0 14:0 15:0 16:0 17:0 18:0 19:0 20:0 21:20 22:0 23:20 24:0 25:0 26:20 27:20 28:20 29:40 30:0 31:0 32:80 33:0 34:0 35:60 36:40 37:0 38:0 39:20 40:20 41:38 42:65 
0.492588383110622 1:100 2:0 3:0 4:0 5:0 6:0 7:0 8:0 9:0 10:0 11:0 12:-100 13:0 14:0 15:0 16:0 17:0 18:0 19:0 20:0 21:0 22:0 23:40 24:0 25:20 26:0 27:40 28:0 29:0 30:0 31:0 32:60 33:0 34:20 35:20 36:40 37:20 38:0 39:0 40:20 41:45 42:25 
2 1:0 2:0 3:0 4:0 5:0 6:0 7:0 8:0 9:100 10:0 11:0 12:0 13:0 14:-100 15:0 16:0 17:0 18:0 19:0 20:0 21:20 22:60 23:0 24:0 25:0 26:0 27:0 28:20 29:60 30:20 31:40 32:20 33:40 34:0 35:0 36:20 37:20 38:0 39:20 40:20 41:19 42:64 
1.412540050128752 1:0 2:0 3:0 4:0 5:0 6:0 7:0 8:100 9:0 10:0 11:0 12:0 13:0 14:-100 15:0 16:0 17:0 18:0 19:0 20:0 21:20 22:60 23:0 24:0 25:0 26:0 27:0 28:20 29:60 30:20 31:40 32:20 33:40 34:0 35:0 36:20 37:20 38:0 39:20 40:20 41:19 42:64 
0.6402724044647464 1:100 2:0 3:0 4:0 5:-100 6:0 7:0 8:0 9:0 10:0 11:0 12:0 13:0 14:0 15:0 16:0 17:0 18:0 19:0 20:0 21:20 22:0 23:20 24:0 25:0 26:20 27:20 28:20 29:40 30:0 31:0 32:80 33:0 34:0 35:60 36:40 37:0 38:0 39:20 40:20 41:40 42:64 
2 1:0 2:0 3:0 4:0 5:0 6:0 7:0 8:0 9:100 10:0 11:0 12:0 13:0 14:0 15:0 16:0 17:-100 18:0 19:0 20:0 21:60 22:20 23:60 24:0 25:0 26:0 27:0 28:0 29:40 30:20 31:0 32:0 33:0 34:0 35:0 36:60 37:20 38:60 39:0 40:20 41:44 42:25 
