svm_type c_svc
kernel_type rbf
gamma 3.05176e-05
nr_class 2
total_sv 1284
rho 0.276012
label 0 1
probA -2.01261
probB 0.0810276
nr_sv 696 588
SV
1.269506993152433 1:0 2:0 3:0 4:0 5:0 6:0 7:0 8:-100 9:0 10:0 11:100 12:0 13:0 14:0 15:0 16:0 17:0 18:0 19:0 20:0 21:20 22:0 23:20 24:0 25:20 26:0 27:20 28:40 29:0 30:0 31:0 32:20 33:0 34:0 35:40 36:80 37:20 38:40 39:0 40:40 41:50 42:51 
0.2563913413995844 1:0 2:-100 3:0 4:0 5:0 6:0 7:0 8:100 9:0 10:0 11:0 12:0 13:0 14:0 15:0 16:0 17:0 18:0 19:0 20:0 21:0 22:20 23:40 24:0 25:0 26:20 27:60 28:0 29:0 30:0 31:40 32:40 33:0 34:20 35:20 36:20 37:20 38:0 39:0 40:60 41:45 42:25 
1.839467027648191 1:-100 2:0 3:0 4:0 5:0 6:0 7:0 8:0 9:100 10:0 11:0 12:0 13:0 14:0 15:0 16:0 17:0 18:0 19:0 20:0 21:0 22:40 23:0 24:0 25:0 26:40 27:0 28:20 29:20 30:20 31:0 32:20 33:20 34:20 35:40 36:40 37:0 38:20 39:20 40:40 41:32 42:64 
2 1:-100 2:100 3:0 4:0 5:0 6:0 7:0 8:0 9:0 10:0 11:0 12:0 13:0 14:0 15:0 16:0 17:0 18:0 19:0 20:0 21:0 22:40 23:0 24:0 25:0 26:40 27:0 28:20 29:20 30:20 31:0 32:20 33:20 34:20 35:40 36:40 37:0 38:20 39:20 40:40 41:32 42:64 
2 1:-100 2:0 3:0 4:100 5:0 6:0 7:0 8:0 9:0 10:0 11:0 12:0 13:0 14:0 15:0 16:0 17:0 18:0 19:0 20:0 21:0 22:40 23:0 24:0 25:0 26:40 27:0 28:20 29:20 30:20 31:0 32:20 33:20 34:20 35:40 36:40 37:0 38:20 39:20 40:40 41:32 42:64 
1.195113573018397 1:0 2:0 3:0 4:0 5:0 6:0 7:0 8:0 9:0 10:0 11:0 12:0 13:0 14:0 15:0 16:0 17:0 18:-100 19:100 20:0 21:60 22:40 23:20 24:0 25:0 26:20 27:0 28:20 29:20 30:20 31:20 32:0 33:0 34:0 35:0 36:60 37:20 38:40 39:0 40:20 41:45 42:46 
1.913163691177214 1:0 2:0 3:0 4:0 5:0 6:0 7:0 8:0 9:100 10:0 11:0 12:0 13:0 14:0 15:0 16:0 17:0 18:0 19:-100 20:0 21:0 22:20 23:60 24:0 25:20 26:0 27:20 28:60 29:40 30:0 31:0 32:20 33:0 34:0 35:0 36:0 37:40 38:20 39:0 40:60 41:50 42:44 
0.5871791705727867 1:0 2:0 3:0 4:0 5:0 6:0 7:0 8:0 9:0 10:0 11:0 12:0 13:0 14:0 15:0 16:0 17:0 18:-100 19:0 20:100 21:60 22:40 23:20 24:0 25:0 26:20 27:0 28:20 29:20 30:20 31:20 32:0 33:0 34:0 35:0 36:60 37:20 38:40 39:0 40:20 41:44 42:25 
0.6692347563089815 1:0 2:0 3:0 4:0 5:0 6:0 7:0 8:0 9:0 10:0 11:0 12:0 13:0 14:0 15:0 16:0 17:100 18:-100 19:0 20:0 21:60 22:40 23:20 24:0 25:0 26:20 27:0 28:20 29:20 30:20 31:20 32:0 33:0 34:0 35:0 36:60 37:20 38:40 39:0 40:20 41:44 42:25 
2 1:0 2:0 3:0 4:0 5:100 6:0 7:-100 8:0 9:0 10:0 11:0 12:0 13:0 14:0 15:0 16:0 17:0 18:0 19:0 20:0 21:20 22:40 23:20 24:0 25:0 26:0 27:40 28:20 29:20 30:20 31:0 32:40 33:0 34:20 35:0 36:20 37:20 38:0 39:20 40:60 41:45 42:25 
0.7815802911617468 1:0 2:0 3:0 4:0 5:0 6:0 7:-100 8:0 9:0 10:0 11:0 12:0 13:0 14:0 15:100 16:0 17:0 18:0 19:0 20:0 21:40 22:40 23:0 24:0 25:0 26:0 27:20 28:40 29:0 30:20 31:60 32:0 33:20 34:0 35:20 36:20 37:40 38:20 39:20 40:0 41:50 42:25 
1.635957795620647 1:0 2:0 3:0 4:0 5:0 6:0 7:0 8:0 9:0 10:0 11:0 12:0 13:0 14:-100 15:0 16:0 17:100 18:0 19:0 20:0 21:0 22:60 23:40 24:0 25:40 26:0 27:0 28:0 29:0 30:20 31:20 32:20 33:0 34:0 35:40 36:40 37:0 38:40 39:0 40:40 41:55 42:4 
2 1:0 2:0 3:0 4:0 5:0 6:0 7:0 8:0 9:0 10:0 11:0 12:0 13:0 14:0 15:0 16:-100 17:0 18:100 19:0 20:0 21:20 22:20 23:0 24:20 25:20 26:20 27:0 28:40 29:0 30:0 31:20 32:0 33:0 34:0 35:0 36:40 37:0 38:40 39:20 40:0 41:53 42:55 
0.1866119603163577 1:0 2:0 3:0 4:0 5:0 6:0 7:0 8:0 9:0 10:0 11:0 12:0 13:0 14:0 15:0 16:-100 17:0 18:100 19:0 20:0 21:20 22:20 23:0 24:20 25:20 26:20 27:0 28:40 29:0 30:0 31:20 32:0 33:0 34:0 35:0 36:40 37:0 38:40 39:20 40:0 41:53 42:55 
1.154463343306484 1:0 2:0 3:0 4:0 5:0 6:0 7:-100 8:0 9:0 10:0 11:0 12:0 13:0 14:0 15:0 16:0 17:0 18:0 19:0 20:100 21:0 22:100 23:0 24:0 25:20 26:0 27:0 28:20 29:40 30:0 31:0 32:20 33:0 34:0 35:0 36:20 37:0 38:100 39:20 40:20 41:54 42:25 
2 1:0 2:0 3:0 4:0 5:0 6:0 7:0 8:0 9:0 10:0 11:0 12:0 13:0 14:0 15:0 16:-100 17:100 18:0 19:0 20:0 21:20 22:20 23:0 24:20 25:20 26:20 27:0 28:40 29:0 30:0 31:20 32:0 33:0 34:0 35:0 36:40 37:0 38:40 39:20 40:0 41:53 42:55 
0.6497413459217515 1:0 2:0 3:0 4:0 5:0 6:0 7:0 8:0 9:0 10:0 11:0 12:0 13:0 14:0 15:0 16:-100 17:100 18:0 19:0 20:0 21:20 22:20 23:0 24:20 25:20 26:20 27:0 28:40 29:0 30:0 31:20 32:0 33:0 34:0 35:0 36:40 37:0 38:40 39:20 40:0 41:53 42:55 
2 1:0 2:0 3:0 4:0 5:0 6:0 7:0 8:0 9:0 10:0 11:0 12:-100 13:0 14:0 15:0 16:0 17:0 18:100 19:0 20:0 21:20 22:40 23:0 24:40 25:20 26:0 27:0 28:60 29:20 30:0 31:20 32:20 33:0 34:0 35:20 36:20 37:40 38:20 39:20 40:0 41:14 42:40 
1.579388507203172 1:0 2:0 3:0 4:0 5:0 6:0 7:0 8:0 9:0 10:0 11:0 12:-100 13:0 14:0 15:0 16:0 17:0 18:100 19:0 20:0 21:20 22:40 23:0 24:40 25:20 26:0 27:0 28:60 29:20 30:0 31:20 32:20 33:0 34:0 35:20 36:20 37:40 38:20 39:20 40:0 41:14 42:40 
2 1:0 2:0 3:0 4:0 5:0 6:0 7:0 8:0 9:0 10:0 11:0 12:-100 13:0 14:0 15:0 16:0 17:0 18:100 19:0 20:0 21:20 22:40 23:0 24:40 25:20 26:0 27:0 28:60 29:20 30:0 31:20 32:20 33:0 34:0 35:20 36:20 37:40 38:20 39:20 40:0 41:28 42:63 
2 1:0 2:0 3:0 4:0 5:0 6:0 7:0 8:0 9:0 10:0 11:0 12:-100 13:0 14:0 15:0 16:0 17:0 18:100 19:0 20:0 21:20 22:40 23:0 24:40 25:20 26:0 27:0 28:60 29:20 30:0 31:20 32:20 33:0 34:0 35:20 36:20 37:40 38:20 39:20 40:0 41:21 42:52 
0.465907690026754 1:0 2:0 3:0 4:0 5:0 6:0 7:0 8:0 9:100 10:0 11:0 12:-100 13:0 14:0 15:0 16:0 17:0 18:0 19:0 20:0 21:20 22:40 23:0 24:40 25:20 26:0 27:0 28:60 29:20 30:0 31:20 32:20 33:0 34:0 35:20 36:20 37:40 38:20 39:20 40:0 41:21 42:51 
1.673162319561811 1:0 2:0 3:0 4:0 5:0 6:0 7:0 8:0 9:0 10:0 11:0 12:0 13:0 14:0 15:0 16:0 17:0 18:0 19:100 20:-100 21:60 22:0 23:0 24:0 25:20 26:0 27:20 28:20 29:20 30:40 31:20 32:0 33:0 34:20 35:0 36:0 37:0 38:0 39:20 40:0 41:42 42:25 
1.436572281481744 1:0 2:0 3:0 4:100 5:0 6:0 7:0 8:0 9:0 10:0 11:0 12:0 13:0 14:0 15:-100 16:0 17:0 18:0 19:0 20:0 21:0 22:20 23:20 24:0 25:0 26:20 27:20 28:60 29:20 30:20 31:20 32:20 33:0 34:0 35:20 36:40 37:0 38:40 39:20 40:20 41:31 42:25 
2 1:0 2:0 3:0 4:0 5:0 6:0 7:0 8:0 9:100 10:0 11:0 12:0 13:0 14:0 15:0 16:0 17:0 18:0 19:0 20:-100 21:60 22:0 23:0 24:0 25:20 26:0 27:20 28:20 29:20 30:40 31:20 32:0 33:0 34:20 35:0 36:0 37:0 38:0 39:20 40:0 41:42 42:25 
2 1:0 2:0 3:0 4:0 5:0 6:0 7:0 8:0 9:100 10:0 11:0 12:0 13:0 14:0 15:0 16:0 17:0 18:0 19:0 20:-100 21:60 22:0 23:0 24:0 25:20 26:0 27:20 28:20 29:20 30:40 31:20 32:0 33:0 34:20 35:0 36:0 37:0 38:0 39:20 40:0 41:8 42:25 
1.150437737276822 1:100 2:0 3:0 4:0 5:0 6:0 7:0 8:0 9:0 10:0 11:0 12:-100 13:0 14:0 15:0 16:0 17:0 18:0 19:0 20:0 21:20 22:20 23:20 24:0 25:20 26:20 27:20 28:20 29:20 30:0 31:0 32:60 33:0 34:0 35:40 36:20 37:0 38:0 39:20 40:20 41:21 42:53 
2 1:0 2:0 3:0 4:0 5:0 6:0 7:0 8:0 9:0 10:0 11:0 12:-100 13:0 14:0 15:100 16:0 17:0 18:0 19:0 20:0 21:20 22:20 23:20 24:0 25:20 26:20 27:20 28:20 29:20 30:0 31:0 32:60 33:0 34:0 35:40 36:20 37:0 38:0 39:20 40:20 41:17 42:46 
1.408795693771546 1:0 2:0 3:0 4:0 5:0 6:0 7:0 8:0 9:0 10:0 11:0 12:-100 13:0 14:0 15:100 16:0 17:0 18:0 19:0 20:0 21:20 22:20 23:20 24:0 25:20 26:20 27:20 28:20 29:20 30:0 31:0 32:60 33:0 34:0 35:40 36:20 37:0 38:0 39:20 40:20 41:14 42:42 
0.6659330080951824 1:0 2:100 3:0 4:0 5:0 6:0 7:0 8:0 9:0 10:0 11:0 12:-100 13:0 14:0 15:0 16:0 17:0 18:0 19:0 20:0 21:20 22:20 23:20 24:0 25:20 26:20 27:20 28:20 29:20 30:0 31:0 32:60 33:0 34:0 35:40 36:20 37:0 38:0 39:20 40:20 41:17 42:46 
2 1:0 2:100 3:0 4:0 5:0 6:0 7:0 8:0 9:0 10:0 11:0 12:-100 13:0 14:0 15:0 16:0 17:0 18:0 19:0 20:0 21:20 22:20 23:20 24:0 25:20 26:20 27:20 28:20 29:20 30:0 31:0 32:60 33:0 34:0 35:40 36:20 37:0 38:0 39:20 40:20 41:21 42:53 
0.5463136633434557 1:0 2:0 3:0 4:0 5:0 6:0 7:0 8:0 9:0 10:0 11:0 12:-100 13:0 14:0 15:0 16:0 17:0 18:0 19:100 20:0 21:20 22:20 23:20 24:0 25:20 26:20 27:20 28:20 29:20 30:0 31:0 32:60 33:0 34:0 35:40 36:20 37:0 38:0 39:20 40:20 41:21 42:53 
2 1:0 2:0 3:100 4:0 5:0 6:0 7:0 8:0 9:0 10:0 11:0 12:-100 13:0 14:0 15:0 16:0 17:0 18:0 19:0 20:0 21:20 22:20 23:20 24:0 25:20 26:20 27:20 28:20 29:20 30:0 31:0 32:60 33:0 34:0 35:40 36:20 37:0 38:0 39:20 40:20 41:42 42:64 
2 1:0 2:0 3:100 4:0 5:0 6:0 7:0 8:0 9:0 10:0 11:0 12:-100 13:0 14:0 15:0 16:0 17:0 18:0 19:0 20:0 21:20 22:20 23:20 24:0 25:20 26:20 27:20 28:20 29:20 30:0 31:0 32:60 33:0 34:0 35:40 36:20 37:0 38:0 39:20 40:20 41:28 42:62 
1.117704070138425 1:0 2:0 3:0 4:0 5:0 6:0 7:0 8:0 9:0 10:0 11:0 12:-100 13:0 14:0 15:0 16:0 17:0 18:0 19:0 20:100 21:20 22:20 23:20 24:0 25:20 26:20 27:20 28:20 29:20 30:0 31:0 32:60 33:0 34:0 35:40 36:20 37:0 38:0 39:20 40:20 41:14 42:42 
0.3880291977805428 1:0 2:0 3:0 4:0 5:0 6:0 7:0 8:0 9:0 10:0 11:0 12:-100 13:0 14:0 15:0 16:0 17:0 18:100 19:0 20:0 21:20 22:20 23:20 24:0 25:20 26:20 27:20 28:20 29:20 30:0 31:0 32:60 33:0 34:0 35:40 36:20 37:0 38:0 39:20 40:20 41:21 42:53 
1.012192072463909 1:0 2:0 3:0 4:0 5:100 6:0 7:0 8:0 9:0 10:0 11:0 12:-100 13:0 14:0 15:0 16:0 17:0 18:0 19:0 20:0 21:20 22:20 23:20 24:0 25:20 26:20 27:20 28:20 29:20 30:0 31:0 32:60 33:0 34:0 35:40 36:20 37:0 38:0 39:20 40:20 41:14 42:42 
1.435855820971724 1:-100 2:0 3:0 4:100 5:0 6:0 7:0 8:0 9:0 10:0 11:0 12:0 13:0 14:0 15:0 16:0 17:0 18:0 19:0 20:0 21:20 22:60 23:20 24:0 25:0 26:0 27:20 28:0 29:40 30:20 31:20 32:0 33:0 34:0 35:60 36:40 37:0 38:0 39:20 40:40 41:38 42:65 
1.026956267646677 1:0 2:0 3:0 4:0 5:0 6:0 7:0 8:0 9:100 10:0 11:0 12:0 13:0 14:-100 15:0 16:0 17:0 18:0 19:0 20:0 21:40 22:20 23:20 24:0 25:20 26:0 27:0 28:60 29:40 30:0 31:20 32:40 33:0 34:0 35:0 36:0 37:20 38:0 39:80 40:0 41:42 42:25 
0.03685923174294677 1:0 2:0 3:0 4:0 5:0 6:0 7:0 8:0 9:0 10:0 11:0 12:0 13:0 14:0 15:0 16:0 17:0 18:0 19:100 20:-100 21:20 22:20 23:40 24:0 25:20 26:0 27:0 28:80 29:20 30:20 31:40 32:0 33:0 34:0 35:20 36:40 37:0 38:20 39:20 40:0 41:63 42:25 
0.2612322114772961 1:0 2:0 3:0 4:0 5:0 6:0 7:0 8:0 9:100 10:0 11:0 12:0 13:0 14:0 15:0 16:-100 17:0 18:0 19:0 20:0 21:0 22:20 23:40 24:0 25:20 26:0 27:60 28:20 29:20 30:60 31:0 32:20 33:20 34:0 35:40 36:0 37:0 38:20 39:20 40:0 41:50 42:39 
2 1:0 2:0 3:0 4:0 5:0 6:0 7:0 8:0 9:0 10:0 11:0 12:0 13:0 14:100 15:0 16:0 17:0 18:0 19:0 20:-100 21:40 22:40 23:20 24:0 25:0 26:0 27:40 28:40 29:40 30:60 31:0 32:20 33:0 34:0 35:0 36:20 37:20 38:20 39:0 40:0 41:50 42:25 
0.8471957014897742 1:0 2:0 3:0 4:0 5:0 6:0 7:0 8:0 9:0 10:0 11:0 12:0 13:0 14:100 15:0 16:0 17:0 18:0 19:0 20:-100 21:40 22:40 23:20 24:0 25:0 26:0 27:40 28:40 29:40 30:60 31:0 32:20 33:0 34:0 35:0 36:20 37:20 38:20 39:0 40:0 41:50 42:25 
0.1864389739848413 1:0 2:0 3:0 4:0 5:100 6:-100 7:0 8:0 9:0 10:0 11:0 12:0 13:0 14:0 15:0 16:0 17:0 18:0 19:0 20:0 21:20 22:40 23:20 24:20 25:20 26:0 27:0 28:0 29:0 30:0 31:40 32:0 33:0 34:0 35:20 36:60 37:0 38:60 39:0 40:60 41:53 42:25 
1.631243424323157 1:0 2:0 3:0 4:0 5:0 6:0 7:0 8:0 9:100 10:0 11:0 12:0 13:0 14:0 15:0 16:0 17:0 18:-100 19:0 20:0 21:20 22:40 23:20 24:40 25:0 26:0 27:20 28:0 29:60 30:0 31:0 32:60 33:0 34:0 35:40 36:0 37:0 38:20 39:40 40:0 41:21 42:50 
1.967310938634721 1:0 2:0 3:0 4:0 5:0 6:0 7:0 8:0 9:0 10:0 11:100 12:-100 13:0 14:0 15:0 16:0 17:0 18:0 19:0 20:0 21:20 22:20 23:40 24:0 25:20 26:0 27:0 28:40 29:20 30:0 31:0 32:0 33:20 34:0 35:20 36:40 37:0 38:40 39:60 40:20 41:46 42:63 
1.116596384381461 1:0 2:0 3:0 4:0 5:0 6:0 7:0 8:0 9:100 10:-100 11:0 12:0 13:0 14:0 15:0 16:0 17:0 18:0 19:0 20:0 21:0 22:40 23:20 24:0 25:20 26:20 27:40 28:40 29:60 30:20 31:0 32:20 33:0 34:0 35:0 36:0 37:20 38:20 39:20 40:20 41:52 42:63 
2 1:0 2:0 3:0 4:0 5:0 6:0 7:0 8:0 9:0 10:0 11:0 12:0 13:0 14:0 15:0 16:0 17:100 18:-100 19:0 20:0 21:20 22:40 23:20 24:40 25:0 26:0 27:20 28:0 29:60 30:0 31:0 32:60 33:0 34:0 35:40 36:0 37:0 38:20 39:40 40:0 41:21 42:50 
0.3364757001996755 1:0 2:0 3:0 4:0 5:0 6:0 7:0 8:0 9:100 10:0 11:0 12:0 13:0 14:0 15:0 16:0 17:0 18:0 19:-100 20:0 21:0 22:20 23:40 24:0 25:40 26:0 27:40 28:20 29:60 30:0 31:0 32:20 33:20 34:0 35:40 36:40 37:20 38:0 39:0 40:0 41:50 42:39 
1.666437043246756 1:0 2:0 3:0 4:0 5:0 6:0 7:0 8:0 9:0 10:0 11:0 12:100 13:0 14:-100 15:0 16:0 17:0 18:0 19:0 20:0 21:0 22:40 23:40 24:0 25:40 26:0 27:0 28:20 29:20 30:0 31:20 32:40 33:40 34:20 35:0 36:0 37:20 38:60 39:0 40:0 41:60 42:37 
2 1:0 2:0 3:0 4:0 5:0 6:0 7:0 8:0 9:0 10:0 11:0 12:100 13:0 14:0 15:0 16:0 17:0 18:0 19:0 20:-100 21:0 22:80 23:20 24:0 25:0 26:0 27:0 28:0 29:40 30:0 31:0 32:20 33:20 34:0 35:0 36:20 37:20 38:80 39:20 40:40 41:50 42:69 
2 1:0 2:0 3:0 4:0 5:0 6:0 7:0 8:0 9:0 10:0 11:0 12:0 13:0 14:-100 15:0 16:0 17:100 18:0 19:0 20:0 21:0 22:40 23:40 24:0 25:40 26:0 27:0 28:20 29:20 30:0 31:20 32:40 33:40 34:20 35:0 36:0 37:20 38:60 39:0 40:0 41:60 42:37 
0.5716177789847081 1:0 2:0 3:0 4:0 5:0 6:0 7:0 8:0 9:-100 10:0 11:100 12:0 13:0 14:0 15:0 16:0 17:0 18:0 19:0 20:0 21:20 22:20 23:20 24:20 25:0 26:0 27:60 28:60 29:20 30:0 31:0 32:20 33:0 34:0 35:40 36:40 37:0 38:0 39:0 40:40 41:50 42:51 
2 1:0 2:0 3:0 4:0 5:0 6:0 7:0 8:0 9:100 10:0 11:0 12:0 13:0 14:0 15:0 16:0 17:0 18:-100 19:0 20:0 21:0 22:20 23:20 24:20 25:0 26:20 27:20 28:20 29:40 30:0 31:20 32:20 33:0 34:0 35:0 36:80 37:0 38:20 39:20 40:40 41:37 42:5 
1.353355410871378 1:0 2:-100 3:0 4:0 5:0 6:0 7:0 8:0 9:100 10:0 11:0 12:0 13:0 14:0 15:0 16:0 17:0 18:0 19:0 20:0 21:80 22:40 23:0 24:0 25:0 26:40 27:0 28:20 29:20 30:0 31:20 32:0 33:0 34:20 35:0 36:20 37:20 38:60 39:0 40:0 41:68 42:82 
0.4097945877919875 1:0 2:0 3:0 4:0 5:0 6:0 7:0 8:0 9:0 10:0 11:0 12:0 13:0 14:0 15:0 16:-100 17:0 18:100 19:0 20:0 21:20 22:20 23:0 24:0 25:0 26:40 27:20 28:0 29:60 30:20 31:20 32:20 33:0 34:0 35:20 36:0 37:20 38:20 39:60 40:20 41:37 42:66 
2 1:0 2:0 3:0 4:0 5:0 6:0 7:0 8:0 9:0 10:0 11:0 12:0 13:0 14:0 15:0 16:-100 17:0 18:100 19:0 20:0 21:20 22:20 23:0 24:0 25:0 26:40 27:20 28:0 29:60 30:20 31:20 32:20 33:0 34:0 35:20 36:0 37:20 38:20 39:60 40:20 41:20 42:50 
2 1:0 2:0 3:0 4:0 5:0 6:0 7:0 8:0 9:0 10:0 11:-100 12:100 13:0 14:0 15:0 16:0 17:0 18:0 19:0 20:0 21:40 22:40 23:20 24:0 25:0 26:0 27:20 28:20 29:0 30:0 31:20 32:20 33:20 34:20 35:20 36:20 37:40 38:40 39:0 40:20 41:21 42:49 
2 1:0 2:0 3:0 4:0 5:0 6:0 7:0 8:0 9:100 10:0 11:0 12:0 13:0 14:0 15:0 16:0 17:0 18:-100 19:0 20:0 21:0 22:0 23:0 24:20 25:20 26:0 27:0 28:40 29:60 30:0 31:20 32:20 33:40 34:0 35:40 36:40 37:0 38:0 39:40 40:20 41:50 42:39 
2 1:0 2:0 3:0 4:0 5:0 6:0 7:0 8:0 9:100 10:0 11:-100 12:0 13:0 14:0 15:0 16:0 17:0 18:0 19:0 20:0 21:40 22:40 23:20 24:0 25:0 26:0 27:20 28:20 29:0 30:0 31:20 32:20 33:20 34:20 35:20 36:20 37:40 38:40 39:0 40:20 41:21 42:49 
1.146982917360026 1:0 2:0 3:0 4:0 5:0 6:0 7:0 8:100 9:0 10:0 11:-100 12:0 13:0 14:0 15:0 16:0 17:0 18:0 19:0 20:0 21:40 22:40 23:20 24:0 25:0 26:0 27:20 28:20 29:0 30:0 31:20 32:20 33:20 34:20 35:20 36:20 37:40 38:40 39:0 40:20 41:21 42:49 
0.2797762064041935 1:100 2:0 3:-100 4:0 5:0 6:0 7:0 8:0 9:0 10:0 11:0 12:0 13:0 14:0 15:0 16:0 17:0 18:0 19:0 20:0 21:40 22:0 23:0 24:0 25:20 26:0 27:20 28:20 29:20 30:0 31:0 32:20 33:0 34:0 35:0 36:0 37:0 38:0 39:20 40:40 41:45 42:25 
0.4929948765206161 1:0 2:-100 3:0 4:0 5:0 6:0 7:0 8:0 9:100 10:0 11:0 12:0 13:0 14:0 15:0 16:0 17:0 18:0 19:0 20:0 21:0 22:0 23:0 24:0 25:20 26:0 27:20 28:20 29:0 30:80 31:0 32:20 33:40 34:0 35:20 36:20 37:0 38:20 39:0 40:20 41:50 42:39 
0.08591134023678783 1:0 2:0 3:-100 4:0 5:0 6:0 7:0 8:0 9:0 10:0 11:0 12:0 13:0 14:0 15:0 16:0 17:0 18:100 19:0 20:0 21:0 22:20 23:20 24:40 25:20 26:0 27:0 28:20 29:0 30:0 31:0 32:0 33:0 34:0 35:20 36:0 37:0 38:40 39:20 40:20 41:46 42:64 
0.4289543479873685 1:0 2:0 3:-100 4:0 5:0 6:0 7:0 8:0 9:0 10:0 11:0 12:0 13:0 14:0 15:0 16:0 17:0 18:0 19:0 20:100 21:0 22:20 23:20 24:40 25:20 26:0 27:0 28:20 29:0 30:0 31:0 32:0 33:0 34:0 35:20 36:0 37:0 38:40 39:20 40:20 41:46 42:64 
0.004777711568913625 1:0 2:0 3:-100 4:0 5:0 6:0 7:0 8:100 9:0 10:0 11:0 12:0 13:0 14:0 15:0 16:0 17:0 18:0 19:0 20:0 21:0 22:20 23:20 24:40 25:20 26:0 27:0 28:20 29:0 30:0 31:0 32:0 33:0 34:0 35:20 36:0 37:0 38:40 39:20 40:20 41:46 42:64 
1.099740489950192 1:0 2:0 3:-100 4:0 5:100 6:0 7:0 8:0 9:0 10:0 11:0 12:0 13:0 14:0 15:0 16:0 17:0 18:0 19:0 20:0 21:0 22:20 23:20 24:40 25:20 26:0 27:0 28:20 29:0 30:0 31:0 32:0 33:0 34:0 35:20 36:0 37:0 38:40 39:20 40:20 41:46 42:64 
1.708242960619988 1:0 2:0 3:-100 4:0 5:0 6:0 7:0 8:0 9:0 10:100 11:0 12:0 13:0 14:0 15:0 16:0 17:0 18:0 19:0 20:0 21:0 22:20 23:20 24:40 25:20 26:0 27:0 28:20 29:0 30:0 31:0 32:0 33:0 34:0 35:20 36:0 37:0 38:40 39:20 40:20 41:21 42:53 
0.2973242949982418 1:0 2:0 3:-100 4:0 5:0 6:0 7:0 8:0 9:0 10:0 11:100 12:0 13:0 14:0 15:0 16:0 17:0 18:0 19:0 20:0 21:0 22:20 23:20 24:40 25:20 26:0 27:0 28:20 29:0 30:0 31:0 32:0 33:0 34:0 35:20 36:0 37:0 38:40 39:20 40:20 41:46 42:64 
2 1:0 2:0 3:0 4:0 5:0 6:0 7:0 8:0 9:100 10:0 11:0 12:0 13:0 14:0 15:0 16:0 17:0 18:-100 19:0 20:0 21:60 22:40 23:60 24:0 25:0 26:0 27:0 28:20 29:20 30:40 31:0 32:0 33:0 34:0 35:0 36:60 37:40 38:0 39:0 40:20 41:44 42:25 
1.029068422625131 1:0 2:0 3:-100 4:0 5:0 6:0 7:0 8:0 9:0 10:0 11:0 12:100 13:0 14:0 15:0 16:0 17:0 18:0 19:0 20:0 21:0 22:20 23:20 24:40 25:20 26:0 27:0 28:20 29:0 30:0 31:0 32:0 33:0 34:0 35:20 36:0 37:0 38:40 39:20 40:20 41:21 42:53 
1.564306350661001 1:0 2:0 3:-100 4:0 5:0 6:100 7:0 8:0 9:0 10:0 11:0 12:0 13:0 14:0 15:0 16:0 17:0 18:0 19:0 20:0 21:0 22:20 23:20 24:40 25:20 26:0 27:0 28:20 29:0 30:0 31:0 32:0 33:0 34:0 35:20 36:0 37:0 38:40 39:20 40:20 41:46 42:64 
1.15398666472741 1:100 2:0 3:-100 4:0 5:0 6:0 7:0 8:0 9:0 10:0 11:0 12:0 13:0 14:0 15:0 16:0 17:0 18:0 19:0 20:0 21:0 22:20 23:20 24:40 25:20 26:0 27:0 28:20 29:0 30:0 31:0 32:0 33:0 34:0 35:20 36:0 37:0 38:40 39:20 40:20 41:14 42:41 
1.425348967944683 1:100 2:0 3:-100 4:0 5:0 6:0 7:0 8:0 9:0 10:0 11:0 12:0 13:0 14:0 15:0 16:0 17:0 18:0 19:0 20:0 21:0 22:20 23:20 24:40 25:20 26:0 27:0 28:20 29:0 30:0 31:0 32:0 33:0 34:0 35:20 36:0 37:0 38:40 39:20 40:20 41:46 42:64 
1.82423000340292 1:0 2:0 3:-100 4:0 5:0 6:0 7:100 8:0 9:0 10:0 11:0 12:0 13:0 14:0 15:0 16:0 17:0 18:0 19:0 20:0 21:0 22:20 23:20 24:40 25:20 26:0 27:0 28:20 29:0 30:0 31:0 32:0 33:0 34:0 35:20 36:0 37:0 38:40 39:20 40:20 41:46 42:64 
2 1:0 2:0 3:0 4:0 5:0 6:0 7:0 8:0 9:0 10:0 11:0 12:0 13:0 14:0 15:0 16:100 17:0 18:0 19:0 20:-100 21:0 22:40 23:20 24:0 25:20 26:0 27:20 28:40 29:20 30:40 31:40 32:40 33:0 34:0 35:0 36:0 37:20 38:0 39:20 40:40 41:50 42:47 
2 1:0 2:0 3:0 4:-100 5:0 6:0 7:0 8:0 9:100 10:0 11:0 12:0 13:0 14:0 15:0 16:0 17:0 18:0 19:0 20:0 21:40 22:20 23:20 24:20 25:40 26:0 27:0 28:60 29:60 30:0 31:0 32:40 33:0 34:0 35:0 36:0 37:20 38:20 39:20 40:0 41:38 42:65 
2 1:0 2:0 3:0 4:-100 5:0 6:0 7:0 8:0 9:0 10:0 11:0 12:0 13:0 14:0 15:0 16:100 17:0 18:0 19:0 20:0 21:40 22:20 23:20 24:20 25:40 26:0 27:0 28:60 29:40 30:0 31:0 32:40 33:20 34:0 35:0 36:0 37:20 38:20 39:20 40:0 41:21 42:47 
2 1:0 2:0 3:0 4:0 5:100 6:0 7:-100 8:0 9:0 10:0 11:0 12:0 13:0 14:0 15:0 16:0 17:0 18:0 19:0 20:0 21:0 22:40 23:20 24:0 25:20 26:20 27:0 28:60 29:60 30:20 31:40 32:20 33:0 34:0 35:20 36:0 37:20 38:0 39:20 40:0 41:48 42:54 
2 1:0 2:0 3:0 4:0 5:0 6:0 7:0 8:100 9:0 10:0 11:0 12:0 13:0 14:0 15:0 16:0 17:0 18:0 19:0 20:-100 21:20 22:0 23:20 24:0 25:20 26:0 27:20 28:40 29:20 30:0 31:0 32:20 33:0 34:0 35:20 36:80 37:20 38:40 39:20 40:20 41:50 42:20 
2 1:0 2:0 3:0 4:0 5:0 6:0 7:0 8:0 9:0 10:0 11:0 12:0 13:0 14:0 15:0 16:0 17:0 18:0 19:100 20:-100 21:40 22:60 23:20 24:0 25:0 26:0 27:20 28:0 29:40 30:20 31:20 32:0 33:20 34:0 35:40 36:40 37:0 38:0 39:20 40:20 41:47 42:62 
1.530163159620452 1:-100 2:0 3:0 4:0 5:0 6:0 7:0 8:0 9:100 10:0 11:0 12:0 13:0 14:0 15:0 16:0 17:0 18:0 19:0 20:0 21:20 22:20 23:20 24:0 25:0 26:0 27:0 28:20 29:40 30:20 31:20 32:0 33:0 34:0 35:0 36:80 37:40 38:60 39:0 40:20 41:45 42:46 
2 1:-100 2:0 3:100 4:0 5:0 6:0 7:0 8:0 9:0 10:0 11:0 12:0 13:0 14:0 15:0 16:0 17:0 18:0 19:0 20:0 21:40 22:0 23:40 24:0 25:20 26:0 27:0 28:0 29:0 30:0 31:0 32:40 33:20 34:40 35:0 36:20 37:40 38:0 39:80 40:20 41:50 42:25 
0.7237532794057743 1:0 2:0 3:0 4:0 5:-100 6:0 7:0 8:0 9:100 10:0 11:0 12:0 13:0 14:0 15:0 16:0 17:0 18:0 19:0 20:0 21:40 22:20 23:20 24:0 25:0 26:0 27:0 28:0 29:60 30:0 31:0 32:20 33:0 34:0 35:20 36:40 37:20 38:40 39:20 40:60 41:21 42:51 
0.0811487665120703 1:0 2:0 3:0 4:0 5:-100 6:0 7:0 8:0 9:0 10:0 11:0 12:100 13:0 14:0 15:0 16:0 17:0 18:0 19:0 20:0 21:40 22:0 23:20 24:0 25:0 26:0 27:0 28:20 29:20 30:20 31:60 32:40 33:0 34:0 35:40 36:20 37:60 38:20 39:0 40:0 41:50 42:25 
0.371224252085847 1:-100 2:0 3:0 4:0 5:100 6:0 7:0 8:0 9:0 10:0 11:0 12:0 13:0 14:0 15:0 16:0 17:0 18:0 19:0 20:0 21:40 22:0 23:20 24:0 25:0 26:20 27:0 28:20 29:80 30:20 31:0 32:0 33:20 34:0 35:60 36:20 37:20 38:0 39:0 40:40 41:19 42:64 
2 1:-100 2:0 3:0 4:0 5:0 6:0 7:0 8:0 9:100 10:0 11:0 12:0 13:0 14:0 15:0 16:0 17:0 18:0 19:0 20:0 21:40 22:0 23:20 24:0 25:0 26:20 27:0 28:20 29:80 30:20 31:0 32:0 33:20 34:0 35:60 36:20 37:20 38:0 39:0 40:40 41:19 42:49 
2 1:-100 2:0 3:0 4:0 5:0 6:0 7:0 8:0 9:100 10:0 11:0 12:0 13:0 14:0 15:0 16:0 17:0 18:0 19:0 20:0 21:40 22:0 23:20 24:0 25:0 26:20 27:0 28:20 29:80 30:20 31:0 32:0 33:20 34:0 35:60 36:20 37:20 38:0 39:0 40:40 41:19 42:64 
2 1:0 2:0 3:0 4:0 5:0 6:100 7:0 8:0 9:0 10:0 11:0 12:0 13:0 14:0 15:0 16:-100 17:0 18:0 19:0 20:0 21:0 22:20 23:20 24:40 25:20 26:0 27:40 28:20 29:20 30:40 31:20 32:40 33:0 34:0 35:0 36:40 37:0 38:20 39:20 40:0 41:32 42:25 
1.139819353957908 1:0 2:0 3:0 4:0 5:0 6:0 7:0 8:0 9:0 10:0 11:0 12:0 13:0 14:0 15:-100 16:0 17:100 18:0 19:0 20:0 21:0 22:40 23:60 24:40 25:0 26:0 27:0 28:40 29:0 30:20 31:40 32:40 33:20 34:0 35:20 36:0 37:0 38:0 39:40 40:0 41:51 42:10 
0.9682899166850286 1:-100 2:0 3:0 4:0 5:0 6:0 7:0 8:0 9:0 10:0 11:0 12:0 13:0 14:0 15:0 16:100 17:0 18:0 19:0 20:0 21:0 22:20 23:0 24:0 25:20 26:0 27:0 28:40 29:40 30:0 31:20 32:40 33:0 34:20 35:20 36:0 37:0 38:60 39:20 40:60 41:50 42:67 
0.9998418003430665 1:-100 2:0 3:0 4:0 5:0 6:0 7:0 8:0 9:0 10:0 11:0 12:0 13:0 14:0 15:0 16:0 17:0 18:100 19:0 20:0 21:0 22:20 23:0 24:0 25:20 26:0 27:0 28:40 29:40 30:0 31:20 32:40 33:0 34:20 35:20 36:0 37:0 38:60 39:20 40:60 41:50 42:67 
0.4172491544382074 1:-100 2:0 3:0 4:0 5:0 6:0 7:0 8:0 9:0 10:0 11:0 12:0 13:0 14:0 15:0 16:100 17:0 18:0 19:0 20:0 21:20 22:0 23:0 24:20 25:0 26:40 27:0 28:40 29:40 30:20 31:20 32:0 33:20 34:20 35:0 36:80 37:0 38:0 39:20 40:20 41:32 42:66 
2 1:0 2:0 3:0 4:0 5:0 6:0 7:0 8:0 9:100 10:0 11:-100 12:0 13:0 14:0 15:0 16:0 17:0 18:0 19:0 20:0 21:20 22:60 23:0 24:0 25:20 26:20 27:20 28:40 29:0 30:0 31:20 32:0 33:0 34:0 35:0 36:0 37:20 38:40 39:20 40:80 41:50 42:44 
1.996189961939112 1:0 2:0 3:0 4:0 5:0 6:0 7:0 8:0 9:0 10:0 11:0 12:0 13:0 14:0 15:0 16:-100 17:0 18:100 19:0 20:0 21:20 22:20 23:20 24:0 25:40 26:0 27:0 28:60 29:40 30:0 31:40 32:20 33:0 34:0 35:0 36:0 37:40 38:60 39:0 40:0 41:53 42:55 
0.7646460226781985 1:0 2:0 3:0 4:0 5:0 6:0 7:0 8:0 9:0 10:0 11:0 12:0 13:0 14:0 15:0 16:-100 17:0 18:100 19:0 20:0 21:20 22:20 23:20 24:0 25:40 26:0 27:0 28:60 29:40 30:0 31:40 32:20 33:0 34:0 35:0 36:0 37:40 38:60 39:0 40:0 41:53 42:55 
2 1:0 2:0 3:0 4:0 5:0 6:0 7:0 8:0 9:0 10:0 11:0 12:0 13:0 14:0 15:100 16:-100 17:0 18:0 19:0 20:0 21:0 22:20 23:20 24:0 25:20 26:20 27:0 28:80 29:0 30:20 31:40 32:20 33:0 34:0 35:40 36:20 37:0 38:20 39:20 40:20 41:45 42:25 
0.9033310476251725 1:0 2:0 3:0 4:0 5:0 6:0 7:0 8:0 9:0 10:0 11:0 12:0 13:0 14:0 15:100 16:-100 17:0 18:0 19:0 20:0 21:0 22:20 23:20 24:0 25:20 26:20 27:0 28:80 29:0 30:20 31:40 32:20 33:0 34:0 35:40 36:20 37:0 38:20 39:20 40:20 41:45 42:25 
2 1:0 2:0 3:0 4:0 5:0 6:0 7:0 8:0 9:0 10:0 11:0 12:0 13:0 14:0 15:0 16:100 17:0 18:-100 19:0 20:0 21:40 22:0 23:0 24:40 25:20 26:0 27:0 28:20 29:0 30:0 31:0 32:100 33:0 34:0 35:20 36:40 37:0 38:40 39:20 40:20 41:50 42:25 
2 1:0 2:0 3:0 4:0 5:100 6:0 7:-100 8:0 9:0 10:0 11:0 12:0 13:0 14:0 15:0 16:0 17:0 18:0 19:0 20:0 21:60 22:80 23:20 24:0 25:0 26:0 27:20 28:20 29:0 30:20 31:0 32:20 33:20 34:0 35:0 36:20 37:0 38:20 39:20 40:40 41:50 42:25 
0.1233393220354379 1:-100 2:0 3:0 4:0 5:0 6:0 7:0 8:0 9:0 10:0 11:0 12:0 13:0 14:0 15:0 16:0 17:0 18:0 19:0 20:100 21:0 22:20 23:0 24:0 25:20 26:0 27:0 28:0 29:20 30:0 31:0 32:20 33:20 34:0 35:40 36:20 37:0 38:40 39:0 40:0 41:19 42:64 
0.2509332059835311 1:-100 2:0 3:0 4:100 5:0 6:0 7:0 8:0 9:0 10:0 11:0 12:0 13:0 14:0 15:0 16:0 17:0 18:0 19:0 20:0 21:0 22:20 23:0 24:0 25:20 26:0 27:0 28:0 29:20 30:0 31:0 32:20 33:20 34:0 35:40 36:20 37:0 38:40 39:0 40:0 41:19 42:64 
1.133950826293006 1:0 2:0 3:0 4:0 5:0 6:0 7:0 8:0 9:100 10:0 11:0 12:0 13:0 14:0 15:-100 16:0 17:0 18:0 19:0 20:0 21:0 22:0 23:40 24:0 25:20 26:0 27:60 28:20 29:40 30:60 31:0 32:20 33:20 34:0 35:20 36:40 37:0 38:0 39:20 40:0 41:50 42:39 
1.453199847467221 1:-100 2:0 3:0 4:0 5:0 6:0 7:0 8:0 9:0 10:0 11:0 12:0 13:0 14:0 15:100 16:0 17:0 18:0 19:0 20:0 21:0 22:20 23:0 24:0 25:20 26:0 27:0 28:0 29:20 30:0 31:0 32:20 33:20 34:0 35:40 36:20 37:0 38:40 39:0 40:0 41:19 42:64 
1.997670982706738 1:0 2:0 3:0 4:0 5:0 6:0 7:0 8:0 9:100 10:0 11:0 12:0 13:0 14:0 15:-100 16:0 17:0 18:0 19:0 20:0 21:20 22:0 23:0 24:20 25:20 26:20 27:0 28:20 29:0 30:0 31:0 32:0 33:0 34:0 35:0 36:40 37:20 38:20 39:40 40:0 41:50 42:70 
0.1906650545717612 1:0 2:0 3:0 4:0 5:0 6:0 7:0 8:0 9:100 10:0 11:0 12:0 13:0 14:0 15:-100 16:0 17:0 18:0 19:0 20:0 21:20 22:0 23:0 24:20 25:20 26:20 27:0 28:20 29:0 30:0 31:0 32:0 33:0 34:0 35:0 36:40 37:20 38:20 39:40 40:0 41:50 42:70 
2 1:0 2:100 3:0 4:0 5:0 6:0 7:0 8:0 9:0 10:0 11:0 12:0 13:0 14:0 15:-100 16:0 17:0 18:0 19:0 20:0 21:20 22:0 23:0 24:20 25:20 26:20 27:0 28:20 29:0 30:0 31:0 32:0 33:0 34:0 35:0 36:40 37:20 38:20 39:40 40:0 41:50 42:70 
2 1:0 2:100 3:0 4:0 5:0 6:0 7:0 8:0 9:0 10:0 11:0 12:0 13:0 14:0 15:-100 16:0 17:0 18:0 19:0 20:0 21:20 22:0 23:0 24:20 25:20 26:20 27:0 28:20 29:0 30:0 31:0 32:0 33:0 34:0 35:0 36:40 37:20 38:20 39:40 40:0 41:50 42:70 
0.1524007316221596 1:0 2:-100 3:0 4:0 5:0 6:0 7:0 8:0 9:100 10:0 11:0 12:0 13:0 14:0 15:0 16:0 17:0 18:0 19:0 20:0 21:0 22:60 23:0 24:0 25:0 26:0 27:0 28:20 29:40 30:20 31:60 32:20 33:0 34:20 35:0 36:60 37:0 38:20 39:20 40:20 41:38 42:53 
1.022187226148953 1:100 2:0 3:0 4:0 5:0 6:0 7:0 8:0 9:0 10:-100 11:0 12:0 13:0 14:0 15:0 16:0 17:0 18:0 19:0 20:0 21:0 22:40 23:20 24:20 25:20 26:0 27:40 28:60 29:20 30:20 31:0 32:40 33:0 34:0 35:0 36:60 37:0 38:0 39:20 40:0 41:32 42:25 
0.2026989461332002 1:0 2:0 3:0 4:0 5:0 6:100 7:0 8:0 9:0 10:-100 11:0 12:0 13:0 14:0 15:0 16:0 17:0 18:0 19:0 20:0 21:0 22:40 23:20 24:20 25:20 26:0 27:40 28:60 29:20 30:20 31:0 32:40 33:0 34:0 35:0 36:60 37:0 38:0 39:20 40:0 41:32 42:25 
2 1:0 2:100 3:0 4:0 5:0 6:0 7:0 8:0 9:0 10:-100 11:0 12:0 13:0 14:0 15:0 16:0 17:0 18:0 19:0 20:0 21:0 22:40 23:20 24:20 25:20 26:0 27:40 28:60 29:20 30:20 31:0 32:40 33:0 34:0 35:0 36:60 37:0 38:0 39:20 40:0 41:32 42:25 
0.4142361531452773 1:0 2:0 3:0 4:0 5:0 6:0 7:0 8:0 9:100 10:0 11:0 12:-100 13:0 14:0 15:0 16:0 17:0 18:0 19:0 20:0 21:20 22:0 23:20 24:0 25:20 26:0 27:20 28:20 29:40 30:0 31:40 32:40 33:0 34:20 35:0 36:0 37:40 38:0 39:40 40:40 41:50 42:58 
1.817169378196851 1:0 2:0 3:0 4:0 5:0 6:0 7:0 8:0 9:0 10:0 11:0 12:0 13:0 14:0 15:0 16:100 17:0 18:0 19:0 20:-100 21:60 22:0 23:40 24:0 25:60 26:0 27:0 28:40 29:20 30:0 31:20 32:0 33:0 34:20 35:0 36:0 37:40 38:40 39:0 40:20 41:53 42:55 
0.3782757458550988 1:0 2:0 3:0 4:0 5:0 6:0 7:0 8:0 9:0 10:0 11:0 12:0 13:0 14:0 15:0 16:0 17:100 18:0 19:0 20:-100 21:60 22:0 23:40 24:0 25:60 26:0 27:0 28:40 29:20 30:0 31:20 32:0 33:0 34:20 35:0 36:0 37:40 38:40 39:0 40:20 41:53 42:55 
2 1:0 2:0 3:0 4:0 5:0 6:0 7:0 8:-100 9:100 10:0 11:0 12:0 13:0 14:0 15:0 16:0 17:0 18:0 19:0 20:0 21:20 22:40 23:20 24:0 25:0 26:20 27:0 28:20 29:80 30:0 31:40 32:20 33:0 34:0 35:0 36:40 37:20 38:20 39:20 40:0 41:45 42:25 
1.654762599679891 1:0 2:0 3:0 4:0 5:0 6:0 7:0 8:0 9:0 10:0 11:0 12:100 13:0 14:-100 15:0 16:0 17:0 18:0 19:0 20:0 21:20 22:0 23:0 24:0 25:20 26:0 27:60 28:40 29:0 30:20 31:40 32:20 33:0 34:0 35:0 36:20 37:0 38:40 39:60 40:20 41:42 42:25 
2 1:0 2:0 3:0 4:0 5:-100 6:0 7:100 8:0 9:0 10:0 11:0 12:0 13:0 14:0 15:0 16:0 17:0 18:0 19:0 20:0 21:0 22:20 23:20 24:20 25:0 26:0 27:20 28:60 29:20 30:20 31:0 32:20 33:0 34:0 35:20 36:100 37:0 38:20 39:0 40:20 41:42 42:25 
0.3488201785020243 1:0 2:0 3:-100 4:100 5:0 6:0 7:0 8:0 9:0 10:0 11:0 12:0 13:0 14:0 15:0 16:0 17:0 18:0 19:0 20:0 21:20 22:40 23:20 24:0 25:20 26:0 27:0 28:40 29:40 30:20 31:20 32:0 33:0 34:40 35:20 36:20 37:20 38:0 39:0 40:40 41:78 42:76 
1.062514454457848 1:-100 2:0 3:100 4:0 5:0 6:0 7:0 8:0 9:0 10:0 11:0 12:0 13:0 14:0 15:0 16:0 17:0 18:0 19:0 20:0 21:20 22:20 23:0 24:60 25:40 26:0 27:0 28:60 29:20 30:0 31:20 32:40 33:0 34:0 35:20 36:0 37:20 38:20 39:20 40:0 41:40 42:64 
1.10897079394264 1:-100 2:0 3:0 4:100 5:0 6:0 7:0 8:0 9:0 10:0 11:0 12:0 13:0 14:0 15:0 16:0 17:0 18:0 19:0 20:0 21:20 22:20 23:0 24:60 25:40 26:0 27:0 28:60 29:20 30:0 31:20 32:40 33:0 34:0 35:20 36:0 37:20 38:20 39:20 40:0 41:38 42:65 
1.437256444433856 1:0 2:0 3:0 4:0 5:0 6:0 7:0 8:0 9:0 10:0 11:0 12:0 13:0 14:0 15:100 16:-100 17:0 18:0 19:0 20:0 21:20 22:20 23:40 24:20 25:20 26:0 27:40 28:20 29:20 30:0 31:20 32:40 33:0 34:20 35:0 36:0 37:20 38:20 39:20 40:20 41:37 42:5 
2 1:0 2:0 3:0 4:0 5:0 6:0 7:0 8:0 9:100 10:0 11:0 12:0 13:0 14:0 15:0 16:-100 17:0 18:0 19:0 20:0 21:20 22:40 23:20 24:0 25:0 26:0 27:0 28:40 29:60 30:0 31:20 32:0 33:20 34:0 35:20 36:20 37:0 38:20 39:60 40:20 41:47 42:62 
0.376961987428575 1:0 2:0 3:0 4:0 5:0 6:0 7:0 8:0 9:100 10:0 11:0 12:0 13:0 14:0 15:0 16:-100 17:0 18:0 19:0 20:0 21:20 22:40 23:20 24:0 25:0 26:0 27:0 28:40 29:60 30:0 31:20 32:0 33:20 34:0 35:20 36:20 37:0 38:20 39:60 40:20 41:21 42:51 
0.8431637939393223 1:0 2:0 3:0 4:0 5:0 6:0 7:0 8:0 9:0 10:0 11:100 12:0 13:0 14:0 15:-100 16:0 17:0 18:0 19:0 20:0 21:0 22:40 23:60 24:40 25:0 26:0 27:0 28:40 29:0 30:20 31:40 32:40 33:20 34:0 35:20 36:0 37:0 38:20 39:20 40:0 41:51 42:10 
2 1:100 2:0 3:0 4:0 5:0 6:0 7:0 8:0 9:-100 10:0 11:0 12:0 13:0 14:0 15:0 16:0 17:0 18:0 19:0 20:0 21:40 22:40 23:20 24:40 25:20 26:0 27:0 28:20 29:20 30:0 31:20 32:0 33:20 34:0 35:40 36:0 37:20 38:0 39:20 40:40 41:21 42:40 
2 1:0 2:0 3:0 4:0 5:0 6:0 7:0 8:0 9:0 10:0 11:0 12:0 13:0 14:100 15:0 16:0 17:0 18:0 19:-100 20:0 21:20 22:0 23:20 24:0 25:20 26:20 27:20 28:0 29:20 30:20 31:20 32:60 33:0 34:0 35:60 36:40 37:20 38:0 39:20 40:0 41:14 42:39 
2 1:0 2:0 3:0 4:0 5:0 6:0 7:0 8:0 9:0 10:0 11:0 12:0 13:0 14:0 15:0 16:0 17:0 18:0 19:-100 20:100 21:20 22:0 23:20 24:0 25:20 26:20 27:20 28:0 29:20 30:20 31:20 32:60 33:0 34:0 35:60 36:40 37:20 38:0 39:20 40:0 41:14 42:40 
0.2466386344125349 1:0 2:0 3:0 4:0 5:0 6:0 7:-100 8:0 9:100 10:0 11:0 12:0 13:0 14:0 15:0 16:0 17:0 18:0 19:0 20:0 21:20 22:20 23:20 24:20 25:0 26:0 27:0 28:0 29:40 30:0 31:20 32:20 33:0 34:0 35:0 36:100 37:0 38:60 39:0 40:40 41:37 42:5 
1.270379174245991 1:0 2:0 3:0 4:0 5:0 6:0 7:0 8:0 9:100 10:0 11:0 12:-100 13:0 14:0 15:0 16:0 17:0 18:0 19:0 20:0 21:40 22:80 23:20 24:0 25:0 26:0 27:0 28:40 29:40 30:0 31:20 32:20 33:0 34:20 35:0 36:40 37:0 38:20 39:0 40:20 41:68 42:82 
1.053951502982094 1:0 2:0 3:0 4:0 5:0 6:0 7:0 8:0 9:0 10:0 11:0 12:0 13:0 14:100 15:0 16:-100 17:0 18:0 19:0 20:0 21:40 22:60 23:20 24:20 25:40 26:0 27:20 28:40 29:0 30:0 31:60 32:20 33:0 34:20 35:0 36:0 37:20 38:0 39:0 40:0 41:50 42:25 
0.2977458614287802 1:0 2:0 3:0 4:0 5:0 6:0 7:0 8:0 9:0 10:0 11:0 12:0 13:0 14:0 15:0 16:0 17:0 18:0 19:100 20:-100 21:0 22:60 23:20 24:20 25:0 26:0 27:20 28:60 29:40 30:0 31:20 32:20 33:0 34:0 35:60 36:20 37:0 38:0 39:20 40:0 41:15 42:65 
2 1:0 2:0 3:0 4:0 5:0 6:0 7:0 8:0 9:0 10:0 11:0 12:0 13:0 14:0 15:0 16:0 17:0 18:0 19:100 20:-100 21:0 22:60 23:20 24:20 25:0 26:0 27:20 28:60 29:40 30:0 31:20 32:20 33:0 34:0 35:60 36:20 37:0 38:0 39:20 40:0 41:28 42:65 
1.671934854555212 1:100 2:0 3:0 4:0 5:0 6:0 7:0 8:0 9:0 10:0 11:0 12:-100 13:0 14:0 15:0 16:0 17:0 18:0 19:0 20:0 21:0 22:0 23:40 24:0 25:0 26:0 27:40 28:40 29:20 30:0 31:0 32:60 33:0 34:0 35:80 36:0 37:20 38:40 39:0 40:20 41:50 42:48 
1.676635126355588 1:0 2:0 3:0 4:0 5:0 6:0 7:0 8:0 9:0 10:0 11:0 12:0 13:0 14:100 15:0 16:0 17:0 18:0 19:0 20:-100 21:20 22:40 23:20 24:20 25:20 26:0 27:20 28:0 29:20 30:20 31:20 32:20 33:0 34:40 35:0 36:60 37:0 38:40 39:0 40:0 41:37 42:5 
1.279328679409948 1:0 2:100 3:-100 4:0 5:0 6:0 7:0 8:0 9:0 10:0 11:0 12:0 13:0 14:0 15:0 16:0 17:0 18:0 19:0 20:0 21:40 22:40 23:0 24:0 25:0 26:0 27:40 28:40 29:20 30:40 31:0 32:20 33:0 34:0 35:0 36:20 37:20 38:40 39:20 40:20 41:50 42:25 
0.8939303033507582 1:0 2:0 3:-100 4:0 5:100 6:0 7:0 8:0 9:0 10:0 11:0 12:0 13:0 14:0 15:0 16:0 17:0 18:0 19:0 20:0 21:40 22:40 23:0 24:0 25:0 26:0 27:40 28:40 29:20 30:40 31:0 32:20 33:0 34:0 35:0 36:20 37:20 38:40 39:20 40:20 41:50 42:25 
1.9657007574619 1:0 2:100 3:0 4:0 5:0 6:0 7:0 8:0 9:-100 10:0 11:0 12:0 13:0 14:0 15:0 16:0 17:0 18:0 19:0 20:0 21:0 22:40 23:0 24:20 25:40 26:0 27:0 28:60 29:60 30:0 31:0 32:0 33:0 34:0 35:20 36:20 37:20 38:20 39:20 40:40 41:55 42:4 
1.747484960507799 1:0 2:-100 3:0 4:100 5:0 6:0 7:0 8:0 9:0 10:0 11:0 12:0 13:0 14:0 15:0 16:0 17:0 18:0 19:0 20:0 21:0 22:20 23:20 24:20 25:20 26:0 27:0 28:20 29:100 30:0 31:0 32:0 33:0 34:0 35:20 36:40 37:20 38:20 39:20 40:40 41:78 42:76 
0.2022330016547086 1:0 2:-100 3:100 4:0 5:0 6:0 7:0 8:0 9:0 10:0 11:0 12:0 13:0 14:0 15:0 16:0 17:0 18:0 19:0 20:0 21:0 22:20 23:20 24:20 25:20 26:0 27:0 28:20 29:100 30:0 31:0 32:0 33:0 34:0 35:20 36:40 37:20 38:20 39:20 40:40 41:78 42:76 
2 1:-100 2:0 3:0 4:0 5:0 6:0 7:100 8:0 9:0 10:0 11:0 12:0 13:0 14:0 15:0 16:0 17:0 18:0 19:0 20:0 21:0 22:0 23:20 24:0 25:0 26:40 27:0 28:20 29:40 30:20 31:0 32:0 33:20 34:0 35:100 36:0 37:40 38:0 39:40 40:20 41:19 42:64 
2 1:-100 2:0 3:0 4:0 5:100 6:0 7:0 8:0 9:0 10:0 11:0 12:0 13:0 14:0 15:0 16:0 17:0 18:0 19:0 20:0 21:0 22:0 23:20 24:0 25:0 26:40 27:0 28:20 29:40 30:20 31:0 32:0 33:20 34:0 35:100 36:0 37:40 38:0 39:40 40:20 41:19 42:64 
1.510189790804898 1:0 2:0 3:0 4:0 5:0 6:0 7:0 8:0 9:0 10:0 11:0 12:0 13:0 14:0 15:0 16:100 17:0 18:0 19:-100 20:0 21:0 22:40 23:0 24:20 25:0 26:20 27:40 28:60 29:40 30:0 31:20 32:0 33:0 34:20 35:40 36:20 37:0 38:0 39:20 40:20 41:45 42:74 
0.2629046295183188 1:0 2:0 3:0 4:0 5:0 6:0 7:0 8:0 9:100 10:0 11:0 12:0 13:0 14:0 15:0 16:0 17:0 18:-100 19:0 20:0 21:40 22:20 23:20 24:0 25:20 26:20 27:40 28:20 29:0 30:40 31:100 32:0 33:0 34:0 35:0 36:0 37:0 38:0 39:0 40:40 41:50 42:48 
1.324374115102396 1:0 2:0 3:0 4:0 5:0 6:0 7:0 8:0 9:0 10:0 11:0 12:0 13:0 14:0 15:0 16:-100 17:0 18:0 19:100 20:0 21:20 22:0 23:60 24:0 25:0 26:0 27:0 28:20 29:20 30:40 31:20 32:20 33:0 34:0 35:0 36:40 37:20 38:40 39:20 40:40 41:35 42:25 
2 1:0 2:0 3:0 4:0 5:0 6:0 7:0 8:0 9:0 10:0 11:0 12:0 13:0 14:-100 15:0 16:0 17:0 18:0 19:100 20:0 21:0 22:60 23:40 24:0 25:0 26:0 27:40 28:60 29:0 30:20 31:40 32:40 33:0 34:0 35:0 36:20 37:0 38:20 39:20 40:0 41:39 42:66 
2 1:0 2:0 3:0 4:0 5:0 6:0 7:0 8:0 9:0 10:0 11:0 12:0 13:0 14:0 15:0 16:0 17:0 18:0 19:100 20:-100 21:60 22:0 23:40 24:0 25:80 26:0 27:0 28:40 29:20 30:0 31:20 32:0 33:0 34:20 35:0 36:0 37:20 38:40 39:0 40:20 41:53 42:55 
1.177818264902061 1:0 2:0 3:0 4:0 5:0 6:0 7:0 8:0 9:0 10:0 11:0 12:0 13:0 14:0 15:0 16:0 17:0 18:0 19:100 20:-100 21:60 22:0 23:40 24:0 25:80 26:0 27:0 28:40 29:20 30:0 31:20 32:0 33:0 34:20 35:0 36:0 37:20 38:40 39:0 40:20 41:53 42:55 
0.2801118006729343 1:0 2:0 3:0 4:0 5:0 6:0 7:0 8:0 9:0 10:0 11:0 12:0 13:0 14:0 15:0 16:0 17:0 18:0 19:100 20:-100 21:60 22:80 23:0 24:0 25:0 26:0 27:40 28:20 29:0 30:20 31:20 32:0 33:20 34:0 35:0 36:0 37:20 38:40 39:40 40:0 41:50 42:25 
2 1:0 2:0 3:0 4:0 5:0 6:0 7:0 8:-100 9:100 10:0 11:0 12:0 13:0 14:0 15:0 16:0 17:0 18:0 19:0 20:0 21:40 22:40 23:40 24:0 25:0 26:20 27:0 28:20 29:60 30:0 31:0 32:0 33:0 34:20 35:20 36:20 37:20 38:20 39:0 40:40 41:68 42:82 
1.476976615638663 1:0 2:-100 3:0 4:0 5:0 6:0 7:0 8:0 9:0 10:0 11:0 12:0 13:0 14:0 15:0 16:0 17:0 18:100 19:0 20:0 21:40 22:0 23:0 24:0 25:0 26:0 27:0 28:20 29:40 30:20 31:0 32:0 33:0 34:0 35:0 36:20 37:20 38:0 39:20 40:0 41:50 42:70 
0.9043643329181964 1:0 2:0 3:0 4:0 5:0 6:0 7:0 8:-100 9:100 10:0 11:0 12:0 13:0 14:0 15:0 16:0 17:0 18:0 19:0 20:0 21:20 22:0 23:40 24:0 25:0 26:40 27:20 28:0 29:0 30:0 31:40 32:40 33:0 34:20 35:20 36:20 37:60 38:0 39:20 40:20 41:21 42:49 
1.893044678569003 1:0 2:0 3:0 4:0 5:0 6:0 7:0 8:0 9:0 10:0 11:0 12:0 13:0 14:0 15:0 16:100 17:0 18:-100 19:0 20:0 21:40 22:0 23:20 24:0 25:20 26:0 27:0 28:60 29:60 30:20 31:20 32:0 33:0 34:0 35:20 36:0 37:40 38:20 39:40 40:0 41:53 42:55 
2 1:0 2:0 3:0 4:0 5:0 6:0 7:0 8:0 9:0 10:0 11:0 12:0 13:0 14:0 15:0 16:100 17:0 18:-100 19:0 20:0 21:40 22:0 23:20 24:0 25:20 26:0 27:0 28:60 29:60 30:20 31:20 32:0 33:0 34:0 35:20 36:0 37:40 38:20 39:40 40:0 41:53 42:55 
1.526434444419145 1:0 2:0 3:0 4:0 5:0 6:0 7:0 8:0 9:0 10:0 11:0 12:0 13:0 14:0 15:0 16:100 17:0 18:-100 19:0 20:0 21:40 22:0 23:20 24:0 25:20 26:0 27:0 28:60 29:60 30:20 31:20 32:0 33:0 34:0 35:20 36:0 37:40 38:20 39:40 40:0 41:53 42:55 
1.710178862812232 1:-100 2:0 3:0 4:0 5:0 6:0 7:0 8:0 9:100 10:0 11:0 12:0 13:0 14:0 15:0 16:0 17:0 18:0 19:0 20:0 21:60 22:40 23:0 24:0 25:0 26:40 27:0 28:20 29:60 30:0 31:0 32:0 33:0 34:20 35:0 36:20 37:20 38:60 39:0 40:20 41:68 42:82 
2 1:0 2:0 3:0 4:0 5:100 6:0 7:-100 8:0 9:0 10:0 11:0 12:0 13:0 14:0 15:0 16:0 17:0 18:0 19:0 20:0 21:0 22:0 23:20 24:0 25:0 26:0 27:20 28:20 29:40 30:20 31:40 32:40 33:20 34:20 35:0 36:60 37:20 38:0 39:40 40:0 41:35 42:63 
2 1:0 2:0 3:0 4:0 5:0 6:0 7:0 8:0 9:0 10:0 11:0 12:0 13:0 14:0 15:0 16:0 17:0 18:0 19:100 20:-100 21:20 22:0 23:20 24:0 25:0 26:20 27:20 28:40 29:40 30:20 31:20 32:20 33:20 34:0 35:20 36:20 37:20 38:0 39:60 40:0 41:15 42:65 
2 1:0 2:0 3:0 4:0 5:0 6:0 7:0 8:0 9:0 10:0 11:0 12:0 13:0 14:0 15:0 16:0 17:0 18:0 19:100 20:-100 21:20 22:0 23:20 24:0 25:0 26:20 27:20 28:40 29:40 30:20 31:20 32:20 33:20 34:0 35:20 36:20 37:20 38:0 39:60 40:0 41:16 42:65 
2 1:0 2:0 3:0 4:0 5:0 6:0 7:0 8:0 9:0 10:0 11:0 12:0 13:0 14:0 15:0 16:0 17:0 18:0 19:100 20:-100 21:20 22:0 23:20 24:0 25:0 26:20 27:20 28:40 29:40 30:20 31:20 32:20 33:20 34:0 35:20 36:20 37:20 38:0 39:60 40:0 41:32 42:65 
2 1:0 2:0 3:0 4:0 5:0 6:0 7:0 8:0 9:0 10:0 11:0 12:0 13:0 14:0 15:0 16:0 17:0 18:0 19:100 20:-100 21:20 22:0 23:20 24:0 25:0 26:20 27:20 28:40 29:40 30:20 31:20 32:20 33:20 34:0 35:20 36:20 37:20 38:0 39:60 40:0 41:28 42:65 
2 1:0 2:0 3:0 4:0 5:0 6:0 7:100 8:0 9:0 10:0 11:-100 12:0 13:0 14:0 15:0 16:0 17:0 18:0 19:0 20:0 21:40 22:40 23:40 24:0 25:0 26:0 27:0 28:0 29:60 30:0 31:60 32:20 33:20 34:0 35:0 36:40 37:0 38:0 39:20 40:20 41:45 42:74 
0.7136461374814027 1:0 2:0 3:0 4:0 5:-100 6:0 7:0 8:0 9:100 10:0 11:0 12:0 13:0 14:0 15:0 16:0 17:0 18:0 19:0 20:0 21:60 22:0 23:40 24:0 25:20 26:0 27:0 28:40 29:20 30:0 31:20 32:0 33:0 34:20 35:0 36:0 37:40 38:60 39:0 40:40 41:50 42:60 
2 1:0 2:0 3:0 4:0 5:0 6:0 7:0 8:0 9:100 10:0 11:-100 12:0 13:0 14:0 15:0 16:0 17:0 18:0 19:0 20:0 21:40 22:40 23:40 24:0 25:0 26:0 27:0 28:0 29:60 30:0 31:60 32:20 33:20 34:0 35:0 36:40 37:0 38:0 39:20 40:20 41:45 42:74 
0.3956585324706539 1:0 2:0 3:0 4:0 5:0 6:-100 7:100 8:0 9:0 10:0 11:0 12:0 13:0 14:0 15:0 16:0 17:0 18:0 19:0 20:0 21:0 22:40 23:40 24:0 25:0 26:0 27:60 28:0 29:0 30:0 31:60 32:40 33:0 34:20 35:20 36:20 37:0 38:0 39:0 40:60 41:64 42:25 
0.2722904826751466 1:0 2:0 3:0 4:0 5:0 6:-100 7:100 8:0 9:0 10:0 11:0 12:0 13:0 14:0 15:0 16:0 17:0 18:0 19:0 20:0 21:0 22:40 23:40 24:0 25:0 26:0 27:60 28:0 29:0 30:0 31:60 32:40 33:0 34:20 35:20 36:20 37:0 38:0 39:0 40:60 41:41 42:25 
2 1:0 2:0 3:0 4:0 5:0 6:0 7:0 8:0 9:0 10:0 11:0 12:0 13:0 14:0 15:0 16:0 17:0 18:0 19:-100 20:100 21:60 22:20 23:0 24:0 25:20 26:0 27:20 28:20 29:0 30:20 31:60 32:20 33:0 34:0 35:20 36:0 37:60 38:20 39:0 40:20 41:50 42:48 
1.42395269172186 1:0 2:0 3:0 4:0 5:0 6:0 7:0 8:0 9:100 10:0 11:0 12:0 13:0 14:0 15:0 16:0 17:0 18:0 19:-100 20:0 21:60 22:20 23:0 24:0 25:20 26:0 27:20 28:20 29:0 30:20 31:60 32:20 33:0 34:0 35:20 36:0 37:60 38:20 39:0 40:20 41:50 42:48 
2 1:100 2:-100 3:0 4:0 5:0 6:0 7:0 8:0 9:0 10:0 11:0 12:0 13:0 14:0 15:0 16:0 17:0 18:0 19:0 20:0 21:40 22:60 23:20 24:0 25:0 26:0 27:0 28:40 29:40 30:0 31:0 32:40 33:0 34:20 35:0 36:80 37:0 38:0 39:0 40:20 41:78 42:76 
1.990410584345628 1:0 2:100 3:0 4:0 5:-100 6:0 7:0 8:0 9:0 10:0 11:0 12:0 13:0 14:0 15:0 16:0 17:0 18:0 19:0 20:0 21:0 22:40 23:20 24:0 25:20 26:0 27:0 28:40 29:40 30:40 31:0 32:20 33:20 34:0 35:40 36:0 37:20 38:0 39:20 40:40 41:51 42:51 
0.4949703171220007 1:0 2:-100 3:0 4:0 5:0 6:0 7:0 8:0 9:100 10:0 11:0 12:0 13:0 14:0 15:0 16:0 17:0 18:0 19:0 20:0 21:40 22:60 23:20 24:0 25:0 26:0 27:0 28:40 29:40 30:0 31:0 32:40 33:0 34:20 35:0 36:80 37:0 38:0 39:0 40:20 41:78 42:76 
1.998081637974594 1:0 2:0 3:0 4:0 5:0 6:0 7:0 8:0 9:0 10:0 11:0 12:0 13:0 14:0 15:0 16:100 17:0 18:-100 19:0 20:0 21:20 22:40 23:0 24:20 25:0 26:20 27:0 28:0 29:60 30:0 31:20 32:0 33:0 34:0 35:60 36:40 37:40 38:0 39:20 40:20 41:21 42:47 
0.8765530858303445 1:-100 2:0 3:0 4:0 5:0 6:0 7:0 8:0 9:0 10:0 11:0 12:0 13:100 14:0 15:0 16:0 17:0 18:0 19:0 20:0 21:0 22:0 23:20 24:0 25:20 26:20 27:0 28:20 29:20 30:20 31:0 32:100 33:0 34:0 35:60 36:20 37:20 38:0 39:40 40:0 41:38 42:59 
2 1:-100 2:0 3:100 4:0 5:0 6:0 7:0 8:0 9:0 10:0 11:0 12:0 13:0 14:0 15:0 16:0 17:0 18:0 19:0 20:0 21:0 22:0 23:20 24:0 25:20 26:20 27:0 28:20 29:20 30:20 31:0 32:100 33:0 34:0 35:60 36:20 37:20 38:0 39:40 40:0 41:38 42:59 
2 1:0 2:0 3:0 4:0 5:0 6:0 7:0 8:0 9:0 10:0 11:0 12:0 13:0 14:0 15:0 16:100 17:0 18:0 19:0 20:-100 21:40 22:60 23:0 24:0 25:20 26:20 27:20 28:40 29:20 30:0 31:20 32:0 33:0 34:0 35:0 36:20 37:0 38:40 39:20 40:40 41:50 42:44 
2 1:0 2:0 3:0 4:0 5:0 6:0 7:0 8:0 9:0 10:0 11:0 12:0 13:0 14:0 15:0 16:100 17:0 18:0 19:0 20:-100 21:40 22:60 23:0 24:0 25:20 26:20 27:20 28:40 29:20 30:0 31:20 32:0 33:0 34:0 35:0 36:20 37:0 38:40 39:20 40:40 41:50 42:44 
2 1:0 2:0 3:0 4:0 5:0 6:0 7:0 8:0 9:0 10:0 11:0 12:0 13:0 14:0 15:0 16:100 17:0 18:0 19:0 20:-100 21:40 22:60 23:0 24:0 25:20 26:20 27:20 28:40 29:20 30:0 31:20 32:0 33:0 34:0 35:0 36:20 37:0 38:40 39:20 40:40 41:50 42:44 
1.682833511004331 1:0 2:0 3:0 4:0 5:0 6:0 7:0 8:0 9:0 10:0 11:0 12:0 13:0 14:0 15:0 16:100 17:0 18:0 19:0 20:-100 21:40 22:60 23:0 24:0 25:20 26:20 27:20 28:40 29:20 30:0 31:20 32:0 33:0 34:0 35:0 36:20 37:0 38:40 39:20 40:40 41:50 42:44 
0.7870281776788737 1:0 2:-100 3:0 4:0 5:0 6:0 7:0 8:0 9:0 10:0 11:0 12:0 13:100 14:0 15:0 16:0 17:0 18:0 19:0 20:0 21:60 22:60 23:0 24:0 25:0 26:0 27:40 28:20 29:0 30:20 31:0 32:0 33:20 34:0 35:0 36:20 37:20 38:40 39:40 40:20 41:50 42:25 
0.005277942444923233 1:0 2:-100 3:0 4:0 5:0 6:0 7:0 8:0 9:100 10:0 11:0 12:0 13:0 14:0 15:0 16:0 17:0 18:0 19:0 20:0 21:60 22:60 23:0 24:0 25:0 26:0 27:40 28:20 29:0 30:20 31:0 32:0 33:20 34:0 35:0 36:20 37:20 38:40 39:40 40:20 41:50 42:25 
2 1:0 2:0 3:0 4:0 5:0 6:0 7:0 8:0 9:100 10:0 11:0 12:0 13:0 14:0 15:0 16:0 17:0 18:0 19:-100 20:0 21:40 22:20 23:0 24:0 25:20 26:0 27:0 28:20 29:60 30:0 31:0 32:20 33:0 34:0 35:20 36:40 37:20 38:40 39:0 40:60 41:17 42:47 
1.285869190119201 1:100 2:-100 3:0 4:0 5:0 6:0 7:0 8:0 9:0 10:0 11:0 12:0 13:0 14:0 15:0 16:0 17:0 18:0 19:0 20:0 21:60 22:60 23:0 24:0 25:0 26:0 27:40 28:20 29:0 30:20 31:0 32:0 33:20 34:0 35:0 36:20 37:20 38:40 39:40 40:20 41:50 42:25 
1.503906967762006 1:0 2:0 3:0 4:0 5:-100 6:0 7:0 8:0 9:100 10:0 11:0 12:0 13:0 14:0 15:0 16:0 17:0 18:0 19:0 20:0 21:0 22:20 23:0 24:0 25:0 26:0 27:20 28:20 29:0 30:80 31:0 32:20 33:20 34:0 35:20 36:0 37:0 38:20 39:0 40:20 41:50 42:39 
2 1:0 2:0 3:0 4:0 5:100 6:0 7:-100 8:0 9:0 10:0 11:0 12:0 13:0 14:0 15:0 16:0 17:0 18:0 19:0 20:0 21:0 22:20 23:0 24:20 25:0 26:20 27:20 28:20 29:60 30:0 31:20 32:40 33:20 34:0 35:20 36:20 37:0 38:20 39:60 40:0 41:19 42:64 
1.931317089225397 1:100 2:0 3:-100 4:0 5:0 6:0 7:0 8:0 9:0 10:0 11:0 12:0 13:0 14:0 15:0 16:0 17:0 18:0 19:0 20:0 21:60 22:40 23:0 24:0 25:0 26:0 27:0 28:20 29:60 30:20 31:0 32:0 33:0 34:0 35:40 36:40 37:20 38:0 39:20 40:40 41:38 42:61 
2 1:0 2:0 3:0 4:0 5:0 6:0 7:0 8:-100 9:100 10:0 11:0 12:0 13:0 14:0 15:0 16:0 17:0 18:0 19:0 20:0 21:0 22:20 23:0 24:20 25:0 26:40 27:40 28:0 29:40 30:0 31:20 32:40 33:20 34:0 35:20 36:20 37:0 38:20 39:60 40:0 41:19 42:64 
2 1:0 2:0 3:0 4:0 5:0 6:0 7:0 8:0 9:0 10:0 11:0 12:100 13:-100 14:0 15:0 16:0 17:0 18:0 19:0 20:0 21:20 22:60 23:0 24:0 25:0 26:0 27:60 28:20 29:0 30:40 31:20 32:0 33:0 34:0 35:0 36:20 37:20 38:40 39:40 40:20 41:50 42:25 
2 1:0 2:0 3:0 4:0 5:0 6:0 7:0 8:0 9:-100 10:100 11:0 12:0 13:0 14:0 15:0 16:0 17:0 18:0 19:0 20:0 21:40 22:40 23:20 24:0 25:20 26:0 27:0 28:20 29:40 30:0 31:0 32:0 33:0 34:0 35:40 36:40 37:20 38:0 39:40 40:40 41:25 42:57 
2 1:0 2:0 3:0 4:0 5:0 6:0 7:0 8:0 9:-100 10:100 11:0 12:0 13:0 14:0 15:0 16:0 17:0 18:0 19:0 20:0 21:40 22:40 23:20 24:0 25:20 26:0 27:0 28:20 29:40 30:0 31:0 32:0 33:0 34:0 35:40 36:40 37:20 38:0 39:40 40:40 41:46 42:62 
2 1:0 2:0 3:0 4:0 5:0 6:0 7:0 8:0 9:-100 10:100 11:0 12:0 13:0 14:0 15:0 16:0 17:0 18:0 19:0 20:0 21:40 22:40 23:20 24:0 25:20 26:0 27:0 28:20 29:40 30:0 31:0 32:0 33:0 34:0 35:40 36:40 37:20 38:0 39:40 40:40 41:28 42:62 
2 1:0 2:0 3:0 4:0 5:0 6:0 7:0 8:0 9:-100 10:100 11:0 12:0 13:0 14:0 15:0 16:0 17:0 18:0 19:0 20:0 21:40 22:40 23:20 24:0 25:20 26:0 27:0 28:20 29:40 30:0 31:0 32:0 33:0 34:0 35:40 36:40 37:20 38:0 39:40 40:40 41:39 42:65 
1.343111132736746 1:0 2:0 3:0 4:0 5:0 6:0 7:0 8:0 9:100 10:0 11:0 12:0 13:-100 14:0 15:0 16:0 17:0 18:0 19:0 20:0 21:20 22:60 23:0 24:0 25:0 26:0 27:60 28:20 29:0 30:40 31:20 32:0 33:0 34:0 35:0 36:20 37:20 38:40 39:40 40:20 41:50 42:25 
1.203356696855391 1:0 2:0 3:0 4:100 5:0 6:0 7:0 8:0 9:0 10:0 11:0 12:0 13:-100 14:0 15:0 16:0 17:0 18:0 19:0 20:0 21:20 22:60 23:0 24:0 25:0 26:0 27:60 28:20 29:0 30:40 31:20 32:0 33:0 34:0 35:0 36:20 37:20 38:40 39:40 40:20 41:50 42:25 
0.9080116932313612 1:0 2:0 3:100 4:0 5:0 6:0 7:0 8:0 9:0 10:0 11:0 12:0 13:-100 14:0 15:0 16:0 17:0 18:0 19:0 20:0 21:20 22:60 23:0 24:0 25:0 26:0 27:60 28:20 29:0 30:40 31:20 32:0 33:0 34:0 35:0 36:20 37:20 38:40 39:40 40:20 41:50 42:25 
1.035826300086476 1:0 2:0 3:0 4:0 5:0 6:100 7:-100 8:0 9:0 10:0 11:0 12:0 13:0 14:0 15:0 16:0 17:0 18:0 19:0 20:0 21:0 22:80 23:0 24:20 25:0 26:0 27:0 28:40 29:20 30:0 31:20 32:20 33:0 34:0 35:40 36:0 37:0 38:40 39:20 40:60 41:60 42:37 
0.9922487033205972 1:0 2:100 3:0 4:0 5:0 6:0 7:-100 8:0 9:0 10:0 11:0 12:0 13:0 14:0 15:0 16:0 17:0 18:0 19:0 20:0 21:0 22:80 23:0 24:20 25:0 26:0 27:0 28:40 29:20 30:0 31:20 32:20 33:0 34:0 35:40 36:0 37:0 38:40 39:20 40:60 41:60 42:37 
1.12676315420614 1:0 2:0 3:0 4:0 5:100 6:0 7:-100 8:0 9:0 10:0 11:0 12:0 13:0 14:0 15:0 16:0 17:0 18:0 19:0 20:0 21:0 22:80 23:0 24:20 25:0 26:0 27:0 28:40 29:20 30:0 31:20 32:20 33:0 34:0 35:40 36:0 37:0 38:40 39:20 40:60 41:60 42:37 
1.598284488904409 1:0 2:-100 3:100 4:0 5:0 6:0 7:0 8:0 9:0 10:0 11:0 12:0 13:0 14:0 15:0 16:0 17:0 18:0 19:0 20:0 21:20 22:20 23:0 24:20 25:20 26:20 27:0 28:40 29:20 30:0 31:20 32:40 33:0 34:0 35:40 36:20 37:40 38:0 39:20 40:20 41:38 42:61 
2 1:0 2:0 3:0 4:0 5:0 6:0 7:0 8:0 9:0 10:0 11:0 12:0 13:0 14:0 15:0 16:0 17:100 18:-100 19:0 20:0 21:40 22:40 23:0 24:0 25:0 26:20 27:0 28:20 29:20 30:20 31:20 32:20 33:0 34:0 35:0 36:40 37:0 38:60 39:20 40:0 41:44 42:25 
1.963394481221421 1:0 2:0 3:0 4:0 5:0 6:0 7:0 8:0 9:-100 10:0 11:100 12:0 13:0 14:0 15:0 16:0 17:0 18:0 19:0 20:0 21:0 22:80 23:20 24:0 25:0 26:0 27:0 28:0 29:40 30:20 31:60 32:20 33:0 34:0 35:0 36:60 37:0 38:20 39:20 40:20 41:21 42:51 
1.050418496814134 1:100 2:0 3:-100 4:0 5:0 6:0 7:0 8:0 9:0 10:0 11:0 12:0 13:0 14:0 15:0 16:0 17:0 18:0 19:0 20:0 21:0 22:0 23:0 24:0 25:20 26:0 27:20 28:0 29:0 30:0 31:0 32:60 33:0 34:20 35:20 36:20 37:20 38:0 39:0 40:20 41:45 42:25 
2 1:0 2:0 3:0 4:0 5:0 6:0 7:0 8:0 9:0 10:0 11:0 12:0 13:0 14:0 15:100 16:0 17:-100 18:0 19:0 20:0 21:60 22:0 23:0 24:20 25:0 26:0 27:60 28:0 29:20 30:0 31:20 32:20 33:20 34:0 35:20 36:20 37:60 38:40 39:0 40:0 41:50 42:25 
1.829009786948863 1:0 2:0 3:0 4:0 5:0 6:0 7:0 8:0 9:0 10:0 11:0 12:0 13:0 14:-100 15:100 16:0 17:0 18:0 19:0 20:0 21:20 22:40 23:20 24:0 25:0 26:0 27:60 28:20 29:20 30:20 31:0 32:40 33:0 34:0 35:0 36:40 37:20 38:0 39:20 40:40 41:45 42:25 
2 1:0 2:0 3:0 4:0 5:0 6:0 7:0 8:0 9:0 10:0 11:0 12:0 13:0 14:0 15:0 16:0 17:100 18:-100 19:0 20:0 21:40 22:20 23:20 24:0 25:40 26:0 27:0 28:60 29:20 30:0 31:20 32:20 33:0 34:0 35:0 36:20 37:40 38:60 39:0 40:0 41:53 42:55 
2 1:0 2:0 3:0 4:0 5:100 6:0 7:-100 8:0 9:0 10:0 11:0 12:0 13:0 14:0 15:0 16:0 17:0 18:0 19:0 20:0 21:20 22:40 23:20 24:0 25:20 26:0 27:20 28:20 29:20 30:20 31:0 32:40 33:0 34:20 35:0 36:20 37:20 38:0 39:20 40:60 41:45 42:25 
0.5865550950204587 1:0 2:100 3:-100 4:0 5:0 6:0 7:0 8:0 9:0 10:0 11:0 12:0 13:0 14:0 15:0 16:0 17:0 18:0 19:0 20:0 21:0 22:20 23:0 24:0 25:20 26:40 27:20 28:40 29:0 30:0 31:80 32:0 33:20 34:0 35:0 36:20 37:20 38:0 39:60 40:20 41:32 42:66 
1.363720594514314 1:0 2:0 3:0 4:-100 5:0 6:0 7:0 8:100 9:0 10:0 11:0 12:0 13:0 14:0 15:0 16:0 17:0 18:0 19:0 20:0 21:80 22:40 23:0 24:20 25:0 26:0 27:20 28:20 29:0 30:40 31:0 32:40 33:20 34:0 35:20 36:0 37:0 38:20 39:0 40:40 41:22 42:53 
2 1:0 2:0 3:100 4:-100 5:0 6:0 7:0 8:0 9:0 10:0 11:0 12:0 13:0 14:0 15:0 16:0 17:0 18:0 19:0 20:0 21:80 22:40 23:0 24:20 25:0 26:0 27:20 28:20 29:0 30:40 31:0 32:40 33:20 34:0 35:20 36:0 37:0 38:20 39:0 40:40 41:50 42:53 
2 1:0 2:0 3:100 4:-100 5:0 6:0 7:0 8:0 9:0 10:0 11:0 12:0 13:0 14:0 15:0 16:0 17:0 18:0 19:0 20:0 21:80 22:40 23:0 24:20 25:0 26:0 27:20 28:20 29:0 30:40 31:0 32:40 33:20 34:0 35:20 36:0 37:0 38:20 39:0 40:40 41:22 42:53 
1.481738757631248 1:0 2:0 3:100 4:-100 5:0 6:0 7:0 8:0 9:0 10:0 11:0 12:0 13:0 14:0 15:0 16:0 17:0 18:0 19:0 20:0 21:80 22:40 23:0 24:20 25:0 26:0 27:20 28:20 29:0 30:40 31:0 32:40 33:20 34:0 35:20 36:0 37:0 38:20 39:0 40:40 41:67 42:53 
0.7701788891532129 1:0 2:100 3:0 4:-100 5:0 6:0 7:0 8:0 9:0 10:0 11:0 12:0 13:0 14:0 15:0 16:0 17:0 18:0 19:0 20:0 21:80 22:40 23:0 24:20 25:0 26:0 27:20 28:20 29:0 30:40 31:0 32:40 33:20 34:0 35:20 36:0 37:0 38:20 39:0 40:40 41:50 42:53 
2 1:0 2:100 3:0 4:-100 5:0 6:0 7:0 8:0 9:0 10:0 11:0 12:0 13:0 14:0 15:0 16:0 17:0 18:0 19:0 20:0 21:80 22:40 23:0 24:20 25:0 26:0 27:20 28:20 29:0 30:40 31:0 32:40 33:20 34:0 35:20 36:0 37:0 38:20 39:0 40:40 41:22 42:53 
2 1:100 2:0 3:0 4:-100 5:0 6:0 7:0 8:0 9:0 10:0 11:0 12:0 13:0 14:0 15:0 16:0 17:0 18:0 19:0 20:0 21:80 22:40 23:0 24:20 25:0 26:0 27:20 28:20 29:0 30:40 31:0 32:40 33:20 34:0 35:20 36:0 37:0 38:20 39:0 40:40 41:22 42:53 
2 1:100 2:0 3:0 4:-100 5:0 6:0 7:0 8:0 9:0 10:0 11:0 12:0 13:0 14:0 15:0 16:0 17:0 18:0 19:0 20:0 21:80 22:40 23:0 24:20 25:0 26:0 27:20 28:20 29:0 30:40 31:0 32:40 33:20 34:0 35:20 36:0 37:0 38:20 39:0 40:40 41:50 42:53 
1.658332885762712 1:100 2:0 3:0 4:-100 5:0 6:0 7:0 8:0 9:0 10:0 11:0 12:0 13:0 14:0 15:0 16:0 17:0 18:0 19:0 20:0 21:80 22:40 23:0 24:20 25:0 26:0 27:20 28:20 29:0 30:40 31:0 32:40 33:20 34:0 35:20 36:0 37:0 38:20 39:0 40:40 41:67 42:53 
2 1:0 2:0 3:0 4:0 5:0 6:0 7:0 8:0 9:0 10:0 11:0 12:0 13:0 14:0 15:0 16:0 17:100 18:-100 19:0 20:0 21:20 22:20 23:40 24:0 25:0 26:0 27:0 28:20 29:0 30:40 31:20 32:0 33:0 34:0 35:20 36:60 37:60 38:0 39:20 40:40 41:21 42:65 
2 1:0 2:0 3:0 4:0 5:0 6:0 7:0 8:0 9:0 10:0 11:0 12:0 13:0 14:100 15:0 16:0 17:0 18:-100 19:0 20:0 21:20 22:20 23:40 24:0 25:0 26:0 27:0 28:20 29:0 30:40 31:20 32:0 33:0 34:0 35:20 36:60 37:60 38:0 39:20 40:40 41:21 42:65 
0.3116013367682469 1:0 2:0 3:0 4:0 5:0 6:0 7:100 8:0 9:-100 10:0 11:0 12:0 13:0 14:0 15:0 16:0 17:0 18:0 19:0 20:0 21:20 22:20 23:0 24:0 25:0 26:0 27:20 28:40 29:40 30:0 31:80 32:20 33:0 34:20 35:0 36:0 37:40 38:20 39:0 40:40 41:17 42:0 
2 1:0 2:0 3:0 4:0 5:0 6:0 7:0 8:0 9:0 10:0 11:100 12:0 13:0 14:0 15:0 16:0 17:-100 18:0 19:0 20:0 21:0 22:40 23:40 24:0 25:20 26:0 27:0 28:40 29:20 30:40 31:0 32:0 33:0 34:0 35:20 36:40 37:40 38:20 39:0 40:40 41:26 42:50 
2 1:0 2:0 3:0 4:0 5:0 6:0 7:0 8:0 9:0 10:0 11:0 12:100 13:0 14:0 15:0 16:0 17:-100 18:0 19:0 20:0 21:0 22:40 23:40 24:0 25:20 26:0 27:0 28:40 29:20 30:40 31:0 32:0 33:0 34:0 35:20 36:40 37:40 38:20 39:0 40:40 41:26 42:50 
2 1:100 2:0 3:0 4:0 5:0 6:0 7:0 8:0 9:0 10:0 11:0 12:0 13:0 14:0 15:0 16:0 17:-100 18:0 19:0 20:0 21:0 22:40 23:40 24:0 25:20 26:0 27:0 28:40 29:20 30:40 31:0 32:0 33:0 34:0 35:20 36:40 37:40 38:20 39:0 40:40 41:26 42:50 
2 1:0 2:100 3:0 4:0 5:0 6:0 7:0 8:0 9:0 10:0 11:0 12:0 13:0 14:0 15:0 16:0 17:-100 18:0 19:0 20:0 21:0 22:40 23:40 24:0 25:20 26:0 27:0 28:40 29:20 30:40 31:0 32:0 33:0 34:0 35:20 36:40 37:40 38:20 39:0 40:40 41:26 42:50 
2 1:0 2:0 3:0 4:0 5:0 6:0 7:0 8:0 9:0 10:0 11:0 12:0 13:0 14:0 15:0 16:0 17:-100 18:0 19:100 20:0 21:0 22:40 23:40 24:0 25:20 26:0 27:0 28:40 29:20 30:40 31:0 32:0 33:0 34:0 35:20 36:40 37:40 38:20 39:0 40:40 41:26 42:50 
2 1:0 2:0 3:0 4:0 5:0 6:0 7:0 8:0 9:0 10:0 11:0 12:0 13:0 14:0 15:0 16:0 17:0 18:-100 19:0 20:100 21:20 22:40 23:20 24:40 25:0 26:0 27:20 28:0 29:60 30:0 31:0 32:60 33:0 34:0 35:40 36:0 37:0 38:20 39:40 40:0 41:64 42:47 
0.3347639882697342 1:0 2:0 3:0 4:0 5:0 6:0 7:0 8:0 9:-100 10:0 11:100 12:0 13:0 14:0 15:0 16:0 17:0 18:0 19:0 20:0 21:60 22:0 23:20 24:0 25:0 26:0 27:0 28:20 29:60 30:20 31:0 32:0 33:20 34:0 35:40 36:20 37:20 38:0 39:20 40:60 41:19 42:64 
2 1:0 2:0 3:0 4:0 5:0 6:0 7:0 8:100 9:0 10:0 11:0 12:-100 13:0 14:0 15:0 16:0 17:0 18:0 19:0 20:0 21:20 22:0 23:0 24:0 25:20 26:0 27:20 28:0 29:20 30:0 31:0 32:80 33:0 34:0 35:0 36:20 37:0 38:20 39:0 40:40 41:37 42:60 
1.423272600992352 1:0 2:0 3:0 4:0 5:-100 6:0 7:0 8:0 9:0 10:0 11:100 12:0 13:0 14:0 15:0 16:0 17:0 18:0 19:0 20:0 21:40 22:0 23:0 24:40 25:0 26:0 27:0 28:20 29:0 30:0 31:0 32:120 33:0 34:0 35:0 36:40 37:0 38:60 39:20 40:20 41:50 42:25 
0.7488666703664956 1:-100 2:0 3:0 4:0 5:0 6:0 7:0 8:0 9:0 10:0 11:0 12:100 13:0 14:0 15:0 16:0 17:0 18:0 19:0 20:0 21:0 22:20 23:0 24:0 25:0 26:40 27:20 28:0 29:60 30:0 31:20 32:0 33:0 34:0 35:40 36:40 37:40 38:20 39:40 40:20 41:14 42:41 
2 1:-100 2:0 3:0 4:0 5:0 6:0 7:0 8:0 9:0 10:0 11:0 12:100 13:0 14:0 15:0 16:0 17:0 18:0 19:0 20:0 21:0 22:20 23:0 24:0 25:0 26:40 27:20 28:0 29:60 30:0 31:20 32:0 33:0 34:0 35:40 36:40 37:40 38:20 39:40 40:20 41:20 42:51 
2 1:-100 2:0 3:0 4:0 5:0 6:0 7:0 8:0 9:0 10:0 11:0 12:100 13:0 14:0 15:0 16:0 17:0 18:0 19:0 20:0 21:0 22:20 23:0 24:0 25:0 26:40 27:20 28:0 29:60 30:0 31:20 32:0 33:0 34:0 35:40 36:40 37:40 38:20 39:40 40:20 41:21 42:53 
1.908422769115288 1:0 2:0 3:0 4:100 5:-100 6:0 7:0 8:0 9:0 10:0 11:0 12:0 13:0 14:0 15:0 16:0 17:0 18:0 19:0 20:0 21:40 22:20 23:20 24:40 25:0 26:0 27:0 28:60 29:60 30:0 31:0 32:20 33:0 34:0 35:40 36:0 37:20 38:20 39:20 40:0 41:38 42:65 
2 1:0 2:0 3:0 4:0 5:0 6:0 7:0 8:0 9:0 10:0 11:0 12:0 13:0 14:0 15:100 16:-100 17:0 18:0 19:0 20:0 21:20 22:20 23:20 24:0 25:0 26:40 27:0 28:60 29:60 30:0 31:0 32:0 33:0 34:40 35:0 36:20 37:40 38:20 39:0 40:20 41:21 42:50 
0.25181480852205 1:0 2:0 3:-100 4:100 5:0 6:0 7:0 8:0 9:0 10:0 11:0 12:0 13:0 14:0 15:0 16:0 17:0 18:0 19:0 20:0 21:20 22:40 23:40 24:0 25:20 26:0 27:20 28:0 29:20 30:20 31:40 32:0 33:0 34:60 35:20 36:20 37:0 38:40 39:0 40:0 41:78 42:76 
0.7514186943179568 1:0 2:0 3:0 4:0 5:0 6:0 7:0 8:0 9:100 10:0 11:0 12:0 13:0 14:0 15:0 16:0 17:0 18:0 19:-100 20:0 21:0 22:0 23:0 24:20 25:20 26:0 27:20 28:40 29:40 30:0 31:20 32:0 33:40 34:0 35:60 36:40 37:0 38:20 39:20 40:20 41:50 42:39 
2 1:100 2:0 3:0 4:0 5:0 6:0 7:0 8:0 9:0 10:0 11:-100 12:0 13:0 14:0 15:0 16:0 17:0 18:0 19:0 20:0 21:40 22:40 23:40 24:0 25:0 26:0 27:0 28:0 29:60 30:0 31:60 32:20 33:20 34:0 35:0 36:40 37:0 38:0 39:20 40:20 41:45 42:74 
2 1:0 2:0 3:0 4:0 5:0 6:0 7:0 8:-100 9:100 10:0 11:0 12:0 13:0 14:0 15:0 16:0 17:0 18:0 19:0 20:0 21:0 22:20 23:40 24:0 25:0 26:0 27:20 28:20 29:20 30:0 31:20 32:80 33:0 34:0 35:20 36:0 37:40 38:0 39:40 40:40 41:19 42:65 
2 1:0 2:0 3:0 4:-100 5:100 6:0 7:0 8:0 9:0 10:0 11:0 12:0 13:0 14:0 15:0 16:0 17:0 18:0 19:0 20:0 21:40 22:60 23:20 24:0 25:40 26:0 27:0 28:40 29:20 30:20 31:20 32:0 33:0 34:0 35:40 36:20 37:20 38:0 39:0 40:20 41:50 42:25 
2 1:0 2:0 3:0 4:0 5:0 6:0 7:0 8:0 9:100 10:-100 11:0 12:0 13:0 14:0 15:0 16:0 17:0 18:0 19:0 20:0 21:0 22:20 23:0 24:0 25:60 26:0 27:0 28:0 29:60 30:20 31:0 32:20 33:20 34:0 35:0 36:20 37:60 38:40 39:0 40:40 41:52 42:53 
2 1:0 2:0 3:0 4:0 5:0 6:0 7:0 8:100 9:0 10:0 11:0 12:0 13:0 14:0 15:0 16:-100 17:0 18:0 19:0 20:0 21:20 22:60 23:0 24:20 25:0 26:20 27:0 28:0 29:40 30:0 31:20 32:20 33:0 34:0 35:40 36:0 37:40 38:20 39:40 40:20 41:46 42:64 
2 1:0 2:0 3:0 4:0 5:100 6:0 7:-100 8:0 9:0 10:0 11:0 12:0 13:0 14:0 15:0 16:0 17:0 18:0 19:0 20:0 21:40 22:0 23:20 24:0 25:40 26:20 27:0 28:80 29:0 30:0 31:20 32:0 33:0 34:0 35:0 36:40 37:0 38:60 39:40 40:0 41:50 42:70 
1.971971493534165 1:0 2:0 3:0 4:0 5:0 6:0 7:0 8:0 9:0 10:0 11:0 12:0 13:0 14:0 15:0 16:0 17:100 18:-100 19:0 20:0 21:60 22:0 23:20 24:0 25:60 26:0 27:0 28:60 29:0 30:0 31:20 32:0 33:0 34:0 35:0 36:20 37:20 38:40 39:20 40:40 41:53 42:55 
0.03787843765179266 1:0 2:0 3:0 4:0 5:0 6:0 7:0 8:0 9:0 10:0 11:0 12:0 13:0 14:0 15:0 16:0 17:0 18:0 19:100 20:-100 21:0 22:40 23:40 24:0 25:0 26:20 27:40 28:0 29:0 30:0 31:60 32:40 33:0 34:20 35:20 36:20 37:0 38:0 39:20 40:40 41:45 42:25 
0.4403448412020754 1:0 2:0 3:0 4:0 5:0 6:0 7:0 8:0 9:0 10:0 11:0 12:0 13:0 14:0 15:-100 16:0 17:100 18:0 19:0 20:0 21:0 22:20 23:40 24:0 25:20 26:0 27:40 28:20 29:20 30:0 31:80 32:20 33:0 34:0 35:20 36:0 37:0 38:0 39:40 40:40 41:31 42:25 
2 1:0 2:0 3:0 4:0 5:0 6:0 7:0 8:0 9:-100 10:0 11:0 12:0 13:0 14:0 15:0 16:100 17:0 18:0 19:0 20:0 21:0 22:60 23:20 24:0 25:0 26:0 27:0 28:20 29:40 30:20 31:60 32:20 33:0 34:0 35:0 36:60 37:0 38:20 39:20 40:20 41:38 42:53 
2 1:0 2:0 3:0 4:0 5:0 6:0 7:0 8:0 9:0 10:0 11:0 12:0 13:0 14:0 15:0 16:100 17:0 18:-100 19:0 20:0 21:20 22:0 23:40 24:0 25:20 26:0 27:0 28:40 29:20 30:0 31:20 32:40 33:0 34:0 35:20 36:20 37:20 38:40 39:20 40:40 41:50 42:44 
2 1:0 2:0 3:0 4:0 5:0 6:0 7:0 8:0 9:0 10:0 11:0 12:0 13:0 14:0 15:0 16:100 17:0 18:-100 19:0 20:0 21:20 22:0 23:40 24:0 25:20 26:0 27:0 28:40 29:20 30:0 31:20 32:40 33:0 34:0 35:20 36:20 37:20 38:40 39:20 40:40 41:50 42:44 
2 1:0 2:0 3:0 4:0 5:0 6:0 7:0 8:0 9:0 10:0 11:0 12:0 13:0 14:0 15:0 16:100 17:0 18:-100 19:0 20:0 21:20 22:0 23:40 24:0 25:20 26:0 27:0 28:40 29:20 30:0 31:20 32:40 33:0 34:0 35:20 36:20 37:20 38:40 39:20 40:40 41:50 42:44 
2 1:0 2:0 3:0 4:0 5:0 6:0 7:0 8:0 9:0 10:0 11:0 12:0 13:0 14:0 15:0 16:100 17:0 18:-100 19:0 20:0 21:20 22:0 23:40 24:0 25:20 26:0 27:0 28:40 29:20 30:0 31:20 32:40 33:0 34:0 35:20 36:20 37:20 38:40 39:20 40:40 41:50 42:44 
1.11700991170867 1:0 2:0 3:0 4:0 5:0 6:0 7:0 8:0 9:0 10:0 11:100 12:0 13:0 14:0 15:0 16:-100 17:0 18:0 19:0 20:0 21:0 22:40 23:0 24:20 25:0 26:0 27:0 28:20 29:80 30:0 31:60 32:40 33:0 34:0 35:20 36:20 37:0 38:20 39:0 40:40 41:52 42:45 
2 1:0 2:0 3:0 4:0 5:0 6:0 7:0 8:0 9:0 10:100 11:0 12:0 13:0 14:0 15:0 16:0 17:-100 18:0 19:0 20:0 21:20 22:40 23:20 24:0 25:0 26:60 27:0 28:20 29:40 30:0 31:0 32:0 33:0 34:20 35:20 36:40 37:40 38:20 39:0 40:20 41:39 42:52 
1.587968666720745 1:0 2:0 3:0 4:0 5:0 6:0 7:0 8:0 9:0 10:100 11:0 12:0 13:0 14:0 15:0 16:0 17:-100 18:0 19:0 20:0 21:20 22:40 23:20 24:0 25:0 26:60 27:0 28:20 29:40 30:0 31:0 32:0 33:0 34:20 35:20 36:40 37:40 38:20 39:0 40:20 41:21 42:49 
2 1:0 2:0 3:0 4:0 5:0 6:0 7:0 8:0 9:0 10:0 11:0 12:0 13:0 14:-100 15:100 16:0 17:0 18:0 19:0 20:0 21:0 22:40 23:40 24:0 25:40 26:0 27:0 28:20 29:20 30:0 31:20 32:40 33:40 34:20 35:0 36:0 37:20 38:60 39:0 40:0 41:60 42:37 
2 1:0 2:0 3:0 4:0 5:0 6:0 7:0 8:100 9:0 10:0 11:0 12:0 13:0 14:0 15:0 16:0 17:0 18:0 19:-100 20:0 21:20 22:20 23:40 24:0 25:0 26:0 27:0 28:40 29:40 30:0 31:0 32:20 33:20 34:0 35:20 36:40 37:0 38:40 39:20 40:40 41:46 42:64 
1.465322834628212 1:0 2:0 3:0 4:0 5:0 6:0 7:0 8:100 9:0 10:0 11:0 12:0 13:0 14:0 15:0 16:0 17:0 18:0 19:-100 20:0 21:20 22:20 23:40 24:0 25:0 26:0 27:0 28:40 29:40 30:0 31:0 32:20 33:20 34:0 35:20 36:40 37:0 38:40 39:20 40:40 41:14 42:41 
0.23275563366775 1:0 2:100 3:0 4:-100 5:0 6:0 7:0 8:0 9:0 10:0 11:0 12:0 13:0 14:0 15:0 16:0 17:0 18:0 19:0 20:0 21:60 22:20 23:20 24:20 25:20 26:0 27:0 28:40 29:40 30:0 31:0 32:20 33:20 34:0 35:40 36:0 37:20 38:20 39:20 40:0 41:21 42:51 
2 1:0 2:100 3:0 4:-100 5:0 6:0 7:0 8:0 9:0 10:0 11:0 12:0 13:0 14:0 15:0 16:0 17:0 18:0 19:0 20:0 21:60 22:20 23:20 24:20 25:20 26:0 27:0 28:40 29:40 30:0 31:0 32:20 33:20 34:0 35:40 36:0 37:20 38:20 39:20 40:0 41:38 42:61 
2 1:0 2:100 3:0 4:-100 5:0 6:0 7:0 8:0 9:0 10:0 11:0 12:0 13:0 14:0 15:0 16:0 17:0 18:0 19:0 20:0 21:60 22:20 23:20 24:20 25:20 26:0 27:0 28:40 29:40 30:0 31:0 32:20 33:20 34:0 35:40 36:0 37:20 38:20 39:20 40:0 41:40 42:64 
0.5079651044768528 1:0 2:0 3:0 4:-100 5:0 6:0 7:0 8:0 9:0 10:0 11:0 12:0 13:0 14:0 15:0 16:100 17:0 18:0 19:0 20:0 21:60 22:20 23:20 24:20 25:20 26:0 27:0 28:40 29:40 30:0 31:0 32:20 33:20 34:0 35:40 36:0 37:20 38:20 39:20 40:0 41:37 42:65 
1.034078974456406 1:0 2:0 3:0 4:0 5:0 6:0 7:0 8:0 9:-100 10:0 11:100 12:0 13:0 14:0 15:0 16:0 17:0 18:0 19:0 20:0 21:40 22:20 23:20 24:0 25:20 26:0 27:0 28:0 29:60 30:0 31:20 32:40 33:0 34:0 35:0 36:60 37:0 38:20 39:0 40:60 41:50 42:63 
0.8669823312504508 1:0 2:0 3:0 4:-100 5:0 6:0 7:0 8:0 9:100 10:0 11:0 12:0 13:0 14:0 15:0 16:0 17:0 18:0 19:0 20:0 21:60 22:20 23:20 24:20 25:20 26:0 27:0 28:40 29:60 30:0 31:0 32:20 33:0 34:0 35:40 36:0 37:20 38:20 39:20 40:0 41:38 42:65 
1.510164835462609 1:0 2:0 3:100 4:0 5:0 6:0 7:0 8:0 9:0 10:0 11:0 12:-100 13:0 14:0 15:0 16:0 17:0 18:0 19:0 20:0 21:20 22:0 23:20 24:0 25:20 26:20 27:20 28:20 29:40 30:20 31:0 32:60 33:0 34:0 35:60 36:20 37:0 38:0 39:20 40:20 41:38 42:59 
1.92999667099959 1:0 2:0 3:0 4:0 5:0 6:0 7:0 8:0 9:0 10:0 11:0 12:-100 13:100 14:0 15:0 16:0 17:0 18:0 19:0 20:0 21:20 22:0 23:20 24:0 25:20 26:20 27:20 28:20 29:40 30:20 31:0 32:60 33:0 34:0 35:60 36:20 37:0 38:0 39:20 40:20 41:38 42:59 
1.666828394255509 1:0 2:0 3:0 4:0 5:0 6:0 7:0 8:0 9:100 10:0 11:0 12:0 13:0 14:0 15:0 16:0 17:0 18:0 19:0 20:-100 21:0 22:0 23:0 24:20 25:20 26:0 27:0 28:40 29:40 30:0 31:20 32:20 33:40 34:0 35:40 36:40 37:0 38:20 39:40 40:0 41:50 42:39 
2 1:0 2:0 3:0 4:0 5:0 6:0 7:0 8:0 9:0 10:0 11:100 12:-100 13:0 14:0 15:0 16:0 17:0 18:0 19:0 20:0 21:20 22:0 23:20 24:0 25:20 26:20 27:20 28:20 29:40 30:20 31:0 32:60 33:0 34:0 35:60 36:20 37:0 38:0 39:20 40:20 41:38 42:59 
0.3294150964488032 1:0 2:0 3:0 4:0 5:0 6:0 7:0 8:0 9:100 10:0 11:0 12:0 13:0 14:0 15:0 16:0 17:0 18:-100 19:0 20:0 21:80 22:40 23:0 24:0 25:0 26:20 27:0 28:40 29:60 30:0 31:0 32:0 33:0 34:40 35:0 36:20 37:20 38:0 39:0 40:40 41:28 42:25 
2 1:0 2:0 3:0 4:0 5:0 6:0 7:0 8:0 9:100 10:0 11:0 12:0 13:0 14:0 15:0 16:-100 17:0 18:0 19:0 20:0 21:40 22:40 23:60 24:0 25:0 26:0 27:0 28:0 29:40 30:40 31:0 32:0 33:0 34:0 35:0 36:40 37:40 38:40 39:0 40:20 41:45 42:46 
2 1:0 2:0 3:0 4:0 5:0 6:0 7:0 8:0 9:100 10:0 11:0 12:0 13:0 14:0 15:0 16:-100 17:0 18:0 19:0 20:0 21:40 22:40 23:60 24:0 25:0 26:0 27:0 28:0 29:40 30:40 31:0 32:0 33:0 34:0 35:0 36:40 37:40 38:40 39:0 40:20 41:44 42:25 
2 1:0 2:0 3:0 4:0 5:0 6:0 7:0 8:0 9:100 10:0 11:0 12:0 13:0 14:0 15:0 16:0 17:0 18:0 19:0 20:-100 21:40 22:0 23:0 24:0 25:20 26:20 27:20 28:40 29:20 30:0 31:0 32:100 33:0 34:0 35:0 36:20 37:0 38:20 39:20 40:40 41:50 42:25 
2 1:0 2:0 3:0 4:0 5:0 6:0 7:0 8:0 9:0 10:0 11:-100 12:100 13:0 14:0 15:0 16:0 17:0 18:0 19:0 20:0 21:40 22:60 23:0 24:0 25:40 26:0 27:20 28:60 29:0 30:20 31:40 32:20 33:0 34:20 35:0 36:20 37:20 38:0 39:0 40:0 41:50 42:25 
0.3183678709502183 1:0 2:0 3:0 4:0 5:0 6:0 7:0 8:0 9:100 10:-100 11:0 12:0 13:0 14:0 15:0 16:0 17:0 18:0 19:0 20:0 21:0 22:20 23:0 24:0 25:60 26:0 27:0 28:20 29:0 30:20 31:20 32:40 33:20 34:0 35:0 36:20 37:60 38:40 39:0 40:40 41:52 42:53 
2 1:0 2:0 3:0 4:0 5:0 6:0 7:0 8:0 9:0 10:0 11:-100 12:0 13:100 14:0 15:0 16:0 17:0 18:0 19:0 20:0 21:40 22:60 23:0 24:0 25:40 26:0 27:20 28:60 29:0 30:20 31:40 32:20 33:0 34:20 35:0 36:20 37:20 38:0 39:0 40:0 41:50 42:25 
1.465992791724479 1:0 2:0 3:0 4:0 5:0 6:0 7:0 8:0 9:0 10:100 11:0 12:0 13:0 14:0 15:0 16:0 17:-100 18:0 19:0 20:0 21:40 22:20 23:20 24:0 25:20 26:0 27:0 28:20 29:60 30:0 31:0 32:0 33:0 34:0 35:20 36:40 37:0 38:40 39:20 40:60 41:46 42:63 
2 1:0 2:0 3:0 4:0 5:0 6:0 7:0 8:0 9:0 10:100 11:-100 12:0 13:0 14:0 15:0 16:0 17:0 18:0 19:0 20:0 21:0 22:40 23:20 24:0 25:0 26:0 27:0 28:20 29:60 30:20 31:40 32:0 33:0 34:0 35:20 36:60 37:0 38:20 39:40 40:20 41:21 42:51 
1.898232124799953 1:-100 2:0 3:0 4:0 5:0 6:0 7:0 8:0 9:0 10:0 11:0 12:0 13:0 14:0 15:0 16:0 17:0 18:0 19:0 20:100 21:0 22:20 23:0 24:0 25:0 26:0 27:0 28:40 29:60 30:20 31:40 32:20 33:60 34:20 35:0 36:20 37:0 38:0 39:40 40:20 41:19 42:64 
2 1:0 2:0 3:0 4:0 5:0 6:0 7:0 8:100 9:0 10:0 11:-100 12:0 13:0 14:0 15:0 16:0 17:0 18:0 19:0 20:0 21:0 22:40 23:20 24:0 25:0 26:0 27:0 28:20 29:60 30:20 31:40 32:0 33:0 34:0 35:20 36:60 37:0 38:20 39:40 40:20 41:21 42:51 
2 1:0 2:0 3:0 4:0 5:0 6:0 7:0 8:0 9:0 10:0 11:-100 12:0 13:0 14:0 15:0 16:0 17:0 18:0 19:0 20:100 21:0 22:40 23:20 24:0 25:0 26:0 27:0 28:20 29:60 30:20 31:40 32:0 33:0 34:0 35:20 36:60 37:0 38:20 39:40 40:20 41:21 42:51 
2 1:0 2:0 3:0 4:0 5:0 6:0 7:0 8:0 9:0 10:0 11:-100 12:0 13:100 14:0 15:0 16:0 17:0 18:0 19:0 20:0 21:0 22:40 23:20 24:0 25:0 26:0 27:0 28:20 29:60 30:20 31:40 32:0 33:0 34:0 35:20 36:60 37:0 38:20 39:40 40:20 41:21 42:51 
1.394438531752542 1:-100 2:0 3:0 4:0 5:0 6:0 7:100 8:0 9:0 10:0 11:0 12:0 13:0 14:0 15:0 16:0 17:0 18:0 19:0 20:0 21:0 22:20 23:0 24:0 25:0 26:0 27:0 28:40 29:60 30:20 31:40 32:20 33:60 34:20 35:0 36:20 37:0 38:0 39:40 40:20 41:19 42:64 
2 1:0 2:0 3:0 4:0 5:0 6:0 7:0 8:0 9:100 10:0 11:-100 12:0 13:0 14:0 15:0 16:0 17:0 18:0 19:0 20:0 21:0 22:40 23:20 24:0 25:0 26:0 27:0 28:20 29:60 30:20 31:40 32:0 33:0 34:0 35:20 36:60 37:0 38:20 39:40 40:20 41:17 42:47 
2 1:0 2:0 3:0 4:0 5:0 6:0 7:0 8:0 9:0 10:0 11:-100 12:0 13:0 14:0 15:0 16:0 17:0 18:0 19:100 20:0 21:0 22:40 23:20 24:0 25:0 26:0 27:0 28:20 29:60 30:20 31:40 32:0 33:0 34:0 35:20 36:60 37:0 38:20 39:40 40:20 41:21 42:51 
0.7133016413588186 1:-100 2:0 3:0 4:0 5:0 6:0 7:0 8:0 9:0 10:0 11:0 12:0 13:0 14:0 15:100 16:0 17:0 18:0 19:0 20:0 21:0 22:20 23:0 24:0 25:0 26:0 27:0 28:40 29:60 30:20 31:40 32:20 33:60 34:20 35:0 36:20 37:0 38:0 39:40 40:20 41:19 42:64 
1.020232012020794 1:0 2:-100 3:0 4:0 5:0 6:0 7:0 8:0 9:0 10:0 11:0 12:0 13:0 14:0 15:100 16:0 17:0 18:0 19:0 20:0 21:20 22:40 23:40 24:0 25:20 26:0 27:20 28:60 29:20 30:20 31:0 32:20 33:0 34:0 35:20 36:40 37:0 38:20 39:20 40:0 41:50 42:85 
2 1:0 2:0 3:0 4:0 5:0 6:0 7:0 8:0 9:0 10:0 11:0 12:0 13:0 14:0 15:0 16:0 17:100 18:-100 19:0 20:0 21:20 22:60 23:0 24:0 25:20 26:0 27:0 28:20 29:20 30:0 31:0 32:20 33:20 34:0 35:60 36:40 37:0 38:20 39:0 40:0 41:28 42:65 
2 1:0 2:0 3:0 4:0 5:0 6:0 7:0 8:0 9:0 10:0 11:0 12:0 13:0 14:0 15:0 16:0 17:100 18:-100 19:0 20:0 21:20 22:60 23:0 24:0 25:20 26:0 27:0 28:20 29:20 30:0 31:0 32:20 33:20 34:0 35:60 36:40 37:0 38:20 39:0 40:0 41:16 42:65 
2 1:0 2:0 3:0 4:0 5:0 6:0 7:0 8:0 9:0 10:0 11:0 12:0 13:0 14:0 15:0 16:0 17:100 18:-100 19:0 20:0 21:20 22:60 23:0 24:0 25:20 26:0 27:0 28:20 29:20 30:0 31:0 32:20 33:20 34:0 35:60 36:40 37:0 38:20 39:0 40:0 41:32 42:65 
2 1:0 2:0 3:0 4:0 5:0 6:0 7:0 8:0 9:100 10:0 11:0 12:0 13:0 14:0 15:0 16:0 17:0 18:0 19:0 20:-100 21:0 22:40 23:60 24:0 25:0 26:0 27:60 28:60 29:0 30:0 31:0 32:40 33:0 34:0 35:20 36:40 37:0 38:40 39:0 40:0 41:38 42:65 
1.52625151438435 1:0 2:0 3:0 4:-100 5:0 6:0 7:0 8:0 9:100 10:0 11:0 12:0 13:0 14:0 15:0 16:0 17:0 18:0 19:0 20:0 21:0 22:60 23:40 24:20 25:20 26:0 27:0 28:20 29:0 30:0 31:0 32:0 33:0 34:0 35:40 36:0 37:0 38:40 39:20 40:20 41:38 42:65 
2 1:0 2:0 3:0 4:0 5:0 6:0 7:0 8:0 9:0 10:0 11:0 12:0 13:0 14:0 15:0 16:0 17:100 18:-100 19:0 20:0 21:40 22:20 23:20 24:0 25:20 26:0 27:0 28:60 29:20 30:20 31:20 32:0 33:0 34:0 35:20 36:0 37:40 38:60 39:20 40:0 41:53 42:55 
2 1:0 2:0 3:0 4:0 5:0 6:0 7:0 8:0 9:0 10:0 11:0 12:0 13:0 14:0 15:0 16:0 17:100 18:-100 19:0 20:0 21:40 22:20 23:20 24:0 25:20 26:0 27:0 28:60 29:20 30:20 31:20 32:0 33:0 34:0 35:20 36:0 37:40 38:60 39:20 40:0 41:53 42:55 
2 1:0 2:0 3:0 4:0 5:0 6:0 7:0 8:0 9:0 10:0 11:0 12:0 13:0 14:0 15:0 16:0 17:100 18:-100 19:0 20:0 21:40 22:20 23:20 24:0 25:20 26:0 27:0 28:60 29:20 30:20 31:20 32:0 33:0 34:0 35:20 36:0 37:40 38:60 39:20 40:0 41:53 42:55 
2 1:0 2:0 3:0 4:0 5:0 6:0 7:0 8:0 9:0 10:0 11:0 12:0 13:0 14:0 15:0 16:0 17:100 18:-100 19:0 20:0 21:40 22:20 23:20 24:0 25:20 26:0 27:0 28:60 29:20 30:20 31:20 32:0 33:0 34:0 35:20 36:0 37:40 38:60 39:20 40:0 41:53 42:55 
1.472814007274635 1:0 2:0 3:0 4:0 5:0 6:0 7:0 8:0 9:0 10:0 11:0 12:0 13:0 14:0 15:0 16:0 17:100 18:-100 19:0 20:0 21:40 22:20 23:20 24:0 25:20 26:0 27:0 28:60 29:20 30:20 31:20 32:0 33:0 34:0 35:20 36:0 37:40 38:60 39:20 40:0 41:53 42:55 
0.01058130884355726 1:0 2:0 3:0 4:0 5:0 6:0 7:0 8:0 9:0 10:0 11:0 12:0 13:0 14:0 15:0 16:0 17:100 18:-100 19:0 20:0 21:40 22:20 23:20 24:0 25:20 26:0 27:0 28:60 29:20 30:20 31:20 32:0 33:0 34:0 35:20 36:0 37:40 38:60 39:20 40:0 41:53 42:55 
1.481766222536639 1:0 2:0 3:0 4:0 5:0 6:0 7:0 8:0 9:0 10:0 11:0 12:0 13:0 14:0 15:0 16:100 17:0 18:-100 19:0 20:0 21:40 22:20 23:20 24:0 25:20 26:0 27:0 28:60 29:20 30:20 31:20 32:0 33:0 34:0 35:20 36:0 37:40 38:60 39:20 40:0 41:53 42:55 
2 1:0 2:0 3:0 4:0 5:0 6:0 7:0 8:0 9:0 10:0 11:0 12:0 13:0 14:0 15:0 16:100 17:0 18:-100 19:0 20:0 21:40 22:20 23:20 24:0 25:20 26:0 27:0 28:60 29:20 30:20 31:20 32:0 33:0 34:0 35:20 36:0 37:40 38:60 39:20 40:0 41:53 42:55 
2 1:0 2:0 3:0 4:0 5:0 6:0 7:0 8:0 9:0 10:0 11:0 12:0 13:0 14:0 15:0 16:100 17:0 18:-100 19:0 20:0 21:40 22:20 23:20 24:0 25:20 26:0 27:0 28:60 29:20 30:20 31:20 32:0 33:0 34:0 35:20 36:0 37:40 38:60 39:20 40:0 41:53 42:55 
2 1:0 2:0 3:0 4:0 5:0 6:0 7:0 8:0 9:0 10:0 11:0 12:0 13:0 14:0 15:0 16:100 17:0 18:-100 19:0 20:0 21:40 22:20 23:20 24:0 25:20 26:0 27:0 28:60 29:20 30:20 31:20 32:0 33:0 34:0 35:20 36:0 37:40 38:60 39:20 40:0 41:53 42:55 
2 1:0 2:0 3:0 4:0 5:0 6:0 7:0 8:0 9:0 10:0 11:0 12:0 13:0 14:0 15:0 16:100 17:0 18:-100 19:0 20:0 21:40 22:20 23:20 24:0 25:20 26:0 27:0 28:60 29:20 30:20 31:20 32:0 33:0 34:0 35:20 36:0 37:40 38:60 39:20 40:0 41:53 42:55 
2 1:0 2:0 3:0 4:0 5:0 6:0 7:0 8:0 9:0 10:0 11:0 12:0 13:0 14:0 15:0 16:100 17:0 18:-100 19:0 20:0 21:40 22:20 23:20 24:0 25:20 26:0 27:0 28:60 29:20 30:20 31:20 32:0 33:0 34:0 35:20 36:0 37:40 38:60 39:20 40:0 41:53 42:55 
2 1:0 2:0 3:0 4:0 5:0 6:0 7:0 8:0 9:0 10:0 11:0 12:0 13:0 14:0 15:0 16:100 17:0 18:-100 19:0 20:0 21:40 22:20 23:20 24:0 25:20 26:0 27:0 28:60 29:20 30:20 31:20 32:0 33:0 34:0 35:20 36:0 37:40 38:60 39:20 40:0 41:53 42:55 
1.053215005972633 1:0 2:0 3:0 4:0 5:0 6:0 7:0 8:0 9:0 10:0 11:0 12:0 13:0 14:0 15:0 16:100 17:0 18:-100 19:0 20:0 21:40 22:20 23:20 24:0 25:20 26:0 27:0 28:60 29:20 30:20 31:20 32:0 33:0 34:0 35:20 36:0 37:40 38:60 39:20 40:0 41:53 42:55 
2 1:0 2:0 3:0 4:0 5:0 6:0 7:0 8:0 9:0 10:0 11:0 12:0 13:0 14:0 15:-100 16:0 17:100 18:0 19:0 20:0 21:20 22:40 23:0 24:20 25:0 26:20 27:40 28:60 29:0 30:0 31:20 32:0 33:20 34:20 35:20 36:20 37:0 38:0 39:40 40:20 41:45 42:74 
2 1:0 2:0 3:0 4:0 5:100 6:-100 7:0 8:0 9:0 10:0 11:0 12:0 13:0 14:0 15:0 16:0 17:0 18:0 19:0 20:0 21:0 22:0 23:0 24:0 25:0 26:0 27:20 28:60 29:0 30:20 31:0 32:0 33:0 34:60 35:0 36:20 37:0 38:20 39:20 40:0 41:53 42:23 
1.497093183182346 1:0 2:0 3:0 4:0 5:0 6:0 7:0 8:0 9:0 10:0 11:100 12:-100 13:0 14:0 15:0 16:0 17:0 18:0 19:0 20:0 21:0 22:0 23:0 24:0 25:40 26:0 27:0 28:20 29:60 30:0 31:20 32:40 33:0 34:0 35:20 36:20 37:20 38:20 39:80 40:20 41:45 42:74 
1.738200321501491 1:0 2:0 3:0 4:0 5:0 6:0 7:0 8:0 9:-100 10:0 11:0 12:100 13:0 14:0 15:0 16:0 17:0 18:0 19:0 20:0 21:20 22:40 23:20 24:20 25:0 26:0 27:0 28:0 29:0 30:20 31:0 32:0 33:0 34:0 35:40 36:0 37:0 38:0 39:0 40:20 41:50 42:25 
0.3793528944057837 1:0 2:-100 3:0 4:0 5:0 6:0 7:0 8:0 9:100 10:0 11:0 12:0 13:0 14:0 15:0 16:0 17:0 18:0 19:0 20:0 21:0 22:20 23:20 24:0 25:0 26:0 27:20 28:0 29:40 30:0 31:20 32:0 33:20 34:40 35:20 36:0 37:20 38:60 39:0 40:80 41:42 42:25 
1.70096673965715 1:0 2:-100 3:0 4:100 5:0 6:0 7:0 8:0 9:0 10:0 11:0 12:0 13:0 14:0 15:0 16:0 17:0 18:0 19:0 20:0 21:0 22:40 23:40 24:0 25:0 26:0 27:40 28:40 29:40 30:20 31:40 32:40 33:0 34:20 35:0 36:20 37:0 38:0 39:20 40:0 41:38 42:65 
1.299946739787967 1:0 2:0 3:0 4:0 5:0 6:0 7:0 8:0 9:100 10:0 11:0 12:0 13:0 14:0 15:0 16:0 17:0 18:0 19:-100 20:0 21:40 22:20 23:20 24:40 25:20 26:0 27:0 28:40 29:40 30:0 31:0 32:20 33:20 34:0 35:40 36:0 37:20 38:20 39:0 40:20 41:38 42:59 
2 1:0 2:0 3:0 4:0 5:0 6:0 7:0 8:0 9:0 10:0 11:0 12:0 13:0 14:0 15:0 16:0 17:-100 18:100 19:0 20:0 21:40 22:0 23:20 24:0 25:20 26:0 27:0 28:60 29:40 30:20 31:20 32:0 33:0 34:0 35:20 36:0 37:40 38:40 39:40 40:0 41:50 42:70 
0.8733393223852159 1:0 2:0 3:-100 4:0 5:0 6:0 7:0 8:0 9:100 10:0 11:0 12:0 13:0 14:0 15:0 16:0 17:0 18:0 19:0 20:0 21:0 22:60 23:0 24:0 25:20 26:0 27:40 28:20 29:60 30:0 31:0 32:0 33:0 34:0 35:20 36:80 37:0 38:40 39:0 40:20 41:68 42:82 
2 1:0 2:0 3:0 4:0 5:0 6:0 7:0 8:0 9:0 10:0 11:0 12:0 13:0 14:0 15:100 16:-100 17:0 18:0 19:0 20:0 21:20 22:0 23:40 24:20 25:40 26:0 27:20 28:0 29:0 30:20 31:0 32:0 33:0 34:0 35:20 36:100 37:0 38:40 39:40 40:0 41:46 42:25 
1.15012912511871 1:0 2:0 3:0 4:0 5:0 6:0 7:0 8:-100 9:0 10:0 11:0 12:0 13:0 14:0 15:0 16:0 17:0 18:0 19:0 20:100 21:20 22:20 23:20 24:0 25:20 26:20 27:20 28:0 29:20 30:0 31:0 32:80 33:0 34:0 35:40 36:40 37:0 38:0 39:20 40:20 41:46 42:64 
2 1:0 2:0 3:0 4:0 5:0 6:0 7:0 8:0 9:0 10:0 11:0 12:0 13:0 14:0 15:0 16:-100 17:0 18:100 19:0 20:0 21:20 22:0 23:20 24:0 25:20 26:20 27:20 28:20 29:20 30:20 31:0 32:80 33:0 34:0 35:60 36:0 37:20 38:0 39:40 40:0 41:37 42:66 
1.78174752863142 1:0 2:0 3:0 4:0 5:0 6:0 7:0 8:0 9:0 10:0 11:0 12:0 13:0 14:0 15:0 16:-100 17:0 18:100 19:0 20:0 21:20 22:0 23:20 24:0 25:20 26:20 27:20 28:20 29:20 30:20 31:0 32:80 33:0 34:0 35:60 36:0 37:20 38:0 39:40 40:0 41:37 42:25 
2 1:100 2:0 3:-100 4:0 5:0 6:0 7:0 8:0 9:0 10:0 11:0 12:0 13:0 14:0 15:0 16:0 17:0 18:0 19:0 20:0 21:0 22:60 23:0 24:0 25:20 26:0 27:40 28:20 29:60 30:0 31:0 32:0 33:0 34:0 35:20 36:80 37:0 38:40 39:0 40:20 41:78 42:76 
2 1:0 2:0 3:0 4:100 5:0 6:0 7:0 8:0 9:0 10:0 11:0 12:0 13:0 14:0 15:-100 16:0 17:0 18:0 19:0 20:0 21:20 22:40 23:0 24:20 25:20 26:20 27:0 28:40 29:20 30:0 31:20 32:20 33:0 34:0 35:20 36:20 37:40 38:20 39:20 40:20 41:14 42:40 
1.135229147557846 1:0 2:100 3:0 4:-100 5:0 6:0 7:0 8:0 9:0 10:0 11:0 12:0 13:0 14:0 15:0 16:0 17:0 18:0 19:0 20:0 21:0 22:40 23:0 24:0 25:20 26:0 27:20 28:40 29:60 30:0 31:0 32:0 33:20 34:20 35:60 36:20 37:0 38:20 39:20 40:20 41:19 42:66 
1.789212542798647 1:0 2:0 3:0 4:0 5:0 6:0 7:0 8:0 9:100 10:0 11:0 12:0 13:0 14:0 15:0 16:-100 17:0 18:0 19:0 20:0 21:20 22:0 23:0 24:0 25:20 26:20 27:20 28:20 29:20 30:0 31:0 32:100 33:0 34:0 35:0 36:0 37:0 38:40 39:0 40:40 41:50 42:25 
0.1829059222260327 1:0 2:0 3:0 4:0 5:0 6:0 7:0 8:100 9:0 10:0 11:0 12:0 13:0 14:0 15:-100 16:0 17:0 18:0 19:0 20:0 21:0 22:20 23:20 24:0 25:0 26:20 27:20 28:60 29:20 30:20 31:40 32:40 33:0 34:0 35:20 36:20 37:0 38:20 39:20 40:20 41:45 42:25 
0.4313550234861072 1:0 2:0 3:0 4:0 5:0 6:0 7:0 8:0 9:0 10:0 11:0 12:-100 13:0 14:0 15:0 16:0 17:100 18:0 19:0 20:0 21:40 22:20 23:20 24:0 25:20 26:0 27:20 28:20 29:20 30:0 31:0 32:0 33:0 34:0 35:0 36:0 37:20 38:0 39:20 40:40 41:45 42:25 
0.7057888526565551 1:0 2:0 3:0 4:0 5:100 6:0 7:-100 8:0 9:0 10:0 11:0 12:0 13:0 14:0 15:0 16:0 17:0 18:0 19:0 20:0 21:0 22:60 23:20 24:40 25:0 26:20 27:0 28:60 29:20 30:0 31:20 32:20 33:0 34:0 35:40 36:20 37:0 38:0 39:20 40:20 41:19 42:64 
1.554326970480699 1:0 2:0 3:0 4:0 5:0 6:0 7:0 8:0 9:0 10:0 11:100 12:0 13:0 14:0 15:0 16:0 17:0 18:0 19:-100 20:0 21:60 22:20 23:0 24:0 25:20 26:0 27:20 28:20 29:0 30:20 31:60 32:20 33:0 34:0 35:20 36:0 37:60 38:20 39:0 40:20 41:50 42:48 
2 1:0 2:100 3:-100 4:0 5:0 6:0 7:0 8:0 9:0 10:0 11:0 12:0 13:0 14:0 15:0 16:0 17:0 18:0 19:0 20:0 21:20 22:0 23:40 24:0 25:0 26:0 27:0 28:20 29:0 30:40 31:20 32:20 33:0 34:0 35:0 36:60 37:20 38:20 39:20 40:80 41:21 42:50 
0.6372911084084755 1:-100 2:0 3:0 4:0 5:0 6:0 7:0 8:0 9:0 10:0 11:0 12:0 13:100 14:0 15:0 16:0 17:0 18:0 19:0 20:0 21:0 22:20 23:0 24:0 25:20 26:0 27:20 28:40 29:20 30:20 31:60 32:40 33:0 34:0 35:40 36:20 37:60 38:0 39:0 40:0 41:50 42:25 
2 1:100 2:0 3:0 4:0 5:0 6:0 7:0 8:0 9:-100 10:0 11:0 12:0 13:0 14:0 15:0 16:0 17:0 18:0 19:0 20:0 21:40 22:0 23:0 24:20 25:20 26:0 27:20 28:20 29:40 30:20 31:20 32:20 33:0 34:0 35:0 36:60 37:0 38:60 39:20 40:0 41:50 42:20 
1.47040942226625 1:0 2:0 3:0 4:0 5:0 6:0 7:0 8:0 9:100 10:-100 11:0 12:0 13:0 14:0 15:0 16:0 17:0 18:0 19:0 20:0 21:60 22:0 23:40 24:0 25:20 26:0 27:20 28:20 29:40 30:20 31:20 32:0 33:20 34:40 35:0 36:0 37:0 38:20 39:20 40:20 41:30 42:56 
1.870402950378375 1:0 2:0 3:0 4:0 5:100 6:-100 7:0 8:0 9:0 10:0 11:0 12:0 13:0 14:0 15:0 16:0 17:0 18:0 19:0 20:0 21:60 22:60 23:0 24:0 25:0 26:20 27:0 28:20 29:20 30:0 31:20 32:0 33:0 34:20 35:0 36:20 37:20 38:40 39:0 40:0 41:55 42:4 
2 1:0 2:0 3:0 4:0 5:0 6:0 7:0 8:0 9:100 10:0 11:0 12:0 13:0 14:0 15:0 16:0 17:0 18:0 19:0 20:-100 21:40 22:0 23:0 24:0 25:40 26:0 27:20 28:40 29:0 30:40 31:60 32:0 33:0 34:0 35:20 36:0 37:40 38:20 39:20 40:20 41:50 42:52 
1.141995967358097 1:0 2:0 3:0 4:0 5:0 6:0 7:0 8:0 9:100 10:0 11:0 12:0 13:0 14:0 15:0 16:0 17:0 18:0 19:0 20:-100 21:40 22:0 23:0 24:0 25:40 26:0 27:20 28:40 29:0 30:40 31:60 32:0 33:0 34:0 35:20 36:0 37:40 38:20 39:20 40:20 41:50 42:52 
1.259969394176793 1:0 2:0 3:0 4:0 5:0 6:0 7:0 8:0 9:0 10:0 11:100 12:0 13:0 14:0 15:0 16:0 17:0 18:0 19:0 20:-100 21:60 22:0 23:0 24:0 25:20 26:0 27:20 28:60 29:20 30:20 31:40 32:0 33:0 34:0 35:20 36:0 37:20 38:20 39:60 40:0 41:50 42:15 
2 1:0 2:0 3:0 4:0 5:0 6:0 7:0 8:-100 9:100 10:0 11:0 12:0 13:0 14:0 15:0 16:0 17:0 18:0 19:0 20:0 21:40 22:40 23:20 24:0 25:0 26:0 27:0 28:0 29:60 30:20 31:0 32:0 33:0 34:0 35:40 36:40 37:20 38:0 39:40 40:40 41:14 42:41 
0.8466907084584354 1:100 2:0 3:-100 4:0 5:0 6:0 7:0 8:0 9:0 10:0 11:0 12:0 13:0 14:0 15:0 16:0 17:0 18:0 19:0 20:0 21:60 22:0 23:0 24:0 25:0 26:40 27:0 28:20 29:40 30:20 31:0 32:0 33:0 34:0 35:100 36:20 37:20 38:0 39:20 40:20 41:19 42:64 
1.378968329181015 1:0 2:100 3:0 4:-100 5:0 6:0 7:0 8:0 9:0 10:0 11:0 12:0 13:0 14:0 15:0 16:0 17:0 18:0 19:0 20:0 21:0 22:60 23:40 24:20 25:20 26:0 27:0 28:20 29:0 30:0 31:0 32:0 33:0 34:0 35:40 36:0 37:0 38:40 39:20 40:20 41:21 42:47 
2 1:0 2:0 3:0 4:0 5:0 6:0 7:0 8:0 9:0 10:0 11:0 12:0 13:0 14:0 15:0 16:0 17:100 18:0 19:0 20:-100 21:60 22:0 23:20 24:20 25:0 26:20 27:0 28:40 29:60 30:0 31:20 32:0 33:20 34:0 35:0 36:40 37:0 38:0 39:60 40:0 41:45 42:74 
2 1:100 2:0 3:0 4:0 5:0 6:0 7:0 8:0 9:0 10:0 11:0 12:-100 13:0 14:0 15:0 16:0 17:0 18:0 19:0 20:0 21:20 22:0 23:40 24:0 25:20 26:0 27:0 28:20 29:0 30:0 31:0 32:120 33:0 34:20 35:0 36:40 37:20 38:20 39:40 40:0 41:50 42:25 
1.553090415397314 1:0 2:0 3:0 4:0 5:100 6:0 7:-100 8:0 9:0 10:0 11:0 12:0 13:0 14:0 15:0 16:0 17:0 18:0 19:0 20:0 21:20 22:20 23:20 24:0 25:40 26:20 27:20 28:20 29:0 30:40 31:100 32:0 33:0 34:0 35:0 36:0 37:0 38:20 39:0 40:40 41:50 42:50 
2 1:0 2:0 3:0 4:0 5:0 6:0 7:0 8:0 9:0 10:0 11:0 12:0 13:0 14:0 15:0 16:100 17:0 18:0 19:0 20:-100 21:0 22:60 23:20 24:0 25:0 26:40 27:20 28:40 29:0 30:0 31:40 32:20 33:0 34:0 35:0 36:0 37:20 38:60 39:20 40:20 41:50 42:44 
0.5362780098201424 1:0 2:0 3:0 4:0 5:-100 6:0 7:0 8:0 9:100 10:0 11:0 12:0 13:0 14:0 15:0 16:0 17:0 18:0 19:0 20:0 21:20 22:0 23:0 24:0 25:0 26:0 27:0 28:0 29:60 30:0 31:20 32:0 33:0 34:20 35:0 36:40 37:20 38:60 39:0 40:20 41:37 42:5 
2 1:0 2:0 3:0 4:0 5:0 6:0 7:0 8:0 9:100 10:0 11:0 12:0 13:0 14:0 15:-100 16:0 17:0 18:0 19:0 20:0 21:20 22:40 23:0 24:20 25:20 26:20 27:0 28:40 29:20 30:0 31:20 32:20 33:0 34:0 35:20 36:20 37:40 38:20 39:20 40:20 41:21 42:51 
2 1:0 2:0 3:0 4:0 5:0 6:0 7:0 8:0 9:0 10:0 11:100 12:0 13:0 14:0 15:0 16:0 17:0 18:0 19:-100 20:0 21:20 22:0 23:0 24:0 25:40 26:0 27:60 28:20 29:0 30:20 31:80 32:0 33:0 34:20 35:0 36:20 37:0 38:20 39:40 40:20 41:50 42:50 
2 1:0 2:0 3:0 4:0 5:100 6:0 7:0 8:-100 9:0 10:0 11:0 12:0 13:0 14:0 15:0 16:0 17:0 18:0 19:0 20:0 21:0 22:60 23:40 24:0 25:0 26:0 27:40 28:40 29:0 30:20 31:40 32:60 33:0 34:20 35:0 36:20 37:0 38:20 39:0 40:0 41:38 42:66 
2 1:0 2:0 3:0 4:0 5:0 6:0 7:0 8:0 9:100 10:0 11:0 12:0 13:0 14:0 15:0 16:0 17:0 18:0 19:-100 20:0 21:20 22:0 23:0 24:0 25:40 26:0 27:60 28:20 29:0 30:20 31:80 32:0 33:0 34:20 35:0 36:20 37:0 38:20 39:40 40:20 41:50 42:50 
1.003783569943117 1:0 2:0 3:0 4:0 5:0 6:0 7:0 8:0 9:100 10:0 11:0 12:0 13:0 14:0 15:0 16:0 17:0 18:0 19:-100 20:0 21:20 22:0 23:0 24:0 25:40 26:0 27:60 28:20 29:0 30:20 31:80 32:0 33:0 34:20 35:0 36:20 37:0 38:20 39:40 40:20 41:50 42:50 
2 1:0 2:0 3:0 4:0 5:0 6:0 7:0 8:0 9:0 10:0 11:0 12:-100 13:0 14:0 15:100 16:0 17:0 18:0 19:0 20:0 21:20 22:40 23:20 24:0 25:20 26:0 27:60 28:20 29:20 30:20 31:0 32:0 33:0 34:20 35:0 36:20 37:20 38:0 39:20 40:60 41:45 42:25 
2 1:0 2:0 3:0 4:0 5:0 6:0 7:0 8:0 9:0 10:0 11:0 12:0 13:0 14:0 15:0 16:0 17:0 18:0 19:-100 20:100 21:20 22:0 23:0 24:0 25:40 26:0 27:60 28:20 29:0 30:20 31:80 32:0 33:0 34:20 35:0 36:20 37:0 38:20 39:40 40:20 41:50 42:50 
1.179953629799219 1:0 2:0 3:0 4:0 5:0 6:0 7:0 8:0 9:-100 10:0 11:100 12:0 13:0 14:0 15:0 16:0 17:0 18:0 19:0 20:0 21:40 22:20 23:40 24:0 25:0 26:0 27:0 28:0 29:20 30:20 31:0 32:0 33:20 34:0 35:20 36:40 37:0 38:0 39:20 40:120 41:32 42:66 
0.2990565823927312 1:0 2:0 3:0 4:0 5:0 6:0 7:0 8:0 9:100 10:0 11:-100 12:0 13:0 14:0 15:0 16:0 17:0 18:0 19:0 20:0 21:0 22:40 23:40 24:0 25:0 26:20 27:40 28:0 29:0 30:0 31:40 32:40 33:0 34:0 35:40 36:20 37:0 38:0 39:20 40:60 41:31 42:25 
2 1:0 2:100 3:-100 4:0 5:0 6:0 7:0 8:0 9:0 10:0 11:0 12:0 13:0 14:0 15:0 16:0 17:0 18:0 19:0 20:0 21:0 22:0 23:20 24:0 25:20 26:20 27:40 28:40 29:20 30:0 31:40 32:20 33:20 34:0 35:40 36:0 37:20 38:0 39:20 40:40 41:19 42:64 
1.337924678676903 1:0 2:0 3:0 4:0 5:0 6:0 7:0 8:0 9:0 10:0 11:0 12:0 13:0 14:100 15:0 16:0 17:0 18:0 19:-100 20:0 21:0 22:60 23:20 24:0 25:0 26:0 27:0 28:20 29:20 30:40 31:80 32:20 33:40 34:0 35:40 36:0 37:0 38:0 39:20 40:0 41:45 42:74 
1.549428528827107 1:0 2:0 3:0 4:0 5:0 6:0 7:0 8:100 9:0 10:0 11:0 12:0 13:0 14:0 15:0 16:0 17:-100 18:0 19:0 20:0 21:80 22:60 23:0 24:0 25:0 26:40 27:0 28:20 29:20 30:0 31:20 32:0 33:0 34:20 35:0 36:20 37:0 38:40 39:0 40:0 41:30 42:4 
0.001276156692103358 1:0 2:0 3:0 4:0 5:0 6:0 7:0 8:100 9:0 10:0 11:0 12:0 13:0 14:0 15:0 16:0 17:-100 18:0 19:0 20:0 21:80 22:60 23:0 24:0 25:0 26:40 27:0 28:20 29:20 30:0 31:20 32:0 33:0 34:20 35:0 36:20 37:0 38:40 39:0 40:0 41:30 42:4 
0.8776289282381509 1:-100 2:0 3:0 4:0 5:0 6:0 7:0 8:0 9:100 10:0 11:0 12:0 13:0 14:0 15:0 16:0 17:0 18:0 19:0 20:0 21:20 22:40 23:0 24:0 25:0 26:20 27:0 28:40 29:80 30:0 31:40 32:0 33:0 34:0 35:0 36:40 37:20 38:20 39:20 40:20 41:45 42:25 
2 1:0 2:0 3:0 4:0 5:0 6:0 7:0 8:0 9:0 10:0 11:0 12:0 13:0 14:0 15:0 16:0 17:100 18:-100 19:0 20:0 21:60 22:40 23:20 24:0 25:0 26:0 27:0 28:20 29:20 30:20 31:20 32:0 33:0 34:0 35:0 36:80 37:20 38:40 39:0 40:20 41:44 42:25 
2 1:0 2:0 3:0 4:0 5:0 6:0 7:0 8:0 9:0 10:0 11:0 12:0 13:0 14:0 15:0 16:0 17:0 18:-100 19:0 20:100 21:60 22:40 23:20 24:0 25:0 26:0 27:0 28:20 29:20 30:20 31:20 32:0 33:0 34:0 35:0 36:80 37:20 38:40 39:0 40:20 41:44 42:25 
0.5688623865038799 1:0 2:0 3:0 4:0 5:100 6:-100 7:0 8:0 9:0 10:0 11:0 12:0 13:0 14:0 15:0 16:0 17:0 18:0 19:0 20:0 21:0 22:20 23:20 24:0 25:0 26:0 27:40 28:0 29:40 30:0 31:80 32:0 33:0 34:0 35:0 36:40 37:20 38:40 39:20 40:40 41:50 42:52 
0.00795097271514536 1:0 2:0 3:0 4:0 5:0 6:100 7:0 8:0 9:-100 10:0 11:0 12:0 13:0 14:0 15:0 16:0 17:0 18:0 19:0 20:0 21:20 22:20 23:20 24:0 25:0 26:20 27:20 28:40 29:40 30:0 31:40 32:20 33:0 34:0 35:0 36:40 37:20 38:20 39:40 40:0 41:45 42:25 
2 1:100 2:0 3:0 4:0 5:0 6:0 7:0 8:0 9:-100 10:0 11:0 12:0 13:0 14:0 15:0 16:0 17:0 18:0 19:0 20:0 21:20 22:20 23:20 24:0 25:0 26:20 27:20 28:40 29:40 30:0 31:40 32:20 33:0 34:0 35:0 36:40 37:20 38:20 39:40 40:0 41:45 42:25 
0.09440150132395864 1:0 2:0 3:0 4:0 5:0 6:0 7:100 8:0 9:-100 10:0 11:0 12:0 13:0 14:0 15:0 16:0 17:0 18:0 19:0 20:0 21:20 22:20 23:20 24:0 25:0 26:20 27:20 28:40 29:40 30:0 31:40 32:20 33:0 34:0 35:0 36:40 37:20 38:20 39:40 40:0 41:45 42:25 
1.57634150501339 1:0 2:0 3:0 4:0 5:0 6:0 7:0 8:0 9:-100 10:0 11:0 12:0 13:100 14:0 15:0 16:0 17:0 18:0 19:0 20:0 21:20 22:20 23:20 24:0 25:0 26:20 27:20 28:40 29:40 30:0 31:40 32:20 33:0 34:0 35:0 36:40 37:20 38:20 39:40 40:0 41:45 42:25 
0.6886934614130048 1:0 2:0 3:0 4:0 5:0 6:0 7:0 8:0 9:-100 10:0 11:0 12:0 13:0 14:0 15:0 16:0 17:0 18:0 19:0 20:100 21:20 22:20 23:20 24:0 25:0 26:20 27:20 28:40 29:40 30:0 31:40 32:20 33:0 34:0 35:0 36:40 37:20 38:20 39:40 40:0 41:45 42:25 
2 1:0 2:0 3:0 4:0 5:100 6:0 7:0 8:0 9:-100 10:0 11:0 12:0 13:0 14:0 15:0 16:0 17:0 18:0 19:0 20:0 21:20 22:20 23:20 24:0 25:0 26:20 27:20 28:40 29:40 30:0 31:40 32:20 33:0 34:0 35:0 36:40 37:20 38:20 39:40 40:0 41:45 42:25 
2 1:0 2:0 3:100 4:0 5:0 6:0 7:0 8:0 9:-100 10:0 11:0 12:0 13:0 14:0 15:0 16:0 17:0 18:0 19:0 20:0 21:20 22:20 23:20 24:0 25:0 26:20 27:20 28:40 29:40 30:0 31:40 32:20 33:0 34:0 35:0 36:40 37:20 38:20 39:40 40:0 41:45 42:25 
0.2485095435873115 1:0 2:0 3:0 4:100 5:0 6:0 7:0 8:0 9:-100 10:0 11:0 12:0 13:0 14:0 15:0 16:0 17:0 18:0 19:0 20:0 21:20 22:20 23:20 24:0 25:0 26:20 27:20 28:40 29:40 30:0 31:40 32:20 33:0 34:0 35:0 36:40 37:20 38:20 39:40 40:0 41:45 42:25 
2 1:0 2:100 3:0 4:0 5:0 6:0 7:0 8:0 9:-100 10:0 11:0 12:0 13:0 14:0 15:0 16:0 17:0 18:0 19:0 20:0 21:20 22:20 23:20 24:0 25:0 26:20 27:20 28:40 29:40 30:0 31:40 32:20 33:0 34:0 35:0 36:40 37:20 38:20 39:40 40:0 41:45 42:25 
2 1:0 2:0 3:0 4:0 5:100 6:0 7:0 8:0 9:0 10:0 11:0 12:0 13:0 14:0 15:0 16:0 17:0 18:0 19:0 20:-100 21:0 22:80 23:20 24:0 25:0 26:0 27:0 28:0 29:40 30:0 31:0 32:20 33:20 34:0 35:0 36:20 37:20 38:80 39:20 40:40 41:50 42:69 
2 1:0 2:0 3:100 4:0 5:0 6:0 7:0 8:0 9:0 10:0 11:0 12:0 13:0 14:0 15:0 16:0 17:0 18:0 19:0 20:-100 21:0 22:80 23:20 24:0 25:0 26:0 27:0 28:0 29:40 30:0 31:0 32:20 33:20 34:0 35:0 36:20 37:20 38:80 39:20 40:40 41:50 42:69 
2 1:0 2:100 3:0 4:0 5:0 6:0 7:0 8:0 9:0 10:0 11:0 12:0 13:0 14:0 15:0 16:0 17:0 18:0 19:0 20:-100 21:0 22:80 23:20 24:0 25:0 26:0 27:0 28:0 29:40 30:0 31:0 32:20 33:20 34:0 35:0 36:20 37:20 38:80 39:20 40:40 41:50 42:69 
2 1:0 2:0 3:0 4:0 5:0 6:0 7:0 8:0 9:0 10:100 11:0 12:0 13:0 14:0 15:0 16:0 17:0 18:0 19:0 20:-100 21:0 22:80 23:20 24:0 25:0 26:0 27:0 28:0 29:40 30:0 31:0 32:20 33:20 34:0 35:0 36:20 37:20 38:80 39:20 40:40 41:50 42:69 
2 1:100 2:0 3:0 4:0 5:0 6:0 7:0 8:0 9:0 10:0 11:0 12:0 13:0 14:0 15:0 16:0 17:0 18:0 19:0 20:-100 21:0 22:80 23:20 24:0 25:0 26:0 27:0 28:0 29:40 30:0 31:0 32:20 33:20 34:0 35:0 36:20 37:20 38:80 39:20 40:40 41:50 42:69 
2 1:0 2:0 3:0 4:0 5:0 6:100 7:0 8:0 9:0 10:0 11:0 12:0 13:0 14:0 15:0 16:0 17:0 18:0 19:0 20:-100 21:0 22:80 23:20 24:0 25:0 26:0 27:0 28:0 29:40 30:0 31:0 32:20 33:20 34:0 35:0 36:20 37:20 38:80 39:20 40:40 41:50 42:69 
2 1:0 2:0 3:0 4:0 5:0 6:0 7:0 8:0 9:0 10:0 11:0 12:0 13:0 14:0 15:0 16:0 17:0 18:0 19:-100 20:100 21:20 22:60 23:0 24:0 25:0 26:0 27:0 28:0 29:80 30:0 31:20 32:0 33:0 34:0 35:40 36:40 37:20 38:20 39:0 40:60 41:53 42:25 
2 1:0 2:0 3:0 4:0 5:0 6:0 7:0 8:0 9:0 10:0 11:0 12:0 13:0 14:0 15:0 16:100 17:0 18:0 19:0 20:-100 21:20 22:20 23:0 24:0 25:20 26:20 27:40 28:40 29:20 30:0 31:40 32:20 33:0 34:0 35:20 36:20 37:0 38:0 39:40 40:40 41:50 42:44 
0.653793994578872 1:0 2:0 3:0 4:0 5:0 6:0 7:0 8:0 9:0 10:0 11:0 12:0 13:0 14:0 15:0 16:100 17:0 18:0 19:0 20:-100 21:20 22:20 23:0 24:0 25:20 26:20 27:40 28:40 29:20 30:0 31:40 32:20 33:0 34:0 35:20 36:20 37:0 38:0 39:40 40:40 41:50 42:44 
0.04160158027062154 1:0 2:0 3:0 4:0 5:0 6:0 7:0 8:0 9:0 10:0 11:0 12:0 13:0 14:0 15:0 16:100 17:0 18:0 19:0 20:-100 21:20 22:20 23:0 24:0 25:20 26:20 27:40 28:40 29:20 30:0 31:40 32:20 33:0 34:0 35:20 36:20 37:0 38:0 39:40 40:40 41:50 42:44 
0.5801190683716498 1:0 2:0 3:0 4:0 5:0 6:0 7:0 8:0 9:100 10:0 11:0 12:-100 13:0 14:0 15:0 16:0 17:0 18:0 19:0 20:0 21:0 22:40 23:40 24:0 25:20 26:0 27:0 28:20 29:40 30:0 31:20 32:20 33:60 34:40 35:0 36:0 37:20 38:40 39:0 40:0 41:60 42:37 
2 1:0 2:0 3:0 4:0 5:0 6:0 7:0 8:0 9:0 10:0 11:0 12:-100 13:0 14:0 15:0 16:0 17:0 18:0 19:0 20:100 21:40 22:20 23:20 24:40 25:40 26:0 27:0 28:60 29:20 30:0 31:20 32:20 33:0 34:0 35:0 36:0 37:20 38:20 39:40 40:0 41:14 42:39 
0.6630690057111829 1:0 2:100 3:-100 4:0 5:0 6:0 7:0 8:0 9:0 10:0 11:0 12:0 13:0 14:0 15:0 16:0 17:0 18:0 19:0 20:0 21:20 22:40 23:20 24:0 25:20 26:0 27:0 28:40 29:40 30:20 31:20 32:0 33:0 34:40 35:20 36:20 37:20 38:0 39:0 40:40 41:78 42:76 
1.738071814260769 1:100 2:0 3:0 4:0 5:-100 6:0 7:0 8:0 9:0 10:0 11:0 12:0 13:0 14:0 15:0 16:0 17:0 18:0 19:0 20:0 21:40 22:60 23:0 24:20 25:20 26:0 27:20 28:60 29:0 30:0 31:60 32:20 33:0 34:20 35:0 36:20 37:20 38:0 39:0 40:0 41:50 42:25 
1.27650007496279 1:0 2:-100 3:0 4:0 5:0 6:0 7:0 8:0 9:100 10:0 11:0 12:0 13:0 14:0 15:0 16:0 17:0 18:0 19:0 20:0 21:0 22:0 23:20 24:0 25:0 26:0 27:40 28:40 29:40 30:0 31:0 32:0 33:0 34:0 35:0 36:60 37:20 38:20 39:0 40:20 41:68 42:82 
0.2925805922647879 1:0 2:100 3:0 4:0 5:-100 6:0 7:0 8:0 9:0 10:0 11:0 12:0 13:0 14:0 15:0 16:0 17:0 18:0 19:0 20:0 21:40 22:60 23:0 24:20 25:20 26:0 27:20 28:60 29:0 30:0 31:60 32:20 33:0 34:20 35:0 36:20 37:20 38:0 39:0 40:0 41:50 42:25 
0.009850223171209644 1:0 2:0 3:0 4:0 5:0 6:0 7:0 8:0 9:-100 10:0 11:0 12:100 13:0 14:0 15:0 16:0 17:0 18:0 19:0 20:0 21:20 22:0 23:20 24:0 25:20 26:20 27:20 28:0 29:0 30:20 31:0 32:80 33:0 34:0 35:80 36:20 37:20 38:0 39:40 40:0 41:21 42:47 
2 1:0 2:0 3:0 4:0 5:0 6:0 7:0 8:0 9:-100 10:0 11:0 12:100 13:0 14:0 15:0 16:0 17:0 18:0 19:0 20:0 21:20 22:0 23:20 24:0 25:20 26:20 27:20 28:0 29:0 30:20 31:0 32:80 33:0 34:0 35:80 36:20 37:20 38:0 39:40 40:0 41:46 42:70 
2 1:0 2:0 3:0 4:0 5:0 6:0 7:0 8:0 9:-100 10:100 11:0 12:0 13:0 14:0 15:0 16:0 17:0 18:0 19:0 20:0 21:0 22:0 23:20 24:0 25:80 26:0 27:0 28:20 29:60 30:0 31:20 32:20 33:0 34:20 35:0 36:80 37:0 38:0 39:0 40:40 41:52 42:45 
2 1:0 2:0 3:0 4:0 5:0 6:0 7:0 8:0 9:0 10:0 11:0 12:0 13:0 14:0 15:0 16:0 17:0 18:0 19:100 20:-100 21:80 22:0 23:20 24:0 25:0 26:20 27:0 28:20 29:80 30:20 31:0 32:0 33:20 34:0 35:60 36:20 37:20 38:0 39:0 40:0 41:28 42:65 
0.7520193277893453 1:0 2:0 3:0 4:-100 5:0 6:0 7:0 8:0 9:0 10:0 11:0 12:100 13:0 14:0 15:0 16:0 17:0 18:0 19:0 20:0 21:40 22:0 23:20 24:0 25:0 26:40 27:0 28:40 29:40 30:0 31:20 32:0 33:0 34:0 35:40 36:40 37:0 38:0 39:60 40:20 41:67 42:20 
2 1:0 2:0 3:0 4:0 5:0 6:0 7:0 8:0 9:0 10:0 11:0 12:0 13:0 14:0 15:0 16:0 17:0 18:0 19:-100 20:100 21:40 22:40 23:0 24:0 25:0 26:20 27:0 28:60 29:80 30:20 31:40 32:0 33:0 34:0 35:0 36:40 37:0 38:0 39:0 40:20 41:45 42:25 
1.287001803487533 1:0 2:0 3:0 4:0 5:0 6:0 7:0 8:0 9:-100 10:0 11:100 12:0 13:0 14:0 15:0 16:0 17:0 18:0 19:0 20:0 21:0 22:0 23:0 24:20 25:20 26:0 27:0 28:0 29:40 30:0 31:0 32:20 33:0 34:20 35:20 36:40 37:20 38:40 39:0 40:0 41:50 42:62 
2 1:0 2:0 3:0 4:0 5:0 6:0 7:0 8:0 9:0 10:0 11:0 12:0 13:0 14:0 15:0 16:0 17:100 18:-100 19:0 20:0 21:20 22:0 23:20 24:0 25:0 26:0 27:80 28:40 29:20 30:40 31:20 32:60 33:0 34:20 35:20 36:0 37:20 38:0 39:0 40:0 41:39 42:55 
1.863397057746942 1:0 2:0 3:0 4:0 5:0 6:0 7:-100 8:0 9:100 10:0 11:0 12:0 13:0 14:0 15:0 16:0 17:0 18:0 19:0 20:0 21:0 22:0 23:20 24:0 25:0 26:0 27:20 28:20 29:40 30:20 31:40 32:40 33:20 34:20 35:0 36:60 37:20 38:0 39:40 40:0 41:35 42:63 
2 1:0 2:0 3:0 4:0 5:0 6:0 7:-100 8:100 9:0 10:0 11:0 12:0 13:0 14:0 15:0 16:0 17:0 18:0 19:0 20:0 21:0 22:0 23:20 24:0 25:0 26:0 27:20 28:20 29:40 30:20 31:40 32:40 33:20 34:20 35:0 36:60 37:20 38:0 39:40 40:0 41:35 42:63 
0.01093973519962358 1:100 2:-100 3:0 4:0 5:0 6:0 7:0 8:0 9:0 10:0 11:0 12:0 13:0 14:0 15:0 16:0 17:0 18:0 19:0 20:0 21:0 22:20 23:40 24:0 25:0 26:0 27:20 28:0 29:40 30:0 31:0 32:40 33:0 34:0 35:20 36:100 37:0 38:40 39:20 40:20 41:14 42:83 
1.758253562933522 1:0 2:0 3:-100 4:0 5:0 6:0 7:0 8:0 9:0 10:0 11:0 12:100 13:0 14:0 15:0 16:0 17:0 18:0 19:0 20:0 21:20 22:20 23:20 24:0 25:20 26:0 27:0 28:40 29:40 30:0 31:0 32:20 33:20 34:0 35:20 36:40 37:0 38:40 39:40 40:20 41:38 42:59 
2 1:0 2:100 3:0 4:0 5:-100 6:0 7:0 8:0 9:0 10:0 11:0 12:0 13:0 14:0 15:0 16:0 17:0 18:0 19:0 20:0 21:20 22:40 23:0 24:0 25:0 26:0 27:40 28:40 29:0 30:20 31:0 32:20 33:0 34:40 35:0 36:40 37:0 38:80 39:0 40:20 41:50 42:66 
0.8058625575746425 1:0 2:0 3:0 4:0 5:-100 6:0 7:0 8:0 9:0 10:0 11:0 12:0 13:0 14:100 15:0 16:0 17:0 18:0 19:0 20:0 21:20 22:40 23:0 24:0 25:0 26:0 27:40 28:40 29:0 30:20 31:0 32:20 33:0 34:40 35:0 36:40 37:0 38:80 39:0 40:20 41:50 42:66 
0.5755527178402599 1:0 2:0 3:0 4:0 5:0 6:0 7:0 8:0 9:0 10:0 11:0 12:0 13:0 14:0 15:0 16:-100 17:0 18:100 19:0 20:0 21:40 22:0 23:20 24:0 25:60 26:20 27:0 28:80 29:0 30:0 31:20 32:0 33:0 34:0 35:0 36:40 37:0 38:60 39:20 40:0 41:53 42:55 
2 1:0 2:0 3:0 4:0 5:0 6:0 7:0 8:0 9:100 10:0 11:0 12:0 13:0 14:0 15:0 16:-100 17:0 18:0 19:0 20:0 21:0 22:40 23:20 24:0 25:0 26:0 27:0 28:20 29:60 30:20 31:60 32:20 33:0 34:0 35:20 36:40 37:0 38:20 39:20 40:20 41:47 42:62 
2 1:0 2:0 3:0 4:0 5:0 6:0 7:0 8:0 9:0 10:0 11:0 12:0 13:0 14:0 15:0 16:0 17:0 18:0 19:100 20:-100 21:40 22:0 23:0 24:0 25:0 26:20 27:20 28:40 29:20 30:0 31:0 32:0 33:40 34:0 35:80 36:0 37:60 38:0 39:40 40:0 41:28 42:65 
1.751991798705516 1:0 2:0 3:0 4:0 5:0 6:0 7:0 8:0 9:0 10:0 11:0 12:0 13:100 14:0 15:0 16:0 17:0 18:-100 19:0 20:0 21:60 22:80 23:20 24:0 25:0 26:0 27:40 28:20 29:0 30:20 31:0 32:20 33:20 34:0 35:0 36:20 37:20 38:0 39:20 40:20 41:50 42:25 
1.769289438131415 1:-100 2:0 3:100 4:0 5:0 6:0 7:0 8:0 9:0 10:0 11:0 12:0 13:0 14:0 15:0 16:0 17:0 18:0 19:0 20:0 21:20 22:0 23:60 24:20 25:0 26:0 27:0 28:80 29:60 30:20 31:0 32:0 33:20 34:0 35:0 36:0 37:0 38:40 39:0 40:40 41:51 42:20 
0.4183564333337408 1:0 2:0 3:0 4:0 5:0 6:0 7:0 8:0 9:0 10:0 11:0 12:100 13:0 14:0 15:0 16:0 17:0 18:-100 19:0 20:0 21:60 22:80 23:20 24:0 25:0 26:0 27:40 28:20 29:0 30:20 31:0 32:20 33:20 34:0 35:0 36:20 37:20 38:0 39:20 40:20 41:50 42:25 
2 1:0 2:0 3:0 4:0 5:0 6:0 7:0 8:100 9:0 10:0 11:0 12:0 13:0 14:-100 15:0 16:0 17:0 18:0 19:0 20:0 21:20 22:40 23:0 24:40 25:20 26:20 27:20 28:60 29:20 30:0 31:40 32:0 33:20 34:0 35:0 36:20 37:0 38:0 39:20 40:20 41:32 42:66 
0.1981558679011182 1:0 2:0 3:0 4:0 5:100 6:-100 7:0 8:0 9:0 10:0 11:0 12:0 13:0 14:0 15:0 16:0 17:0 18:0 19:0 20:0 21:0 22:20 23:20 24:0 25:0 26:0 27:0 28:0 29:20 30:0 31:20 32:0 33:0 34:0 35:0 36:60 37:20 38:20 39:20 40:0 41:50 42:20 
1.331295237565152 1:0 2:100 3:0 4:0 5:0 6:-100 7:0 8:0 9:0 10:0 11:0 12:0 13:0 14:0 15:0 16:0 17:0 18:0 19:0 20:0 21:0 22:20 23:20 24:0 25:0 26:0 27:0 28:0 29:20 30:0 31:20 32:0 33:0 34:0 35:0 36:60 37:20 38:20 39:20 40:0 41:50 42:20 
2 1:0 2:0 3:0 4:0 5:0 6:0 7:0 8:0 9:100 10:0 11:0 12:0 13:0 14:0 15:0 16:0 17:0 18:0 19:-100 20:0 21:0 22:40 23:20 24:0 25:0 26:0 27:40 28:0 29:40 30:20 31:20 32:40 33:0 34:20 35:0 36:40 37:40 38:20 39:0 40:20 41:45 42:25 
0.6549857494220055 1:0 2:0 3:0 4:0 5:0 6:0 7:0 8:100 9:-100 10:0 11:0 12:0 13:0 14:0 15:0 16:0 17:0 18:0 19:0 20:0 21:40 22:20 23:20 24:0 25:40 26:0 27:20 28:80 29:0 30:0 31:0 32:20 33:0 34:0 35:0 36:20 37:20 38:0 39:20 40:60 41:50 42:44 
1.716811636233073 1:0 2:0 3:0 4:0 5:0 6:0 7:0 8:0 9:0 10:0 11:100 12:0 13:0 14:0 15:0 16:0 17:0 18:0 19:0 20:-100 21:40 22:20 23:20 24:0 25:20 26:0 27:40 28:20 29:20 30:0 31:0 32:40 33:0 34:0 35:0 36:0 37:20 38:0 39:20 40:20 41:45 42:25 
2 1:0 2:0 3:0 4:0 5:0 6:0 7:0 8:100 9:0 10:0 11:0 12:0 13:0 14:0 15:0 16:0 17:0 18:0 19:0 20:-100 21:40 22:20 23:20 24:0 25:20 26:0 27:40 28:20 29:20 30:0 31:0 32:40 33:0 34:0 35:0 36:0 37:20 38:0 39:20 40:20 41:45 42:25 
2 1:0 2:0 3:0 4:0 5:100 6:-100 7:0 8:0 9:0 10:0 11:0 12:0 13:0 14:0 15:0 16:0 17:0 18:0 19:0 20:0 21:0 22:0 23:20 24:0 25:20 26:0 27:20 28:60 29:20 30:40 31:0 32:0 33:0 34:60 35:0 36:60 37:0 38:20 39:20 40:20 41:53 42:23 
2 1:0 2:0 3:0 4:0 5:0 6:0 7:0 8:0 9:100 10:0 11:0 12:0 13:0 14:0 15:0 16:0 17:-100 18:0 19:0 20:0 21:20 22:20 23:0 24:0 25:40 26:0 27:40 28:60 29:60 30:0 31:0 32:20 33:40 34:0 35:20 36:20 37:0 38:0 39:20 40:0 41:50 42:39 
0.6988312278496193 1:0 2:-100 3:0 4:0 5:0 6:0 7:0 8:0 9:0 10:0 11:0 12:0 13:0 14:0 15:100 16:0 17:0 18:0 19:0 20:0 21:20 22:40 23:0 24:0 25:0 26:0 27:60 28:40 29:0 30:20 31:20 32:0 33:20 34:0 35:0 36:20 37:20 38:40 39:40 40:20 41:50 42:25 
2 1:0 2:100 3:-100 4:0 5:0 6:0 7:0 8:0 9:0 10:0 11:0 12:0 13:0 14:0 15:0 16:0 17:0 18:0 19:0 20:0 21:0 22:20 23:40 24:0 25:20 26:0 27:0 28:20 29:0 30:40 31:20 32:0 33:0 34:0 35:20 36:60 37:60 38:20 39:0 40:40 41:21 42:50 
1.016336942524446 1:0 2:0 3:0 4:0 5:0 6:0 7:0 8:-100 9:100 10:0 11:0 12:0 13:0 14:0 15:0 16:0 17:0 18:0 19:0 20:0 21:40 22:0 23:20 24:0 25:0 26:60 27:0 28:20 29:40 30:0 31:0 32:20 33:20 34:0 35:60 36:20 37:20 38:0 39:20 40:20 41:19 42:65 
1.882527827270005 1:0 2:0 3:0 4:0 5:0 6:0 7:0 8:0 9:0 10:0 11:100 12:0 13:0 14:0 15:0 16:0 17:0 18:0 19:0 20:-100 21:40 22:40 23:20 24:0 25:20 26:0 27:40 28:20 29:20 30:20 31:0 32:40 33:0 34:20 35:0 36:20 37:20 38:0 39:20 40:20 41:45 42:25 
0.1750424007837982 1:0 2:0 3:0 4:0 5:0 6:0 7:0 8:100 9:0 10:0 11:0 12:0 13:0 14:0 15:0 16:0 17:0 18:0 19:0 20:-100 21:40 22:40 23:20 24:0 25:20 26:0 27:40 28:20 29:20 30:20 31:0 32:40 33:0 34:20 35:0 36:20 37:20 38:0 39:20 40:20 41:31 42:25 
2 1:0 2:0 3:0 4:0 5:0 6:0 7:0 8:0 9:0 10:0 11:0 12:0 13:0 14:0 15:0 16:0 17:0 18:0 19:100 20:-100 21:20 22:40 23:20 24:20 25:20 26:0 27:0 28:60 29:0 30:40 31:20 32:20 33:20 34:0 35:0 36:20 37:20 38:20 39:20 40:0 41:21 42:50 
2 1:100 2:0 3:0 4:0 5:0 6:0 7:0 8:0 9:0 10:0 11:0 12:-100 13:0 14:0 15:0 16:0 17:0 18:0 19:0 20:0 21:0 22:60 23:20 24:0 25:0 26:0 27:0 28:20 29:60 30:60 31:40 32:20 33:0 34:0 35:0 36:0 37:0 38:20 39:20 40:40 41:50 42:48 
2 1:0 2:0 3:0 4:0 5:0 6:0 7:0 8:0 9:0 10:0 11:0 12:0 13:0 14:0 15:-100 16:100 17:0 18:0 19:0 20:0 21:0 22:60 23:40 24:20 25:0 26:0 27:20 28:40 29:0 30:0 31:0 32:20 33:0 34:0 35:20 36:40 37:0 38:60 39:0 40:40 41:38 42:65 
2 1:0 2:0 3:0 4:0 5:0 6:0 7:0 8:0 9:0 10:0 11:0 12:0 13:0 14:100 15:0 16:0 17:0 18:0 19:0 20:-100 21:0 22:40 23:20 24:0 25:40 26:0 27:0 28:40 29:20 30:40 31:0 32:20 33:20 34:0 35:40 36:0 37:20 38:20 39:20 40:20 41:51 42:51 
0.5426430388532613 1:0 2:0 3:-100 4:100 5:0 6:0 7:0 8:0 9:0 10:0 11:0 12:0 13:0 14:0 15:0 16:0 17:0 18:0 19:0 20:0 21:20 22:20 23:20 24:0 25:0 26:0 27:0 28:40 29:60 30:0 31:20 32:40 33:0 34:0 35:20 36:40 37:0 38:20 39:40 40:20 41:38 42:65 
2 1:0 2:100 3:0 4:0 5:0 6:0 7:0 8:0 9:-100 10:0 11:0 12:0 13:0 14:0 15:0 16:0 17:0 18:0 19:0 20:0 21:0 22:40 23:20 24:20 25:0 26:40 27:20 28:20 29:20 30:0 31:40 32:20 33:20 34:0 35:20 36:20 37:0 38:20 39:40 40:0 41:19 42:64 
0.8239403210422914 1:0 2:0 3:0 4:0 5:0 6:0 7:0 8:-100 9:0 10:0 11:100 12:0 13:0 14:0 15:0 16:0 17:0 18:0 19:0 20:0 21:20 22:20 23:0 24:0 25:40 26:0 27:20 28:40 29:40 30:0 31:0 32:20 33:40 34:0 35:40 36:20 37:20 38:0 39:40 40:0 41:32 42:72 
2 1:0 2:0 3:0 4:0 5:0 6:0 7:0 8:0 9:0 10:0 11:0 12:0 13:0 14:0 15:0 16:-100 17:100 18:0 19:0 20:0 21:20 22:0 23:0 24:0 25:0 26:0 27:0 28:20 29:60 30:20 31:0 32:20 33:0 34:0 35:20 36:0 37:20 38:20 39:20 40:0 41:53 42:55 
2 1:0 2:0 3:0 4:0 5:0 6:0 7:0 8:0 9:0 10:0 11:0 12:0 13:0 14:0 15:0 16:-100 17:100 18:0 19:0 20:0 21:20 22:0 23:0 24:0 25:0 26:0 27:0 28:20 29:60 30:20 31:0 32:20 33:0 34:0 35:20 36:0 37:20 38:20 39:20 40:0 41:53 42:55 
1.290351620065064 1:0 2:0 3:0 4:0 5:0 6:0 7:0 8:0 9:0 10:0 11:0 12:0 13:0 14:0 15:0 16:-100 17:100 18:0 19:0 20:0 21:20 22:0 23:0 24:0 25:0 26:0 27:0 28:20 29:60 30:20 31:0 32:20 33:0 34:0 35:20 36:0 37:20 38:20 39:20 40:0 41:53 42:55 
0.06262732471705078 1:0 2:0 3:0 4:0 5:0 6:0 7:0 8:0 9:0 10:0 11:0 12:0 13:0 14:0 15:0 16:-100 17:100 18:0 19:0 20:0 21:20 22:0 23:0 24:0 25:0 26:0 27:0 28:20 29:60 30:20 31:0 32:20 33:0 34:0 35:20 36:0 37:20 38:20 39:20 40:0 41:53 42:55 
1.815190690575629 1:0 2:0 3:0 4:0 5:0 6:0 7:0 8:100 9:0 10:0 11:0 12:0 13:0 14:0 15:0 16:-100 17:0 18:0 19:0 20:0 21:20 22:0 23:40 24:20 25:40 26:0 27:20 28:0 29:0 30:20 31:0 32:0 33:0 34:0 35:20 36:100 37:0 38:40 39:40 40:0 41:46 42:25 
1.261207122006373 1:0 2:0 3:0 4:100 5:-100 6:0 7:0 8:0 9:0 10:0 11:0 12:0 13:0 14:0 15:0 16:0 17:0 18:0 19:0 20:0 21:20 22:0 23:20 24:0 25:0 26:20 27:20 28:20 29:40 30:0 31:0 32:80 33:0 34:0 35:60 36:40 37:0 38:0 39:20 40:20 41:38 42:65 
0.7175945639724087 1:100 2:0 3:0 4:0 5:0 6:0 7:0 8:0 9:0 10:0 11:0 12:-100 13:0 14:0 15:0 16:0 17:0 18:0 19:0 20:0 21:0 22:0 23:40 24:0 25:20 26:0 27:40 28:0 29:0 30:0 31:0 32:60 33:0 34:20 35:20 36:40 37:20 38:0 39:0 40:20 41:45 42:25 
2 1:0 2:0 3:0 4:0 5:0 6:0 7:0 8:0 9:100 10:0 11:0 12:0 13:0 14:-100 15:0 16:0 17:0 18:0 19:0 20:0 21:20 22:60 23:0 24:0 25:0 26:0 27:0 28:20 29:60 30:20 31:40 32:20 33:40 34:0 35:0 36:20 37:20 38:0 39:20 40:20 41:19 42:64 
1.873222579665879 1:0 2:0 3:0 4:0 5:0 6:0 7:0 8:100 9:0 10:0 11:0 12:0 13:0 14:-100 15:0 16:0 17:0 18:0 19:0 20:0 21:20 22:60 23:0 24:0 25:0 26:0 27:0 28:20 29:60 30:20 31:40 32:20 33:40 34:0 35:0 36:20 37:20 38:0 39:20 40:20 41:19 42:64 
2 1:0 2:0 3:0 4:0 5:0 6:0 7:0 8:0 9:100 10:0 11:0 12:0 13:0 14:0 15:0 16:0 17:-100 18:0 19:0 20:0 21:60 22:20 23:60 24:0 25:0 26:0 27:0 28:0 29:40 30:20 31:0 32:0 33:0 34:0 35:0 36:60 37:20 38:60 39:0 40:20 41:44 42:25 
2 1:0 2:0 3:0 4:0 5:100 6:0 7:-100 8:0 9:0 10:0 11:0 12:0 13:0 14:0 15:0 16:0 17:0 18:0 19:0 20:0 21:20 22:20 23:20 24:20 25:20 26:0 27:20 28:20 29:40 30:20 31:20 32:20 33:0 34:20 35:0 36:20 37:20 38:40 39:0 40:20 41:37 42:5 
