svm_type c_svc
kernel_type rbf
gamma 3.05176e-05
nr_class 2
total_sv 1293
rho 0.344084
label 0 1
probA -2.08823
probB 0.149317
nr_sv 714 579
SV
0.9435206160816251 1:0 2:0 3:0 4:0 5:0 6:0 7:0 8:-100 9:0 10:0 11:100 12:0 13:0 14:0 15:0 16:0 17:0 18:0 19:0 20:0 21:20 22:0 23:20 24:0 25:20 26:0 27:20 28:40 29:0 30:0 31:0 32:20 33:0 34:0 35:40 36:80 37:20 38:40 39:0 40:40 41:50 42:51 
2 1:-100 2:0 3:0 4:0 5:0 6:0 7:0 8:0 9:100 10:0 11:0 12:0 13:0 14:0 15:0 16:0 17:0 18:0 19:0 20:0 21:0 22:40 23:0 24:0 25:0 26:40 27:0 28:20 29:20 30:20 31:0 32:20 33:20 34:20 35:40 36:40 37:0 38:20 39:20 40:40 41:32 42:64 
2 1:-100 2:100 3:0 4:0 5:0 6:0 7:0 8:0 9:0 10:0 11:0 12:0 13:0 14:0 15:0 16:0 17:0 18:0 19:0 20:0 21:0 22:40 23:0 24:0 25:0 26:40 27:0 28:20 29:20 30:20 31:0 32:20 33:20 34:20 35:40 36:40 37:0 38:20 39:20 40:40 41:32 42:64 
0.3744702111706949 1:0 2:0 3:0 4:0 5:0 6:0 7:0 8:0 9:0 10:0 11:0 12:0 13:0 14:0 15:0 16:0 17:0 18:-100 19:100 20:0 21:60 22:40 23:20 24:0 25:0 26:20 27:0 28:20 29:20 30:20 31:20 32:0 33:0 34:0 35:0 36:60 37:20 38:40 39:0 40:20 41:45 42:46 
1.963359146860328 1:0 2:0 3:0 4:0 5:0 6:0 7:0 8:0 9:100 10:0 11:0 12:0 13:0 14:0 15:0 16:0 17:0 18:0 19:-100 20:0 21:0 22:20 23:60 24:0 25:20 26:0 27:20 28:60 29:40 30:0 31:0 32:20 33:0 34:0 35:0 36:0 37:40 38:20 39:0 40:60 41:50 42:44 
0.7583954726201889 1:0 2:0 3:0 4:0 5:0 6:0 7:0 8:0 9:100 10:0 11:0 12:0 13:0 14:0 15:0 16:0 17:0 18:0 19:-100 20:0 21:0 22:20 23:60 24:0 25:20 26:0 27:20 28:60 29:40 30:0 31:0 32:20 33:0 34:0 35:0 36:0 37:40 38:20 39:0 40:60 41:50 42:44 
1.464004772839059 1:0 2:0 3:0 4:0 5:0 6:0 7:0 8:0 9:0 10:0 11:0 12:0 13:0 14:0 15:0 16:0 17:0 18:-100 19:0 20:100 21:60 22:40 23:20 24:0 25:0 26:20 27:0 28:20 29:20 30:20 31:20 32:0 33:0 34:0 35:0 36:60 37:20 38:40 39:0 40:20 41:44 42:25 
1.949791423592624 1:0 2:0 3:0 4:0 5:0 6:0 7:0 8:0 9:0 10:0 11:0 12:0 13:0 14:0 15:0 16:0 17:100 18:-100 19:0 20:0 21:60 22:40 23:20 24:0 25:0 26:20 27:0 28:20 29:20 30:20 31:20 32:0 33:0 34:0 35:0 36:60 37:20 38:40 39:0 40:20 41:44 42:25 
2 1:0 2:0 3:0 4:0 5:100 6:0 7:-100 8:0 9:0 10:0 11:0 12:0 13:0 14:0 15:0 16:0 17:0 18:0 19:0 20:0 21:20 22:40 23:20 24:0 25:0 26:0 27:40 28:20 29:20 30:20 31:0 32:40 33:0 34:20 35:0 36:20 37:20 38:0 39:20 40:60 41:45 42:25 
0.5289291986566735 1:0 2:0 3:0 4:0 5:0 6:0 7:-100 8:0 9:0 10:0 11:0 12:0 13:0 14:0 15:100 16:0 17:0 18:0 19:0 20:0 21:40 22:40 23:0 24:0 25:0 26:0 27:20 28:40 29:0 30:20 31:60 32:0 33:20 34:0 35:20 36:20 37:40 38:20 39:20 40:0 41:50 42:25 
2 1:0 2:0 3:0 4:0 5:0 6:0 7:0 8:0 9:0 10:0 11:0 12:0 13:0 14:0 15:0 16:-100 17:0 18:100 19:0 20:0 21:20 22:20 23:0 24:20 25:20 26:20 27:0 28:40 29:0 30:0 31:20 32:0 33:0 34:0 35:0 36:40 37:0 38:40 39:20 40:0 41:53 42:55 
0.037669774865718 1:0 2:0 3:0 4:0 5:0 6:0 7:0 8:0 9:0 10:0 11:0 12:0 13:0 14:0 15:0 16:-100 17:0 18:100 19:0 20:0 21:20 22:20 23:0 24:20 25:20 26:20 27:0 28:40 29:0 30:0 31:20 32:0 33:0 34:0 35:0 36:40 37:0 38:40 39:20 40:0 41:53 42:55 
1.999229088724185 1:0 2:0 3:0 4:0 5:0 6:0 7:0 8:0 9:0 10:0 11:0 12:0 13:0 14:0 15:0 16:-100 17:100 18:0 19:0 20:0 21:20 22:20 23:0 24:20 25:20 26:20 27:0 28:40 29:0 30:0 31:20 32:0 33:0 34:0 35:0 36:40 37:0 38:40 39:20 40:0 41:53 42:55 
2 1:0 2:0 3:0 4:0 5:0 6:0 7:0 8:0 9:0 10:0 11:0 12:0 13:0 14:0 15:0 16:-100 17:100 18:0 19:0 20:0 21:20 22:20 23:0 24:20 25:20 26:20 27:0 28:40 29:0 30:0 31:20 32:0 33:0 34:0 35:0 36:40 37:0 38:40 39:20 40:0 41:53 42:55 
0.7047260763118203 1:0 2:0 3:0 4:0 5:0 6:0 7:0 8:0 9:0 10:0 11:0 12:0 13:0 14:0 15:0 16:-100 17:100 18:0 19:0 20:0 21:20 22:20 23:0 24:20 25:20 26:20 27:0 28:40 29:0 30:0 31:20 32:0 33:0 34:0 35:0 36:40 37:0 38:40 39:20 40:0 41:53 42:55 
2 1:0 2:0 3:0 4:0 5:0 6:0 7:0 8:0 9:-100 10:100 11:0 12:0 13:0 14:0 15:0 16:0 17:0 18:0 19:0 20:0 21:20 22:20 23:20 24:0 25:0 26:20 27:20 28:40 29:40 30:0 31:40 32:20 33:0 34:0 35:0 36:40 37:20 38:20 39:40 40:0 41:45 42:25 
1.718563636417935 1:0 2:0 3:0 4:0 5:0 6:0 7:0 8:0 9:0 10:0 11:0 12:-100 13:0 14:0 15:0 16:0 17:0 18:100 19:0 20:0 21:20 22:40 23:0 24:40 25:20 26:0 27:0 28:60 29:20 30:0 31:20 32:20 33:0 34:0 35:20 36:20 37:40 38:20 39:20 40:0 41:14 42:40 
1.697628415491297 1:0 2:0 3:0 4:0 5:0 6:0 7:0 8:0 9:0 10:0 11:0 12:-100 13:0 14:0 15:0 16:0 17:0 18:100 19:0 20:0 21:20 22:40 23:0 24:40 25:20 26:0 27:0 28:60 29:20 30:0 31:20 32:20 33:0 34:0 35:20 36:20 37:40 38:20 39:20 40:0 41:14 42:40 
2 1:0 2:0 3:0 4:0 5:0 6:0 7:0 8:0 9:0 10:0 11:0 12:-100 13:0 14:0 15:0 16:0 17:0 18:100 19:0 20:0 21:20 22:40 23:0 24:40 25:20 26:0 27:0 28:60 29:20 30:0 31:20 32:20 33:0 34:0 35:20 36:20 37:40 38:20 39:20 40:0 41:28 42:63 
2 1:0 2:0 3:0 4:0 5:0 6:0 7:0 8:0 9:0 10:0 11:0 12:-100 13:0 14:0 15:0 16:0 17:0 18:100 19:0 20:0 21:20 22:40 23:0 24:40 25:20 26:0 27:0 28:60 29:20 30:0 31:20 32:20 33:0 34:0 35:20 36:20 37:40 38:20 39:20 40:0 41:21 42:52 
0.257379919831806 1:0 2:0 3:0 4:0 5:0 6:0 7:0 8:0 9:100 10:0 11:0 12:-100 13:0 14:0 15:0 16:0 17:0 18:0 19:0 20:0 21:20 22:40 23:0 24:40 25:20 26:0 27:0 28:60 29:20 30:0 31:20 32:20 33:0 34:0 35:20 36:20 37:40 38:20 39:20 40:0 41:21 42:51 
1.351824053420227 1:0 2:0 3:0 4:0 5:0 6:0 7:0 8:0 9:0 10:0 11:0 12:0 13:0 14:0 15:0 16:0 17:0 18:0 19:100 20:-100 21:60 22:0 23:0 24:0 25:20 26:0 27:20 28:20 29:20 30:40 31:20 32:0 33:0 34:20 35:0 36:0 37:0 38:0 39:20 40:0 41:42 42:25 
0.3579599191663126 1:0 2:0 3:0 4:100 5:0 6:0 7:0 8:0 9:0 10:0 11:0 12:0 13:0 14:0 15:-100 16:0 17:0 18:0 19:0 20:0 21:0 22:20 23:20 24:0 25:0 26:20 27:20 28:60 29:20 30:20 31:20 32:20 33:0 34:0 35:20 36:40 37:0 38:40 39:20 40:20 41:31 42:25 
1.151632336073788 1:0 2:0 3:0 4:100 5:0 6:0 7:0 8:0 9:0 10:0 11:0 12:0 13:0 14:0 15:-100 16:0 17:0 18:0 19:0 20:0 21:0 22:20 23:20 24:0 25:0 26:20 27:20 28:60 29:20 30:20 31:20 32:20 33:0 34:0 35:20 36:40 37:0 38:40 39:20 40:20 41:45 42:25 
2 1:0 2:0 3:0 4:0 5:0 6:0 7:0 8:0 9:100 10:0 11:0 12:0 13:0 14:0 15:0 16:0 17:0 18:0 19:0 20:-100 21:60 22:0 23:0 24:0 25:20 26:0 27:20 28:20 29:20 30:40 31:20 32:0 33:0 34:20 35:0 36:0 37:0 38:0 39:20 40:0 41:42 42:25 
2 1:0 2:0 3:0 4:0 5:0 6:0 7:0 8:0 9:100 10:0 11:0 12:0 13:0 14:0 15:0 16:0 17:0 18:0 19:0 20:-100 21:60 22:0 23:0 24:0 25:20 26:0 27:20 28:20 29:20 30:40 31:20 32:0 33:0 34:20 35:0 36:0 37:0 38:0 39:20 40:0 41:8 42:25 
1.772701500827752 1:100 2:0 3:0 4:0 5:0 6:0 7:0 8:0 9:0 10:0 11:0 12:-100 13:0 14:0 15:0 16:0 17:0 18:0 19:0 20:0 21:20 22:20 23:20 24:0 25:20 26:20 27:20 28:20 29:20 30:0 31:0 32:60 33:0 34:0 35:40 36:20 37:0 38:0 39:20 40:20 41:21 42:53 
2 1:0 2:0 3:0 4:0 5:0 6:0 7:0 8:0 9:0 10:0 11:0 12:-100 13:0 14:0 15:100 16:0 17:0 18:0 19:0 20:0 21:20 22:20 23:20 24:0 25:20 26:20 27:20 28:20 29:20 30:0 31:0 32:60 33:0 34:0 35:40 36:20 37:0 38:0 39:20 40:20 41:17 42:46 
1.46384279185358 1:0 2:0 3:0 4:0 5:0 6:0 7:0 8:0 9:0 10:0 11:0 12:-100 13:0 14:0 15:100 16:0 17:0 18:0 19:0 20:0 21:20 22:20 23:20 24:0 25:20 26:20 27:20 28:20 29:20 30:0 31:0 32:60 33:0 34:0 35:40 36:20 37:0 38:0 39:20 40:20 41:14 42:42 
0.6327139123562939 1:0 2:100 3:0 4:0 5:0 6:0 7:0 8:0 9:0 10:0 11:0 12:-100 13:0 14:0 15:0 16:0 17:0 18:0 19:0 20:0 21:20 22:20 23:20 24:0 25:20 26:20 27:20 28:20 29:20 30:0 31:0 32:60 33:0 34:0 35:40 36:20 37:0 38:0 39:20 40:20 41:17 42:46 
2 1:0 2:100 3:0 4:0 5:0 6:0 7:0 8:0 9:0 10:0 11:0 12:-100 13:0 14:0 15:0 16:0 17:0 18:0 19:0 20:0 21:20 22:20 23:20 24:0 25:20 26:20 27:20 28:20 29:20 30:0 31:0 32:60 33:0 34:0 35:40 36:20 37:0 38:0 39:20 40:20 41:21 42:53 
0.1409902098012434 1:0 2:0 3:0 4:0 5:0 6:0 7:0 8:0 9:0 10:0 11:0 12:-100 13:0 14:0 15:0 16:0 17:0 18:0 19:100 20:0 21:20 22:20 23:20 24:0 25:20 26:20 27:20 28:20 29:20 30:0 31:0 32:60 33:0 34:0 35:40 36:20 37:0 38:0 39:20 40:20 41:21 42:53 
0.7714111944122932 1:0 2:0 3:100 4:0 5:0 6:0 7:0 8:0 9:0 10:0 11:0 12:-100 13:0 14:0 15:0 16:0 17:0 18:0 19:0 20:0 21:20 22:20 23:20 24:0 25:20 26:20 27:20 28:20 29:20 30:0 31:0 32:60 33:0 34:0 35:40 36:20 37:0 38:0 39:20 40:20 41:21 42:53 
2 1:0 2:0 3:100 4:0 5:0 6:0 7:0 8:0 9:0 10:0 11:0 12:-100 13:0 14:0 15:0 16:0 17:0 18:0 19:0 20:0 21:20 22:20 23:20 24:0 25:20 26:20 27:20 28:20 29:20 30:0 31:0 32:60 33:0 34:0 35:40 36:20 37:0 38:0 39:20 40:20 41:42 42:64 
2 1:0 2:0 3:100 4:0 5:0 6:0 7:0 8:0 9:0 10:0 11:0 12:-100 13:0 14:0 15:0 16:0 17:0 18:0 19:0 20:0 21:20 22:20 23:20 24:0 25:20 26:20 27:20 28:20 29:20 30:0 31:0 32:60 33:0 34:0 35:40 36:20 37:0 38:0 39:20 40:20 41:28 42:62 
1.069126700050405 1:0 2:0 3:0 4:0 5:0 6:0 7:0 8:0 9:0 10:0 11:0 12:-100 13:0 14:0 15:0 16:0 17:0 18:0 19:0 20:100 21:20 22:20 23:20 24:0 25:20 26:20 27:20 28:20 29:20 30:0 31:0 32:60 33:0 34:0 35:40 36:20 37:0 38:0 39:20 40:20 41:14 42:42 
0.5004605759368025 1:0 2:0 3:0 4:0 5:0 6:0 7:0 8:0 9:0 10:0 11:0 12:-100 13:0 14:0 15:0 16:0 17:0 18:100 19:0 20:0 21:20 22:20 23:20 24:0 25:20 26:20 27:20 28:20 29:20 30:0 31:0 32:60 33:0 34:0 35:40 36:20 37:0 38:0 39:20 40:20 41:21 42:53 
0.9319240679815294 1:0 2:0 3:0 4:0 5:100 6:0 7:0 8:0 9:0 10:0 11:0 12:-100 13:0 14:0 15:0 16:0 17:0 18:0 19:0 20:0 21:20 22:20 23:20 24:0 25:20 26:20 27:20 28:20 29:20 30:0 31:0 32:60 33:0 34:0 35:40 36:20 37:0 38:0 39:20 40:20 41:14 42:42 
2 1:-100 2:0 3:0 4:100 5:0 6:0 7:0 8:0 9:0 10:0 11:0 12:0 13:0 14:0 15:0 16:0 17:0 18:0 19:0 20:0 21:20 22:60 23:20 24:0 25:0 26:0 27:20 28:0 29:40 30:20 31:20 32:0 33:0 34:0 35:60 36:40 37:0 38:0 39:20 40:40 41:38 42:65 
1.106491706165356 1:0 2:0 3:0 4:0 5:0 6:0 7:0 8:0 9:100 10:0 11:0 12:0 13:0 14:-100 15:0 16:0 17:0 18:0 19:0 20:0 21:40 22:20 23:20 24:0 25:20 26:0 27:0 28:60 29:40 30:0 31:20 32:40 33:0 34:0 35:0 36:0 37:20 38:0 39:80 40:0 41:42 42:25 
0.533599308596971 1:0 2:0 3:0 4:0 5:0 6:0 7:0 8:0 9:0 10:0 11:0 12:0 13:0 14:0 15:0 16:0 17:0 18:0 19:100 20:-100 21:20 22:20 23:40 24:0 25:20 26:0 27:0 28:80 29:20 30:20 31:40 32:0 33:0 34:0 35:20 36:40 37:0 38:20 39:20 40:0 41:63 42:25 
1.267842245495581 1:0 2:0 3:0 4:0 5:0 6:0 7:0 8:0 9:100 10:0 11:0 12:0 13:0 14:0 15:0 16:-100 17:0 18:0 19:0 20:0 21:0 22:20 23:40 24:0 25:20 26:0 27:60 28:20 29:20 30:60 31:0 32:20 33:20 34:0 35:40 36:0 37:0 38:20 39:20 40:0 41:50 42:39 
2 1:0 2:0 3:0 4:0 5:0 6:0 7:0 8:0 9:0 10:0 11:0 12:0 13:0 14:100 15:0 16:0 17:0 18:0 19:0 20:-100 21:40 22:40 23:20 24:0 25:0 26:0 27:40 28:40 29:40 30:60 31:0 32:20 33:0 34:0 35:0 36:20 37:20 38:20 39:0 40:0 41:50 42:25 
0.6109223866871865 1:0 2:0 3:0 4:0 5:0 6:0 7:0 8:0 9:0 10:0 11:0 12:0 13:0 14:100 15:0 16:0 17:0 18:0 19:0 20:-100 21:40 22:40 23:20 24:0 25:0 26:0 27:40 28:40 29:40 30:60 31:0 32:20 33:0 34:0 35:0 36:20 37:20 38:20 39:0 40:0 41:50 42:25 
0.4681273479777415 1:0 2:0 3:0 4:0 5:0 6:0 7:0 8:0 9:0 10:0 11:0 12:-100 13:0 14:0 15:0 16:0 17:0 18:0 19:0 20:100 21:20 22:20 23:40 24:0 25:20 26:0 27:0 28:40 29:20 30:0 31:0 32:0 33:20 34:0 35:20 36:40 37:0 38:40 39:60 40:20 41:46 42:63 
0.5835954370112856 1:0 2:0 3:0 4:0 5:100 6:-100 7:0 8:0 9:0 10:0 11:0 12:0 13:0 14:0 15:0 16:0 17:0 18:0 19:0 20:0 21:20 22:40 23:20 24:20 25:20 26:0 27:0 28:0 29:0 30:0 31:40 32:0 33:0 34:0 35:20 36:60 37:0 38:60 39:0 40:60 41:53 42:25 
1.85850775906324 1:0 2:0 3:0 4:0 5:0 6:0 7:0 8:0 9:100 10:0 11:0 12:0 13:0 14:0 15:0 16:0 17:0 18:-100 19:0 20:0 21:20 22:40 23:20 24:40 25:0 26:0 27:20 28:0 29:60 30:0 31:0 32:60 33:0 34:0 35:40 36:0 37:0 38:20 39:40 40:0 41:21 42:50 
1.460635260327537 1:0 2:0 3:0 4:0 5:0 6:0 7:0 8:0 9:0 10:0 11:100 12:-100 13:0 14:0 15:0 16:0 17:0 18:0 19:0 20:0 21:20 22:20 23:40 24:0 25:20 26:0 27:0 28:40 29:20 30:0 31:0 32:0 33:20 34:0 35:20 36:40 37:0 38:40 39:60 40:20 41:46 42:63 
2 1:0 2:0 3:0 4:0 5:0 6:0 7:0 8:0 9:0 10:0 11:0 12:0 13:0 14:0 15:0 16:0 17:100 18:-100 19:0 20:0 21:20 22:40 23:20 24:40 25:0 26:0 27:20 28:0 29:60 30:0 31:0 32:60 33:0 34:0 35:40 36:0 37:0 38:20 39:40 40:0 41:21 42:50 
0.5678519405724641 1:0 2:0 3:0 4:0 5:0 6:0 7:0 8:0 9:100 10:0 11:0 12:0 13:0 14:0 15:0 16:0 17:0 18:0 19:-100 20:0 21:0 22:20 23:40 24:0 25:40 26:0 27:40 28:20 29:60 30:0 31:0 32:20 33:20 34:0 35:40 36:40 37:20 38:0 39:0 40:0 41:50 42:39 
2 1:0 2:0 3:0 4:0 5:0 6:0 7:0 8:0 9:0 10:0 11:0 12:100 13:0 14:-100 15:0 16:0 17:0 18:0 19:0 20:0 21:0 22:40 23:40 24:0 25:40 26:0 27:0 28:20 29:20 30:0 31:20 32:40 33:40 34:20 35:0 36:0 37:20 38:60 39:0 40:0 41:60 42:37 
2 1:0 2:0 3:0 4:0 5:0 6:0 7:0 8:0 9:0 10:0 11:0 12:100 13:0 14:0 15:0 16:0 17:0 18:0 19:0 20:-100 21:0 22:80 23:20 24:0 25:0 26:0 27:0 28:0 29:40 30:0 31:0 32:20 33:20 34:0 35:0 36:20 37:20 38:80 39:20 40:40 41:50 42:69 
2 1:0 2:0 3:0 4:0 5:0 6:0 7:0 8:0 9:0 10:0 11:0 12:0 13:0 14:-100 15:0 16:0 17:100 18:0 19:0 20:0 21:0 22:40 23:40 24:0 25:40 26:0 27:0 28:20 29:20 30:0 31:20 32:40 33:40 34:20 35:0 36:0 37:20 38:60 39:0 40:0 41:60 42:37 
0.3280911290162704 1:0 2:0 3:0 4:0 5:0 6:0 7:0 8:0 9:-100 10:0 11:100 12:0 13:0 14:0 15:0 16:0 17:0 18:0 19:0 20:0 21:20 22:20 23:20 24:20 25:0 26:0 27:60 28:60 29:20 30:0 31:0 32:20 33:0 34:0 35:40 36:40 37:0 38:0 39:0 40:40 41:50 42:51 
2 1:0 2:0 3:0 4:0 5:0 6:0 7:0 8:0 9:100 10:0 11:0 12:0 13:0 14:0 15:0 16:0 17:0 18:-100 19:0 20:0 21:0 22:20 23:20 24:20 25:0 26:20 27:20 28:20 29:40 30:0 31:20 32:20 33:0 34:0 35:0 36:80 37:0 38:20 39:20 40:40 41:37 42:5 
0.8549752445123061 1:0 2:-100 3:0 4:0 5:0 6:0 7:0 8:0 9:100 10:0 11:0 12:0 13:0 14:0 15:0 16:0 17:0 18:0 19:0 20:0 21:80 22:40 23:0 24:0 25:0 26:40 27:0 28:20 29:20 30:0 31:20 32:0 33:0 34:20 35:0 36:20 37:20 38:60 39:0 40:0 41:68 42:82 
0.4198389273950119 1:0 2:0 3:0 4:0 5:0 6:0 7:0 8:0 9:0 10:0 11:0 12:0 13:0 14:0 15:0 16:-100 17:0 18:100 19:0 20:0 21:20 22:20 23:0 24:0 25:0 26:40 27:20 28:0 29:60 30:20 31:20 32:20 33:0 34:0 35:20 36:0 37:20 38:20 39:60 40:20 41:37 42:25 
0.2627521802072431 1:0 2:0 3:0 4:0 5:0 6:0 7:0 8:0 9:0 10:0 11:0 12:0 13:0 14:0 15:0 16:-100 17:0 18:100 19:0 20:0 21:20 22:20 23:0 24:0 25:0 26:40 27:20 28:0 29:60 30:20 31:20 32:20 33:0 34:0 35:20 36:0 37:20 38:20 39:60 40:20 41:37 42:66 
2 1:0 2:0 3:0 4:0 5:0 6:0 7:0 8:0 9:0 10:0 11:0 12:0 13:0 14:0 15:0 16:-100 17:0 18:100 19:0 20:0 21:20 22:20 23:0 24:0 25:0 26:40 27:20 28:0 29:60 30:20 31:20 32:20 33:0 34:0 35:20 36:0 37:20 38:20 39:60 40:20 41:20 42:50 
2 1:0 2:0 3:0 4:0 5:0 6:0 7:0 8:0 9:0 10:0 11:-100 12:100 13:0 14:0 15:0 16:0 17:0 18:0 19:0 20:0 21:40 22:40 23:20 24:0 25:0 26:0 27:20 28:20 29:0 30:0 31:20 32:20 33:20 34:20 35:20 36:20 37:40 38:40 39:0 40:20 41:21 42:49 
1.933355533326045 1:0 2:0 3:0 4:0 5:0 6:0 7:0 8:0 9:100 10:0 11:0 12:0 13:0 14:0 15:0 16:0 17:0 18:-100 19:0 20:0 21:0 22:0 23:0 24:20 25:20 26:0 27:0 28:40 29:60 30:0 31:20 32:20 33:40 34:0 35:40 36:40 37:0 38:0 39:40 40:20 41:50 42:39 
2 1:0 2:100 3:0 4:0 5:0 6:0 7:0 8:0 9:0 10:0 11:-100 12:0 13:0 14:0 15:0 16:0 17:0 18:0 19:0 20:0 21:40 22:40 23:20 24:0 25:0 26:0 27:20 28:20 29:0 30:0 31:20 32:20 33:20 34:20 35:20 36:20 37:40 38:40 39:0 40:20 41:21 42:49 
0.6505948057401336 1:0 2:0 3:0 4:0 5:0 6:0 7:0 8:0 9:100 10:0 11:-100 12:0 13:0 14:0 15:0 16:0 17:0 18:0 19:0 20:0 21:40 22:40 23:20 24:0 25:0 26:0 27:20 28:20 29:0 30:0 31:20 32:20 33:20 34:20 35:20 36:20 37:40 38:40 39:0 40:20 41:21 42:49 
0.6943149288059294 1:100 2:0 3:-100 4:0 5:0 6:0 7:0 8:0 9:0 10:0 11:0 12:0 13:0 14:0 15:0 16:0 17:0 18:0 19:0 20:0 21:40 22:0 23:0 24:0 25:20 26:0 27:20 28:20 29:20 30:0 31:0 32:20 33:0 34:0 35:0 36:0 37:0 38:0 39:20 40:40 41:45 42:25 
0.2675244140525933 1:0 2:-100 3:0 4:0 5:0 6:0 7:0 8:0 9:100 10:0 11:0 12:0 13:0 14:0 15:0 16:0 17:0 18:0 19:0 20:0 21:0 22:0 23:0 24:0 25:20 26:0 27:20 28:20 29:0 30:80 31:0 32:20 33:40 34:0 35:20 36:20 37:0 38:20 39:0 40:20 41:50 42:39 
0.1752570677879845 1:0 2:0 3:-100 4:0 5:0 6:0 7:0 8:0 9:0 10:0 11:0 12:0 13:0 14:0 15:0 16:0 17:0 18:100 19:0 20:0 21:0 22:20 23:20 24:40 25:20 26:0 27:0 28:20 29:0 30:0 31:0 32:0 33:0 34:0 35:20 36:0 37:0 38:40 39:20 40:20 41:46 42:64 
0.03441016808204938 1:0 2:0 3:-100 4:0 5:0 6:0 7:0 8:100 9:0 10:0 11:0 12:0 13:0 14:0 15:0 16:0 17:0 18:0 19:0 20:0 21:0 22:20 23:20 24:40 25:20 26:0 27:0 28:20 29:0 30:0 31:0 32:0 33:0 34:0 35:20 36:0 37:0 38:40 39:20 40:20 41:46 42:64 
1.11086123168426 1:0 2:0 3:-100 4:0 5:100 6:0 7:0 8:0 9:0 10:0 11:0 12:0 13:0 14:0 15:0 16:0 17:0 18:0 19:0 20:0 21:0 22:20 23:20 24:40 25:20 26:0 27:0 28:20 29:0 30:0 31:0 32:0 33:0 34:0 35:20 36:0 37:0 38:40 39:20 40:20 41:46 42:64 
1.418575720733797 1:0 2:0 3:-100 4:0 5:0 6:0 7:0 8:0 9:0 10:100 11:0 12:0 13:0 14:0 15:0 16:0 17:0 18:0 19:0 20:0 21:0 22:20 23:20 24:40 25:20 26:0 27:0 28:20 29:0 30:0 31:0 32:0 33:0 34:0 35:20 36:0 37:0 38:40 39:20 40:20 41:21 42:53 
1.45151118854501 1:0 2:0 3:0 4:0 5:0 6:0 7:0 8:0 9:100 10:0 11:0 12:0 13:0 14:0 15:0 16:0 17:0 18:-100 19:0 20:0 21:60 22:40 23:60 24:0 25:0 26:0 27:0 28:20 29:20 30:40 31:0 32:0 33:0 34:0 35:0 36:60 37:40 38:0 39:0 40:20 41:44 42:25 
1.322214461244114 1:0 2:0 3:-100 4:0 5:0 6:0 7:0 8:0 9:0 10:0 11:0 12:100 13:0 14:0 15:0 16:0 17:0 18:0 19:0 20:0 21:0 22:20 23:20 24:40 25:20 26:0 27:0 28:20 29:0 30:0 31:0 32:0 33:0 34:0 35:20 36:0 37:0 38:40 39:20 40:20 41:21 42:53 
1.773070047263918 1:0 2:0 3:-100 4:0 5:0 6:100 7:0 8:0 9:0 10:0 11:0 12:0 13:0 14:0 15:0 16:0 17:0 18:0 19:0 20:0 21:0 22:20 23:20 24:40 25:20 26:0 27:0 28:20 29:0 30:0 31:0 32:0 33:0 34:0 35:20 36:0 37:0 38:40 39:20 40:20 41:46 42:64 
1.413689242474127 1:100 2:0 3:-100 4:0 5:0 6:0 7:0 8:0 9:0 10:0 11:0 12:0 13:0 14:0 15:0 16:0 17:0 18:0 19:0 20:0 21:0 22:20 23:20 24:40 25:20 26:0 27:0 28:20 29:0 30:0 31:0 32:0 33:0 34:0 35:20 36:0 37:0 38:40 39:20 40:20 41:14 42:41 
1.22740313042254 1:100 2:0 3:-100 4:0 5:0 6:0 7:0 8:0 9:0 10:0 11:0 12:0 13:0 14:0 15:0 16:0 17:0 18:0 19:0 20:0 21:0 22:20 23:20 24:40 25:20 26:0 27:0 28:20 29:0 30:0 31:0 32:0 33:0 34:0 35:20 36:0 37:0 38:40 39:20 40:20 41:46 42:64 
2 1:0 2:0 3:-100 4:0 5:0 6:0 7:100 8:0 9:0 10:0 11:0 12:0 13:0 14:0 15:0 16:0 17:0 18:0 19:0 20:0 21:0 22:20 23:20 24:40 25:20 26:0 27:0 28:20 29:0 30:0 31:0 32:0 33:0 34:0 35:20 36:0 37:0 38:40 39:20 40:20 41:46 42:64 
2 1:0 2:0 3:0 4:0 5:0 6:0 7:0 8:0 9:0 10:0 11:0 12:0 13:0 14:0 15:0 16:100 17:0 18:0 19:0 20:-100 21:0 22:40 23:20 24:0 25:20 26:0 27:20 28:40 29:20 30:40 31:40 32:40 33:0 34:0 35:0 36:0 37:20 38:0 39:20 40:40 41:50 42:47 
0.6189147317670587 1:100 2:0 3:-100 4:0 5:0 6:0 7:0 8:0 9:0 10:0 11:0 12:0 13:0 14:0 15:0 16:0 17:0 18:0 19:0 20:0 21:40 22:40 23:0 24:0 25:0 26:0 27:40 28:40 29:20 30:40 31:0 32:20 33:0 34:0 35:0 36:20 37:20 38:40 39:20 40:20 41:50 42:25 
2 1:0 2:0 3:0 4:-100 5:0 6:0 7:0 8:0 9:0 10:0 11:0 12:0 13:0 14:0 15:0 16:100 17:0 18:0 19:0 20:0 21:40 22:20 23:20 24:20 25:40 26:0 27:0 28:60 29:40 30:0 31:0 32:40 33:20 34:0 35:0 36:0 37:20 38:20 39:20 40:0 41:21 42:47 
2 1:0 2:0 3:0 4:0 5:100 6:0 7:-100 8:0 9:0 10:0 11:0 12:0 13:0 14:0 15:0 16:0 17:0 18:0 19:0 20:0 21:0 22:40 23:20 24:0 25:20 26:20 27:0 28:60 29:60 30:20 31:40 32:20 33:0 34:0 35:20 36:0 37:20 38:0 39:20 40:0 41:48 42:54 
2 1:0 2:0 3:0 4:0 5:0 6:0 7:0 8:100 9:0 10:0 11:0 12:0 13:0 14:0 15:0 16:0 17:0 18:0 19:0 20:-100 21:20 22:0 23:20 24:0 25:20 26:0 27:20 28:40 29:20 30:0 31:0 32:20 33:0 34:0 35:20 36:80 37:20 38:40 39:20 40:20 41:50 42:20 
2 1:0 2:0 3:0 4:0 5:0 6:0 7:0 8:0 9:0 10:0 11:0 12:0 13:0 14:0 15:0 16:0 17:0 18:0 19:100 20:-100 21:40 22:60 23:20 24:0 25:0 26:0 27:20 28:0 29:40 30:20 31:20 32:0 33:20 34:0 35:40 36:40 37:0 38:0 39:20 40:20 41:47 42:62 
2 1:-100 2:0 3:100 4:0 5:0 6:0 7:0 8:0 9:0 10:0 11:0 12:0 13:0 14:0 15:0 16:0 17:0 18:0 19:0 20:0 21:40 22:0 23:40 24:0 25:20 26:0 27:0 28:0 29:0 30:0 31:0 32:40 33:20 34:40 35:0 36:20 37:40 38:0 39:80 40:20 41:50 42:25 
0.2168566606545859 1:0 2:0 3:0 4:0 5:-100 6:0 7:0 8:0 9:100 10:0 11:0 12:0 13:0 14:0 15:0 16:0 17:0 18:0 19:0 20:0 21:40 22:20 23:20 24:0 25:0 26:0 27:0 28:0 29:60 30:0 31:0 32:20 33:0 34:0 35:20 36:40 37:20 38:40 39:20 40:60 41:21 42:51 
0.233279296046481 1:0 2:0 3:0 4:0 5:-100 6:0 7:0 8:0 9:0 10:0 11:0 12:100 13:0 14:0 15:0 16:0 17:0 18:0 19:0 20:0 21:40 22:0 23:20 24:0 25:0 26:0 27:0 28:20 29:20 30:20 31:60 32:40 33:0 34:0 35:40 36:20 37:60 38:20 39:0 40:0 41:50 42:25 
0.0169020697587005 1:-100 2:0 3:0 4:0 5:100 6:0 7:0 8:0 9:0 10:0 11:0 12:0 13:0 14:0 15:0 16:0 17:0 18:0 19:0 20:0 21:40 22:0 23:20 24:0 25:0 26:20 27:0 28:20 29:80 30:20 31:0 32:0 33:20 34:0 35:60 36:20 37:20 38:0 39:0 40:40 41:19 42:64 
2 1:-100 2:0 3:0 4:0 5:0 6:0 7:0 8:0 9:100 10:0 11:0 12:0 13:0 14:0 15:0 16:0 17:0 18:0 19:0 20:0 21:40 22:0 23:20 24:0 25:0 26:20 27:0 28:20 29:80 30:20 31:0 32:0 33:20 34:0 35:60 36:20 37:20 38:0 39:0 40:40 41:19 42:49 
2 1:-100 2:0 3:0 4:0 5:0 6:0 7:0 8:0 9:100 10:0 11:0 12:0 13:0 14:0 15:0 16:0 17:0 18:0 19:0 20:0 21:40 22:0 23:20 24:0 25:0 26:20 27:0 28:20 29:80 30:20 31:0 32:0 33:20 34:0 35:60 36:20 37:20 38:0 39:0 40:40 41:19 42:64 
2 1:0 2:0 3:0 4:0 5:0 6:100 7:0 8:0 9:0 10:0 11:0 12:0 13:0 14:0 15:0 16:-100 17:0 18:0 19:0 20:0 21:0 22:20 23:20 24:40 25:20 26:0 27:40 28:20 29:20 30:40 31:20 32:40 33:0 34:0 35:0 36:40 37:0 38:20 39:20 40:0 41:32 42:25 
1.67399367545556 1:0 2:0 3:0 4:0 5:0 6:0 7:0 8:0 9:0 10:0 11:0 12:0 13:0 14:0 15:-100 16:0 17:100 18:0 19:0 20:0 21:0 22:40 23:60 24:40 25:0 26:0 27:0 28:40 29:0 30:20 31:40 32:40 33:20 34:0 35:20 36:0 37:0 38:0 39:40 40:0 41:51 42:10 
1.487885165876495 1:-100 2:0 3:0 4:0 5:0 6:0 7:0 8:0 9:0 10:0 11:0 12:0 13:0 14:0 15:0 16:100 17:0 18:0 19:0 20:0 21:0 22:20 23:0 24:0 25:20 26:0 27:0 28:40 29:40 30:0 31:20 32:40 33:0 34:20 35:20 36:0 37:0 38:60 39:20 40:60 41:50 42:67 
1.337855036356544 1:-100 2:0 3:0 4:0 5:0 6:0 7:0 8:0 9:0 10:0 11:0 12:0 13:0 14:0 15:0 16:0 17:0 18:100 19:0 20:0 21:0 22:20 23:0 24:0 25:20 26:0 27:0 28:40 29:40 30:0 31:20 32:40 33:0 34:20 35:20 36:0 37:0 38:60 39:20 40:60 41:50 42:67 
0.5972124571356874 1:-100 2:0 3:0 4:0 5:0 6:0 7:0 8:0 9:0 10:0 11:0 12:0 13:0 14:0 15:0 16:100 17:0 18:0 19:0 20:0 21:20 22:0 23:0 24:20 25:0 26:40 27:0 28:40 29:40 30:20 31:20 32:0 33:20 34:20 35:0 36:80 37:0 38:0 39:20 40:20 41:32 42:66 
2 1:0 2:0 3:0 4:0 5:0 6:0 7:0 8:0 9:100 10:0 11:-100 12:0 13:0 14:0 15:0 16:0 17:0 18:0 19:0 20:0 21:20 22:60 23:0 24:0 25:20 26:20 27:20 28:40 29:0 30:0 31:20 32:0 33:0 34:0 35:0 36:0 37:20 38:40 39:20 40:80 41:50 42:44 
2 1:0 2:0 3:0 4:0 5:0 6:0 7:0 8:0 9:0 10:0 11:0 12:0 13:0 14:0 15:0 16:-100 17:0 18:100 19:0 20:0 21:20 22:20 23:20 24:0 25:40 26:0 27:0 28:60 29:40 30:0 31:40 32:20 33:0 34:0 35:0 36:0 37:40 38:60 39:0 40:0 41:53 42:55 
1.077508810062099 1:0 2:0 3:0 4:0 5:0 6:0 7:0 8:0 9:0 10:0 11:0 12:0 13:0 14:0 15:0 16:-100 17:0 18:100 19:0 20:0 21:20 22:20 23:20 24:0 25:40 26:0 27:0 28:60 29:40 30:0 31:40 32:20 33:0 34:0 35:0 36:0 37:40 38:60 39:0 40:0 41:53 42:55 
2 1:0 2:0 3:0 4:0 5:0 6:0 7:0 8:0 9:0 10:0 11:0 12:0 13:0 14:0 15:100 16:-100 17:0 18:0 19:0 20:0 21:0 22:20 23:20 24:0 25:20 26:20 27:0 28:80 29:0 30:20 31:40 32:20 33:0 34:0 35:40 36:20 37:0 38:20 39:20 40:20 41:45 42:25 
1.680047397832346 1:0 2:0 3:0 4:0 5:0 6:0 7:0 8:0 9:0 10:0 11:0 12:0 13:0 14:0 15:100 16:-100 17:0 18:0 19:0 20:0 21:0 22:20 23:20 24:0 25:20 26:20 27:0 28:80 29:0 30:20 31:40 32:20 33:0 34:0 35:40 36:20 37:0 38:20 39:20 40:20 41:45 42:25 
2 1:100 2:0 3:0 4:0 5:0 6:0 7:0 8:0 9:0 10:0 11:0 12:-100 13:0 14:0 15:0 16:0 17:0 18:0 19:0 20:0 21:20 22:0 23:20 24:0 25:0 26:0 27:60 28:60 29:20 30:20 31:0 32:60 33:0 34:20 35:60 36:0 37:0 38:20 39:0 40:0 41:50 42:48 
2 1:0 2:0 3:0 4:0 5:0 6:0 7:0 8:0 9:0 10:0 11:0 12:0 13:0 14:0 15:0 16:100 17:0 18:-100 19:0 20:0 21:40 22:0 23:0 24:40 25:20 26:0 27:0 28:20 29:0 30:0 31:0 32:100 33:0 34:0 35:20 36:40 37:0 38:40 39:20 40:20 41:50 42:25 
2 1:0 2:0 3:0 4:0 5:100 6:0 7:-100 8:0 9:0 10:0 11:0 12:0 13:0 14:0 15:0 16:0 17:0 18:0 19:0 20:0 21:60 22:80 23:20 24:0 25:0 26:0 27:20 28:20 29:0 30:20 31:0 32:20 33:20 34:0 35:0 36:20 37:0 38:20 39:20 40:40 41:50 42:25 
0.536292295176898 1:-100 2:0 3:0 4:0 5:0 6:0 7:0 8:0 9:0 10:0 11:0 12:0 13:0 14:0 15:0 16:0 17:0 18:0 19:0 20:100 21:0 22:20 23:0 24:0 25:20 26:0 27:0 28:0 29:20 30:0 31:0 32:20 33:20 34:0 35:40 36:20 37:0 38:40 39:0 40:0 41:19 42:64 
2 1:-100 2:100 3:0 4:0 5:0 6:0 7:0 8:0 9:0 10:0 11:0 12:0 13:0 14:0 15:0 16:0 17:0 18:0 19:0 20:0 21:0 22:20 23:0 24:0 25:20 26:0 27:0 28:0 29:20 30:0 31:0 32:20 33:20 34:0 35:40 36:20 37:0 38:40 39:0 40:0 41:19 42:64 
1.281944674028279 1:-100 2:0 3:0 4:100 5:0 6:0 7:0 8:0 9:0 10:0 11:0 12:0 13:0 14:0 15:0 16:0 17:0 18:0 19:0 20:0 21:0 22:20 23:0 24:0 25:20 26:0 27:0 28:0 29:20 30:0 31:0 32:20 33:20 34:0 35:40 36:20 37:0 38:40 39:0 40:0 41:19 42:64 
0.6066705972276127 1:0 2:0 3:0 4:0 5:0 6:0 7:0 8:0 9:100 10:0 11:0 12:0 13:0 14:0 15:-100 16:0 17:0 18:0 19:0 20:0 21:0 22:0 23:40 24:0 25:20 26:0 27:60 28:20 29:40 30:60 31:0 32:20 33:20 34:0 35:20 36:40 37:0 38:0 39:20 40:0 41:50 42:39 
1.27898012699122 1:-100 2:0 3:0 4:0 5:0 6:0 7:0 8:0 9:0 10:0 11:0 12:0 13:0 14:0 15:100 16:0 17:0 18:0 19:0 20:0 21:0 22:20 23:0 24:0 25:20 26:0 27:0 28:0 29:20 30:0 31:0 32:20 33:20 34:0 35:40 36:20 37:0 38:40 39:0 40:0 41:19 42:64 
1.999249401664247 1:0 2:0 3:0 4:0 5:0 6:0 7:0 8:0 9:100 10:0 11:0 12:0 13:0 14:0 15:-100 16:0 17:0 18:0 19:0 20:0 21:20 22:0 23:0 24:20 25:20 26:20 27:0 28:20 29:0 30:0 31:0 32:0 33:0 34:0 35:0 36:40 37:20 38:20 39:40 40:0 41:50 42:70 
0.05943882744178414 1:0 2:0 3:0 4:0 5:0 6:0 7:0 8:0 9:100 10:0 11:0 12:0 13:0 14:0 15:-100 16:0 17:0 18:0 19:0 20:0 21:20 22:0 23:0 24:20 25:20 26:20 27:0 28:20 29:0 30:0 31:0 32:0 33:0 34:0 35:0 36:40 37:20 38:20 39:40 40:0 41:50 42:70 
2 1:0 2:100 3:0 4:0 5:0 6:0 7:0 8:0 9:0 10:0 11:0 12:0 13:0 14:0 15:-100 16:0 17:0 18:0 19:0 20:0 21:20 22:0 23:0 24:20 25:20 26:20 27:0 28:20 29:0 30:0 31:0 32:0 33:0 34:0 35:0 36:40 37:20 38:20 39:40 40:0 41:50 42:70 
2 1:0 2:100 3:0 4:0 5:0 6:0 7:0 8:0 9:0 10:0 11:0 12:0 13:0 14:0 15:-100 16:0 17:0 18:0 19:0 20:0 21:20 22:0 23:0 24:20 25:20 26:20 27:0 28:20 29:0 30:0 31:0 32:0 33:0 34:0 35:0 36:40 37:20 38:20 39:40 40:0 41:50 42:70 
0.7979643597445581 1:0 2:0 3:0 4:0 5:0 6:0 7:100 8:0 9:0 10:-100 11:0 12:0 13:0 14:0 15:0 16:0 17:0 18:0 19:0 20:0 21:0 22:40 23:20 24:20 25:20 26:0 27:40 28:60 29:20 30:20 31:0 32:40 33:0 34:0 35:0 36:60 37:0 38:0 39:20 40:0 41:32 42:25 
0.7515267967595654 1:100 2:0 3:0 4:0 5:0 6:0 7:0 8:0 9:0 10:-100 11:0 12:0 13:0 14:0 15:0 16:0 17:0 18:0 19:0 20:0 21:0 22:40 23:20 24:20 25:20 26:0 27:40 28:60 29:20 30:20 31:0 32:40 33:0 34:0 35:0 36:60 37:0 38:0 39:20 40:0 41:32 42:25 
0.001861789459335633 1:0 2:0 3:0 4:0 5:0 6:100 7:0 8:0 9:0 10:-100 11:0 12:0 13:0 14:0 15:0 16:0 17:0 18:0 19:0 20:0 21:0 22:40 23:20 24:20 25:20 26:0 27:40 28:60 29:20 30:20 31:0 32:40 33:0 34:0 35:0 36:60 37:0 38:0 39:20 40:0 41:32 42:25 
2 1:0 2:100 3:0 4:0 5:0 6:0 7:0 8:0 9:0 10:-100 11:0 12:0 13:0 14:0 15:0 16:0 17:0 18:0 19:0 20:0 21:0 22:40 23:20 24:20 25:20 26:0 27:40 28:60 29:20 30:20 31:0 32:40 33:0 34:0 35:0 36:60 37:0 38:0 39:20 40:0 41:32 42:25 
1.282939596004454 1:0 2:0 3:0 4:0 5:0 6:0 7:0 8:0 9:100 10:0 11:0 12:-100 13:0 14:0 15:0 16:0 17:0 18:0 19:0 20:0 21:20 22:0 23:20 24:0 25:20 26:0 27:20 28:20 29:40 30:0 31:40 32:40 33:0 34:20 35:0 36:0 37:40 38:0 39:40 40:40 41:50 42:58 
1.516681895372578 1:0 2:0 3:0 4:0 5:0 6:0 7:0 8:0 9:0 10:0 11:0 12:0 13:0 14:0 15:0 16:100 17:0 18:0 19:0 20:-100 21:60 22:0 23:40 24:0 25:60 26:0 27:0 28:40 29:20 30:0 31:20 32:0 33:0 34:20 35:0 36:0 37:40 38:40 39:0 40:20 41:53 42:55 
1.244882286627345 1:0 2:0 3:0 4:0 5:0 6:0 7:0 8:0 9:0 10:0 11:0 12:0 13:0 14:0 15:0 16:0 17:100 18:0 19:0 20:-100 21:60 22:0 23:40 24:0 25:60 26:0 27:0 28:40 29:20 30:0 31:20 32:0 33:0 34:20 35:0 36:0 37:40 38:40 39:0 40:20 41:53 42:55 
2 1:0 2:0 3:0 4:0 5:0 6:0 7:0 8:-100 9:100 10:0 11:0 12:0 13:0 14:0 15:0 16:0 17:0 18:0 19:0 20:0 21:20 22:40 23:20 24:0 25:0 26:20 27:0 28:20 29:80 30:0 31:40 32:20 33:0 34:0 35:0 36:40 37:20 38:20 39:20 40:0 41:45 42:25 
1.883205527841704 1:0 2:0 3:0 4:0 5:0 6:0 7:0 8:0 9:0 10:0 11:0 12:100 13:0 14:-100 15:0 16:0 17:0 18:0 19:0 20:0 21:20 22:0 23:0 24:0 25:20 26:0 27:60 28:40 29:0 30:20 31:40 32:20 33:0 34:0 35:0 36:20 37:0 38:40 39:60 40:20 41:42 42:25 
2 1:0 2:0 3:0 4:0 5:-100 6:0 7:100 8:0 9:0 10:0 11:0 12:0 13:0 14:0 15:0 16:0 17:0 18:0 19:0 20:0 21:0 22:20 23:20 24:20 25:0 26:0 27:20 28:60 29:20 30:20 31:0 32:20 33:0 34:0 35:20 36:100 37:0 38:20 39:0 40:20 41:42 42:25 
0.6980688222763127 1:0 2:0 3:-100 4:100 5:0 6:0 7:0 8:0 9:0 10:0 11:0 12:0 13:0 14:0 15:0 16:0 17:0 18:0 19:0 20:0 21:20 22:40 23:20 24:0 25:20 26:0 27:0 28:40 29:40 30:20 31:20 32:0 33:0 34:40 35:20 36:20 37:20 38:0 39:0 40:40 41:78 42:76 
1.635017526814396 1:-100 2:0 3:100 4:0 5:0 6:0 7:0 8:0 9:0 10:0 11:0 12:0 13:0 14:0 15:0 16:0 17:0 18:0 19:0 20:0 21:20 22:20 23:0 24:60 25:40 26:0 27:0 28:60 29:20 30:0 31:20 32:40 33:0 34:0 35:20 36:0 37:20 38:20 39:20 40:0 41:40 42:64 
0.8469564686771477 1:-100 2:0 3:0 4:100 5:0 6:0 7:0 8:0 9:0 10:0 11:0 12:0 13:0 14:0 15:0 16:0 17:0 18:0 19:0 20:0 21:20 22:20 23:0 24:60 25:40 26:0 27:0 28:60 29:20 30:0 31:20 32:40 33:0 34:0 35:20 36:0 37:20 38:20 39:20 40:0 41:38 42:65 
1.539096071297712 1:0 2:0 3:0 4:0 5:0 6:0 7:0 8:0 9:0 10:0 11:0 12:0 13:0 14:0 15:100 16:-100 17:0 18:0 19:0 20:0 21:20 22:20 23:40 24:20 25:20 26:0 27:40 28:20 29:20 30:0 31:20 32:40 33:0 34:20 35:0 36:0 37:20 38:20 39:20 40:20 41:37 42:5 
0.2531638145753267 1:0 2:0 3:0 4:0 5:0 6:0 7:0 8:0 9:100 10:0 11:0 12:0 13:0 14:0 15:0 16:-100 17:0 18:0 19:0 20:0 21:20 22:40 23:20 24:0 25:0 26:0 27:0 28:40 29:60 30:0 31:20 32:0 33:20 34:0 35:20 36:20 37:0 38:20 39:60 40:20 41:47 42:62 
2 1:0 2:0 3:0 4:0 5:0 6:0 7:0 8:0 9:100 10:0 11:0 12:0 13:0 14:0 15:0 16:-100 17:0 18:0 19:0 20:0 21:20 22:40 23:20 24:0 25:0 26:0 27:0 28:40 29:60 30:0 31:20 32:0 33:20 34:0 35:20 36:20 37:0 38:20 39:60 40:20 41:21 42:51 
0.8830382972697169 1:0 2:0 3:0 4:0 5:0 6:0 7:0 8:0 9:0 10:0 11:100 12:0 13:0 14:0 15:-100 16:0 17:0 18:0 19:0 20:0 21:0 22:40 23:60 24:40 25:0 26:0 27:0 28:40 29:0 30:20 31:40 32:40 33:20 34:0 35:20 36:0 37:0 38:20 39:20 40:0 41:51 42:10 
2 1:100 2:0 3:0 4:0 5:0 6:0 7:0 8:0 9:-100 10:0 11:0 12:0 13:0 14:0 15:0 16:0 17:0 18:0 19:0 20:0 21:40 22:40 23:20 24:40 25:20 26:0 27:0 28:20 29:20 30:0 31:20 32:0 33:20 34:0 35:40 36:0 37:20 38:0 39:20 40:40 41:21 42:40 
2 1:0 2:0 3:0 4:0 5:0 6:0 7:0 8:0 9:0 10:0 11:0 12:0 13:0 14:100 15:0 16:0 17:0 18:0 19:-100 20:0 21:20 22:0 23:20 24:0 25:20 26:20 27:20 28:0 29:20 30:20 31:20 32:60 33:0 34:0 35:60 36:40 37:20 38:0 39:20 40:0 41:14 42:39 
2 1:0 2:0 3:0 4:0 5:0 6:0 7:0 8:0 9:0 10:0 11:0 12:0 13:0 14:0 15:0 16:0 17:0 18:0 19:-100 20:100 21:20 22:0 23:20 24:0 25:20 26:20 27:20 28:0 29:20 30:20 31:20 32:60 33:0 34:0 35:60 36:40 37:20 38:0 39:20 40:0 41:14 42:40 
0.8310477564709376 1:0 2:0 3:0 4:0 5:0 6:0 7:-100 8:0 9:100 10:0 11:0 12:0 13:0 14:0 15:0 16:0 17:0 18:0 19:0 20:0 21:20 22:20 23:20 24:20 25:0 26:0 27:0 28:0 29:40 30:0 31:20 32:20 33:0 34:0 35:0 36:100 37:0 38:60 39:0 40:40 41:37 42:5 
0.5449767599068254 1:0 2:0 3:0 4:0 5:0 6:0 7:0 8:0 9:100 10:0 11:0 12:-100 13:0 14:0 15:0 16:0 17:0 18:0 19:0 20:0 21:40 22:80 23:20 24:0 25:0 26:0 27:0 28:40 29:40 30:0 31:20 32:20 33:0 34:20 35:0 36:40 37:0 38:20 39:0 40:20 41:68 42:82 
1.156841740776574 1:0 2:0 3:0 4:0 5:0 6:0 7:0 8:0 9:0 10:0 11:0 12:0 13:0 14:100 15:0 16:-100 17:0 18:0 19:0 20:0 21:40 22:60 23:20 24:20 25:40 26:0 27:20 28:40 29:0 30:0 31:60 32:20 33:0 34:20 35:0 36:0 37:20 38:0 39:0 40:0 41:50 42:25 
0.02750179411920771 1:0 2:0 3:0 4:0 5:0 6:0 7:0 8:0 9:100 10:0 11:-100 12:0 13:0 14:0 15:0 16:0 17:0 18:0 19:0 20:0 21:0 22:20 23:40 24:0 25:20 26:20 27:40 28:20 29:0 30:0 31:60 32:20 33:0 34:0 35:40 36:0 37:0 38:0 39:40 40:40 41:45 42:25 
0.730773487864314 1:0 2:0 3:0 4:0 5:0 6:0 7:0 8:0 9:0 10:0 11:0 12:0 13:0 14:0 15:0 16:0 17:0 18:0 19:100 20:-100 21:0 22:60 23:20 24:20 25:0 26:0 27:20 28:60 29:40 30:0 31:20 32:20 33:0 34:0 35:60 36:20 37:0 38:0 39:20 40:0 41:15 42:65 
2 1:0 2:0 3:0 4:0 5:0 6:0 7:0 8:0 9:0 10:0 11:0 12:0 13:0 14:0 15:0 16:0 17:0 18:0 19:100 20:-100 21:0 22:60 23:20 24:20 25:0 26:0 27:20 28:60 29:40 30:0 31:20 32:20 33:0 34:0 35:60 36:20 37:0 38:0 39:20 40:0 41:28 42:65 
0.984778644005023 1:100 2:0 3:0 4:0 5:0 6:0 7:0 8:0 9:0 10:0 11:0 12:-100 13:0 14:0 15:0 16:0 17:0 18:0 19:0 20:0 21:0 22:0 23:40 24:0 25:0 26:0 27:40 28:40 29:20 30:0 31:0 32:60 33:0 34:0 35:80 36:0 37:20 38:40 39:0 40:20 41:50 42:48 
1.819847923607551 1:0 2:0 3:0 4:0 5:0 6:0 7:0 8:0 9:0 10:0 11:0 12:0 13:0 14:100 15:0 16:0 17:0 18:0 19:0 20:-100 21:20 22:40 23:20 24:20 25:20 26:0 27:20 28:0 29:20 30:20 31:20 32:20 33:0 34:40 35:0 36:60 37:0 38:40 39:0 40:0 41:37 42:5 
1.378642330381418 1:0 2:100 3:-100 4:0 5:0 6:0 7:0 8:0 9:0 10:0 11:0 12:0 13:0 14:0 15:0 16:0 17:0 18:0 19:0 20:0 21:40 22:40 23:0 24:0 25:0 26:0 27:40 28:40 29:20 30:40 31:0 32:20 33:0 34:0 35:0 36:20 37:20 38:40 39:20 40:20 41:50 42:25 
0.9768392611995144 1:0 2:0 3:-100 4:0 5:100 6:0 7:0 8:0 9:0 10:0 11:0 12:0 13:0 14:0 15:0 16:0 17:0 18:0 19:0 20:0 21:40 22:40 23:0 24:0 25:0 26:0 27:40 28:40 29:20 30:40 31:0 32:20 33:0 34:0 35:0 36:20 37:20 38:40 39:20 40:20 41:50 42:25 
1.269130782006078 1:0 2:100 3:0 4:0 5:0 6:0 7:0 8:0 9:-100 10:0 11:0 12:0 13:0 14:0 15:0 16:0 17:0 18:0 19:0 20:0 21:0 22:40 23:0 24:20 25:40 26:0 27:0 28:60 29:60 30:0 31:0 32:0 33:0 34:0 35:20 36:20 37:20 38:20 39:20 40:40 41:55 42:4 
1.864045998321323 1:0 2:-100 3:0 4:100 5:0 6:0 7:0 8:0 9:0 10:0 11:0 12:0 13:0 14:0 15:0 16:0 17:0 18:0 19:0 20:0 21:0 22:20 23:20 24:20 25:20 26:0 27:0 28:20 29:100 30:0 31:0 32:0 33:0 34:0 35:20 36:40 37:20 38:20 39:20 40:40 41:78 42:76 
2 1:-100 2:0 3:0 4:0 5:0 6:0 7:100 8:0 9:0 10:0 11:0 12:0 13:0 14:0 15:0 16:0 17:0 18:0 19:0 20:0 21:0 22:0 23:20 24:0 25:0 26:40 27:0 28:20 29:40 30:20 31:0 32:0 33:20 34:0 35:100 36:0 37:40 38:0 39:40 40:20 41:19 42:64 
2 1:-100 2:0 3:0 4:0 5:100 6:0 7:0 8:0 9:0 10:0 11:0 12:0 13:0 14:0 15:0 16:0 17:0 18:0 19:0 20:0 21:0 22:0 23:20 24:0 25:0 26:40 27:0 28:20 29:40 30:20 31:0 32:0 33:20 34:0 35:100 36:0 37:40 38:0 39:40 40:20 41:19 42:64 
1.605557778651602 1:0 2:0 3:0 4:0 5:0 6:0 7:0 8:0 9:0 10:0 11:0 12:0 13:0 14:0 15:0 16:100 17:0 18:0 19:-100 20:0 21:0 22:40 23:0 24:20 25:0 26:20 27:40 28:60 29:40 30:0 31:20 32:0 33:0 34:20 35:40 36:20 37:0 38:0 39:20 40:20 41:45 42:74 
0.5000905525471165 1:0 2:0 3:0 4:0 5:0 6:0 7:0 8:0 9:100 10:0 11:0 12:0 13:0 14:0 15:0 16:0 17:0 18:-100 19:0 20:0 21:40 22:20 23:20 24:0 25:20 26:20 27:40 28:20 29:0 30:40 31:100 32:0 33:0 34:0 35:0 36:0 37:0 38:0 39:0 40:40 41:50 42:48 
1.032477243789617 1:0 2:0 3:0 4:0 5:0 6:0 7:0 8:0 9:0 10:0 11:0 12:0 13:0 14:0 15:0 16:-100 17:0 18:0 19:100 20:0 21:20 22:0 23:60 24:0 25:0 26:0 27:0 28:20 29:20 30:40 31:20 32:20 33:0 34:0 35:0 36:40 37:20 38:40 39:20 40:40 41:35 42:25 
2 1:0 2:0 3:0 4:0 5:0 6:0 7:0 8:0 9:0 10:0 11:0 12:0 13:0 14:-100 15:0 16:0 17:0 18:0 19:100 20:0 21:0 22:60 23:40 24:0 25:0 26:0 27:40 28:60 29:0 30:20 31:40 32:40 33:0 34:0 35:0 36:20 37:0 38:20 39:20 40:0 41:39 42:66 
2 1:0 2:0 3:0 4:0 5:0 6:0 7:0 8:0 9:0 10:0 11:0 12:0 13:0 14:0 15:0 16:0 17:0 18:0 19:100 20:-100 21:60 22:0 23:40 24:0 25:80 26:0 27:0 28:40 29:20 30:0 31:20 32:0 33:0 34:20 35:0 36:0 37:20 38:40 39:0 40:20 41:53 42:55 
1.117920513218827 1:0 2:0 3:0 4:0 5:0 6:0 7:0 8:0 9:0 10:0 11:0 12:0 13:0 14:0 15:0 16:0 17:0 18:0 19:100 20:-100 21:60 22:0 23:40 24:0 25:80 26:0 27:0 28:40 29:20 30:0 31:20 32:0 33:0 34:20 35:0 36:0 37:20 38:40 39:0 40:20 41:53 42:55 
1.703773971792832 1:0 2:0 3:0 4:0 5:0 6:0 7:0 8:0 9:0 10:0 11:0 12:0 13:100 14:0 15:0 16:0 17:0 18:0 19:0 20:-100 21:60 22:80 23:0 24:0 25:0 26:0 27:40 28:20 29:0 30:20 31:20 32:0 33:20 34:0 35:0 36:0 37:20 38:40 39:40 40:0 41:50 42:25 
2 1:0 2:0 3:0 4:0 5:0 6:0 7:0 8:-100 9:100 10:0 11:0 12:0 13:0 14:0 15:0 16:0 17:0 18:0 19:0 20:0 21:40 22:40 23:40 24:0 25:0 26:20 27:0 28:20 29:60 30:0 31:0 32:0 33:0 34:20 35:20 36:20 37:20 38:20 39:0 40:40 41:68 42:82 
1.339250511245891 1:0 2:0 3:0 4:0 5:0 6:0 7:0 8:0 9:0 10:0 11:0 12:0 13:0 14:0 15:0 16:100 17:0 18:-100 19:0 20:0 21:60 22:40 23:0 24:0 25:0 26:0 27:40 28:0 29:20 30:0 31:20 32:40 33:0 34:20 35:0 36:0 37:40 38:0 39:20 40:60 41:50 42:44 
1.438934763610614 1:0 2:0 3:0 4:0 5:0 6:0 7:0 8:0 9:0 10:0 11:0 12:0 13:0 14:0 15:0 16:100 17:0 18:-100 19:0 20:0 21:60 22:40 23:0 24:0 25:0 26:0 27:40 28:0 29:20 30:0 31:20 32:40 33:0 34:20 35:0 36:0 37:40 38:0 39:20 40:60 41:50 42:44 
1.241728055853934 1:0 2:-100 3:0 4:0 5:0 6:0 7:0 8:0 9:0 10:0 11:0 12:0 13:0 14:0 15:0 16:0 17:0 18:100 19:0 20:0 21:40 22:0 23:0 24:0 25:0 26:0 27:0 28:20 29:40 30:20 31:0 32:0 33:0 34:0 35:0 36:20 37:20 38:0 39:20 40:0 41:50 42:70 
0.9774317704231023 1:0 2:0 3:0 4:0 5:0 6:0 7:0 8:-100 9:100 10:0 11:0 12:0 13:0 14:0 15:0 16:0 17:0 18:0 19:0 20:0 21:20 22:0 23:40 24:0 25:0 26:40 27:20 28:0 29:0 30:0 31:40 32:40 33:0 34:20 35:20 36:20 37:60 38:0 39:20 40:20 41:21 42:49 
0.02568400260366977 1:0 2:0 3:0 4:0 5:0 6:0 7:0 8:0 9:100 10:0 11:0 12:0 13:0 14:0 15:0 16:-100 17:0 18:0 19:0 20:0 21:20 22:80 23:20 24:0 25:0 26:0 27:0 28:40 29:60 30:0 31:0 32:20 33:0 34:40 35:0 36:40 37:0 38:40 39:0 40:0 41:28 42:25 
0.2668836905348477 1:0 2:0 3:0 4:0 5:0 6:0 7:0 8:0 9:0 10:0 11:0 12:0 13:0 14:0 15:0 16:100 17:0 18:-100 19:0 20:0 21:40 22:0 23:20 24:0 25:20 26:0 27:0 28:60 29:60 30:20 31:20 32:0 33:0 34:0 35:20 36:0 37:40 38:20 39:40 40:0 41:53 42:55 
2 1:0 2:0 3:0 4:0 5:100 6:0 7:-100 8:0 9:0 10:0 11:0 12:0 13:0 14:0 15:0 16:0 17:0 18:0 19:0 20:0 21:60 22:0 23:0 24:0 25:0 26:0 27:0 28:40 29:0 30:0 31:0 32:0 33:40 34:0 35:60 36:0 37:60 38:0 39:20 40:20 41:19 42:64 
0.6899370634564802 1:100 2:0 3:-100 4:0 5:0 6:0 7:0 8:0 9:0 10:0 11:0 12:0 13:0 14:0 15:0 16:0 17:0 18:0 19:0 20:0 21:20 22:0 23:20 24:20 25:20 26:0 27:0 28:0 29:20 30:20 31:20 32:40 33:0 34:0 35:0 36:40 37:40 38:20 39:0 40:0 41:50 42:25 
1.79830977766907 1:-100 2:0 3:0 4:0 5:0 6:0 7:0 8:0 9:100 10:0 11:0 12:0 13:0 14:0 15:0 16:0 17:0 18:0 19:0 20:0 21:60 22:40 23:0 24:0 25:0 26:40 27:0 28:20 29:60 30:0 31:0 32:0 33:0 34:20 35:0 36:20 37:20 38:60 39:0 40:20 41:68 42:82 
2 1:0 2:0 3:0 4:0 5:100 6:0 7:-100 8:0 9:0 10:0 11:0 12:0 13:0 14:0 15:0 16:0 17:0 18:0 19:0 20:0 21:0 22:0 23:20 24:0 25:0 26:0 27:20 28:20 29:40 30:20 31:40 32:40 33:20 34:20 35:0 36:60 37:20 38:0 39:40 40:0 41:35 42:63 
2 1:0 2:0 3:0 4:0 5:0 6:0 7:0 8:0 9:0 10:0 11:0 12:0 13:0 14:0 15:0 16:0 17:0 18:0 19:100 20:-100 21:20 22:0 23:20 24:0 25:0 26:20 27:20 28:40 29:40 30:20 31:20 32:20 33:20 34:0 35:20 36:20 37:20 38:0 39:60 40:0 41:15 42:65 
2 1:0 2:0 3:0 4:0 5:0 6:0 7:0 8:0 9:0 10:0 11:0 12:0 13:0 14:0 15:0 16:0 17:0 18:0 19:100 20:-100 21:20 22:0 23:20 24:0 25:0 26:20 27:20 28:40 29:40 30:20 31:20 32:20 33:20 34:0 35:20 36:20 37:20 38:0 39:60 40:0 41:16 42:65 
2 1:0 2:0 3:0 4:0 5:0 6:0 7:0 8:0 9:0 10:0 11:0 12:0 13:0 14:0 15:0 16:0 17:0 18:0 19:100 20:-100 21:20 22:0 23:20 24:0 25:0 26:20 27:20 28:40 29:40 30:20 31:20 32:20 33:20 34:0 35:20 36:20 37:20 38:0 39:60 40:0 41:32 42:65 
2 1:0 2:0 3:0 4:0 5:0 6:0 7:0 8:0 9:0 10:0 11:0 12:0 13:0 14:0 15:0 16:0 17:0 18:0 19:100 20:-100 21:20 22:0 23:20 24:0 25:0 26:20 27:20 28:40 29:40 30:20 31:20 32:20 33:20 34:0 35:20 36:20 37:20 38:0 39:60 40:0 41:28 42:65 
2 1:0 2:0 3:0 4:0 5:0 6:0 7:100 8:0 9:0 10:0 11:-100 12:0 13:0 14:0 15:0 16:0 17:0 18:0 19:0 20:0 21:40 22:40 23:40 24:0 25:0 26:0 27:0 28:0 29:60 30:0 31:60 32:20 33:20 34:0 35:0 36:40 37:0 38:0 39:20 40:20 41:45 42:74 
0.5566974132515909 1:0 2:0 3:0 4:0 5:-100 6:0 7:0 8:0 9:100 10:0 11:0 12:0 13:0 14:0 15:0 16:0 17:0 18:0 19:0 20:0 21:60 22:0 23:40 24:0 25:20 26:0 27:0 28:40 29:20 30:0 31:20 32:0 33:0 34:20 35:0 36:0 37:40 38:60 39:0 40:40 41:50 42:60 
2 1:0 2:0 3:0 4:0 5:0 6:0 7:0 8:0 9:0 10:0 11:-100 12:0 13:0 14:0 15:0 16:0 17:0 18:0 19:0 20:100 21:40 22:40 23:40 24:0 25:0 26:0 27:0 28:0 29:60 30:0 31:60 32:20 33:20 34:0 35:0 36:40 37:0 38:0 39:20 40:20 41:45 42:74 
2 1:0 2:0 3:0 4:0 5:0 6:0 7:0 8:0 9:100 10:0 11:-100 12:0 13:0 14:0 15:0 16:0 17:0 18:0 19:0 20:0 21:40 22:40 23:40 24:0 25:0 26:0 27:0 28:0 29:60 30:0 31:60 32:20 33:20 34:0 35:0 36:40 37:0 38:0 39:20 40:20 41:45 42:74 
0.6624876103888949 1:0 2:0 3:0 4:0 5:0 6:-100 7:100 8:0 9:0 10:0 11:0 12:0 13:0 14:0 15:0 16:0 17:0 18:0 19:0 20:0 21:0 22:40 23:40 24:0 25:0 26:0 27:60 28:0 29:0 30:0 31:60 32:40 33:0 34:20 35:20 36:20 37:0 38:0 39:0 40:60 41:64 42:25 
2 1:0 2:0 3:0 4:0 5:0 6:0 7:0 8:0 9:0 10:0 11:0 12:0 13:0 14:0 15:0 16:0 17:0 18:0 19:-100 20:100 21:60 22:20 23:0 24:0 25:20 26:0 27:20 28:20 29:0 30:20 31:60 32:20 33:0 34:0 35:20 36:0 37:60 38:20 39:0 40:20 41:50 42:48 
0.7883831402089307 1:0 2:0 3:0 4:0 5:0 6:0 7:0 8:0 9:100 10:0 11:0 12:0 13:0 14:0 15:0 16:0 17:0 18:0 19:-100 20:0 21:60 22:20 23:0 24:0 25:20 26:0 27:20 28:20 29:0 30:20 31:60 32:20 33:0 34:0 35:20 36:0 37:60 38:20 39:0 40:20 41:50 42:48 
1.408244913177898 1:0 2:0 3:0 4:0 5:0 6:0 7:0 8:100 9:0 10:0 11:-100 12:0 13:0 14:0 15:0 16:0 17:0 18:0 19:0 20:0 21:20 22:40 23:20 24:0 25:0 26:20 27:20 28:20 29:60 30:20 31:0 32:20 33:0 34:0 35:0 36:40 37:20 38:20 39:20 40:20 41:45 42:25 
2 1:100 2:-100 3:0 4:0 5:0 6:0 7:0 8:0 9:0 10:0 11:0 12:0 13:0 14:0 15:0 16:0 17:0 18:0 19:0 20:0 21:40 22:60 23:20 24:0 25:0 26:0 27:0 28:40 29:40 30:0 31:0 32:40 33:0 34:20 35:0 36:80 37:0 38:0 39:0 40:20 41:78 42:76 
1.654982805430553 1:0 2:100 3:0 4:0 5:-100 6:0 7:0 8:0 9:0 10:0 11:0 12:0 13:0 14:0 15:0 16:0 17:0 18:0 19:0 20:0 21:0 22:40 23:20 24:0 25:20 26:0 27:0 28:40 29:40 30:40 31:0 32:20 33:20 34:0 35:40 36:0 37:20 38:0 39:20 40:40 41:51 42:51 
0.4683531011921482 1:0 2:-100 3:0 4:0 5:0 6:0 7:0 8:0 9:100 10:0 11:0 12:0 13:0 14:0 15:0 16:0 17:0 18:0 19:0 20:0 21:40 22:60 23:20 24:0 25:0 26:0 27:0 28:40 29:40 30:0 31:0 32:40 33:0 34:20 35:0 36:80 37:0 38:0 39:0 40:20 41:78 42:76 
1.180493383955368 1:0 2:0 3:0 4:0 5:0 6:0 7:0 8:0 9:0 10:0 11:0 12:0 13:0 14:0 15:0 16:100 17:0 18:-100 19:0 20:0 21:20 22:40 23:0 24:20 25:0 26:20 27:0 28:0 29:60 30:0 31:20 32:0 33:0 34:0 35:60 36:40 37:40 38:0 39:20 40:20 41:21 42:47 
1.194377796705227 1:0 2:0 3:0 4:0 5:0 6:0 7:0 8:0 9:100 10:0 11:0 12:0 13:0 14:0 15:0 16:-100 17:0 18:0 19:0 20:0 21:20 22:0 23:0 24:0 25:40 26:0 27:20 28:40 29:40 30:0 31:20 32:20 33:20 34:0 35:40 36:20 37:0 38:20 39:40 40:20 41:50 42:39 
0.7178529724605294 1:-100 2:0 3:0 4:0 5:0 6:0 7:0 8:0 9:0 10:0 11:0 12:0 13:100 14:0 15:0 16:0 17:0 18:0 19:0 20:0 21:0 22:0 23:20 24:0 25:20 26:20 27:0 28:20 29:20 30:20 31:0 32:100 33:0 34:0 35:60 36:20 37:20 38:0 39:40 40:0 41:38 42:59 
2 1:-100 2:0 3:100 4:0 5:0 6:0 7:0 8:0 9:0 10:0 11:0 12:0 13:0 14:0 15:0 16:0 17:0 18:0 19:0 20:0 21:0 22:0 23:20 24:0 25:20 26:20 27:0 28:20 29:20 30:20 31:0 32:100 33:0 34:0 35:60 36:20 37:20 38:0 39:40 40:0 41:38 42:59 
0.9722930099646016 1:-100 2:0 3:0 4:100 5:0 6:0 7:0 8:0 9:0 10:0 11:0 12:0 13:0 14:0 15:0 16:0 17:0 18:0 19:0 20:0 21:0 22:0 23:20 24:0 25:20 26:20 27:0 28:20 29:20 30:20 31:0 32:100 33:0 34:0 35:60 36:20 37:20 38:0 39:40 40:0 41:38 42:65 
2 1:0 2:0 3:0 4:0 5:0 6:0 7:0 8:0 9:0 10:0 11:0 12:0 13:0 14:0 15:0 16:100 17:0 18:0 19:0 20:-100 21:40 22:60 23:0 24:0 25:20 26:20 27:20 28:40 29:20 30:0 31:20 32:0 33:0 34:0 35:0 36:20 37:0 38:40 39:20 40:40 41:50 42:44 
2 1:0 2:0 3:0 4:0 5:0 6:0 7:0 8:0 9:0 10:0 11:0 12:0 13:0 14:0 15:0 16:100 17:0 18:0 19:0 20:-100 21:40 22:60 23:0 24:0 25:20 26:20 27:20 28:40 29:20 30:0 31:20 32:0 33:0 34:0 35:0 36:20 37:0 38:40 39:20 40:40 41:50 42:44 
2 1:0 2:0 3:0 4:0 5:0 6:0 7:0 8:0 9:0 10:0 11:0 12:0 13:0 14:0 15:0 16:100 17:0 18:0 19:0 20:-100 21:40 22:60 23:0 24:0 25:20 26:20 27:20 28:40 29:20 30:0 31:20 32:0 33:0 34:0 35:0 36:20 37:0 38:40 39:20 40:40 41:50 42:44 
1.615827998892726 1:0 2:0 3:0 4:0 5:0 6:0 7:0 8:0 9:0 10:0 11:0 12:0 13:0 14:0 15:0 16:100 17:0 18:0 19:0 20:-100 21:40 22:60 23:0 24:0 25:20 26:20 27:20 28:40 29:20 30:0 31:20 32:0 33:0 34:0 35:0 36:20 37:0 38:40 39:20 40:40 41:50 42:44 
0.486044542592142 1:0 2:-100 3:0 4:0 5:0 6:0 7:0 8:0 9:0 10:0 11:0 12:0 13:100 14:0 15:0 16:0 17:0 18:0 19:0 20:0 21:60 22:60 23:0 24:0 25:0 26:0 27:40 28:20 29:0 30:20 31:0 32:0 33:20 34:0 35:0 36:20 37:20 38:40 39:40 40:20 41:50 42:25 
2 1:0 2:0 3:0 4:0 5:0 6:0 7:0 8:0 9:100 10:0 11:0 12:0 13:0 14:0 15:0 16:0 17:0 18:0 19:-100 20:0 21:40 22:20 23:0 24:0 25:20 26:0 27:0 28:20 29:60 30:0 31:0 32:20 33:0 34:0 35:20 36:40 37:20 38:40 39:0 40:60 41:17 42:47 
1.678293006273559 1:100 2:-100 3:0 4:0 5:0 6:0 7:0 8:0 9:0 10:0 11:0 12:0 13:0 14:0 15:0 16:0 17:0 18:0 19:0 20:0 21:60 22:60 23:0 24:0 25:0 26:0 27:40 28:20 29:0 30:20 31:0 32:0 33:20 34:0 35:0 36:20 37:20 38:40 39:40 40:20 41:50 42:25 
1.228504931899976 1:0 2:0 3:0 4:0 5:-100 6:0 7:0 8:0 9:100 10:0 11:0 12:0 13:0 14:0 15:0 16:0 17:0 18:0 19:0 20:0 21:0 22:20 23:0 24:0 25:0 26:0 27:20 28:20 29:0 30:80 31:0 32:20 33:20 34:0 35:20 36:0 37:0 38:20 39:0 40:20 41:50 42:39 
0.5101541677428492 1:0 2:0 3:0 4:0 5:0 6:0 7:-100 8:100 9:0 10:0 11:0 12:0 13:0 14:0 15:0 16:0 17:0 18:0 19:0 20:0 21:0 22:20 23:0 24:20 25:0 26:20 27:20 28:20 29:60 30:0 31:20 32:40 33:20 34:0 35:20 36:20 37:0 38:20 39:60 40:0 41:19 42:64 
2 1:0 2:0 3:0 4:0 5:100 6:0 7:-100 8:0 9:0 10:0 11:0 12:0 13:0 14:0 15:0 16:0 17:0 18:0 19:0 20:0 21:0 22:20 23:0 24:20 25:0 26:20 27:20 28:20 29:60 30:0 31:20 32:40 33:20 34:0 35:20 36:20 37:0 38:20 39:60 40:0 41:19 42:64 
2 1:100 2:0 3:-100 4:0 5:0 6:0 7:0 8:0 9:0 10:0 11:0 12:0 13:0 14:0 15:0 16:0 17:0 18:0 19:0 20:0 21:60 22:40 23:0 24:0 25:0 26:0 27:0 28:20 29:60 30:20 31:0 32:0 33:0 34:0 35:40 36:40 37:20 38:0 39:20 40:40 41:38 42:61 
0.7702347234527137 1:0 2:0 3:0 4:0 5:0 6:0 7:-100 8:100 9:0 10:0 11:0 12:0 13:0 14:0 15:0 16:0 17:0 18:0 19:0 20:0 21:0 22:40 23:40 24:0 25:20 26:20 27:40 28:0 29:0 30:0 31:40 32:60 33:0 34:20 35:0 36:20 37:20 38:0 39:0 40:40 41:45 42:25 
2 1:0 2:0 3:0 4:0 5:0 6:0 7:0 8:-100 9:100 10:0 11:0 12:0 13:0 14:0 15:0 16:0 17:0 18:0 19:0 20:0 21:0 22:20 23:0 24:20 25:0 26:40 27:40 28:0 29:40 30:0 31:20 32:40 33:20 34:0 35:20 36:20 37:0 38:20 39:60 40:0 41:19 42:64 
2 1:0 2:0 3:0 4:0 5:0 6:0 7:0 8:0 9:0 10:0 11:0 12:100 13:-100 14:0 15:0 16:0 17:0 18:0 19:0 20:0 21:20 22:60 23:0 24:0 25:0 26:0 27:60 28:20 29:0 30:40 31:20 32:0 33:0 34:0 35:0 36:20 37:20 38:40 39:40 40:20 41:50 42:25 
2 1:0 2:0 3:0 4:0 5:0 6:0 7:0 8:0 9:-100 10:100 11:0 12:0 13:0 14:0 15:0 16:0 17:0 18:0 19:0 20:0 21:40 22:40 23:20 24:0 25:20 26:0 27:0 28:20 29:40 30:0 31:0 32:0 33:0 34:0 35:40 36:40 37:20 38:0 39:40 40:40 41:25 42:57 
2 1:0 2:0 3:0 4:0 5:0 6:0 7:0 8:0 9:-100 10:100 11:0 12:0 13:0 14:0 15:0 16:0 17:0 18:0 19:0 20:0 21:40 22:40 23:20 24:0 25:20 26:0 27:0 28:20 29:40 30:0 31:0 32:0 33:0 34:0 35:40 36:40 37:20 38:0 39:40 40:40 41:46 42:62 
2 1:0 2:0 3:0 4:0 5:0 6:0 7:0 8:0 9:-100 10:100 11:0 12:0 13:0 14:0 15:0 16:0 17:0 18:0 19:0 20:0 21:40 22:40 23:20 24:0 25:20 26:0 27:0 28:20 29:40 30:0 31:0 32:0 33:0 34:0 35:40 36:40 37:20 38:0 39:40 40:40 41:28 42:62 
2 1:0 2:0 3:0 4:0 5:0 6:0 7:0 8:0 9:-100 10:100 11:0 12:0 13:0 14:0 15:0 16:0 17:0 18:0 19:0 20:0 21:40 22:40 23:20 24:0 25:20 26:0 27:0 28:20 29:40 30:0 31:0 32:0 33:0 34:0 35:40 36:40 37:20 38:0 39:40 40:40 41:39 42:65 
1.399702115750629 1:0 2:0 3:0 4:0 5:0 6:0 7:0 8:0 9:100 10:0 11:0 12:0 13:-100 14:0 15:0 16:0 17:0 18:0 19:0 20:0 21:20 22:60 23:0 24:0 25:0 26:0 27:60 28:20 29:0 30:40 31:20 32:0 33:0 34:0 35:0 36:20 37:20 38:40 39:40 40:20 41:50 42:25 
1.174892671722372 1:0 2:0 3:100 4:0 5:0 6:0 7:0 8:0 9:0 10:0 11:0 12:0 13:-100 14:0 15:0 16:0 17:0 18:0 19:0 20:0 21:20 22:60 23:0 24:0 25:0 26:0 27:60 28:20 29:0 30:40 31:20 32:0 33:0 34:0 35:0 36:20 37:20 38:40 39:40 40:20 41:50 42:25 
1.412366791512555 1:0 2:0 3:0 4:0 5:0 6:100 7:-100 8:0 9:0 10:0 11:0 12:0 13:0 14:0 15:0 16:0 17:0 18:0 19:0 20:0 21:0 22:80 23:0 24:20 25:0 26:0 27:0 28:40 29:20 30:0 31:20 32:20 33:0 34:0 35:40 36:0 37:0 38:40 39:20 40:60 41:60 42:37 
0.9869785780867674 1:0 2:100 3:0 4:0 5:0 6:0 7:-100 8:0 9:0 10:0 11:0 12:0 13:0 14:0 15:0 16:0 17:0 18:0 19:0 20:0 21:0 22:80 23:0 24:20 25:0 26:0 27:0 28:40 29:20 30:0 31:20 32:20 33:0 34:0 35:40 36:0 37:0 38:40 39:20 40:60 41:60 42:37 
1.48455408155384 1:0 2:0 3:0 4:0 5:100 6:0 7:-100 8:0 9:0 10:0 11:0 12:0 13:0 14:0 15:0 16:0 17:0 18:0 19:0 20:0 21:0 22:80 23:0 24:20 25:0 26:0 27:0 28:40 29:20 30:0 31:20 32:20 33:0 34:0 35:40 36:0 37:0 38:40 39:20 40:60 41:60 42:37 
1.178427535217587 1:0 2:-100 3:100 4:0 5:0 6:0 7:0 8:0 9:0 10:0 11:0 12:0 13:0 14:0 15:0 16:0 17:0 18:0 19:0 20:0 21:20 22:20 23:0 24:20 25:20 26:20 27:0 28:40 29:20 30:0 31:20 32:40 33:0 34:0 35:40 36:20 37:40 38:0 39:20 40:20 41:38 42:61 
0.3199150780614255 1:0 2:-100 3:0 4:100 5:0 6:0 7:0 8:0 9:0 10:0 11:0 12:0 13:0 14:0 15:0 16:0 17:0 18:0 19:0 20:0 21:20 22:20 23:0 24:20 25:20 26:20 27:0 28:40 29:20 30:0 31:20 32:40 33:0 34:0 35:40 36:20 37:40 38:0 39:20 40:20 41:38 42:65 
1.58314002371136 1:0 2:0 3:0 4:0 5:0 6:0 7:0 8:0 9:-100 10:0 11:100 12:0 13:0 14:0 15:0 16:0 17:0 18:0 19:0 20:0 21:0 22:80 23:20 24:0 25:0 26:0 27:0 28:0 29:40 30:20 31:60 32:20 33:0 34:0 35:0 36:60 37:0 38:20 39:20 40:20 41:21 42:51 
0.9102394083074454 1:0 2:0 3:0 4:0 5:0 6:0 7:0 8:0 9:0 10:0 11:0 12:0 13:0 14:0 15:-100 16:0 17:100 18:0 19:0 20:0 21:20 22:80 23:0 24:0 25:0 26:0 27:0 28:40 29:0 30:0 31:20 32:20 33:0 34:20 35:20 36:20 37:0 38:20 39:0 40:0 41:35 42:25 
1.174829524661203 1:100 2:0 3:-100 4:0 5:0 6:0 7:0 8:0 9:0 10:0 11:0 12:0 13:0 14:0 15:0 16:0 17:0 18:0 19:0 20:0 21:0 22:0 23:0 24:0 25:20 26:0 27:20 28:0 29:0 30:0 31:0 32:60 33:0 34:20 35:20 36:20 37:20 38:0 39:0 40:20 41:45 42:25 
2 1:0 2:0 3:0 4:0 5:0 6:0 7:0 8:0 9:0 10:0 11:0 12:0 13:0 14:0 15:100 16:0 17:-100 18:0 19:0 20:0 21:60 22:0 23:0 24:20 25:0 26:0 27:60 28:0 29:20 30:0 31:20 32:20 33:20 34:0 35:20 36:20 37:60 38:40 39:0 40:0 41:50 42:25 
1.996354508709828 1:0 2:0 3:0 4:0 5:0 6:0 7:0 8:0 9:0 10:0 11:0 12:0 13:0 14:-100 15:100 16:0 17:0 18:0 19:0 20:0 21:20 22:40 23:20 24:0 25:0 26:0 27:60 28:20 29:20 30:20 31:0 32:40 33:0 34:0 35:0 36:40 37:20 38:0 39:20 40:40 41:45 42:25 
2 1:0 2:0 3:0 4:0 5:0 6:0 7:0 8:0 9:0 10:0 11:0 12:0 13:0 14:0 15:0 16:0 17:100 18:-100 19:0 20:0 21:40 22:20 23:20 24:0 25:40 26:0 27:0 28:60 29:20 30:0 31:20 32:20 33:0 34:0 35:0 36:20 37:40 38:60 39:0 40:0 41:53 42:55 
2 1:0 2:0 3:0 4:0 5:100 6:0 7:-100 8:0 9:0 10:0 11:0 12:0 13:0 14:0 15:0 16:0 17:0 18:0 19:0 20:0 21:20 22:40 23:20 24:0 25:20 26:0 27:20 28:20 29:20 30:20 31:0 32:40 33:0 34:20 35:0 36:20 37:20 38:0 39:20 40:60 41:45 42:25 
1.055807145739504 1:0 2:100 3:-100 4:0 5:0 6:0 7:0 8:0 9:0 10:0 11:0 12:0 13:0 14:0 15:0 16:0 17:0 18:0 19:0 20:0 21:0 22:20 23:0 24:0 25:20 26:40 27:20 28:40 29:0 30:0 31:80 32:0 33:20 34:0 35:0 36:20 37:20 38:0 39:60 40:20 41:32 42:66 
1.157658985861623 1:0 2:0 3:0 4:-100 5:0 6:0 7:0 8:100 9:0 10:0 11:0 12:0 13:0 14:0 15:0 16:0 17:0 18:0 19:0 20:0 21:80 22:40 23:0 24:20 25:0 26:0 27:20 28:20 29:0 30:40 31:0 32:40 33:20 34:0 35:20 36:0 37:0 38:20 39:0 40:40 41:22 42:53 
0.4338735006588166 1:0 2:0 3:0 4:-100 5:0 6:0 7:0 8:100 9:0 10:0 11:0 12:0 13:0 14:0 15:0 16:0 17:0 18:0 19:0 20:0 21:80 22:40 23:0 24:20 25:0 26:0 27:20 28:20 29:0 30:40 31:0 32:40 33:20 34:0 35:20 36:0 37:0 38:20 39:0 40:40 41:67 42:53 
2 1:0 2:0 3:100 4:-100 5:0 6:0 7:0 8:0 9:0 10:0 11:0 12:0 13:0 14:0 15:0 16:0 17:0 18:0 19:0 20:0 21:80 22:40 23:0 24:20 25:0 26:0 27:20 28:20 29:0 30:40 31:0 32:40 33:20 34:0 35:20 36:0 37:0 38:20 39:0 40:40 41:50 42:53 
2 1:0 2:0 3:100 4:-100 5:0 6:0 7:0 8:0 9:0 10:0 11:0 12:0 13:0 14:0 15:0 16:0 17:0 18:0 19:0 20:0 21:80 22:40 23:0 24:20 25:0 26:0 27:20 28:20 29:0 30:40 31:0 32:40 33:20 34:0 35:20 36:0 37:0 38:20 39:0 40:40 41:22 42:53 
0.7664941902137665 1:0 2:0 3:100 4:-100 5:0 6:0 7:0 8:0 9:0 10:0 11:0 12:0 13:0 14:0 15:0 16:0 17:0 18:0 19:0 20:0 21:80 22:40 23:0 24:20 25:0 26:0 27:20 28:20 29:0 30:40 31:0 32:40 33:20 34:0 35:20 36:0 37:0 38:20 39:0 40:40 41:67 42:53 
0.5661394602225324 1:0 2:100 3:0 4:-100 5:0 6:0 7:0 8:0 9:0 10:0 11:0 12:0 13:0 14:0 15:0 16:0 17:0 18:0 19:0 20:0 21:80 22:40 23:0 24:20 25:0 26:0 27:20 28:20 29:0 30:40 31:0 32:40 33:20 34:0 35:20 36:0 37:0 38:20 39:0 40:40 41:50 42:53 
2 1:0 2:100 3:0 4:-100 5:0 6:0 7:0 8:0 9:0 10:0 11:0 12:0 13:0 14:0 15:0 16:0 17:0 18:0 19:0 20:0 21:80 22:40 23:0 24:20 25:0 26:0 27:20 28:20 29:0 30:40 31:0 32:40 33:20 34:0 35:20 36:0 37:0 38:20 39:0 40:40 41:22 42:53 
0.3061461701108809 1:0 2:100 3:0 4:-100 5:0 6:0 7:0 8:0 9:0 10:0 11:0 12:0 13:0 14:0 15:0 16:0 17:0 18:0 19:0 20:0 21:80 22:40 23:0 24:20 25:0 26:0 27:20 28:20 29:0 30:40 31:0 32:40 33:20 34:0 35:20 36:0 37:0 38:20 39:0 40:40 41:67 42:53 
2 1:100 2:0 3:0 4:-100 5:0 6:0 7:0 8:0 9:0 10:0 11:0 12:0 13:0 14:0 15:0 16:0 17:0 18:0 19:0 20:0 21:80 22:40 23:0 24:20 25:0 26:0 27:20 28:20 29:0 30:40 31:0 32:40 33:20 34:0 35:20 36:0 37:0 38:20 39:0 40:40 41:22 42:53 
0.9808529785398467 1:100 2:0 3:0 4:-100 5:0 6:0 7:0 8:0 9:0 10:0 11:0 12:0 13:0 14:0 15:0 16:0 17:0 18:0 19:0 20:0 21:80 22:40 23:0 24:20 25:0 26:0 27:20 28:20 29:0 30:40 31:0 32:40 33:20 34:0 35:20 36:0 37:0 38:20 39:0 40:40 41:50 42:53 
2 1:100 2:0 3:0 4:-100 5:0 6:0 7:0 8:0 9:0 10:0 11:0 12:0 13:0 14:0 15:0 16:0 17:0 18:0 19:0 20:0 21:80 22:40 23:0 24:20 25:0 26:0 27:20 28:20 29:0 30:40 31:0 32:40 33:20 34:0 35:20 36:0 37:0 38:20 39:0 40:40 41:67 42:53 
2 1:0 2:0 3:0 4:0 5:0 6:0 7:0 8:0 9:0 10:100 11:0 12:0 13:0 14:0 15:0 16:0 17:0 18:-100 19:0 20:0 21:20 22:20 23:40 24:0 25:0 26:0 27:0 28:20 29:0 30:40 31:20 32:0 33:0 34:0 35:20 36:60 37:60 38:0 39:20 40:40 41:21 42:65 
2 1:0 2:0 3:0 4:0 5:0 6:0 7:0 8:0 9:0 10:0 11:0 12:0 13:0 14:0 15:0 16:0 17:100 18:-100 19:0 20:0 21:20 22:20 23:40 24:0 25:0 26:0 27:0 28:20 29:0 30:40 31:20 32:0 33:0 34:0 35:20 36:60 37:60 38:0 39:20 40:40 41:21 42:65 
2 1:0 2:0 3:0 4:0 5:0 6:0 7:0 8:0 9:0 10:0 11:0 12:0 13:0 14:100 15:0 16:0 17:0 18:-100 19:0 20:0 21:20 22:20 23:40 24:0 25:0 26:0 27:0 28:20 29:0 30:40 31:20 32:0 33:0 34:0 35:20 36:60 37:60 38:0 39:20 40:40 41:21 42:65 
2 1:0 2:0 3:0 4:0 5:0 6:0 7:0 8:0 9:0 10:0 11:0 12:0 13:0 14:0 15:0 16:100 17:0 18:-100 19:0 20:0 21:20 22:20 23:40 24:0 25:0 26:0 27:0 28:20 29:0 30:40 31:20 32:0 33:0 34:0 35:20 36:60 37:60 38:0 39:20 40:40 41:21 42:65 
1.579540957976806 1:0 2:0 3:0 4:0 5:0 6:0 7:0 8:0 9:0 10:0 11:100 12:0 13:0 14:0 15:0 16:0 17:-100 18:0 19:0 20:0 21:0 22:40 23:40 24:0 25:20 26:0 27:0 28:40 29:20 30:40 31:0 32:0 33:0 34:0 35:20 36:40 37:40 38:20 39:0 40:40 41:26 42:50 
2 1:0 2:0 3:0 4:0 5:0 6:0 7:0 8:0 9:0 10:0 11:0 12:100 13:0 14:0 15:0 16:0 17:-100 18:0 19:0 20:0 21:0 22:40 23:40 24:0 25:20 26:0 27:0 28:40 29:20 30:40 31:0 32:0 33:0 34:0 35:20 36:40 37:40 38:20 39:0 40:40 41:26 42:50 
2 1:100 2:0 3:0 4:0 5:0 6:0 7:0 8:0 9:0 10:0 11:0 12:0 13:0 14:0 15:0 16:0 17:-100 18:0 19:0 20:0 21:0 22:40 23:40 24:0 25:20 26:0 27:0 28:40 29:20 30:40 31:0 32:0 33:0 34:0 35:20 36:40 37:40 38:20 39:0 40:40 41:26 42:50 
2 1:0 2:100 3:0 4:0 5:0 6:0 7:0 8:0 9:0 10:0 11:0 12:0 13:0 14:0 15:0 16:0 17:-100 18:0 19:0 20:0 21:0 22:40 23:40 24:0 25:20 26:0 27:0 28:40 29:20 30:40 31:0 32:0 33:0 34:0 35:20 36:40 37:40 38:20 39:0 40:40 41:26 42:50 
2 1:0 2:0 3:0 4:0 5:0 6:0 7:0 8:0 9:0 10:0 11:0 12:0 13:0 14:0 15:0 16:0 17:-100 18:0 19:100 20:0 21:0 22:40 23:40 24:0 25:20 26:0 27:0 28:40 29:20 30:40 31:0 32:0 33:0 34:0 35:20 36:40 37:40 38:20 39:0 40:40 41:26 42:50 
2 1:0 2:0 3:0 4:0 5:0 6:0 7:0 8:0 9:0 10:0 11:0 12:0 13:0 14:0 15:0 16:0 17:0 18:-100 19:0 20:100 21:20 22:40 23:20 24:40 25:0 26:0 27:20 28:0 29:60 30:0 31:0 32:60 33:0 34:0 35:40 36:0 37:0 38:20 39:40 40:0 41:64 42:47 
2 1:0 2:0 3:0 4:0 5:0 6:0 7:0 8:100 9:0 10:0 11:0 12:-100 13:0 14:0 15:0 16:0 17:0 18:0 19:0 20:0 21:20 22:0 23:0 24:0 25:20 26:0 27:20 28:0 29:20 30:0 31:0 32:80 33:0 34:0 35:0 36:20 37:0 38:20 39:0 40:40 41:37 42:60 
1.550842872031221 1:0 2:0 3:0 4:0 5:-100 6:0 7:0 8:0 9:0 10:0 11:100 12:0 13:0 14:0 15:0 16:0 17:0 18:0 19:0 20:0 21:40 22:0 23:0 24:40 25:0 26:0 27:0 28:20 29:0 30:0 31:0 32:120 33:0 34:0 35:0 36:40 37:0 38:60 39:20 40:20 41:50 42:25 
0.7157002724731106 1:-100 2:0 3:0 4:0 5:0 6:0 7:0 8:0 9:0 10:0 11:0 12:100 13:0 14:0 15:0 16:0 17:0 18:0 19:0 20:0 21:0 22:20 23:0 24:0 25:0 26:40 27:20 28:0 29:60 30:0 31:20 32:0 33:0 34:0 35:40 36:40 37:40 38:20 39:40 40:20 41:14 42:41 
2 1:-100 2:0 3:0 4:0 5:0 6:0 7:0 8:0 9:0 10:0 11:0 12:100 13:0 14:0 15:0 16:0 17:0 18:0 19:0 20:0 21:0 22:20 23:0 24:0 25:0 26:40 27:20 28:0 29:60 30:0 31:20 32:0 33:0 34:0 35:40 36:40 37:40 38:20 39:40 40:20 41:20 42:51 
2 1:-100 2:0 3:0 4:0 5:0 6:0 7:0 8:0 9:0 10:0 11:0 12:100 13:0 14:0 15:0 16:0 17:0 18:0 19:0 20:0 21:0 22:20 23:0 24:0 25:0 26:40 27:20 28:0 29:60 30:0 31:20 32:0 33:0 34:0 35:40 36:40 37:40 38:20 39:40 40:20 41:21 42:53 
1.603446179797321 1:0 2:0 3:0 4:0 5:-100 6:0 7:0 8:0 9:100 10:0 11:0 12:0 13:0 14:0 15:0 16:0 17:0 18:0 19:0 20:0 21:40 22:20 23:20 24:40 25:0 26:0 27:0 28:60 29:60 30:0 31:0 32:20 33:0 34:0 35:40 36:0 37:20 38:20 39:20 40:0 41:38 42:65 
1.503395128709076 1:0 2:0 3:0 4:100 5:-100 6:0 7:0 8:0 9:0 10:0 11:0 12:0 13:0 14:0 15:0 16:0 17:0 18:0 19:0 20:0 21:40 22:20 23:20 24:40 25:0 26:0 27:0 28:60 29:60 30:0 31:0 32:20 33:0 34:0 35:40 36:0 37:20 38:20 39:20 40:0 41:38 42:65 
2 1:0 2:0 3:0 4:0 5:0 6:0 7:0 8:0 9:0 10:0 11:0 12:0 13:0 14:0 15:100 16:-100 17:0 18:0 19:0 20:0 21:20 22:20 23:20 24:0 25:0 26:40 27:0 28:60 29:60 30:0 31:0 32:0 33:0 34:40 35:0 36:20 37:40 38:20 39:0 40:20 41:21 42:50 
0.1705769002992595 1:0 2:0 3:-100 4:100 5:0 6:0 7:0 8:0 9:0 10:0 11:0 12:0 13:0 14:0 15:0 16:0 17:0 18:0 19:0 20:0 21:20 22:40 23:40 24:0 25:20 26:0 27:20 28:0 29:20 30:20 31:40 32:0 33:0 34:60 35:20 36:20 37:0 38:40 39:0 40:0 41:78 42:76 
0.828236662905978 1:0 2:0 3:0 4:0 5:0 6:0 7:0 8:0 9:100 10:0 11:0 12:0 13:0 14:0 15:0 16:0 17:0 18:0 19:-100 20:0 21:0 22:0 23:0 24:20 25:20 26:0 27:20 28:40 29:40 30:0 31:20 32:0 33:40 34:0 35:60 36:40 37:0 38:20 39:20 40:20 41:50 42:39 
0.4186620114678457 1:0 2:0 3:0 4:0 5:0 6:0 7:0 8:100 9:0 10:0 11:0 12:0 13:0 14:0 15:0 16:0 17:0 18:0 19:-100 20:0 21:0 22:0 23:0 24:20 25:20 26:0 27:20 28:40 29:40 30:0 31:20 32:0 33:40 34:0 35:60 36:40 37:0 38:20 39:20 40:20 41:14 42:25 
2 1:0 2:0 3:0 4:0 5:0 6:0 7:0 8:-100 9:100 10:0 11:0 12:0 13:0 14:0 15:0 16:0 17:0 18:0 19:0 20:0 21:0 22:20 23:40 24:0 25:0 26:0 27:20 28:20 29:20 30:0 31:20 32:80 33:0 34:0 35:20 36:0 37:40 38:0 39:40 40:40 41:19 42:65 
2 1:0 2:0 3:0 4:-100 5:100 6:0 7:0 8:0 9:0 10:0 11:0 12:0 13:0 14:0 15:0 16:0 17:0 18:0 19:0 20:0 21:40 22:60 23:20 24:0 25:40 26:0 27:0 28:40 29:20 30:20 31:20 32:0 33:0 34:0 35:40 36:20 37:20 38:0 39:0 40:20 41:50 42:25 
2 1:-100 2:0 3:0 4:0 5:0 6:0 7:0 8:0 9:100 10:0 11:0 12:0 13:0 14:0 15:0 16:0 17:0 18:0 19:0 20:0 21:40 22:0 23:0 24:0 25:0 26:0 27:20 28:40 29:0 30:0 31:0 32:0 33:40 34:0 35:40 36:0 37:60 38:0 39:20 40:20 41:19 42:64 
2 1:0 2:0 3:0 4:0 5:0 6:0 7:0 8:0 9:100 10:-100 11:0 12:0 13:0 14:0 15:0 16:0 17:0 18:0 19:0 20:0 21:0 22:20 23:0 24:0 25:60 26:0 27:0 28:0 29:60 30:20 31:0 32:20 33:20 34:0 35:0 36:20 37:60 38:40 39:0 40:40 41:52 42:53 
2 1:0 2:0 3:0 4:0 5:0 6:0 7:0 8:100 9:0 10:0 11:0 12:0 13:0 14:0 15:0 16:-100 17:0 18:0 19:0 20:0 21:20 22:60 23:0 24:20 25:0 26:20 27:0 28:0 29:40 30:0 31:20 32:20 33:0 34:0 35:40 36:0 37:40 38:20 39:40 40:20 41:46 42:64 
0.6553845367471307 1:-100 2:0 3:0 4:0 5:0 6:0 7:0 8:0 9:100 10:0 11:0 12:0 13:0 14:0 15:0 16:0 17:0 18:0 19:0 20:0 21:20 22:20 23:20 24:0 25:0 26:20 27:20 28:20 29:0 30:40 31:0 32:20 33:0 34:0 35:20 36:40 37:40 38:60 39:0 40:20 41:53 42:25 
2 1:0 2:0 3:0 4:0 5:100 6:0 7:-100 8:0 9:0 10:0 11:0 12:0 13:0 14:0 15:0 16:0 17:0 18:0 19:0 20:0 21:40 22:0 23:20 24:0 25:40 26:20 27:0 28:80 29:0 30:0 31:20 32:0 33:0 34:0 35:0 36:40 37:0 38:60 39:40 40:0 41:50 42:70 
0.7014710408520234 1:0 2:0 3:0 4:0 5:0 6:0 7:0 8:0 9:0 10:0 11:0 12:0 13:0 14:0 15:0 16:0 17:100 18:-100 19:0 20:0 21:60 22:0 23:20 24:0 25:60 26:0 27:0 28:60 29:0 30:0 31:20 32:0 33:0 34:0 35:0 36:20 37:20 38:40 39:20 40:40 41:53 42:55 
0.310065635129681 1:0 2:0 3:0 4:0 5:0 6:0 7:0 8:0 9:0 10:0 11:0 12:0 13:0 14:0 15:0 16:0 17:0 18:0 19:100 20:-100 21:0 22:40 23:40 24:0 25:0 26:20 27:40 28:0 29:0 30:0 31:60 32:40 33:0 34:20 35:20 36:20 37:0 38:0 39:20 40:40 41:45 42:25 
0.06168699114531277 1:0 2:0 3:0 4:0 5:0 6:0 7:0 8:0 9:0 10:0 11:0 12:0 13:0 14:0 15:0 16:-100 17:0 18:100 19:0 20:0 21:0 22:0 23:40 24:0 25:20 26:0 27:0 28:20 29:20 30:20 31:20 32:20 33:40 34:20 35:0 36:60 37:0 38:40 39:20 40:20 41:53 42:25 
2 1:0 2:0 3:0 4:0 5:0 6:0 7:0 8:0 9:-100 10:0 11:0 12:0 13:0 14:0 15:0 16:100 17:0 18:0 19:0 20:0 21:0 22:60 23:20 24:0 25:0 26:0 27:0 28:20 29:40 30:20 31:60 32:20 33:0 34:0 35:0 36:60 37:0 38:20 39:20 40:20 41:38 42:53 
0.01604488608147162 1:0 2:100 3:0 4:-100 5:0 6:0 7:0 8:0 9:0 10:0 11:0 12:0 13:0 14:0 15:0 16:0 17:0 18:0 19:0 20:0 21:20 22:20 23:20 24:0 25:20 26:0 27:0 28:0 29:0 30:0 31:20 32:40 33:40 34:20 35:20 36:20 37:0 38:0 39:40 40:80 41:14 42:25 
2 1:0 2:0 3:0 4:0 5:0 6:0 7:0 8:0 9:0 10:0 11:0 12:0 13:0 14:0 15:0 16:100 17:0 18:-100 19:0 20:0 21:20 22:0 23:40 24:0 25:20 26:0 27:0 28:40 29:20 30:0 31:20 32:40 33:0 34:0 35:20 36:20 37:20 38:40 39:20 40:40 41:50 42:44 
2 1:0 2:0 3:0 4:0 5:0 6:0 7:0 8:0 9:0 10:0 11:0 12:0 13:0 14:0 15:0 16:100 17:0 18:-100 19:0 20:0 21:20 22:0 23:40 24:0 25:20 26:0 27:0 28:40 29:20 30:0 31:20 32:40 33:0 34:0 35:20 36:20 37:20 38:40 39:20 40:40 41:50 42:44 
2 1:0 2:0 3:0 4:0 5:0 6:0 7:0 8:0 9:0 10:0 11:0 12:0 13:0 14:0 15:0 16:100 17:0 18:-100 19:0 20:0 21:20 22:0 23:40 24:0 25:20 26:0 27:0 28:40 29:20 30:0 31:20 32:40 33:0 34:0 35:20 36:20 37:20 38:40 39:20 40:40 41:50 42:44 
2 1:0 2:0 3:0 4:0 5:0 6:0 7:0 8:0 9:0 10:0 11:0 12:0 13:0 14:0 15:0 16:100 17:0 18:-100 19:0 20:0 21:20 22:0 23:40 24:0 25:20 26:0 27:0 28:40 29:20 30:0 31:20 32:40 33:0 34:0 35:20 36:20 37:20 38:40 39:20 40:40 41:50 42:44 
1.506377220200255 1:0 2:0 3:0 4:0 5:0 6:0 7:0 8:0 9:0 10:0 11:100 12:0 13:0 14:0 15:0 16:-100 17:0 18:0 19:0 20:0 21:0 22:40 23:0 24:20 25:0 26:0 27:0 28:20 29:80 30:0 31:60 32:40 33:0 34:0 35:20 36:20 37:0 38:20 39:0 40:40 41:52 42:45 
2 1:0 2:0 3:0 4:0 5:0 6:0 7:0 8:0 9:0 10:100 11:0 12:0 13:0 14:0 15:0 16:0 17:-100 18:0 19:0 20:0 21:20 22:40 23:20 24:0 25:0 26:60 27:0 28:20 29:40 30:0 31:0 32:0 33:0 34:20 35:20 36:40 37:40 38:20 39:0 40:20 41:39 42:52 
1.427195636279585 1:0 2:0 3:0 4:0 5:0 6:0 7:0 8:0 9:0 10:100 11:0 12:0 13:0 14:0 15:0 16:0 17:-100 18:0 19:0 20:0 21:20 22:40 23:20 24:0 25:0 26:60 27:0 28:20 29:40 30:0 31:0 32:0 33:0 34:20 35:20 36:40 37:40 38:20 39:0 40:20 41:21 42:49 
0.6821693991544214 1:0 2:0 3:0 4:0 5:0 6:0 7:0 8:0 9:-100 10:0 11:100 12:0 13:0 14:0 15:0 16:0 17:0 18:0 19:0 20:0 21:20 22:60 23:0 24:20 25:20 26:0 27:0 28:20 29:0 30:0 31:0 32:20 33:20 34:0 35:60 36:40 37:0 38:40 39:0 40:20 41:19 42:64 
2 1:0 2:0 3:0 4:0 5:0 6:0 7:0 8:0 9:0 10:0 11:0 12:0 13:0 14:-100 15:100 16:0 17:0 18:0 19:0 20:0 21:0 22:40 23:40 24:0 25:40 26:0 27:0 28:20 29:20 30:0 31:20 32:40 33:40 34:20 35:0 36:0 37:20 38:60 39:0 40:0 41:60 42:37 
2 1:0 2:0 3:0 4:0 5:0 6:0 7:0 8:100 9:0 10:0 11:0 12:0 13:0 14:0 15:0 16:0 17:0 18:0 19:-100 20:0 21:20 22:20 23:40 24:0 25:0 26:0 27:0 28:40 29:40 30:0 31:0 32:20 33:20 34:0 35:20 36:40 37:0 38:40 39:20 40:40 41:46 42:64 
0.8510580796842849 1:0 2:0 3:0 4:0 5:0 6:0 7:0 8:100 9:0 10:0 11:0 12:0 13:0 14:0 15:0 16:0 17:0 18:0 19:-100 20:0 21:20 22:20 23:40 24:0 25:0 26:0 27:0 28:40 29:40 30:0 31:0 32:20 33:20 34:0 35:20 36:40 37:0 38:40 39:20 40:40 41:14 42:41 
0.3055632927755991 1:0 2:100 3:0 4:-100 5:0 6:0 7:0 8:0 9:0 10:0 11:0 12:0 13:0 14:0 15:0 16:0 17:0 18:0 19:0 20:0 21:60 22:20 23:20 24:20 25:20 26:0 27:0 28:40 29:40 30:0 31:0 32:20 33:20 34:0 35:40 36:0 37:20 38:20 39:20 40:0 41:21 42:51 
1.282221204103592 1:0 2:100 3:0 4:-100 5:0 6:0 7:0 8:0 9:0 10:0 11:0 12:0 13:0 14:0 15:0 16:0 17:0 18:0 19:0 20:0 21:60 22:20 23:20 24:20 25:20 26:0 27:0 28:40 29:40 30:0 31:0 32:20 33:20 34:0 35:40 36:0 37:20 38:20 39:20 40:0 41:38 42:61 
2 1:0 2:100 3:0 4:-100 5:0 6:0 7:0 8:0 9:0 10:0 11:0 12:0 13:0 14:0 15:0 16:0 17:0 18:0 19:0 20:0 21:60 22:20 23:20 24:20 25:20 26:0 27:0 28:40 29:40 30:0 31:0 32:20 33:20 34:0 35:40 36:0 37:20 38:20 39:20 40:0 41:40 42:64 
0.9906333331804908 1:0 2:0 3:0 4:-100 5:0 6:0 7:0 8:0 9:0 10:0 11:0 12:0 13:0 14:0 15:0 16:100 17:0 18:0 19:0 20:0 21:60 22:20 23:20 24:20 25:20 26:0 27:0 28:40 29:40 30:0 31:0 32:20 33:20 34:0 35:40 36:0 37:20 38:20 39:20 40:0 41:37 42:65 
1.138270621968615 1:0 2:0 3:0 4:0 5:0 6:0 7:0 8:0 9:-100 10:0 11:100 12:0 13:0 14:0 15:0 16:0 17:0 18:0 19:0 20:0 21:40 22:20 23:20 24:0 25:20 26:0 27:0 28:0 29:60 30:0 31:20 32:40 33:0 34:0 35:0 36:60 37:0 38:20 39:0 40:60 41:50 42:63 
0.5325309603426741 1:0 2:0 3:0 4:-100 5:0 6:0 7:0 8:0 9:100 10:0 11:0 12:0 13:0 14:0 15:0 16:0 17:0 18:0 19:0 20:0 21:60 22:20 23:20 24:20 25:20 26:0 27:0 28:40 29:60 30:0 31:0 32:20 33:0 34:0 35:40 36:0 37:20 38:20 39:20 40:0 41:38 42:65 
0.9897815724780421 1:0 2:0 3:100 4:0 5:0 6:0 7:0 8:0 9:0 10:0 11:0 12:-100 13:0 14:0 15:0 16:0 17:0 18:0 19:0 20:0 21:20 22:0 23:20 24:0 25:20 26:20 27:20 28:20 29:40 30:20 31:0 32:60 33:0 34:0 35:60 36:20 37:0 38:0 39:20 40:20 41:38 42:59 
1.549063556392741 1:0 2:0 3:0 4:0 5:0 6:0 7:0 8:0 9:0 10:0 11:0 12:-100 13:100 14:0 15:0 16:0 17:0 18:0 19:0 20:0 21:20 22:0 23:20 24:0 25:20 26:20 27:20 28:20 29:40 30:20 31:0 32:60 33:0 34:0 35:60 36:20 37:0 38:0 39:20 40:20 41:38 42:59 
1.858646048808746 1:0 2:0 3:0 4:0 5:0 6:0 7:0 8:0 9:100 10:0 11:0 12:0 13:0 14:0 15:0 16:0 17:0 18:0 19:0 20:-100 21:0 22:0 23:0 24:20 25:20 26:0 27:0 28:40 29:40 30:0 31:20 32:20 33:40 34:0 35:40 36:40 37:0 38:20 39:40 40:0 41:50 42:39 
1.734313547540406 1:0 2:0 3:0 4:0 5:0 6:0 7:0 8:0 9:0 10:0 11:100 12:-100 13:0 14:0 15:0 16:0 17:0 18:0 19:0 20:0 21:20 22:0 23:20 24:0 25:20 26:20 27:20 28:20 29:40 30:20 31:0 32:60 33:0 34:0 35:60 36:20 37:0 38:0 39:20 40:20 41:38 42:59 
2 1:0 2:0 3:0 4:0 5:0 6:0 7:0 8:0 9:100 10:0 11:0 12:0 13:0 14:0 15:0 16:-100 17:0 18:0 19:0 20:0 21:40 22:40 23:60 24:0 25:0 26:0 27:0 28:0 29:40 30:40 31:0 32:0 33:0 34:0 35:0 36:40 37:40 38:40 39:0 40:20 41:45 42:46 
2 1:0 2:0 3:0 4:0 5:0 6:0 7:0 8:0 9:100 10:0 11:0 12:0 13:0 14:0 15:0 16:-100 17:0 18:0 19:0 20:0 21:40 22:40 23:60 24:0 25:0 26:0 27:0 28:0 29:40 30:40 31:0 32:0 33:0 34:0 35:0 36:40 37:40 38:40 39:0 40:20 41:44 42:25 
2 1:0 2:0 3:0 4:0 5:0 6:0 7:0 8:0 9:100 10:0 11:0 12:0 13:0 14:0 15:0 16:0 17:0 18:0 19:0 20:-100 21:40 22:0 23:0 24:0 25:20 26:20 27:20 28:40 29:20 30:0 31:0 32:100 33:0 34:0 35:0 36:20 37:0 38:20 39:20 40:40 41:50 42:25 
2 1:0 2:0 3:0 4:0 5:0 6:0 7:0 8:0 9:100 10:0 11:0 12:0 13:0 14:0 15:0 16:-100 17:0 18:0 19:0 20:0 21:60 22:40 23:20 24:0 25:0 26:0 27:0 28:20 29:20 30:20 31:20 32:0 33:0 34:0 35:0 36:60 37:20 38:60 39:0 40:20 41:45 42:46 
2 1:0 2:0 3:0 4:0 5:0 6:0 7:0 8:0 9:100 10:0 11:0 12:0 13:0 14:0 15:0 16:-100 17:0 18:0 19:0 20:0 21:60 22:40 23:20 24:0 25:0 26:0 27:0 28:20 29:20 30:20 31:20 32:0 33:0 34:0 35:0 36:60 37:20 38:60 39:0 40:20 41:44 42:25 
2 1:0 2:0 3:0 4:0 5:0 6:0 7:0 8:0 9:0 10:0 11:-100 12:100 13:0 14:0 15:0 16:0 17:0 18:0 19:0 20:0 21:40 22:60 23:0 24:0 25:40 26:0 27:20 28:60 29:0 30:20 31:40 32:20 33:0 34:20 35:0 36:20 37:20 38:0 39:0 40:0 41:50 42:25 
0.726359827563357 1:0 2:0 3:0 4:0 5:0 6:0 7:0 8:0 9:100 10:-100 11:0 12:0 13:0 14:0 15:0 16:0 17:0 18:0 19:0 20:0 21:0 22:20 23:0 24:0 25:60 26:0 27:0 28:20 29:0 30:20 31:20 32:40 33:20 34:0 35:0 36:20 37:60 38:40 39:0 40:40 41:52 42:53 
2 1:0 2:0 3:0 4:0 5:0 6:0 7:0 8:0 9:0 10:0 11:-100 12:0 13:100 14:0 15:0 16:0 17:0 18:0 19:0 20:0 21:40 22:60 23:0 24:0 25:40 26:0 27:20 28:60 29:0 30:20 31:40 32:20 33:0 34:20 35:0 36:20 37:20 38:0 39:0 40:0 41:50 42:25 
2 1:0 2:0 3:0 4:0 5:0 6:0 7:0 8:0 9:0 10:100 11:-100 12:0 13:0 14:0 15:0 16:0 17:0 18:0 19:0 20:0 21:0 22:40 23:20 24:0 25:0 26:0 27:0 28:20 29:60 30:20 31:40 32:0 33:0 34:0 35:20 36:60 37:0 38:20 39:40 40:20 41:21 42:51 
1.166829079185385 1:-100 2:0 3:0 4:0 5:0 6:0 7:0 8:0 9:0 10:0 11:0 12:0 13:0 14:0 15:0 16:0 17:0 18:0 19:0 20:100 21:0 22:20 23:0 24:0 25:0 26:0 27:0 28:40 29:60 30:20 31:40 32:20 33:60 34:20 35:0 36:20 37:0 38:0 39:40 40:20 41:19 42:64 
2 1:0 2:0 3:0 4:0 5:0 6:0 7:0 8:100 9:0 10:0 11:-100 12:0 13:0 14:0 15:0 16:0 17:0 18:0 19:0 20:0 21:0 22:40 23:20 24:0 25:0 26:0 27:0 28:20 29:60 30:20 31:40 32:0 33:0 34:0 35:20 36:60 37:0 38:20 39:40 40:20 41:21 42:51 
2 1:0 2:0 3:0 4:0 5:0 6:0 7:0 8:0 9:0 10:0 11:-100 12:0 13:0 14:0 15:0 16:0 17:0 18:0 19:0 20:100 21:0 22:40 23:20 24:0 25:0 26:0 27:0 28:20 29:60 30:20 31:40 32:0 33:0 34:0 35:20 36:60 37:0 38:20 39:40 40:20 41:21 42:51 
2 1:0 2:0 3:0 4:0 5:0 6:0 7:0 8:0 9:0 10:0 11:-100 12:0 13:100 14:0 15:0 16:0 17:0 18:0 19:0 20:0 21:0 22:40 23:20 24:0 25:0 26:0 27:0 28:20 29:60 30:20 31:40 32:0 33:0 34:0 35:20 36:60 37:0 38:20 39:40 40:20 41:21 42:51 
1.35796080423954 1:-100 2:0 3:0 4:0 5:0 6:0 7:100 8:0 9:0 10:0 11:0 12:0 13:0 14:0 15:0 16:0 17:0 18:0 19:0 20:0 21:0 22:20 23:0 24:0 25:0 26:0 27:0 28:40 29:60 30:20 31:40 32:20 33:60 34:20 35:0 36:20 37:0 38:0 39:40 40:20 41:19 42:64 
2 1:0 2:0 3:0 4:0 5:0 6:0 7:0 8:0 9:100 10:0 11:-100 12:0 13:0 14:0 15:0 16:0 17:0 18:0 19:0 20:0 21:0 22:40 23:20 24:0 25:0 26:0 27:0 28:20 29:60 30:20 31:40 32:0 33:0 34:0 35:20 36:60 37:0 38:20 39:40 40:20 41:17 42:47 
2 1:0 2:0 3:0 4:0 5:0 6:0 7:0 8:0 9:0 10:0 11:-100 12:0 13:0 14:0 15:0 16:0 17:0 18:0 19:100 20:0 21:0 22:40 23:20 24:0 25:0 26:0 27:0 28:20 29:60 30:20 31:40 32:0 33:0 34:0 35:20 36:60 37:0 38:20 39:40 40:20 41:21 42:51 
0.9478584883381009 1:-100 2:0 3:0 4:0 5:0 6:0 7:0 8:0 9:0 10:0 11:0 12:0 13:0 14:0 15:100 16:0 17:0 18:0 19:0 20:0 21:0 22:20 23:0 24:0 25:0 26:0 27:0 28:40 29:60 30:20 31:40 32:20 33:60 34:20 35:0 36:20 37:0 38:0 39:40 40:20 41:19 42:64 
0.9394011971663375 1:0 2:-100 3:0 4:0 5:0 6:0 7:0 8:0 9:0 10:0 11:0 12:0 13:0 14:0 15:100 16:0 17:0 18:0 19:0 20:0 21:20 22:40 23:40 24:0 25:20 26:0 27:20 28:60 29:20 30:20 31:0 32:20 33:0 34:0 35:20 36:40 37:0 38:20 39:20 40:0 41:50 42:85 
2 1:0 2:0 3:0 4:0 5:0 6:0 7:0 8:0 9:0 10:0 11:0 12:0 13:0 14:0 15:0 16:0 17:100 18:-100 19:0 20:0 21:20 22:60 23:0 24:0 25:20 26:0 27:0 28:20 29:20 30:0 31:0 32:20 33:20 34:0 35:60 36:40 37:0 38:20 39:0 40:0 41:28 42:65 
2 1:0 2:0 3:0 4:0 5:0 6:0 7:0 8:0 9:0 10:0 11:0 12:0 13:0 14:0 15:0 16:0 17:100 18:-100 19:0 20:0 21:20 22:60 23:0 24:0 25:20 26:0 27:0 28:20 29:20 30:0 31:0 32:20 33:20 34:0 35:60 36:40 37:0 38:20 39:0 40:0 41:16 42:65 
2 1:0 2:0 3:0 4:0 5:0 6:0 7:0 8:0 9:0 10:0 11:0 12:0 13:0 14:0 15:0 16:0 17:100 18:-100 19:0 20:0 21:20 22:60 23:0 24:0 25:20 26:0 27:0 28:20 29:20 30:0 31:0 32:20 33:20 34:0 35:60 36:40 37:0 38:20 39:0 40:0 41:32 42:65 
2 1:0 2:0 3:0 4:0 5:0 6:0 7:0 8:0 9:100 10:0 11:0 12:0 13:0 14:0 15:0 16:0 17:0 18:0 19:0 20:-100 21:0 22:40 23:60 24:0 25:0 26:0 27:60 28:60 29:0 30:0 31:0 32:40 33:0 34:0 35:20 36:40 37:0 38:40 39:0 40:0 41:38 42:65 
1.41218093043995 1:0 2:0 3:0 4:-100 5:0 6:0 7:0 8:0 9:100 10:0 11:0 12:0 13:0 14:0 15:0 16:0 17:0 18:0 19:0 20:0 21:0 22:60 23:40 24:20 25:20 26:0 27:0 28:20 29:0 30:0 31:0 32:0 33:0 34:0 35:40 36:0 37:0 38:40 39:20 40:20 41:38 42:65 
0.3443392246476426 1:0 2:0 3:0 4:0 5:0 6:0 7:0 8:0 9:0 10:0 11:0 12:0 13:0 14:0 15:0 16:0 17:100 18:-100 19:0 20:0 21:40 22:20 23:20 24:0 25:20 26:0 27:0 28:60 29:20 30:20 31:20 32:0 33:0 34:0 35:20 36:0 37:40 38:60 39:20 40:0 41:53 42:55 
2 1:0 2:0 3:0 4:0 5:0 6:0 7:0 8:0 9:0 10:0 11:0 12:0 13:0 14:0 15:0 16:100 17:0 18:-100 19:0 20:0 21:40 22:20 23:20 24:0 25:20 26:0 27:0 28:60 29:20 30:20 31:20 32:0 33:0 34:0 35:20 36:0 37:40 38:60 39:20 40:0 41:53 42:55 
2 1:0 2:0 3:0 4:0 5:0 6:0 7:0 8:0 9:0 10:0 11:0 12:0 13:0 14:0 15:0 16:100 17:0 18:-100 19:0 20:0 21:40 22:20 23:20 24:0 25:20 26:0 27:0 28:60 29:20 30:20 31:20 32:0 33:0 34:0 35:20 36:0 37:40 38:60 39:20 40:0 41:53 42:55 
2 1:0 2:0 3:0 4:0 5:0 6:0 7:0 8:0 9:0 10:0 11:0 12:0 13:0 14:0 15:0 16:100 17:0 18:-100 19:0 20:0 21:40 22:20 23:20 24:0 25:20 26:0 27:0 28:60 29:20 30:20 31:20 32:0 33:0 34:0 35:20 36:0 37:40 38:60 39:20 40:0 41:53 42:55 
2 1:0 2:0 3:0 4:0 5:0 6:0 7:0 8:0 9:0 10:0 11:0 12:0 13:0 14:0 15:0 16:100 17:0 18:-100 19:0 20:0 21:40 22:20 23:20 24:0 25:20 26:0 27:0 28:60 29:20 30:20 31:20 32:0 33:0 34:0 35:20 36:0 37:40 38:60 39:20 40:0 41:53 42:55 
2 1:0 2:0 3:0 4:0 5:0 6:0 7:0 8:0 9:0 10:0 11:0 12:0 13:0 14:0 15:0 16:100 17:0 18:-100 19:0 20:0 21:40 22:20 23:20 24:0 25:20 26:0 27:0 28:60 29:20 30:20 31:20 32:0 33:0 34:0 35:20 36:0 37:40 38:60 39:20 40:0 41:53 42:55 
2 1:0 2:0 3:0 4:0 5:0 6:0 7:0 8:0 9:0 10:0 11:0 12:0 13:0 14:0 15:0 16:100 17:0 18:-100 19:0 20:0 21:40 22:20 23:20 24:0 25:20 26:0 27:0 28:60 29:20 30:20 31:20 32:0 33:0 34:0 35:20 36:0 37:40 38:60 39:20 40:0 41:53 42:55 
2 1:0 2:0 3:0 4:0 5:0 6:0 7:0 8:0 9:0 10:0 11:0 12:0 13:0 14:0 15:0 16:100 17:0 18:-100 19:0 20:0 21:40 22:20 23:20 24:0 25:20 26:0 27:0 28:60 29:20 30:20 31:20 32:0 33:0 34:0 35:20 36:0 37:40 38:60 39:20 40:0 41:53 42:55 
2 1:0 2:0 3:0 4:0 5:0 6:0 7:0 8:0 9:0 10:0 11:0 12:0 13:0 14:0 15:0 16:100 17:0 18:-100 19:0 20:0 21:40 22:20 23:20 24:0 25:20 26:0 27:0 28:60 29:20 30:20 31:20 32:0 33:0 34:0 35:20 36:0 37:40 38:60 39:20 40:0 41:53 42:55 
2 1:0 2:0 3:0 4:0 5:0 6:0 7:0 8:0 9:0 10:0 11:0 12:0 13:0 14:0 15:0 16:100 17:0 18:-100 19:0 20:0 21:40 22:20 23:20 24:0 25:20 26:0 27:0 28:60 29:20 30:20 31:20 32:0 33:0 34:0 35:20 36:0 37:40 38:60 39:20 40:0 41:53 42:55 
2 1:0 2:0 3:0 4:0 5:0 6:0 7:0 8:0 9:0 10:0 11:0 12:0 13:0 14:0 15:-100 16:0 17:100 18:0 19:0 20:0 21:20 22:40 23:0 24:20 25:0 26:20 27:40 28:60 29:0 30:0 31:20 32:0 33:20 34:20 35:20 36:20 37:0 38:0 39:40 40:20 41:45 42:74 
2 1:0 2:0 3:0 4:0 5:100 6:-100 7:0 8:0 9:0 10:0 11:0 12:0 13:0 14:0 15:0 16:0 17:0 18:0 19:0 20:0 21:0 22:0 23:0 24:0 25:0 26:0 27:20 28:60 29:0 30:20 31:0 32:0 33:0 34:60 35:0 36:20 37:0 38:20 39:20 40:0 41:53 42:23 
1.898777144713353 1:0 2:0 3:0 4:0 5:0 6:0 7:0 8:0 9:0 10:0 11:100 12:-100 13:0 14:0 15:0 16:0 17:0 18:0 19:0 20:0 21:0 22:0 23:0 24:0 25:40 26:0 27:0 28:20 29:60 30:0 31:20 32:40 33:0 34:0 35:20 36:20 37:20 38:20 39:80 40:20 41:45 42:74 
1.782034210502617 1:0 2:0 3:0 4:0 5:0 6:0 7:0 8:0 9:-100 10:0 11:0 12:100 13:0 14:0 15:0 16:0 17:0 18:0 19:0 20:0 21:20 22:40 23:20 24:20 25:0 26:0 27:0 28:0 29:0 30:20 31:0 32:0 33:0 34:0 35:40 36:0 37:0 38:0 39:0 40:20 41:50 42:25 
1.060695995348298 1:0 2:-100 3:0 4:0 5:0 6:0 7:0 8:0 9:100 10:0 11:0 12:0 13:0 14:0 15:0 16:0 17:0 18:0 19:0 20:0 21:0 22:20 23:20 24:0 25:0 26:0 27:20 28:0 29:40 30:0 31:20 32:0 33:20 34:40 35:20 36:0 37:20 38:60 39:0 40:80 41:42 42:25 
1.345988937927866 1:0 2:-100 3:0 4:100 5:0 6:0 7:0 8:0 9:0 10:0 11:0 12:0 13:0 14:0 15:0 16:0 17:0 18:0 19:0 20:0 21:0 22:40 23:40 24:0 25:0 26:0 27:40 28:40 29:40 30:20 31:40 32:40 33:0 34:20 35:0 36:20 37:0 38:0 39:20 40:0 41:38 42:65 
0.1292590949101744 1:0 2:0 3:0 4:0 5:0 6:0 7:0 8:0 9:100 10:0 11:0 12:0 13:0 14:0 15:0 16:0 17:0 18:0 19:-100 20:0 21:40 22:20 23:20 24:40 25:20 26:0 27:0 28:40 29:40 30:0 31:0 32:20 33:20 34:0 35:40 36:0 37:20 38:20 39:0 40:20 41:38 42:59 
2 1:0 2:0 3:0 4:0 5:0 6:0 7:0 8:0 9:0 10:0 11:0 12:0 13:0 14:0 15:0 16:0 17:-100 18:100 19:0 20:0 21:40 22:0 23:20 24:0 25:20 26:0 27:0 28:60 29:40 30:20 31:20 32:0 33:0 34:0 35:20 36:0 37:40 38:40 39:40 40:0 41:50 42:70 
1.046378030132961 1:0 2:0 3:-100 4:0 5:0 6:0 7:0 8:0 9:100 10:0 11:0 12:0 13:0 14:0 15:0 16:0 17:0 18:0 19:0 20:0 21:0 22:60 23:0 24:0 25:20 26:0 27:40 28:20 29:60 30:0 31:0 32:0 33:0 34:0 35:20 36:80 37:0 38:40 39:0 40:20 41:68 42:82 
2 1:0 2:0 3:0 4:0 5:0 6:0 7:0 8:0 9:0 10:0 11:0 12:0 13:0 14:0 15:100 16:-100 17:0 18:0 19:0 20:0 21:20 22:0 23:40 24:20 25:40 26:0 27:20 28:0 29:0 30:20 31:0 32:0 33:0 34:0 35:20 36:100 37:0 38:40 39:40 40:0 41:46 42:25 
1.215136461230276 1:0 2:0 3:0 4:0 5:0 6:0 7:0 8:-100 9:0 10:0 11:0 12:0 13:0 14:0 15:0 16:0 17:0 18:0 19:0 20:100 21:20 22:20 23:20 24:0 25:20 26:20 27:20 28:0 29:20 30:0 31:0 32:80 33:0 34:0 35:40 36:40 37:0 38:0 39:20 40:20 41:46 42:64 
2 1:0 2:0 3:0 4:0 5:0 6:0 7:0 8:0 9:0 10:0 11:0 12:0 13:0 14:0 15:0 16:-100 17:0 18:100 19:0 20:0 21:20 22:0 23:20 24:0 25:20 26:20 27:20 28:20 29:20 30:20 31:0 32:80 33:0 34:0 35:60 36:0 37:20 38:0 39:40 40:0 41:37 42:66 
2 1:0 2:0 3:0 4:0 5:0 6:0 7:0 8:0 9:0 10:0 11:0 12:0 13:0 14:0 15:0 16:-100 17:0 18:100 19:0 20:0 21:20 22:0 23:20 24:0 25:20 26:20 27:20 28:20 29:20 30:20 31:0 32:80 33:0 34:0 35:60 36:0 37:20 38:0 39:40 40:0 41:37 42:25 
2 1:100 2:0 3:-100 4:0 5:0 6:0 7:0 8:0 9:0 10:0 11:0 12:0 13:0 14:0 15:0 16:0 17:0 18:0 19:0 20:0 21:0 22:60 23:0 24:0 25:20 26:0 27:40 28:20 29:60 30:0 31:0 32:0 33:0 34:0 35:20 36:80 37:0 38:40 39:0 40:20 41:78 42:76 
2 1:0 2:0 3:0 4:100 5:0 6:0 7:0 8:0 9:0 10:0 11:0 12:0 13:0 14:0 15:-100 16:0 17:0 18:0 19:0 20:0 21:20 22:40 23:0 24:20 25:20 26:20 27:0 28:40 29:20 30:0 31:20 32:20 33:0 34:0 35:20 36:20 37:40 38:20 39:20 40:20 41:14 42:40 
0.8022725254921328 1:0 2:100 3:0 4:-100 5:0 6:0 7:0 8:0 9:0 10:0 11:0 12:0 13:0 14:0 15:0 16:0 17:0 18:0 19:0 20:0 21:0 22:40 23:0 24:0 25:20 26:0 27:20 28:40 29:60 30:0 31:0 32:0 33:20 34:20 35:60 36:20 37:0 38:20 39:20 40:20 41:19 42:66 
2 1:0 2:0 3:0 4:0 5:0 6:0 7:0 8:0 9:100 10:0 11:0 12:0 13:0 14:0 15:0 16:-100 17:0 18:0 19:0 20:0 21:20 22:0 23:0 24:0 25:20 26:20 27:20 28:20 29:20 30:0 31:0 32:100 33:0 34:0 35:0 36:0 37:0 38:40 39:0 40:40 41:50 42:25 
2 1:0 2:0 3:0 4:0 5:0 6:0 7:0 8:0 9:100 10:0 11:-100 12:0 13:0 14:0 15:0 16:0 17:0 18:0 19:0 20:0 21:0 22:80 23:0 24:0 25:20 26:0 27:0 28:40 29:40 30:0 31:60 32:20 33:0 34:0 35:0 36:60 37:20 38:0 39:20 40:0 41:50 42:30 
0.8296366574948794 1:0 2:0 3:0 4:0 5:0 6:0 7:0 8:0 9:100 10:0 11:-100 12:0 13:0 14:0 15:0 16:0 17:0 18:0 19:0 20:0 21:0 22:80 23:0 24:0 25:20 26:0 27:0 28:40 29:40 30:0 31:60 32:20 33:0 34:0 35:0 36:60 37:20 38:0 39:20 40:0 41:50 42:30 
0.1589590213919571 1:0 2:0 3:0 4:0 5:100 6:0 7:-100 8:0 9:0 10:0 11:0 12:0 13:0 14:0 15:0 16:0 17:0 18:0 19:0 20:0 21:0 22:60 23:20 24:40 25:0 26:20 27:0 28:60 29:20 30:0 31:20 32:20 33:0 34:0 35:40 36:20 37:0 38:0 39:20 40:20 41:19 42:64 
2 1:0 2:0 3:0 4:0 5:0 6:0 7:0 8:0 9:0 10:0 11:100 12:0 13:0 14:0 15:0 16:0 17:0 18:0 19:-100 20:0 21:60 22:20 23:0 24:0 25:20 26:0 27:20 28:20 29:0 30:20 31:60 32:20 33:0 34:0 35:20 36:0 37:60 38:20 39:0 40:20 41:50 42:48 
2 1:0 2:100 3:-100 4:0 5:0 6:0 7:0 8:0 9:0 10:0 11:0 12:0 13:0 14:0 15:0 16:0 17:0 18:0 19:0 20:0 21:20 22:0 23:40 24:0 25:0 26:0 27:0 28:20 29:0 30:40 31:20 32:20 33:0 34:0 35:0 36:60 37:20 38:20 39:20 40:80 41:21 42:50 
0.8272055900697883 1:-100 2:0 3:0 4:0 5:0 6:0 7:0 8:0 9:0 10:0 11:0 12:0 13:100 14:0 15:0 16:0 17:0 18:0 19:0 20:0 21:0 22:20 23:0 24:0 25:20 26:0 27:20 28:40 29:20 30:20 31:60 32:40 33:0 34:0 35:40 36:20 37:60 38:0 39:0 40:0 41:50 42:25 
2 1:100 2:0 3:0 4:0 5:0 6:0 7:0 8:0 9:-100 10:0 11:0 12:0 13:0 14:0 15:0 16:0 17:0 18:0 19:0 20:0 21:40 22:0 23:0 24:20 25:20 26:0 27:20 28:20 29:40 30:20 31:20 32:20 33:0 34:0 35:0 36:60 37:0 38:60 39:20 40:0 41:50 42:20 
1.390792621019224 1:0 2:0 3:0 4:0 5:0 6:0 7:0 8:0 9:100 10:-100 11:0 12:0 13:0 14:0 15:0 16:0 17:0 18:0 19:0 20:0 21:60 22:0 23:40 24:0 25:20 26:0 27:20 28:20 29:40 30:20 31:20 32:0 33:20 34:40 35:0 36:0 37:0 38:20 39:20 40:20 41:30 42:56 
1.239494967245262 1:0 2:0 3:0 4:0 5:100 6:-100 7:0 8:0 9:0 10:0 11:0 12:0 13:0 14:0 15:0 16:0 17:0 18:0 19:0 20:0 21:60 22:60 23:0 24:0 25:0 26:20 27:0 28:20 29:20 30:0 31:20 32:0 33:0 34:20 35:0 36:20 37:20 38:40 39:0 40:0 41:55 42:4 
0.1326314826333197 1:100 2:-100 3:0 4:0 5:0 6:0 7:0 8:0 9:0 10:0 11:0 12:0 13:0 14:0 15:0 16:0 17:0 18:0 19:0 20:0 21:60 22:0 23:60 24:20 25:0 26:0 27:0 28:20 29:20 30:40 31:0 32:40 33:0 34:0 35:0 36:20 37:20 38:40 39:0 40:20 41:45 42:46 
1.884470860112742 1:0 2:0 3:0 4:0 5:0 6:0 7:0 8:0 9:100 10:0 11:0 12:0 13:0 14:0 15:0 16:0 17:0 18:0 19:0 20:-100 21:40 22:0 23:0 24:0 25:40 26:0 27:20 28:40 29:0 30:40 31:60 32:0 33:0 34:0 35:20 36:0 37:40 38:20 39:20 40:20 41:50 42:52 
0.7410606425559496 1:0 2:0 3:0 4:0 5:0 6:0 7:0 8:0 9:100 10:0 11:0 12:0 13:0 14:0 15:0 16:0 17:0 18:0 19:0 20:-100 21:40 22:0 23:0 24:0 25:40 26:0 27:20 28:40 29:0 30:40 31:60 32:0 33:0 34:0 35:20 36:0 37:40 38:20 39:20 40:20 41:50 42:52 
0.5522578750367597 1:0 2:-100 3:100 4:0 5:0 6:0 7:0 8:0 9:0 10:0 11:0 12:0 13:0 14:0 15:0 16:0 17:0 18:0 19:0 20:0 21:0 22:20 23:0 24:20 25:40 26:0 27:0 28:0 29:40 30:0 31:20 32:20 33:0 34:20 35:20 36:80 37:0 38:60 39:0 40:20 41:78 42:76 
1.000058872611171 1:0 2:0 3:0 4:0 5:0 6:0 7:0 8:0 9:0 10:0 11:100 12:0 13:0 14:0 15:0 16:0 17:0 18:0 19:0 20:-100 21:60 22:0 23:0 24:0 25:20 26:0 27:20 28:60 29:20 30:20 31:40 32:0 33:0 34:0 35:20 36:0 37:20 38:20 39:60 40:0 41:50 42:15 
0.01586924352557782 1:0 2:0 3:0 4:0 5:0 6:0 7:0 8:0 9:0 10:0 11:100 12:0 13:0 14:0 15:0 16:0 17:0 18:0 19:0 20:-100 21:60 22:0 23:0 24:0 25:20 26:0 27:20 28:60 29:20 30:20 31:40 32:0 33:0 34:0 35:20 36:0 37:20 38:20 39:60 40:0 41:50 42:15 
2 1:0 2:0 3:0 4:0 5:0 6:0 7:0 8:-100 9:100 10:0 11:0 12:0 13:0 14:0 15:0 16:0 17:0 18:0 19:0 20:0 21:40 22:40 23:20 24:0 25:0 26:0 27:0 28:0 29:60 30:20 31:0 32:0 33:0 34:0 35:40 36:40 37:20 38:0 39:40 40:40 41:14 42:41 
0.5051645890833841 1:100 2:0 3:-100 4:0 5:0 6:0 7:0 8:0 9:0 10:0 11:0 12:0 13:0 14:0 15:0 16:0 17:0 18:0 19:0 20:0 21:60 22:0 23:0 24:0 25:0 26:40 27:0 28:20 29:40 30:20 31:0 32:0 33:0 34:0 35:100 36:20 37:20 38:0 39:20 40:20 41:19 42:49 
0.0777503650794551 1:100 2:0 3:-100 4:0 5:0 6:0 7:0 8:0 9:0 10:0 11:0 12:0 13:0 14:0 15:0 16:0 17:0 18:0 19:0 20:0 21:60 22:0 23:0 24:0 25:0 26:40 27:0 28:20 29:40 30:20 31:0 32:0 33:0 34:0 35:100 36:20 37:20 38:0 39:20 40:20 41:19 42:64 
1.274898466389617 1:0 2:100 3:0 4:-100 5:0 6:0 7:0 8:0 9:0 10:0 11:0 12:0 13:0 14:0 15:0 16:0 17:0 18:0 19:0 20:0 21:0 22:60 23:40 24:20 25:20 26:0 27:0 28:20 29:0 30:0 31:0 32:0 33:0 34:0 35:40 36:0 37:0 38:40 39:20 40:20 41:21 42:47 
2 1:100 2:0 3:0 4:0 5:0 6:0 7:0 8:0 9:0 10:0 11:0 12:-100 13:0 14:0 15:0 16:0 17:0 18:0 19:0 20:0 21:20 22:0 23:40 24:0 25:20 26:0 27:0 28:20 29:0 30:0 31:0 32:120 33:0 34:20 35:0 36:40 37:20 38:20 39:40 40:0 41:50 42:25 
2 1:0 2:0 3:0 4:0 5:100 6:0 7:-100 8:0 9:0 10:0 11:0 12:0 13:0 14:0 15:0 16:0 17:0 18:0 19:0 20:0 21:20 22:20 23:20 24:0 25:40 26:20 27:20 28:20 29:0 30:40 31:100 32:0 33:0 34:0 35:0 36:0 37:0 38:20 39:0 40:40 41:50 42:50 
2 1:0 2:0 3:0 4:0 5:0 6:0 7:0 8:0 9:0 10:0 11:0 12:0 13:0 14:0 15:0 16:100 17:0 18:0 19:0 20:-100 21:0 22:60 23:20 24:0 25:0 26:40 27:20 28:40 29:0 30:0 31:40 32:20 33:0 34:0 35:0 36:0 37:20 38:60 39:20 40:20 41:50 42:44 
0.9422938002306819 1:0 2:0 3:0 4:0 5:-100 6:0 7:0 8:0 9:100 10:0 11:0 12:0 13:0 14:0 15:0 16:0 17:0 18:0 19:0 20:0 21:20 22:0 23:0 24:0 25:0 26:0 27:0 28:0 29:60 30:0 31:20 32:0 33:0 34:20 35:0 36:40 37:20 38:60 39:0 40:20 41:37 42:5 
1.583059301540014 1:0 2:0 3:0 4:0 5:0 6:0 7:0 8:0 9:0 10:0 11:0 12:0 13:0 14:0 15:0 16:0 17:0 18:-100 19:100 20:0 21:20 22:60 23:0 24:0 25:0 26:0 27:40 28:40 29:0 30:20 31:20 32:0 33:20 34:0 35:20 36:20 37:40 38:0 39:40 40:20 41:50 42:25 
0.9862630193224693 1:0 2:0 3:0 4:0 5:0 6:0 7:0 8:0 9:100 10:0 11:0 12:0 13:0 14:0 15:-100 16:0 17:0 18:0 19:0 20:0 21:20 22:40 23:0 24:20 25:20 26:20 27:0 28:40 29:20 30:0 31:20 32:20 33:0 34:0 35:20 36:20 37:40 38:20 39:20 40:20 41:21 42:51 
2 1:0 2:0 3:0 4:0 5:0 6:0 7:0 8:0 9:0 10:0 11:100 12:0 13:0 14:0 15:0 16:0 17:0 18:0 19:-100 20:0 21:20 22:0 23:0 24:0 25:40 26:0 27:60 28:20 29:0 30:20 31:80 32:0 33:0 34:20 35:0 36:20 37:0 38:20 39:40 40:20 41:50 42:50 
2 1:0 2:0 3:0 4:0 5:100 6:0 7:0 8:-100 9:0 10:0 11:0 12:0 13:0 14:0 15:0 16:0 17:0 18:0 19:0 20:0 21:0 22:60 23:40 24:0 25:0 26:0 27:40 28:40 29:0 30:20 31:40 32:60 33:0 34:20 35:0 36:20 37:0 38:20 39:0 40:0 41:38 42:66 
2 1:0 2:0 3:0 4:0 5:0 6:0 7:0 8:0 9:100 10:0 11:0 12:0 13:0 14:0 15:0 16:0 17:0 18:0 19:-100 20:0 21:20 22:0 23:0 24:0 25:40 26:0 27:60 28:20 29:0 30:20 31:80 32:0 33:0 34:20 35:0 36:20 37:0 38:20 39:40 40:20 41:50 42:50 
1.154898739402811 1:0 2:0 3:0 4:0 5:0 6:0 7:0 8:0 9:100 10:0 11:0 12:0 13:0 14:0 15:0 16:0 17:0 18:0 19:-100 20:0 21:20 22:0 23:0 24:0 25:40 26:0 27:60 28:20 29:0 30:20 31:80 32:0 33:0 34:20 35:0 36:20 37:0 38:20 39:40 40:20 41:50 42:50 
2 1:0 2:0 3:0 4:0 5:0 6:0 7:0 8:0 9:0 10:0 11:0 12:-100 13:0 14:0 15:100 16:0 17:0 18:0 19:0 20:0 21:20 22:40 23:20 24:0 25:20 26:0 27:60 28:20 29:20 30:20 31:0 32:0 33:0 34:20 35:0 36:20 37:20 38:0 39:20 40:60 41:45 42:25 
2 1:0 2:0 3:0 4:0 5:0 6:0 7:0 8:0 9:0 10:0 11:0 12:0 13:0 14:0 15:0 16:0 17:0 18:0 19:-100 20:100 21:20 22:0 23:0 24:0 25:40 26:0 27:60 28:20 29:0 30:20 31:80 32:0 33:0 34:20 35:0 36:20 37:0 38:20 39:40 40:20 41:50 42:50 
1.243582264095561 1:0 2:0 3:0 4:0 5:0 6:0 7:0 8:0 9:-100 10:0 11:100 12:0 13:0 14:0 15:0 16:0 17:0 18:0 19:0 20:0 21:40 22:20 23:40 24:0 25:0 26:0 27:0 28:0 29:20 30:20 31:0 32:0 33:20 34:0 35:20 36:40 37:0 38:0 39:20 40:120 41:32 42:66 
2 1:0 2:100 3:-100 4:0 5:0 6:0 7:0 8:0 9:0 10:0 11:0 12:0 13:0 14:0 15:0 16:0 17:0 18:0 19:0 20:0 21:0 22:0 23:20 24:0 25:20 26:20 27:40 28:40 29:20 30:0 31:40 32:20 33:20 34:0 35:40 36:0 37:20 38:0 39:20 40:40 41:19 42:64 
1.312383361938275 1:0 2:0 3:0 4:0 5:0 6:0 7:0 8:0 9:0 10:0 11:0 12:0 13:0 14:100 15:0 16:0 17:0 18:0 19:-100 20:0 21:0 22:60 23:20 24:0 25:0 26:0 27:0 28:20 29:20 30:40 31:80 32:20 33:40 34:0 35:40 36:0 37:0 38:0 39:20 40:0 41:45 42:74 
1.344434493375275 1:0 2:0 3:0 4:0 5:0 6:0 7:0 8:100 9:0 10:0 11:0 12:0 13:0 14:0 15:0 16:0 17:-100 18:0 19:0 20:0 21:80 22:60 23:0 24:0 25:0 26:40 27:0 28:20 29:20 30:0 31:20 32:0 33:0 34:20 35:0 36:20 37:0 38:40 39:0 40:0 41:30 42:4 
0.006366148267532049 1:0 2:0 3:0 4:0 5:0 6:0 7:0 8:100 9:0 10:0 11:0 12:0 13:0 14:0 15:0 16:0 17:-100 18:0 19:0 20:0 21:80 22:60 23:0 24:0 25:0 26:40 27:0 28:20 29:20 30:0 31:20 32:0 33:0 34:20 35:0 36:20 37:0 38:40 39:0 40:0 41:30 42:4 
1.012263109624848 1:-100 2:0 3:0 4:0 5:0 6:0 7:0 8:0 9:100 10:0 11:0 12:0 13:0 14:0 15:0 16:0 17:0 18:0 19:0 20:0 21:20 22:40 23:0 24:0 25:0 26:20 27:0 28:40 29:80 30:0 31:40 32:0 33:0 34:0 35:0 36:40 37:20 38:20 39:20 40:20 41:45 42:25 
1.958287613835199 1:100 2:0 3:-100 4:0 5:0 6:0 7:0 8:0 9:0 10:0 11:0 12:0 13:0 14:0 15:0 16:0 17:0 18:0 19:0 20:0 21:60 22:40 23:60 24:0 25:0 26:0 27:0 28:20 29:20 30:40 31:0 32:20 33:0 34:0 35:0 36:20 37:40 38:20 39:0 40:20 41:45 42:46 
2 1:0 2:0 3:0 4:0 5:0 6:0 7:0 8:0 9:0 10:0 11:0 12:0 13:0 14:0 15:0 16:0 17:100 18:-100 19:0 20:0 21:60 22:40 23:20 24:0 25:0 26:0 27:0 28:20 29:20 30:20 31:20 32:0 33:0 34:0 35:0 36:80 37:20 38:40 39:0 40:20 41:44 42:25 
0.7208352816007698 1:0 2:0 3:0 4:0 5:0 6:0 7:0 8:0 9:0 10:0 11:0 12:0 13:0 14:0 15:0 16:0 17:0 18:-100 19:0 20:100 21:60 22:40 23:20 24:0 25:0 26:0 27:0 28:20 29:20 30:20 31:20 32:0 33:0 34:0 35:0 36:80 37:20 38:40 39:0 40:20 41:44 42:25 
0.6529156762543619 1:0 2:0 3:0 4:0 5:100 6:-100 7:0 8:0 9:0 10:0 11:0 12:0 13:0 14:0 15:0 16:0 17:0 18:0 19:0 20:0 21:0 22:20 23:20 24:0 25:0 26:0 27:40 28:0 29:40 30:0 31:80 32:0 33:0 34:0 35:0 36:40 37:20 38:40 39:20 40:40 41:50 42:52 
0.2475714073239805 1:0 2:0 3:0 4:0 5:0 6:100 7:0 8:0 9:-100 10:0 11:0 12:0 13:0 14:0 15:0 16:0 17:0 18:0 19:0 20:0 21:20 22:20 23:20 24:0 25:0 26:20 27:20 28:40 29:40 30:0 31:40 32:20 33:0 34:0 35:0 36:40 37:20 38:20 39:40 40:0 41:45 42:25 
1.371306389611941 1:0 2:0 3:0 4:0 5:0 6:0 7:0 8:0 9:-100 10:0 11:0 12:0 13:100 14:0 15:0 16:0 17:0 18:0 19:0 20:0 21:20 22:20 23:20 24:0 25:0 26:20 27:20 28:40 29:40 30:0 31:40 32:20 33:0 34:0 35:0 36:40 37:20 38:20 39:40 40:0 41:45 42:25 
1.971890781565224 1:0 2:0 3:0 4:0 5:100 6:0 7:0 8:0 9:-100 10:0 11:0 12:0 13:0 14:0 15:0 16:0 17:0 18:0 19:0 20:0 21:20 22:20 23:20 24:0 25:0 26:20 27:20 28:40 29:40 30:0 31:40 32:20 33:0 34:0 35:0 36:40 37:20 38:20 39:40 40:0 41:45 42:25 
2 1:0 2:0 3:100 4:0 5:0 6:0 7:0 8:0 9:-100 10:0 11:0 12:0 13:0 14:0 15:0 16:0 17:0 18:0 19:0 20:0 21:20 22:20 23:20 24:0 25:0 26:20 27:20 28:40 29:40 30:0 31:40 32:20 33:0 34:0 35:0 36:40 37:20 38:20 39:40 40:0 41:45 42:25 
0.3203252556939629 1:0 2:0 3:0 4:100 5:0 6:0 7:0 8:0 9:-100 10:0 11:0 12:0 13:0 14:0 15:0 16:0 17:0 18:0 19:0 20:0 21:20 22:20 23:20 24:0 25:0 26:20 27:20 28:40 29:40 30:0 31:40 32:20 33:0 34:0 35:0 36:40 37:20 38:20 39:40 40:0 41:45 42:25 
1.871607582787593 1:0 2:100 3:0 4:0 5:0 6:0 7:0 8:0 9:-100 10:0 11:0 12:0 13:0 14:0 15:0 16:0 17:0 18:0 19:0 20:0 21:20 22:20 23:20 24:0 25:0 26:20 27:20 28:40 29:40 30:0 31:40 32:20 33:0 34:0 35:0 36:40 37:20 38:20 39:40 40:0 41:45 42:25 
2 1:0 2:0 3:0 4:0 5:100 6:0 7:0 8:0 9:0 10:0 11:0 12:0 13:0 14:0 15:0 16:0 17:0 18:0 19:0 20:-100 21:0 22:80 23:20 24:0 25:0 26:0 27:0 28:0 29:40 30:0 31:0 32:20 33:20 34:0 35:0 36:20 37:20 38:80 39:20 40:40 41:50 42:69 
2 1:0 2:0 3:100 4:0 5:0 6:0 7:0 8:0 9:0 10:0 11:0 12:0 13:0 14:0 15:0 16:0 17:0 18:0 19:0 20:-100 21:0 22:80 23:20 24:0 25:0 26:0 27:0 28:0 29:40 30:0 31:0 32:20 33:20 34:0 35:0 36:20 37:20 38:80 39:20 40:40 41:50 42:69 
2 1:0 2:100 3:0 4:0 5:0 6:0 7:0 8:0 9:0 10:0 11:0 12:0 13:0 14:0 15:0 16:0 17:0 18:0 19:0 20:-100 21:0 22:80 23:20 24:0 25:0 26:0 27:0 28:0 29:40 30:0 31:0 32:20 33:20 34:0 35:0 36:20 37:20 38:80 39:20 40:40 41:50 42:69 
2 1:0 2:0 3:0 4:0 5:0 6:0 7:0 8:0 9:0 10:100 11:0 12:0 13:0 14:0 15:0 16:0 17:0 18:0 19:0 20:-100 21:0 22:80 23:20 24:0 25:0 26:0 27:0 28:0 29:40 30:0 31:0 32:20 33:20 34:0 35:0 36:20 37:20 38:80 39:20 40:40 41:50 42:69 
2 1:100 2:0 3:0 4:0 5:0 6:0 7:0 8:0 9:0 10:0 11:0 12:0 13:0 14:0 15:0 16:0 17:0 18:0 19:0 20:-100 21:0 22:80 23:20 24:0 25:0 26:0 27:0 28:0 29:40 30:0 31:0 32:20 33:20 34:0 35:0 36:20 37:20 38:80 39:20 40:40 41:50 42:69 
2 1:0 2:0 3:0 4:0 5:0 6:100 7:0 8:0 9:0 10:0 11:0 12:0 13:0 14:0 15:0 16:0 17:0 18:0 19:0 20:-100 21:0 22:80 23:20 24:0 25:0 26:0 27:0 28:0 29:40 30:0 31:0 32:20 33:20 34:0 35:0 36:20 37:20 38:80 39:20 40:40 41:50 42:69 
2 1:0 2:0 3:0 4:0 5:0 6:0 7:0 8:0 9:0 10:0 11:0 12:0 13:0 14:0 15:0 16:0 17:0 18:0 19:-100 20:100 21:20 22:60 23:0 24:0 25:0 26:0 27:0 28:0 29:80 30:0 31:20 32:0 33:0 34:0 35:40 36:40 37:20 38:20 39:0 40:60 41:53 42:25 
2 1:0 2:0 3:0 4:0 5:0 6:0 7:0 8:0 9:0 10:0 11:0 12:0 13:0 14:0 15:0 16:100 17:0 18:0 19:0 20:-100 21:20 22:20 23:0 24:0 25:20 26:20 27:40 28:40 29:20 30:0 31:40 32:20 33:0 34:0 35:20 36:20 37:0 38:0 39:40 40:40 41:50 42:44 
1.272876981775091 1:0 2:0 3:0 4:0 5:0 6:0 7:0 8:0 9:0 10:0 11:0 12:0 13:0 14:0 15:0 16:100 17:0 18:0 19:0 20:-100 21:20 22:20 23:0 24:0 25:20 26:20 27:40 28:40 29:20 30:0 31:40 32:20 33:0 34:0 35:20 36:20 37:0 38:0 39:40 40:40 41:50 42:44 
0.4578411758734918 1:0 2:0 3:0 4:0 5:0 6:0 7:0 8:0 9:100 10:0 11:0 12:-100 13:0 14:0 15:0 16:0 17:0 18:0 19:0 20:0 21:0 22:40 23:40 24:0 25:20 26:0 27:0 28:20 29:40 30:0 31:20 32:20 33:60 34:40 35:0 36:0 37:20 38:40 39:0 40:0 41:60 42:37 
2 1:0 2:0 3:0 4:0 5:0 6:0 7:0 8:0 9:0 10:0 11:0 12:-100 13:0 14:0 15:0 16:0 17:0 18:0 19:0 20:100 21:40 22:20 23:20 24:40 25:40 26:0 27:0 28:60 29:20 30:0 31:20 32:20 33:0 34:0 35:0 36:0 37:20 38:20 39:40 40:0 41:14 42:39 
0.8015856769618247 1:0 2:100 3:-100 4:0 5:0 6:0 7:0 8:0 9:0 10:0 11:0 12:0 13:0 14:0 15:0 16:0 17:0 18:0 19:0 20:0 21:20 22:40 23:20 24:0 25:20 26:0 27:0 28:40 29:40 30:20 31:20 32:0 33:0 34:40 35:20 36:20 37:20 38:0 39:0 40:40 41:78 42:76 
1.681034987312721 1:100 2:0 3:0 4:0 5:-100 6:0 7:0 8:0 9:0 10:0 11:0 12:0 13:0 14:0 15:0 16:0 17:0 18:0 19:0 20:0 21:40 22:60 23:0 24:20 25:20 26:0 27:20 28:60 29:0 30:0 31:60 32:20 33:0 34:20 35:0 36:20 37:20 38:0 39:0 40:0 41:50 42:25 
0.8446508501162369 1:0 2:-100 3:0 4:0 5:0 6:0 7:0 8:0 9:100 10:0 11:0 12:0 13:0 14:0 15:0 16:0 17:0 18:0 19:0 20:0 21:0 22:0 23:20 24:0 25:0 26:0 27:40 28:40 29:40 30:0 31:0 32:0 33:0 34:0 35:0 36:60 37:20 38:20 39:0 40:20 41:68 42:82 
0.3222358090631536 1:0 2:100 3:0 4:0 5:-100 6:0 7:0 8:0 9:0 10:0 11:0 12:0 13:0 14:0 15:0 16:0 17:0 18:0 19:0 20:0 21:40 22:60 23:0 24:20 25:20 26:0 27:20 28:60 29:0 30:0 31:60 32:20 33:0 34:20 35:0 36:20 37:20 38:0 39:0 40:0 41:50 42:25 
0.2151555506446028 1:-100 2:0 3:0 4:0 5:0 6:0 7:0 8:0 9:100 10:0 11:0 12:0 13:0 14:0 15:0 16:0 17:0 18:0 19:0 20:0 21:0 22:20 23:0 24:0 25:20 26:0 27:0 28:0 29:80 30:20 31:0 32:20 33:0 34:20 35:0 36:80 37:0 38:60 39:0 40:40 41:37 42:5 
0.01079759880378235 1:0 2:0 3:0 4:0 5:0 6:0 7:0 8:0 9:-100 10:0 11:0 12:100 13:0 14:0 15:0 16:0 17:0 18:0 19:0 20:0 21:20 22:0 23:20 24:0 25:20 26:20 27:20 28:0 29:0 30:20 31:0 32:80 33:0 34:0 35:80 36:20 37:20 38:0 39:40 40:0 41:21 42:47 
2 1:0 2:0 3:0 4:0 5:0 6:0 7:0 8:0 9:-100 10:0 11:0 12:100 13:0 14:0 15:0 16:0 17:0 18:0 19:0 20:0 21:20 22:0 23:20 24:0 25:20 26:20 27:20 28:0 29:0 30:20 31:0 32:80 33:0 34:0 35:80 36:20 37:20 38:0 39:40 40:0 41:46 42:70 
2 1:0 2:0 3:0 4:0 5:0 6:0 7:0 8:0 9:-100 10:100 11:0 12:0 13:0 14:0 15:0 16:0 17:0 18:0 19:0 20:0 21:0 22:0 23:20 24:0 25:80 26:0 27:0 28:20 29:60 30:0 31:20 32:20 33:0 34:20 35:0 36:80 37:0 38:0 39:0 40:40 41:52 42:45 
2 1:0 2:0 3:0 4:0 5:0 6:0 7:0 8:0 9:0 10:0 11:0 12:0 13:0 14:0 15:0 16:0 17:0 18:0 19:100 20:-100 21:80 22:0 23:20 24:0 25:0 26:20 27:0 28:20 29:80 30:20 31:0 32:0 33:20 34:0 35:60 36:20 37:20 38:0 39:0 40:0 41:28 42:65 
0.7974061336047015 1:0 2:0 3:0 4:-100 5:0 6:0 7:0 8:0 9:0 10:0 11:0 12:100 13:0 14:0 15:0 16:0 17:0 18:0 19:0 20:0 21:40 22:0 23:20 24:0 25:0 26:40 27:0 28:40 29:40 30:0 31:20 32:0 33:0 34:0 35:40 36:40 37:0 38:0 39:60 40:20 41:67 42:20 
2 1:0 2:0 3:0 4:0 5:0 6:0 7:0 8:0 9:0 10:0 11:0 12:0 13:0 14:0 15:0 16:0 17:0 18:0 19:-100 20:100 21:40 22:40 23:0 24:0 25:0 26:20 27:0 28:60 29:80 30:20 31:40 32:0 33:0 34:0 35:0 36:40 37:0 38:0 39:0 40:20 41:45 42:25 
0.6588469636155201 1:0 2:0 3:0 4:0 5:0 6:0 7:0 8:0 9:-100 10:0 11:100 12:0 13:0 14:0 15:0 16:0 17:0 18:0 19:0 20:0 21:0 22:0 23:0 24:20 25:20 26:0 27:0 28:0 29:40 30:0 31:0 32:20 33:0 34:20 35:20 36:40 37:20 38:40 39:0 40:0 41:50 42:61 
2 1:0 2:0 3:0 4:0 5:0 6:0 7:0 8:0 9:-100 10:0 11:100 12:0 13:0 14:0 15:0 16:0 17:0 18:0 19:0 20:0 21:0 22:0 23:0 24:20 25:20 26:0 27:0 28:0 29:40 30:0 31:0 32:20 33:0 34:20 35:20 36:40 37:20 38:40 39:0 40:0 41:50 42:62 
0.02191926258070922 1:0 2:0 3:0 4:0 5:0 6:0 7:0 8:0 9:-100 10:0 11:100 12:0 13:0 14:0 15:0 16:0 17:0 18:0 19:0 20:0 21:0 22:0 23:0 24:20 25:20 26:0 27:0 28:0 29:40 30:0 31:0 32:20 33:0 34:20 35:20 36:40 37:20 38:40 39:0 40:0 41:50 42:61 
1.950738649507059 1:0 2:0 3:0 4:0 5:0 6:0 7:0 8:0 9:0 10:0 11:0 12:0 13:0 14:0 15:0 16:0 17:100 18:-100 19:0 20:0 21:20 22:0 23:20 24:0 25:0 26:0 27:80 28:40 29:20 30:40 31:20 32:60 33:0 34:20 35:20 36:0 37:20 38:0 39:0 40:0 41:39 42:55 
1.717654642397468 1:0 2:0 3:0 4:0 5:0 6:0 7:-100 8:0 9:100 10:0 11:0 12:0 13:0 14:0 15:0 16:0 17:0 18:0 19:0 20:0 21:0 22:0 23:20 24:0 25:0 26:0 27:20 28:20 29:40 30:20 31:40 32:40 33:20 34:20 35:0 36:60 37:20 38:0 39:40 40:0 41:35 42:63 
2 1:0 2:0 3:-100 4:0 5:0 6:0 7:0 8:0 9:0 10:0 11:0 12:100 13:0 14:0 15:0 16:0 17:0 18:0 19:0 20:0 21:20 22:20 23:20 24:0 25:20 26:0 27:0 28:40 29:40 30:0 31:0 32:20 33:20 34:0 35:20 36:40 37:0 38:40 39:40 40:20 41:38 42:59 
2 1:0 2:100 3:0 4:0 5:-100 6:0 7:0 8:0 9:0 10:0 11:0 12:0 13:0 14:0 15:0 16:0 17:0 18:0 19:0 20:0 21:20 22:40 23:0 24:0 25:0 26:0 27:40 28:40 29:0 30:20 31:0 32:20 33:0 34:40 35:0 36:40 37:0 38:80 39:0 40:20 41:50 42:66 
0.7757502262682512 1:0 2:0 3:0 4:0 5:-100 6:0 7:0 8:0 9:0 10:0 11:0 12:0 13:0 14:100 15:0 16:0 17:0 18:0 19:0 20:0 21:20 22:40 23:0 24:0 25:0 26:0 27:40 28:40 29:0 30:20 31:0 32:20 33:0 34:40 35:0 36:40 37:0 38:80 39:0 40:20 41:50 42:66 
2 1:0 2:0 3:0 4:0 5:0 6:0 7:0 8:0 9:100 10:0 11:0 12:0 13:0 14:0 15:0 16:-100 17:0 18:0 19:0 20:0 21:0 22:40 23:20 24:0 25:0 26:0 27:0 28:20 29:60 30:20 31:60 32:20 33:0 34:0 35:20 36:40 37:0 38:20 39:20 40:20 41:47 42:62 
0.3628545573372565 1:0 2:0 3:0 4:0 5:0 6:0 7:0 8:0 9:100 10:0 11:0 12:0 13:0 14:0 15:0 16:-100 17:0 18:0 19:0 20:0 21:0 22:40 23:20 24:0 25:0 26:0 27:0 28:20 29:60 30:20 31:60 32:20 33:0 34:0 35:20 36:40 37:0 38:20 39:20 40:20 41:21 42:51 
2 1:0 2:0 3:0 4:0 5:0 6:0 7:0 8:0 9:0 10:0 11:0 12:0 13:0 14:0 15:0 16:0 17:0 18:0 19:100 20:-100 21:40 22:0 23:0 24:0 25:0 26:20 27:20 28:40 29:20 30:0 31:0 32:0 33:40 34:0 35:80 36:0 37:60 38:0 39:40 40:0 41:28 42:65 
1.480314788878399 1:0 2:0 3:0 4:0 5:0 6:0 7:0 8:0 9:0 10:0 11:0 12:0 13:100 14:0 15:0 16:0 17:0 18:-100 19:0 20:0 21:60 22:80 23:20 24:0 25:0 26:0 27:40 28:20 29:0 30:20 31:0 32:20 33:20 34:0 35:0 36:20 37:20 38:0 39:20 40:20 41:50 42:25 
2 1:-100 2:0 3:100 4:0 5:0 6:0 7:0 8:0 9:0 10:0 11:0 12:0 13:0 14:0 15:0 16:0 17:0 18:0 19:0 20:0 21:20 22:0 23:60 24:20 25:0 26:0 27:0 28:80 29:60 30:20 31:0 32:0 33:20 34:0 35:0 36:0 37:0 38:40 39:0 40:40 41:51 42:20 
0.6753291690908013 1:0 2:0 3:0 4:0 5:0 6:0 7:0 8:0 9:0 10:0 11:0 12:100 13:0 14:0 15:0 16:0 17:0 18:-100 19:0 20:0 21:60 22:80 23:20 24:0 25:0 26:0 27:40 28:20 29:0 30:20 31:0 32:20 33:20 34:0 35:0 36:20 37:20 38:0 39:20 40:20 41:50 42:25 
2 1:0 2:0 3:0 4:0 5:0 6:0 7:0 8:100 9:0 10:0 11:0 12:0 13:0 14:-100 15:0 16:0 17:0 18:0 19:0 20:0 21:20 22:40 23:0 24:40 25:20 26:20 27:20 28:60 29:20 30:0 31:40 32:0 33:20 34:0 35:0 36:20 37:0 38:0 39:20 40:20 41:32 42:66 
0.5878295246671281 1:0 2:0 3:0 4:0 5:100 6:-100 7:0 8:0 9:0 10:0 11:0 12:0 13:0 14:0 15:0 16:0 17:0 18:0 19:0 20:0 21:0 22:20 23:20 24:0 25:0 26:0 27:0 28:0 29:20 30:0 31:20 32:0 33:0 34:0 35:0 36:60 37:20 38:20 39:20 40:0 41:50 42:20 
1.298324081706909 1:0 2:100 3:0 4:0 5:0 6:-100 7:0 8:0 9:0 10:0 11:0 12:0 13:0 14:0 15:0 16:0 17:0 18:0 19:0 20:0 21:0 22:20 23:20 24:0 25:0 26:0 27:0 28:0 29:20 30:0 31:20 32:0 33:0 34:0 35:0 36:60 37:20 38:20 39:20 40:0 41:50 42:20 
2 1:0 2:0 3:0 4:0 5:0 6:0 7:0 8:0 9:100 10:0 11:0 12:0 13:0 14:0 15:0 16:0 17:0 18:0 19:-100 20:0 21:0 22:40 23:20 24:0 25:0 26:0 27:40 28:0 29:40 30:20 31:20 32:40 33:0 34:20 35:0 36:40 37:40 38:20 39:0 40:20 41:45 42:25 
0.332468587152878 1:0 2:0 3:0 4:0 5:0 6:0 7:0 8:100 9:-100 10:0 11:0 12:0 13:0 14:0 15:0 16:0 17:0 18:0 19:0 20:0 21:40 22:20 23:20 24:0 25:40 26:0 27:20 28:80 29:0 30:0 31:0 32:20 33:0 34:0 35:0 36:20 37:20 38:0 39:20 40:60 41:50 42:44 
1.517672677705633 1:0 2:0 3:0 4:0 5:0 6:0 7:0 8:0 9:0 10:0 11:100 12:0 13:0 14:0 15:0 16:0 17:0 18:0 19:0 20:-100 21:40 22:20 23:20 24:0 25:20 26:0 27:40 28:20 29:20 30:0 31:0 32:40 33:0 34:0 35:0 36:0 37:20 38:0 39:20 40:20 41:45 42:25 
0.7843899436691796 1:0 2:0 3:0 4:0 5:0 6:0 7:0 8:0 9:100 10:0 11:0 12:0 13:0 14:0 15:0 16:0 17:0 18:0 19:0 20:-100 21:40 22:20 23:20 24:0 25:20 26:0 27:40 28:20 29:20 30:0 31:0 32:40 33:0 34:0 35:0 36:0 37:20 38:0 39:20 40:20 41:45 42:25 
2 1:0 2:0 3:0 4:0 5:0 6:0 7:0 8:100 9:0 10:0 11:0 12:0 13:0 14:0 15:0 16:0 17:0 18:0 19:0 20:-100 21:40 22:20 23:20 24:0 25:20 26:0 27:40 28:20 29:20 30:0 31:0 32:40 33:0 34:0 35:0 36:0 37:20 38:0 39:20 40:20 41:45 42:25 
2 1:0 2:0 3:0 4:0 5:100 6:-100 7:0 8:0 9:0 10:0 11:0 12:0 13:0 14:0 15:0 16:0 17:0 18:0 19:0 20:0 21:0 22:0 23:20 24:0 25:20 26:0 27:20 28:60 29:20 30:40 31:0 32:0 33:0 34:60 35:0 36:60 37:0 38:20 39:20 40:20 41:53 42:23 
0.4049305149107034 1:0 2:-100 3:0 4:0 5:0 6:0 7:0 8:0 9:0 10:0 11:0 12:0 13:0 14:0 15:100 16:0 17:0 18:0 19:0 20:0 21:20 22:40 23:0 24:0 25:0 26:0 27:60 28:40 29:0 30:20 31:20 32:0 33:20 34:0 35:0 36:20 37:20 38:40 39:40 40:20 41:50 42:25 
1.358528882066118 1:0 2:100 3:-100 4:0 5:0 6:0 7:0 8:0 9:0 10:0 11:0 12:0 13:0 14:0 15:0 16:0 17:0 18:0 19:0 20:0 21:0 22:20 23:40 24:0 25:20 26:0 27:0 28:20 29:0 30:40 31:20 32:0 33:0 34:0 35:20 36:60 37:60 38:20 39:0 40:40 41:21 42:50 
0.8698181407999452 1:0 2:0 3:0 4:0 5:0 6:0 7:0 8:-100 9:100 10:0 11:0 12:0 13:0 14:0 15:0 16:0 17:0 18:0 19:0 20:0 21:40 22:0 23:20 24:0 25:0 26:60 27:0 28:20 29:40 30:0 31:0 32:20 33:20 34:0 35:60 36:20 37:20 38:0 39:20 40:20 41:19 42:65 
0.1250450127811808 1:0 2:0 3:0 4:0 5:0 6:0 7:0 8:0 9:100 10:0 11:0 12:0 13:0 14:0 15:-100 16:0 17:0 18:0 19:0 20:0 21:0 22:20 23:0 24:0 25:20 26:0 27:20 28:0 29:0 30:60 31:0 32:0 33:20 34:0 35:0 36:0 37:0 38:20 39:0 40:20 41:50 42:39 
1.616496111221409 1:0 2:0 3:0 4:0 5:0 6:0 7:0 8:0 9:0 10:0 11:100 12:0 13:0 14:0 15:0 16:0 17:0 18:0 19:0 20:-100 21:40 22:40 23:20 24:0 25:20 26:0 27:40 28:20 29:20 30:20 31:0 32:40 33:0 34:20 35:0 36:20 37:20 38:0 39:20 40:20 41:45 42:25 
0.008579417463015195 1:0 2:0 3:0 4:0 5:0 6:0 7:0 8:100 9:0 10:0 11:0 12:0 13:0 14:0 15:0 16:0 17:0 18:0 19:0 20:-100 21:40 22:40 23:20 24:0 25:20 26:0 27:40 28:20 29:20 30:20 31:0 32:40 33:0 34:20 35:0 36:20 37:20 38:0 39:20 40:20 41:45 42:25 
0.01712065226345392 1:0 2:0 3:0 4:0 5:0 6:0 7:0 8:100 9:0 10:0 11:0 12:0 13:0 14:0 15:0 16:0 17:0 18:0 19:0 20:-100 21:40 22:40 23:20 24:0 25:20 26:0 27:40 28:20 29:20 30:20 31:0 32:40 33:0 34:20 35:0 36:20 37:20 38:0 39:20 40:20 41:45 42:25 
2 1:0 2:0 3:0 4:0 5:0 6:0 7:0 8:0 9:0 10:0 11:0 12:0 13:0 14:0 15:0 16:0 17:0 18:0 19:100 20:-100 21:20 22:40 23:20 24:20 25:20 26:0 27:0 28:60 29:0 30:40 31:20 32:20 33:20 34:0 35:0 36:20 37:20 38:20 39:20 40:0 41:21 42:50 
2 1:100 2:0 3:0 4:0 5:0 6:0 7:0 8:0 9:0 10:0 11:0 12:-100 13:0 14:0 15:0 16:0 17:0 18:0 19:0 20:0 21:0 22:60 23:20 24:0 25:0 26:0 27:0 28:20 29:60 30:60 31:40 32:20 33:0 34:0 35:0 36:0 37:0 38:20 39:20 40:40 41:50 42:48 
1.590813410523106 1:0 2:0 3:0 4:0 5:0 6:0 7:0 8:0 9:0 10:0 11:0 12:0 13:0 14:0 15:-100 16:100 17:0 18:0 19:0 20:0 21:0 22:60 23:40 24:20 25:0 26:0 27:20 28:40 29:0 30:0 31:0 32:20 33:0 34:0 35:20 36:40 37:0 38:60 39:0 40:40 41:38 42:65 
